solver_type L2R_L2LOSS_SVC_DUAL
nr_class 2
label 2 1
nr_feature 5506
bias -1
w
-0.0001573282046270887 
-0.004009270335130787 
0.002017191776694394 
-0.0006277981460248172 
-0.009747383634306996 
-6.85803699653873e-005 
-0.0009747383634306722 
-0.0006031154662664454 
0.0002974443630999546 
0.001728764542069211 
-0.0008006185225360101 
-0.0007380077638040438 
-0.004755095204477224 
-0.00120850295642009 
0.001571006824358955 
-0.003942450145968865 
-0.0006188206836331566 
0.0004585648398882794 
-0.0016970707294067 
-5.140531954680667e-005 
-0.0001164261277164911 
-9.023526464625544e-005 
0.0002118297699144895 
0.0002517139606112137 
0.0003771069480556355 
-0.000334060172713451 
-0.0002173772756554259 
0.0008136067082064028 
0.0001504206762617137 
-0.00040529406573677 
0.0005609992806315605 
0.0001127646801198401 
-0.0008486972188785628 
-0.0002639389220713317 
0.0005572409040690431 
-0.001791944507741176 
-0.0006191966858072483 
-0.00443411162262595 
-0.001473600565867339 
0.003032493316616514 
-0.0008704476442118227 
-0.0007687800869588634 
2.744359439969517e-005 
0.0003760909021693788 
9.181243197922936e-005 
-4.310294852941363e-005 
-0.0002499686251552292 
1.371826928042069e-005 
0.0005980826285733416 
0.0007643364880390593 
-0.0003165918337949775 
-0.0002741038073936894 
0.001075278515216568 
0.0004140798722747338 
-3.331974866514687e-005 
0.0003304156180295736 
9.751845214202922e-005 
-0.0007373603662629858 
-3.996447202249518e-006 
0.001863343739832001 
0.0007541961107820286 
0.0004611465282410121 
-0.00303005542380203 
-0.002746252078854795 
-0.0002466337978999271 
-0.001410412248520852 
0.0002082572219232306 
-0.001352353362163968 
7.134574476594479e-005 
0.0002775946364162182 
0.0001762407457802391 
-0.0005323088965243556 
-0.000334600659238819 
0.0006700970800122265 
0.001200828567241595 
-9.727586908608887e-005 
9.827230944120306e-005 
0.0009328354034415247 
0.0005227521451148653 
0.000820415738358535 
0.0001683342764128828 
3.770149646150721e-005 
-7.693749172111642e-005 
0.0002326508910104554 
0.0004116219064417139 
-0.001509433220101922 
0.001652821522403442 
-0.001795934801514471 
-0.002022578490411985 
0.001109293404448062 
0.0001679278192663597 
0.001038035520335156 
0.00119742001768512 
-0.000929199495409762 
0.0003161307754312118 
7.528473915654022e-005 
-0.0002933077370236618 
0.000192507718354624 
0.0006965464234247832 
0.001132338041553936 
0.0004559281058898743 
-0.0008086517147106692 
0.0002845379845445982 
0.000312872115462593 
0.00105414972047041 
-5.069128747630464e-005 
-0.0001337540177594757 
0.0003989734018955921 
0.0009303533931413257 
-0.000859967489678478 
-0.002614888070174984 
0.00147646558998077 
-7.003983584894721e-005 
-0.00142038800598245 
0.003023951057953899 
0.0002025409248721201 
0.001091526283050757 
0.003975655309225499 
-0.0002027505122351643 
0.000339689477861497 
-0.0001341042370671591 
-0.0002219503971827455 
0.000148069941816021 
-3.263846238203776e-006 
0.0004340947718248724 
0.0004492570331478255 
-0.0008087851120979117 
0.0005902977917263057 
0.0002221557437356966 
0.0007742172009896506 
7.636288148781849e-005 
-0.0001187550335189253 
0.0001637897481461646 
-0.0003546872399261154 
0.0004523658204770182 
0.0008551433660546151 
0.00235587654172412 
-0.0002524243379397981 
0.0001431075502919727 
-0.002646079422378384 
-0.0002542533531738614 
0.0003539369496192605 
0.002634194376476841 
0.0002596811402084601 
0.0001656643720508434 
-0.0003438665106991061 
3.338871821223736e-005 
0.0002108628566324578 
-0.0002019330321275238 
-0.0004489688200719091 
-0.0002961874062983284 
-0.0007857946255042778 
0.0006136227761697484 
-0.0002154146761018982 
-0.0001229234043859021 
0.0002643563203332573 
-4.865522596850441e-005 
0.0008407309101612778 
-0.0003808451622946274 
0.0007332290480660806 
0.0003122726789133669 
9.329302189014767e-005 
-0.001631343834241272 
-0.001582814005957539 
-0.002412869904524398 
0.001752159723045751 
0.001661084861341536 
0.001800349823035968 
-0.000141273308964106 
-2.622168349698864e-005 
-0.0003814466853322175 
0.0001233072753826639 
-1.266614037636993e-006 
-0.0001772713807508828 
-0.001170079553977881 
-0.0004634632737520368 
-9.988280696412405e-005 
0.000607301639522285 
-0.0002851864938985204 
-0.0002433961391895859 
0.0002345143267981578 
1.29512491129456e-005 
0.0005305092206784666 
-0.0008310825420003035 
-0.0002180228216671201 
-0.001918692587508151 
0.001334746243934844 
-0.003260139967392964 
-0.00342230798806771 
-0.0001012693420661567 
0.002461235207239386 
-0.0003238202513431738 
0.001670449345514184 
0.0003618463573653087 
-0.0001244057032969014 
-7.084421226714141e-006 
-0.0002913058890025875 
-0.00051202780698143 
-0.0003915176599086735 
-0.001072787984258647 
-0.0003727351932400359 
0.000941741427993643 
6.085597709768058e-005 
-7.729226736357809e-005 
7.696240896929535e-005 
0.0002544918870251482 
6.022451727885472e-005 
8.450599595506715e-005 
-0.0007386813974584271 
9.176840959963758e-005 
-0.001234302928428218 
0.00110066990901494 
-0.004416595547385649 
-0.00195500081828257 
0.001252126792860928 
0.001881301342505984 
4.478776525213505e-006 
0.003240539019394872 
0.0009187456410695927 
-0.0002665538746245111 
7.091785902166877e-005 
-0.0004128831702004103 
-8.665992172735469e-005 
2.577762071214902e-005 
6.053710840702788e-005 
0.0007881304639012727 
0.0003071299181622143 
-0.0006478279317747986 
0.000364895201991602 
0.0003121184689669616 
0.0003728039636111565 
-7.288774586150829e-005 
-8.012484170073002e-005 
-0.0002111890621902423 
-0.0006834297030085415 
-0.0009317132102465104 
-0.0001053987120392346 
-0.004223748805381647 
-0.001534477367891251 
0.0002301371611060139 
-1.453958835624872e-005 
0.0007957805519814293 
0.002298909538217907 
0.001002139012051831 
-0.0002218526779275176 
6.635169421493441e-005 
-0.0001168057598183302 
0.0004448484664781236 
-7.624731210391523e-005 
0.0005808410162482864 
0.001634269997727436 
-0.0004032371740276116 
-0.0006467437067926844 
0.001150478947248386 
0.0001671555931079655 
0.000135760296590448 
-0.0001625019002315842 
-0.0001867168999582566 
-0.0003362040337551788 
-0.001098489577989213 
-0.0006145124133378683 
0.0009422475258512996 
-0.0008468520544882011 
0.001413926955031534 
-0.001042925911252851 
-0.0002490878146742556 
0.002925767666534725 
0.003046719596705815 
0.001402593798306752 
-7.091076543140829e-005 
0.0003667337224147389 
-0.0001958803929789672 
0.0001028312918497845 
-0.0001330129309395693 
0.0006569254858598638 
0.001387621950889537 
-0.0004040747862451253 
-0.0002831671330339942 
0.0008114216801740323 
-0.0004183417395329898 
-0.0004006800161266653 
-0.0001923887892606554 
-0.0004431402511578927 
-0.0007005649636214055 
-0.0002069265198104731 
-4.341474336348456e-006 
0.00103271636894629 
-0.002140799651381496 
0.003064584918956947 
-0.0009699282964680357 
0.0002927181901904102 
0.003967928351817717 
0.002603151931110231 
0.0007987175851984581 
-8.685047960107726e-005 
0.0007488217866281728 
9.064621668724741e-005 
1.587030463230677e-005 
2.342886699843328e-005 
0.0003985493733741149 
0.0003276399368927298 
-0.0002405783729864762 
6.622091407823755e-005 
0.0006251936180000953 
-0.0002068345527803654 
-0.0005104809360811278 
-0.0001452760584110459 
-8.853972809609111e-005 
0.001339675768120903 
-0.001125881811842969 
-0.001183847625850704 
-0.0001334555391884194 
-0.002173429893774141 
0.00268357111779986 
-0.0001682163603560825 
0.000311840956546166 
0.002475506796171724 
0.0009967137013803936 
-0.0009829547926939423 
-0.0002158883307056359 
0.0008085354699641486 
0.0002545156161746345 
-0.0003383615381631855 
-0.0001065169557040267 
0.0002965935805040078 
-0.0009255587601718388 
8.85709854051961e-005 
8.453864871072532e-005 
7.821044749945835e-006 
-0.0004852959546799227 
-0.0002620964271851445 
7.849954881652069e-005 
-0.0005634651014234402 
0.002694973620819973 
-0.0002165085327651736 
-0.0005677026750870295 
0.0005496053005464294 
-0.001567712250939489 
-0.0005311005134140245 
-0.001410106917936552 
3.610066909172882e-005 
0.004146870496015094 
0.002289731093812347 
-0.0003574951359603784 
-0.0002288254007388395 
0.0003413858693690084 
0.0001424520949027146 
-0.0004964880515348632 
-0.0003955779308803128 
0.0002475050743356519 
-0.002039387877186142 
0.0004146476530243985 
-0.0001035113421075258 
-0.0003822781152154322 
-0.0004385782356465216 
0.0005711049311915435 
0.0002695580233383021 
-0.001205996723295811 
0.002008704028040736 
0.0001788809923431364 
-0.002024651640430515 
0.0006512355853297195 
0.0003495859240842901 
-0.001416016096495979 
-0.0003799873679032509 
0.0003019263309057952 
0.002875401298150841 
0.0007769477020327776 
0.0006702211860008977 
6.467173577474848e-005 
-0.0004978540647390238 
0.0002044703406699959 
-0.0001871258760613699 
-0.0006150823875510496 
-0.0001926332960244169 
-0.001847424511766694 
0.0004547928941709575 
0.0003070421076750289 
-0.0002344571513137954 
-0.0002452385182632283 
0.0006813537120314113 
0.0003557216533427859 
-0.001028541711216519 
0.000671855902842523 
-0.0001470501834602007 
-0.002066378309496084 
-0.001337505983992706 
-0.002164775194547022 
-0.005082564370138982 
0.001209193444435021 
-0.0002198845156406975 
0.001856587194549399 
0.0005201365399151735 
0.002827667957469809 
0.0003573258673567543 
-0.0007829823317557777 
0.0001446479778407181 
-0.0001976804471412792 
-0.0008695547164790792 
7.20070237264822e-005 
-0.001003978573520756 
0.0002484358555263637 
0.0007497599205289101 
-7.892556503469512e-005 
-0.000333294185245932 
2.053175868684013e-005 
0.0003115188312736317 
0.0004673532906638346 
-0.0001380330710477066 
-0.0001382494555706959 
-0.00137012446081448 
-0.002265308220713731 
-0.002838061764288266 
-0.004277824069048834 
0.0007960973127933799 
0.001975049109037851 
0.002448366702253225 
0.0006553168354219935 
0.0008312303231674469 
0.0004497622173468775 
-0.0007277209445996812 
4.904691963133191e-005 
0.0001050525459378415 
-0.0003196408627117858 
0.0002426673741697277 
-0.0005121763408537035 
-0.0002784503779999885 
0.0005719517153960174 
0.0002164680131967191 
0.0001544925857712336 
-0.0004584233923525116 
0.0001190443680597042 
0.000386489821492057 
-0.0001465693127508721 
0.0006652903606045203 
-0.001883362942121478 
-0.002339900777821052 
0.000386142274374986 
-0.004120091669254103 
-0.0007559692278074002 
0.002948339071512436 
0.003965762062372809 
0.0006840736187622362 
-0.0003353402591747117 
0.0002791954079934112 
-0.0002576328706852731 
-0.0001509128429525593 
4.009807401147494e-005 
0.0004944278188678394 
0.0005893562195254407 
0.0005864551734280559 
-0.0003733793103951903 
0.0004800779676999933 
0.0001153619851435636 
0.0003942487177750768 
-0.0007851414975061029 
2.250289672078164e-005 
0.0003353008414382844 
-0.001220690027244819 
1.794406660649887e-005 
-0.001590891906367104 
-0.0004457794432484019 
0.0002874587088535985 
-0.004458135324773895 
-0.0007896557591296616 
0.001577568524043678 
0.00290315838754636 
0.001467442340405187 
-4.0396151405077e-005 
6.047098152810505e-006 
4.611516829671321e-005 
-0.0003951327478179797 
-0.0003961682428246574 
0.0007066795692207849 
0.0006709688906627908 
0.0008435728648814896 
-0.0001152883291953904 
-0.000143313672519282 
-0.0005573918058037808 
-1.190714918751812e-005 
-0.0005844069030930904 
-1.476188910654663e-005 
0.0004334642012132108 
-7.497805818531003e-005 
-0.0009797084113336656 
-0.001755490434050084 
0.0002248677768112782 
-0.0007807562947766412 
-0.002060133064828139 
0.0001351764702634026 
0.002379233690885974 
0.002206009431102021 
0.002085308858294045 
-0.0006622331416214959 
0.0001084548589142707 
0.0002292033187669468 
-0.0003636872459450603 
-0.0004461443619713273 
0.0004169049979465026 
4.583797951157482e-005 
0.0006643389673433923 
-0.000141309942163227 
-1.329663771047889e-005 
-0.0004526857690479108 
-0.0001902117803155591 
-0.0002046892978858502 
-3.241417974471152e-005 
0.0004741040633475802 
5.674942244825523e-005 
-0.001291414778574411 
-0.003414902464416391 
-1.429035587618552e-005 
0.00110023216462256 
-0.001089932814693691 
-0.0002259240619338283 
0.001543019999986899 
0.0005412846088812729 
-0.0001048400644235598 
-0.001927362045418698 
0.0001348383311568125 
0.0003672124614353497 
-5.485323861312599e-005 
-0.0003731055853375032 
-4.687222038560315e-005 
0.0002212346749965451 
0.001021951453167838 
-0.0002290934927284652 
-0.0002026129136102824 
-0.00038039793326018 
-0.0002804372642054854 
9.321831811196804e-005 
7.090142155248235e-007 
0.0008593657997129439 
0.000360728020808641 
-0.0004984729587034916 
-0.003202083023803805 
-0.0004711189032547738 
0.0002089373698654969 
-0.002482498671416887 
-0.001744390318397117 
0.002899127370277784 
0.002883268436151372 
0.0005191608852271277 
-0.0004153065944188476 
8.853796078768836e-005 
0.0004532486786830614 
0.0005862534618830679 
-0.0001558637483976919 
0.0002498023755077635 
0.0004312955389243521 
0.0007553172271718057 
-0.0005937225148208559 
-0.0003874006652928552 
-0.0003451906112383762 
-0.0002992396812819141 
0.0002232538824564319 
-1.711748536401043e-005 
0.0007965405750131394 
0.0003975228907573875 
-0.0004969544697089491 
-0.002733129875073178 
-0.0003321481964309958 
0.0008987759122702355 
0.0008628109315024426 
-0.0009953411494640972 
0.0003045657375025152 
0.0006625327226583545 
0.0008483337550064514 
0.0003022359116814083 
1.900622416209774e-005 
0.0003695866414696072 
0.0005833637390513033 
0.0004082364061907696 
0.0007671674643314455 
0.0001764464591968848 
0.0002320989424136058 
-0.0003484732685381025 
-0.000134788827811377 
-0.0004563644297792098 
-0.0002805741144537683 
-4.828436757741021e-005 
-1.599718475061652e-005 
0.0007149368657381546 
0.002020874622644464 
0.001554318773734116 
-0.002875691859813369 
0.001632803269793502 
0.001476435639524049 
0.0007400822585105876 
-0.002448726874723065 
0.001061466592013321 
0.0004194321123829501 
0.0001125273640205912 
-0.0006607663260834552 
3.276340891230292e-005 
0.0003361039947284689 
-2.858519022444605e-005 
0.0004350235407057376 
0.001004025831917587 
0.0001793950871187059 
-0.0004053717873814034 
-3.883725058674417e-005 
-0.0001568347732936618 
-0.0006072567188813193 
-0.0006257721875968375 
-0.0004983876707646141 
-6.939725413206674e-005 
0.0006413449303484019 
0.001074607880088684 
0.0005990139746850233 
-0.001536902417730867 
0.002769593109369417 
0.001348716739198958 
-0.00154073273086441 
-0.001616111570830941 
0.001787901314796355 
-0.0005086142245293822 
-0.001304389453893839 
-0.002046061136460137 
0.0001707221882999382 
9.550305158083144e-006 
-0.0004549246867722047 
0.0006193687865933841 
0.000622470480036156 
-4.951758046626913e-005 
-0.000819973811033363 
0.0002218677714575409 
0.000376560795241561 
-0.0002165425325748423 
-0.0005188131531239032 
-0.0005767718075283017 
-0.0001394035070083307 
0.001100780475167845 
0.001702706912393298 
-0.001189380945282812 
-0.001625066019304104 
0.002998145708239334 
0.0008809561920826369 
-0.003307581102087776 
-0.001628191505725124 
0.00137328517612537 
0.0004325611895588421 
-0.001533335445083277 
-0.001733097182176762 
9.568128821195858e-007 
-0.0004288351312781423 
-0.0007968249970071643 
0.0005239186664555035 
-0.0001571935737643771 
-0.0001093876898175794 
-0.0002183002158019411 
0.0005068601520994285 
0.0006786027034778989 
4.302849845200933e-005 
-0.000479667231607015 
-0.0002824107333859319 
-6.021486449343823e-005 
0.001457232147544315 
0.0006043612259055035 
-0.001399726655177874 
-0.0002615986086912706 
0.002097542251299069 
0.0009489272709773693 
-0.001213228429145023 
-0.0002962705914373569 
0.002031458745207771 
-0.0004267475609492987 
-0.0009227988855289312 
-0.002045456305069312 
-0.0001588683759645668 
-0.0003776484546020198 
-7.942747307555381e-005 
0.0003016115303744455 
-0.0004380999482215517 
0.000423371338240351 
0.001003990993906618 
0.0007187922611762317 
0.0007832325409896261 
0.0003865462399309213 
-3.454219159716271e-005 
0.0003016836623725514 
-2.302543448200259e-006 
0.00031177577990551 
0.0001118220812385512 
-0.001430426973141512 
-0.0008937595227694183 
0.00118287405379465 
0.001129387899229197 
-0.0005151654570266108 
-0.0005743448560136328 
0.004332701941891848 
0.0005936440219169485 
-0.002476612091312099 
-0.002073122320912286 
-8.627500659670219e-005 
-0.0004050595631595721 
0.0004052623411560915 
0.000578999640739626 
-0.0006301926617802622 
0.0007403909564828399 
0.001387871690418132 
0.0004813111594233679 
5.558158513995753e-005 
0.0001411152632419427 
-0.0004226614241199443 
0.000754286934191587 
-3.579288538874857e-005 
0.0002415001620670895 
-1.81957476112215e-005 
0.0003223965947383819 
-0.0003945307226436692 
0.001486728919103092 
0.003341355771209768 
0.002083015040136508 
0.001450918394650032 
0.004224357476800038 
0.001343579412502852 
-0.001005469579453594 
-0.0003676229736763513 
0.0001161844520397046 
-7.52465696635945e-006 
0.0006417881682417954 
0.0004452846989786213 
-0.0007717374236216802 
0.0005022390875539507 
0.0008153589010733779 
0.0004925414817158439 
-0.0004484762606280137 
4.28699488969135e-005 
-0.0003689944542895315 
0.0009246281629706763 
-7.654155996796756e-005 
0.00127727479714405 
-1.131075692167233e-005 
-2.413713525862488e-005 
0.001336383996938621 
0.000152587879015287 
0.003386703719794343 
0.001983658880325372 
-9.523843433937721e-005 
0.0005547491907774386 
0.0002529696896802137 
-0.003605301180664163 
0.001199415403130142 
3.418325435181685e-005 
0.0002011490175531699 
0.0003522814803593577 
0.0001080447226455363 
-0.0007108106907407356 
-7.918137493564152e-005 
0.0006134027212122194 
0.0007914250235982153 
-0.0008889276331946754 
-6.666158782770207e-005 
0.0004848920164016142 
0.0008883202742362345 
-4.921256572194106e-005 
0.001555397778456307 
0.0006283041319814682 
0.001106058917293471 
0.0008497646869710529 
-0.001246012015658433 
0.002331475297141073 
0.001614154627014109 
0.001926894228388593 
0.001678061489701401 
-4.206487478080315e-005 
-0.00220342307498383 
0.0009414143863468061 
-0.0002064444749821547 
8.81534868942574e-005 
-8.598904479202364e-005 
-6.761421416153254e-005 
-0.0007999059426948108 
-0.0006044715754405427 
0.0005105340627102999 
0.000541746441967962 
-0.0006787732388956523 
-0.0002760640145895856 
0.0004498455043159696 
0.0003346911855617182 
7.572723097327222e-005 
-0.0001742587059424089 
0.0007943185612355031 
-6.084261422457867e-005 
-0.0009756653498617578 
-0.001004818950671013 
0.00123842664875756 
0.002786275707610316 
0.003144795205874418 
0.001161206238542518 
0.0009531522780595794 
0.0005468209172306998 
0.001713965106997176 
-0.000357063856203751 
0.0001064665764348202 
-0.0001362043795071051 
-0.0003485464262987219 
-0.0004279767822220376 
-0.0004850785102170247 
0.0001962702960673074 
0.0005617830737315713 
-5.70972010894877e-005 
-0.0005623878945234149 
0.0002951240262581245 
-0.0002710322180957961 
0.0001233918998870799 
-6.494934787327418e-005 
1.975999576365963e-005 
-8.917606313993177e-005 
0.0004234216502026939 
-0.001934091863279595 
0.001393124452870961 
0.00423438014669913 
0.002539633320784145 
0.0005272677046646263 
-0.0003868368415785742 
-0.0008323059395834683 
0.001048558786023559 
-0.00034558376374132 
-7.276526604798032e-005 
-0.000143867478235325 
-0.0001703909486374473 
-0.0002222146515652827 
-0.0002210254060940342 
-0.0002625340119857932 
-0.0002286251304543595 
7.766617970934476e-005 
-0.0005686346128980444 
-0.0003312478048744962 
-0.0005099373328225566 
9.698604990516034e-005 
0.0003021303510967009 
0.0008252902854980729 
-0.0001075345644845255 
-0.0001931837268909979 
-0.001643254647574448 
0.001430486213036322 
0.001654899025450285 
0.00240730105626279 
0.0008446602054172036 
-0.002386583960851289 
-0.002815246704207895 
-0.0002093240846334635 
-0.0001168035419379785 
1.240988657578657e-005 
-2.917429196086822e-005 
4.053171277717485e-005 
-1.555745230613048e-005 
-0.0001341465462672152 
-0.001083534487390981 
-0.0007355777301443789 
7.726171893339915e-005 
-0.0003023337220007751 
-0.0002085673275335377 
-0.0003521761115914455 
6.030862814985988e-005 
-0.0004107150305143406 
0.0002489885154034825 
0.0004100616559499296 
-0.0003934392772982715 
-0.002037866402686864 
0.001130318213983688 
0.0008671688721760733 
0.00115250499903606 
0.002224667637708136 
-0.001215366823134114 
-0.00217862712922207 
-0.0006466290859153137 
-6.386086024605484e-005 
0.0002268503936898382 
-9.418356190843206e-005 
-1.55146984832384e-005 
0.0004296833152350856 
-0.0003697871116507387 
-0.001752740397071992 
-0.0004072608218959284 
-0.000119855015788262 
-3.542633141417481e-005 
0.0003156580120965778 
-0.0001250856878525255 
9.203283301612246e-005 
-0.0005853910502038198 
0.0007417489123064462 
-0.0004563469787537836 
-0.0003645823533975913 
-0.001030719349019017 
0.0006991006220271736 
-0.0009477903312350458 
0.0001604750062002652 
0.0006988415889682799 
-0.0001442516445507298 
0.000177148190021447 
0.0008006758228203705 
-0.0001687455541704785 
-0.0001344601215981403 
-0.0001673759728849933 
0.0002482867423031772 
0.0001864068265458615 
-0.000173716939268083 
-0.0007793436732556081 
-0.0004407655294076858 
-0.0004323156208306926 
0.0002307622587159629 
0.0006052861449109959 
0.0004383460625439628 
0.0001128583895411657 
5.950019974882724e-005 
0.001195783337819278 
-0.0003856927908412696 
0.0004315568148510736 
-9.194122550495673e-005 
-9.01337936629527e-005 
-0.003227978720080451 
0.001626747932782168 
9.05869176212982e-007 
-0.001685135175566612 
-0.0007502043121345456 
-8.187198110996602e-005 
3.210083333772421e-005 
3.491590674160179e-005 
-4.434403232067937e-005 
0.000182903770980878 
-7.112584477036298e-005 
-0.0003604577708887612 
-3.636997907355142e-005 
-0.0002911282762484845 
-0.0009948573577647432 
-0.0001477472542456669 
-0.0002380429903794079 
0.0005195164869943785 
5.31262708803145e-005 
-0.0007767046814781454 
-0.0003204137894562689 
-0.0005465267536918563 
0.0006357449431973337 
-0.001684183159759503 
0.001172120068903916 
-0.0001942484043821557 
-3.365046135673085e-005 
-0.0002050393629112046 
-0.0009978866771769407 
-0.0005030219850961585 
0.001700022033576022 
0.0002529756054503737 
-7.196662934499194e-005 
4.94469774546065e-005 
0.0002343060256414197 
-0.0003237545842694415 
-0.0003176536816808851 
0.0006123066891775936 
-0.0002966002083285055 
-0.0009700910524054523 
5.97906697127082e-005 
-0.0007813973116013797 
-0.0001389982968710725 
1.548494386996114e-005 
-0.0001545628169883357 
0.0009546476609182899 
0.0002334358681060703 
2.090834528627058e-005 
-0.0020667643922843 
-0.000908469752704479 
0.0003085424474925285 
-0.0002060672560906203 
-0.002297694156639879 
-0.001527286742123049 
-0.003028759824560722 
0.001501280670307984 
0.0004182086140311582 
-0.0002096070552178632 
-0.0001589277729387014 
6.817422290362378e-005 
-0.0007729822537257408 
-9.758728666528482e-006 
0.0008716687188545807 
-0.000492955501779862 
-0.0006274061641226666 
0.0004789802464789794 
-0.0006669774843803282 
-0.0002142657253552145 
-1.162214288369976e-005 
0.0007865203600546049 
0.0005024845493739905 
-0.0005186895241367164 
0.001012264395058194 
-0.001662085137241373 
-0.0004799925423453093 
0.0003454817335395222 
-0.00040612305911792 
-0.003002331785004486 
7.577657473468447e-005 
-0.00259055884089658 
-0.0006858879743039478 
0.000648938858102855 
-0.0001747016317913741 
-0.000225676028320345 
-4.482652381238126e-005 
-0.0005720210999303625 
8.06886660454251e-005 
0.000385823620248429 
-0.0002649756768199198 
-2.601023087557421e-005 
0.0003708418169266081 
-0.0007453840113326958 
-0.0005148550384186236 
-3.651503858521285e-005 
0.001530127470717178 
-0.0005073053726751205 
-0.001662286151523113 
-0.0002885567481120618 
-0.003494441845988317 
-0.0001784501051342812 
0.0008912855551671276 
-0.00141392173841151 
-0.0005992790458296178 
0.0006108051520153021 
-0.001711409016964357 
-0.0007195237205337836 
0.0003474641550168221 
-0.0005968252446588159 
-6.930574725333979e-005 
0.0002171848632270879 
-0.0003321041155577957 
0.0004781890474342576 
0.0001575099965777099 
1.549250690336135e-005 
4.550471392200493e-005 
2.061521412961415e-005 
-0.0002702499052619346 
-0.0003746881408662623 
-6.955320406023995e-005 
0.001364571224867991 
0.0001582739276607768 
-0.00199448864572579 
-0.0005571200042096425 
-0.002938682100139472 
0.0009574743826262871 
0.001998062353916298 
-0.000713988161194163 
0.0002398748670843171 
0.0005897778637265339 
-0.0016264204788791 
-0.0008113153694702607 
0.0001243244717953394 
-0.0003157046348004939 
0.0005405786295574826 
0.0005664982922849245 
-0.0001169103400776721 
0.0002647815630586997 
7.163926661671761e-005 
0.0003768574191477555 
-0.0001942758777826811 
-0.0008373542832276335 
-0.0003367944558891047 
-0.0002704420745312624 
-0.0001278293963443735 
0.0008002652053676435 
-0.0007712778394096601 
-0.0008385030595835529 
0.0008803287748648545 
-0.002263520251355011 
0.00104338887752177 
0.0006483117982842972 
0.0007711095383179483 
-0.00228750571802478 
-0.0005836815308456575 
-0.0009496700049889549 
-0.001303530787045264 
7.7050859810876e-005 
-0.0001406424640397709 
0.0004543220172489308 
0.0005249474382255161 
0.0002957486425529396 
0.0001388444558417056 
-2.538265456459811e-005 
0.0002181727240295719 
-0.0003830179091435516 
-0.001067792056898901 
-0.0002643271518225601 
-0.0001728290126906473 
-0.0001451815278741144 
0.001077557390252083 
-0.0003747641892500522 
-0.0003790612206380533 
0.002098208372577467 
-0.002288637423721914 
0.00143120932666026 
0.001464579193214407 
0.0007170800457826997 
-0.001842280300891707 
-0.002448991297979036 
-0.00151436999822714 
-0.001596761448148971 
-0.0001467343261657458 
4.416035910296181e-005 
0.0002095636060882739 
0.0005173531557042004 
0.0003047076269298406 
0.0003114704525618392 
0.0001828342680610303 
-0.0004049200132009622 
-7.888506215139293e-005 
-0.0007447286565557578 
0.0001644428155193797 
8.047021032248952e-005 
-0.0001179473359033933 
0.00155602188948348 
4.262256282591305e-005 
-0.0007637831166377229 
0.001194112540849548 
-0.002159148948152022 
0.001324205819942662 
0.001539490963020023 
0.0001452042237242537 
-0.001756404628833439 
-0.003063073001279902 
-0.001821753591697102 
-0.00109948416892221 
-0.0004153360646500662 
0.000279801546892714 
-4.114448001356516e-005 
8.407139716652381e-005 
0.0003862657727301486 
0.0003285733413707971 
0.0003715871457052364 
-0.0008299667497855667 
0.0008333393722399945 
-0.0003719082358320017 
0.0004356095814425057 
0.0003895078184953829 
-8.017492139281562e-005 
0.0002530199749750759 
-2.787707045020989e-005 
-0.0009840326888510558 
0.001872748773594677 
-0.001467327662236275 
0.002374425702822603 
0.002466644159328293 
-0.002425627247237394 
-0.0004201069020959257 
-0.001894176230890665 
-0.0003681661889758139 
-0.000510992324719657 
-0.0008087250025331024 
9.315701799306041e-006 
-7.226803496397641e-005 
-0.0002524369664993313 
0.0007357592563836626 
0.0002047675564846766 
0.0003101410119029868 
-0.000543934430717369 
0.000576672231654434 
8.929943765930039e-005 
0.0006894772959553902 
0.0003723641340310584 
-3.569507924050256e-006 
-0.0008618901635238512 
0.0004527949630837474 
-0.0007463750253489661 
0.001405698378265405 
-0.0007417801817440705 
0.002215524586213993 
0.002005085896818002 
-0.001813681982067295 
0.001174008048064637 
-0.002718056047891558 
0.0006577887630868659 
9.943129275236946e-005 
-0.0009380721998714918 
-0.0003034887384418888 
6.814529471832024e-005 
-0.0003789815556454025 
0.0008335853398835726 
-0.0002936024575793153 
0.0001795163519413068 
-0.0002036832997218702 
5.374622614582532e-005 
0.0002750068920942284 
0.00081114026342471 
0.0003381655498860096 
4.409666518147791e-005 
-0.001753720858515799 
-0.0005355068866210998 
-0.0007560543914657212 
0.0007186604695336169 
0.0006830699444170049 
0.002010698126567724 
0.002782291996633062 
-0.00103262328273137 
-0.0004152481502373773 
-0.00217113739598164 
0.0006970132494718731 
-0.0003369341378606797 
-0.0005921304359866023 
-0.0002254986893146343 
6.565055253637153e-005 
-0.0003715563472496924 
0.0006303282615066988 
-0.00048866132262111 
-8.301683372823789e-005 
0.0002094068660721888 
-0.0005808960818665969 
8.600465742384195e-005 
0.0002389579530726543 
0.0003745177453313752 
2.45259452441884e-006 
-0.001977475582136329 
-0.0006588087359061975 
-2.859047884547138e-005 
-0.0004241376399450437 
0.001720894492326205 
0.000841826647818797 
0.002054050222045386 
-0.001538033956114868 
-0.002218243032134407 
-0.001374886474715759 
0.001822579718980308 
7.82139367150617e-005 
-0.000231814620054533 
-0.0001040292941149454 
8.236375856084725e-006 
-0.000225320642439185 
0.000204162718707574 
-0.0004042660617938399 
-0.0001966507734155808 
0.0001489194944294302 
-0.0008220515477015849 
0.0001494033859911726 
-0.0002169870994348302 
0.0003432487835798687 
-2.549289609945607e-005 
-0.001787695596562771 
0.0002608929047052839 
-0.0004178360873728925 
0.0003956190374720426 
0.001676244526824513 
0.001753336297888779 
0.00170929587012161 
-0.001382420866247562 
-0.002237662253718874 
-0.001740773698948909 
0.0003603176544345713 
0.000486984133974758 
8.702519976624554e-006 
-2.666376753746406e-005 
-1.367566593316839e-005 
-9.980538925610635e-005 
-8.646877006570712e-005 
-0.0001362404002659912 
6.156528612793364e-005 
0.0003474651231441773 
-0.0001212015289767734 
-0.0001180374280392522 
-0.0004171329533983085 
0.0004691988111943949 
-9.429208790301578e-005 
-0.001819563102360245 
0.0002043604837250206 
0.0004728310015145335 
-0.0002208954563429339 
0.001122241789570164 
0.001333894493562222 
0.001254514374541693 
-0.0005119237280623458 
-0.001602692699011889 
-0.001585153627068404 
-0.0001242460679309341 
0.0008879482654857782 
5.582558697165656e-005 
-2.847786620114633e-005 
-7.264831428664466e-005 
0.0002360952015437492 
-0.0002193250005225169 
1.975782771275239e-006 
0.0003190648307880084 
0.0003780729637524562 
0.0001196158432991906 
-0.0002135721700033001 
-0.0005620899431455609 
9.595155704961372e-005 
-0.0001700304452381493 
-0.001889753102364365 
-0.0008932970891427273 
0.0002272087373020741 
-0.0006604736490117632 
0.0009780841723806212 
0.001588910379195547 
0.00276851123020307 
0.001098017892091451 
-0.0006043692511972297 
-0.003268345354230927 
6.319175069731644e-005 
0.001352879867778649 
0.0003373760971544889 
-9.819258117938106e-006 
0.0001204545511766797 
0.0004108875728878112 
-0.0003652690164205879 
-0.0003678508239021272 
-3.284984715771356e-005 
7.588711021299911e-005 
5.034959829767323e-006 
4.492538517929191e-005 
-0.0003979640108978245 
-0.0001512170657434856 
-0.0002372682032454885 
-0.001406194719009124 
-0.0002354744396255641 
-1.086094943176273e-005 
0.0008228471466782169 
0.000564106334321354 
0.0007417152136041094 
0.00298839218595119 
-3.432692252130645e-006 
-0.0008933564558149047 
-0.002385584101225729 
-0.0004199328791225911 
0.0008580796011020308 
0.0004217924608046062 
2.072638299879431e-005 
0.0002344975920283273 
0.0008782041128854045 
-3.425324256027228e-005 
-0.0003119608916839419 
-0.0003950357912933853 
-9.622170321664797e-005 
-0.0004480318763836382 
3.546890250075346e-005 
-0.0002504275571322348 
-0.0002953775646681473 
-0.0002731627236758928 
0.0002972605967169266 
0.000187613308036412 
0.0006048767933071568 
0.0009698105825845857 
-5.248555183769872e-005 
-0.0004378770338892913 
0.000438016952761191 
-0.001999745686318665 
-0.0002307692830042006 
-0.001470567110793096 
-0.000526376345264965 
-0.0003027753957980176 
0.0003572947031336631 
0.0001472750006120807 
0.0003742576822199862 
0.001018659318693287 
0.0002692115996565152 
-0.0001082592774236157 
-0.0007420866637063837 
-0.0002924729482943362 
-0.0007416315055002535 
0.0002287648599336266 
0.0001369102667401248 
-0.0003567014956343546 
-0.0002596163819186586 
9.005810647200135e-005 
-0.000347249637508915 
0.0004203808699028342 
0.002066514329821139 
0.001369651179613032 
0.00014740129631452 
0.0007062805183163565 
-0.00113888882588995 
-0.001169213431923494 
-0.002293142426008885 
3.86115432386469e-005 
-8.190841512332229e-005 
0.0002092406728779698 
0.000173856382498891 
0.0003563136770731288 
0.000868410781900298 
0.0006141850033296868 
1.737874179254919e-005 
-0.0005347591542613733 
0.0001264388969529661 
-0.0008727930873104915 
0.0003720783023430127 
0.0002866261664908861 
-0.0001439888954848941 
-0.0002189829388027604 
-0.0001372317501154156 
5.365071351770553e-005 
0.0008835481343073211 
0.00281814152862132 
0.002270595824753492 
0.0009851799553238371 
0.0001576007374453783 
-0.001415232989367647 
-0.002107079350394015 
-0.001672043297958957 
0.001077707122563371 
-0.0003122610870049477 
-0.0001097275101591004 
-0.0001013979944391226 
0.0001327448499201603 
0.000701670892153478 
0.0006093100520400931 
0.0003037808480428272 
-0.000132877267107685 
0.0005176877110048615 
-0.0006489538214674109 
0.0006761048177724584 
0.0001874922216438366 
-9.141861734867367e-005 
-0.0001153679650879444 
-0.0001808193795040973 
0.000532166394088319 
0.0007957402934226516 
0.003155656856542426 
0.002819015262249728 
0.0001764838749835465 
0.0007861536538658825 
-4.551360846224875e-005 
-0.00284965733966025 
-0.0006536735129832309 
0.0004426609922259526 
-4.787015501597543e-005 
-0.000114103437282039 
-0.0002124373093269042 
0.0001650334851373837 
0.0006496736568306446 
0.000124012214345152 
-1.410028622673265e-006 
-0.0001462105494926758 
0.0001944474185464455 
-0.0003184660403337341 
0.0007798467434315667 
-7.787060236878159e-005 
0.0002024818125277136 
-3.031475561189131e-005 
-0.0001270648587241007 
-0.0009582089751371335 
-0.0001127400884727941 
0.002901176732300416 
0.002631136772902815 
0.001201331896421227 
0.0006654835929068404 
0.0003164636416403466 
-0.001826066416719585 
0.0009468167710465188 
0.0002898708558201391 
-0.0001906121486706948 
-9.543576397975058e-005 
-0.0003301146352129485 
0.0002126676439627785 
0.0004336369657917933 
-0.0003247103060619765 
-0.0002427582510103373 
9.68853922968968e-005 
-1.162569588118372e-005 
-0.0003359644299747097 
0.0003409835263607594 
-0.0003116737812707909 
0.0002226735598515665 
3.968674476202969e-005 
-0.0003557892049558149 
-0.001349905861451433 
0.0003501406715693914 
0.003784277074942267 
0.002133301671172525 
0.0004932096538327746 
0.0009888198040320091 
-0.0009128341851074794 
-0.0025879188876587 
0.0004788883804728199 
0.0004405907610838632 
0.001211143918558998 
-1.915721814470428e-005 
-0.0003430161221368609 
0.0003442661051662724 
0.0001990789236973859 
-0.0004705975207992477 
-0.0003023609264095963 
-0.0002188468403895771 
-0.0003104817557611831 
-0.0001890392451648406 
-0.0001733623198940049 
-0.0003238379834038891 
0.000140274480334915 
1.361650008327341e-005 
0.0002550264434083512 
-0.0008172238385486801 
0.0001477982974916545 
0.001460095739550428 
0.0005251713192266351 
0.0001351848906594172 
0.0008700536362922385 
0.0002709027874106422 
-0.001557789409438248 
-0.001324816185229662 
-0.0002270041542446132 
0.0005818152011716211 
0.0001589853663071667 
-0.0001262559395366796 
0.0002746170589151894 
0.0002140764041774584 
-0.000293261207688212 
-0.0003664178129203726 
-0.0002642877227096312 
-3.790746030997664e-005 
6.382059011267415e-005 
-0.0003615260886142735 
-0.0003702432009840598 
-7.655863348738747e-005 
-6.564412368790052e-006 
0.0002191020598831039 
-0.0006440369905565057 
0.0007856018610864693 
0.001212199854687824 
0.0001658662291522646 
-0.0004741865063738988 
-0.0008147273840492986 
0.0004825180252770725 
-0.0005977365614155441 
-0.001797087725460616 
-9.2728140501093e-005 
0.0001655503761351056 
0.0001883689923547052 
-6.822585644338314e-005 
0.0003185154811035191 
4.721259768396283e-005 
-0.0004652951784091206 
-0.0002013701648103506 
-0.0002996361306027407 
0.0001240355380419459 
0.0001970632271188649 
-0.0001156734227389599 
-0.0002810421168353901 
-0.0003303804140632611 
-3.946446911232258e-005 
-8.05718736203153e-005 
-0.0007047657918270342 
0.001046357037941095 
0.001851270444050521 
0.0002195326129875702 
-0.0007559672663976208 
-0.000746063616165255 
0.0009788581731412646 
8.57087808041843e-005 
-0.000876097387330501 
-0.0005030683456151753 
-8.54656120706129e-005 
5.802228102741139e-005 
-0.0001348986661952727 
5.43069406860582e-005 
0.000101530404268271 
-0.0002229642252896621 
-0.0001096393700847382 
-7.670430682253773e-005 
7.320516976269297e-005 
0.0001958494511856061 
0.0001787707932355821 
-0.0003647914828498065 
-0.0001767574329737489 
-3.072863471573723e-006 
0.000728294856011762 
-0.0008730243004432217 
0.0009246586301055954 
0.0007373483991127523 
-0.001484583519875975 
-0.0004907428941548595 
-0.00124153437086078 
0.0007026820305393094 
-9.528850611622227e-005 
-0.001460725303547568 
-0.0004944712297400159 
-0.0005496639860423669 
-9.869155899023845e-005 
-0.0002158137895464129 
-4.012991779949012e-005 
-6.138229670244778e-005 
-0.0002946508646759347 
-1.095585079579625e-005 
0.0003544709522842291 
0.00018912418437518 
-6.364808826829748e-005 
3.569646093543568e-005 
-0.0004622687745077749 
5.582906059167589e-005 
1.594635502319422e-005 
-0.000191760113373291 
-0.0009653116479204665 
0.0003758043924478815 
0.001281910699468471 
-0.000408003380345276 
-0.0009820041925232457 
-0.0004708699053594236 
0.0003958642579536918 
-0.001129668605878439 
-0.0005824982994942644 
-0.001269350180786053 
0.000441521855521153 
-0.0001439337868150741 
-0.0002706058074057897 
-6.8907805041748e-005 
-7.134094743355792e-005 
-0.0001165752718489449 
-0.0001085845244633289 
0.0003457848744494633 
0.000118779581597326 
-2.043241967161905e-005 
0.0001226557534727244 
-0.0003768445657677947 
6.34094138107823e-005 
7.327672206166627e-005 
-0.0004920639825978522 
-0.001321425741042732 
0.0002589169193854937 
0.0008753608244663868 
-0.0009425388852709965 
-0.0008533631129111439 
0.000250953657825454 
0.0008065078158450889 
-0.001119728336189526 
-0.0007164181967808232 
-0.001280649197571536 
0.0001198421385052133 
-0.0001494733922916254 
-0.0002754129827046849 
-1.602066162959264e-005 
-6.416425323017894e-005 
-3.183883208498337e-005 
-0.0002267370388326376 
0.0002856953881931019 
0.0001316379455959031 
4.967518867861559e-005 
7.744826828821544e-005 
-0.0001569716234374787 
5.883802770339768e-005 
-1.456336533685217e-006 
7.876910696342392e-005 
-0.0008403530132302127 
0.0006514696848011068 
0.001076434090032574 
-0.0009335970690272687 
-0.0004992538911865835 
0.0003188114307806174 
0.000725340119212629 
-0.0006078336879499509 
-0.0001927227350649092 
-0.001196989413454361 
0.0003040982997462262 
-3.722793180983946e-006 
-0.0002033550554885329 
6.110524389947239e-005 
-3.938609381125358e-005 
-0.0001499562272177965 
8.086199165318422e-006 
0.0001373877726716058 
0.0001306995248337936 
5.400172987214256e-005 
0.0001257388460172595 
5.929008034762615e-005 
-6.564931208121217e-006 
-2.232733353712032e-005 
7.476908941009463e-005 
-0.0007171513057173579 
0.0009201773732491507 
0.0009212266464267979 
-0.0005921496268909373 
-0.0004634222248756925 
0.0007051184619051214 
0.0005443118996914537 
-0.0003846843232881395 
1.287133565057767e-005 
-7.229018523281093e-005 
0.0001648420947845047 
5.690694747375958e-005 
-8.917391512586503e-005 
1.706288697214046e-005 
-6.538083760378909e-005 
-6.681945545712628e-005 
-3.22268949633873e-005 
-8.4974488552649e-005 
-0.0001124446344045028 
-2.159723351527935e-006 
0.0001046652669266117 
8.025726207157504e-005 
-1.980042882506486e-005 
-1.68231463514609e-006 
-4.709163532295761e-005 
-0.000686406711696864 
0.0008696195486458024 
0.0008767422465365384 
-0.0006076636863584813 
-0.0003658658313533974 
0.0002720318812305548 
0.0001104049102421351 
-0.0004235340831119109 
0.0006184025634389792 
-0.0001084752793429453 
0.0001676222098321794 
4.18676670960928e-005 
1.660867498666508e-005 
-6.927747532167556e-005 
-1.593711467576793e-005 
-7.991179054295132e-005 
-0.0001382902117265559 
-0.0001297438880686832 
-0.0001502268385655215 
-5.341548628820902e-005 
7.61761922027209e-005 
3.673819587109251e-006 
-0.0001282968649470251 
8.1997714454749e-006 
-0.0002014976535022703 
-0.000550863815180778 
0.0003204638865541019 
0.0008349606918636335 
-0.0004035178485328802 
-0.0004905552024483113 
0.000360543217058279 
7.969243400554261e-005 
2.028446744632774e-005 
0.000679392735625117 
3.09365761560923e-005 
0.0001161118913299835 
-5.646847578505699e-005 
8.14938152660016e-005 
-0.0001284196824055048 
8.718837580736874e-006 
4.628647472688735e-005 
-0.0001268258443155127 
-6.009242602682261e-005 
-3.479451497956019e-005 
4.053743036447105e-005 
0.0001445880303422626 
3.360799173870063e-007 
-0.0001104563494181957 
2.076797650612242e-006 
-0.0002085473625449056 
-0.0002902263721024473 
0.0004287955670886619 
0.0007299860751253024 
-0.0002259710251961817 
-0.0003169445403193757 
0.0003620616781413089 
0.0001508123291017885 
-0.0006560174521221757 
0.0001939480103942516 
0.0002466050272167967 
0.0001146175994864234 
-5.270016394748405e-005 
0.0001028839557233377 
-1.932856084451722e-007 
0.000105612194907522 
8.502419904545924e-005 
-1.231564900380884e-005 
3.794804704895441e-005 
9.494041705801574e-005 
-2.843109513006672e-005 
2.394450126366386e-005 
-5.26808461159256e-005 
-9.843601055758364e-006 
5.999524358602124e-007 
-0.0004392475843481609 
-0.0001771900677489268 
0.0003791440207346493 
0.0006967294803076263 
4.564968488784656e-005 
-0.0001866916012144862 
0.0006145627441196324 
0.0004943323232365677 
-0.0003319497466407058 
0.0005089696420745798 
0.0004058902582039583 
0.0003053338346686617 
-3.54993106073524e-005 
7.365457464363226e-005 
2.621311847655144e-005 
7.523623309730125e-005 
6.058323482421704e-005 
8.083364626017315e-005 
1.982773206129944e-005 
7.489263060967667e-005 
-4.052165658311373e-005 
-3.080501495047081e-005 
-6.16191644079105e-005 
-2.525444374297931e-006 
-2.163733984084958e-006 
-0.0001624547059549978 
1.276371499463598e-005 
0.0002718837458434492 
0.0004768356245326146 
0.0005069951289783193 
0.0002997782067001456 
0.0002272551751374498 
0.0003481988993181627 
-0.0003946388231038137 
6.852955609100828e-005 
-3.510607334176213e-005 
0.0001616615612618018 
8.151753038966616e-006 
-5.060522334101348e-006 
5.100537084707308e-006 
6.40907453271895e-005 
1.355432200488666e-005 
6.648635591582725e-005 
3.285647640745958e-006 
-1.545644869967678e-005 
-2.474898988463986e-005 
-6.339507870537726e-005 
-3.737082079497474e-005 
1.881191982811096e-005 
-6.16744200740849e-006 
-7.017082112317305e-005 
-0.0001380138410070738 
-4.387705048264567e-005 
2.51793515036212e-005 
5.045590995530813e-005 
0.0001057417741789588 
8.379234510707429e-005 
0.0001206225816887246 
9.43957578746358e-006 
-7.716105765173948e-005 
9.499029843604446e-005 
-1.234852960001319e-005 
-9.269655051497486e-007 
2.645288284355837e-007 
-1.927009426839635e-005 
1.837680476801701e-005 
-8.952221650159459e-006 
-1.54852396951209e-005 
-3.344403027274342e-006 
-1.160095742814575e-005 
-2.697089052013785e-005 
-1.181327501130296e-005 
1.156725266417291e-005 
-5.720480561240278e-006 
-5.745955576789931e-006 
-7.430451074839578e-005 
-0.0001587977055450717 
-8.314144215207844e-005 
3.92027188336141e-005 
-2.598992193999053e-005 
-6.268337140385462e-005 
3.374678717216766e-005 
4.995507220807704e-005 
-4.722180642778741e-005 
-1.879323483471147e-005 
0.0001202471764962267 
3.971188433053113e-005 
-2.950389575735644e-006 
-1.805125861435434e-006 
-2.494618077259609e-005 
1.304038607181474e-006 
-5.666574130101028e-006 
-1.768691746923451e-005 
-1.871756668591343e-005 
-2.71812324446448e-005 
1.472920529393935e-006 
2.877989433476463e-005 
1.560934663730537e-005 
3.665174362355074e-006 
-1.31070319848771e-006 
-3.679436887064775e-006 
-1.251887789213863e-005 
2.720045882864232e-006 
7.645992116581735e-005 
6.1178847560601e-005 
9.758581288808412e-005 
4.037046488760311e-005 
7.491068764682409e-005 
-3.705993622008372e-005 
-3.729968868727468e-005 
-8.296172393264606e-006 
2.010946107836544e-005 
2.487413362738229e-006 
5.770546167639808e-006 
-5.281312898872396e-006 
-5.141240502512348e-006 
5.290832396954911e-006 
6.631172780373102e-006 
-6.249143568801818e-006 
-2.161298100732327e-005 
9.811495600513607e-006 
1.959020901874561e-005 
-9.14865830383025e-006 
-8.141422566234784e-006 
-4.755187993919864e-007 
-1.455974520831751e-005 
-3.160897013631461e-005 
-1.279019186833476e-005 
6.046327774089443e-005 
1.930992146276676e-005 
4.90416721712722e-005 
-2.838865471086514e-006 
5.014569293245453e-005 
-1.32591343949242e-005 
4.824538904832999e-005 
-2.771178184906544e-005 
2.412424914003648e-005 
-6.867366850956245e-006 
3.112772047880074e-006 
5.344074119698125e-006 
8.481195752452932e-006 
1.039822662396691e-005 
-3.320118856568345e-006 
-1.058643067265e-005 
-6.216260522763135e-006 
1.48044470268579e-005 
7.793546526973884e-006 
1.720306871326658e-005 
-7.587846756167535e-007 
6.662282939892666e-007 
-2.199967685474701e-005 
-4.928205986443002e-005 
2.773104811372171e-005 
7.662316583030544e-005 
4.23811383339096e-005 
5.471034266909213e-005 
2.748530535580362e-005 
3.675561049411985e-005 
-2.051883447919208e-006 
-3.266091713672761e-005 
-5.561159607066145e-005 
-5.133059168252984e-006 
-1.144926980343335e-005 
-1.893523270317293e-006 
8.859387796907306e-006 
2.271702763445833e-006 
-7.314239246363242e-006 
-1.376005832653575e-005 
-3.604851116998118e-006 
-1.536162497932851e-005 
5.900277505251526e-006 
9.320401345963776e-006 
1.165828165698187e-005 
5.34360042768545e-006 
2.525283210159053e-007 
-4.675352283517283e-005 
-2.67896392063318e-005 
3.144721471913775e-005 
0.0001000876021048366 
4.212669739099809e-005 
-1.695936479908933e-005 
-3.696464072833616e-005 
4.541606362919766e-005 
-1.018426127954133e-005 
-1.724643186628209e-005 
8.76704365756635e-005 
5.434097306849987e-005 
-7.905861129522635e-006 
1.114733530151459e-006 
5.333291056508356e-006 
3.747649732532797e-006 
6.152622925724015e-006 
1.500019414160388e-005 
2.103020687895736e-006 
-8.457094389639271e-008 
1.714550501277424e-006 
1.2965464130768e-006 
1.15333110483804e-005 
-2.870859574897603e-006 
2.334315285258243e-008 
-4.482892983232583e-005 
-2.43960466098842e-005 
2.489825913668673e-005 
6.800621670863155e-005 
1.319937575976431e-005 
6.17857569935051e-005 
3.940901279257131e-005 
4.6743516446935e-007 
-9.096006774550726e-006 
4.204822941379454e-005 
-7.695781379343021e-006 
3.17190464396393e-005 
-2.792142430678044e-007 
4.014466107742421e-006 
-9.493829753550652e-007 
7.987051652266335e-006 
4.282267475827208e-006 
2.240018668126475e-005 
1.756140295496401e-006 
1.234000831402539e-005 
6.991271964637607e-006 
8.557658446899848e-006 
2.904434946154465e-007 
7.203273742317877e-007 
-1.603188168491158e-007 
-4.26744289368636e-005 
-3.847821348149222e-005 
1.529259998239193e-005 
8.350994304406283e-005 
6.466397407410646e-005 
0.0001205047648807081 
1.714372665941681e-006 
6.7866956312833e-005 
-1.164287332826988e-006 
1.737354692450854e-005 
5.996645458757175e-006 
-8.65611967983604e-006 
8.968128839346736e-006 
5.397824071548972e-006 
6.928794129158613e-006 
4.134453428766981e-006 
-6.354898755056936e-006 
2.474887441630369e-005 
1.912123834211873e-005 
2.053184050194771e-005 
9.537013136976746e-006 
-9.464961041290049e-006 
-1.968041579791916e-005 
-1.466357935753e-006 
9.910566038054085e-008 
-2.543528484027424e-005 
-2.336538719242721e-005 
3.106147139337458e-005 
0.0001248471359534696 
5.252383371571379e-005 
9.79789854948248e-005 
1.692655043655719e-005 
8.723031735895009e-005 
2.839447881865032e-005 
-7.182604907023786e-006 
-1.332248303913065e-005 
2.996713907691826e-005 
9.829908382600985e-006 
6.887966844953688e-006 
-8.266696146947977e-007 
-1.514945079076138e-006 
-7.185579925540894e-006 
7.891465712565621e-006 
1.325920079089602e-005 
1.661157548025134e-005 
3.283979507314243e-006 
-2.190839678892289e-005 
-1.017189597762251e-005 
2.128004429363816e-006 
4.377970406698977e-007 
-1.160970570418724e-005 
-3.15916316152593e-007 
6.30095792365869e-005 
9.233935718958632e-005 
-9.310060114461219e-006 
8.868816975872691e-005 
6.988294988922962e-005 
0.0001046937084573166 
1.87556158732969e-005 
-3.995581338913438e-005 
-7.918408464225601e-006 
4.788518417270075e-005 
7.222158836617844e-006 
7.754195828832978e-006 
-1.787145989930192e-006 
-1.133346003480605e-005 
-4.463363193976571e-006 
-5.741663724648792e-007 
1.852122194782016e-005 
6.172331810237056e-006 
1.799017391931316e-006 
-6.788151037486272e-007 
5.956200031321973e-006 
4.613178889191966e-006 
6.621030749441429e-007 
-1.1211697098993e-005 
-9.037392379554184e-006 
-3.093529588485058e-006 
5.601676192908948e-005 
1.42584778609214e-005 
0.0001171517151022658 
7.162056537592549e-005 
6.511170917397078e-005 
-2.636023113988577e-006 
-3.882896127516614e-005 
-5.15977496372029e-005 
1.408850890993375e-005 
5.232443742614932e-006 
4.449047450843585e-006 
-8.232358110271941e-006 
-1.242009439274912e-005 
7.053967935167821e-006 
3.569664472587584e-006 
9.275763847700139e-006 
1.7883030229516e-006 
-8.403916794499998e-006 
2.659959296228017e-006 
8.057515005221318e-006 
-1.183207486109967e-005 
3.337430813751107e-007 
-1.367537253197095e-005 
-6.871236130697145e-006 
2.343434632159289e-005 
6.125771376737387e-005 
6.147977902523146e-005 
0.0001080476009561855 
6.697348670221367e-005 
0.0001097879194565079 
2.334612434494363e-005 
2.980261452927025e-005 
5.491527891440328e-005 
2.234916837903745e-005 
4.041684479726358e-006 
-5.525932355099924e-007 
-1.421911681650604e-005 
-8.136936109079785e-006 
2.29742459204045e-005 
7.2143078712341e-006 
-5.397246286827575e-006 
-4.568545269358817e-006 
-6.494442318712329e-006 
2.101801255457889e-005 
1.546021602599712e-005 
-1.028535311284059e-005 
-2.307593942895134e-008 
1.759731179623947e-006 
2.157524973512894e-006 
9.687274862534086e-006 
7.828770367299488e-005 
5.239871455699593e-005 
0.0001061475890602282 
6.476004554169978e-005 
9.362472788805701e-005 
-1.592035756178425e-005 
-2.876209033577993e-005 
-4.451722285200048e-006 
-1.642528342419234e-005 
2.676154427506718e-006 
-4.017112489160492e-006 
1.56843652475833e-006 
-5.651431280570576e-007 
7.188683973754331e-006 
-4.938688714373599e-006 
-3.622861349821403e-006 
-4.296810762151533e-006 
-4.18421036978688e-006 
1.767019638369885e-005 
1.908057663173015e-005 
-2.067841843582153e-006 
-4.187827611674196e-007 
2.11297598378303e-006 
-8.676345081846454e-006 
-1.447653523291803e-005 
4.051931887106699e-005 
8.649130825082197e-005 
0.0001302612709596986 
4.632692465601618e-005 
6.759447366742381e-005 
-7.074470320122149e-006 
6.01010382838428e-005 
4.580974322515789e-005 
1.171519893489529e-005 
-3.369103290290273e-006 
-1.154635438413028e-005 
1.139297752178187e-006 
3.984822851610056e-006 
-3.023596655606909e-006 
-1.452916817190616e-006 
-8.56226869399362e-006 
1.470735893239038e-006 
6.92790367002023e-006 
1.797762192920884e-005 
1.32577663304285e-006 
-4.589119815615431e-006 
-4.637140127997903e-007 
-5.725167847464595e-006 
-2.822044937067046e-005 
2.37040815545514e-005 
6.356034274989027e-005 
3.769613768662007e-005 
8.135087624396272e-005 
6.382959290913364e-005 
6.472443343625448e-005 
-8.346777538995289e-006 
3.437286184246904e-005 
4.835812582724081e-005 
9.066183447695027e-006 
-8.517534228590707e-006 
-7.302117129475207e-006 
1.243181044159374e-005 
3.30754373471277e-006 
-6.93772380522859e-006 
-1.229812336123504e-005 
-1.335657820220873e-005 
1.207384398720666e-006 
1.269895574947491e-005 
5.20065492889474e-006 
-8.497914126599295e-006 
1.853634924638221e-006 
4.543034794719068e-007 
-2.677848918424877e-005 
-4.941408224278588e-005 
2.212243082253094e-005 
8.854545349126583e-005 
5.371314027482879e-005 
0.0001131809799914965 
2.462742911396152e-005 
0.0001315922509805996 
5.419878537271775e-005 
8.812358500643145e-005 
3.513919510290853e-005 
-1.334218702893312e-005 
-4.58034923312955e-006 
2.50134001997414e-007 
9.812268585226248e-006 
7.709641254438501e-006 
-6.157271356784354e-006 
-6.225667174769189e-006 
4.907941108636702e-006 
-6.523172049543729e-007 
-1.878444032130077e-006 
-1.232775099801267e-005 
-1.575109760885082e-005 
-5.58264595622303e-006 
1.019104110123949e-006 
-2.638218080796079e-005 
-1.398423702218521e-005 
5.354681587097868e-005 
7.081229620218207e-005 
3.409912159851679e-005 
5.319722992304158e-005 
8.827148194492202e-006 
6.766306412426966e-005 
1.693782416140909e-005 
-1.6770032594579e-005 
-4.160601949683306e-005 
5.371673928823376e-006 
-3.713153977933195e-006 
3.891520091894894e-006 
5.063425658013595e-006 
1.538041807076104e-006 
1.519648236663188e-007 
2.786381543255346e-006 
7.030177797252068e-007 
-9.847452369247521e-006 
-5.224325300952298e-006 
-6.11485954779553e-006 
-1.012501630356679e-005 
4.847741852504574e-006 
1.185489300046011e-006 
-1.046027588428105e-005 
-1.454374682180671e-005 
1.966350759477664e-005 
7.544150146411409e-005 
5.750340341850801e-005 
0.0001132100390741106 
9.836786377500914e-005 
6.286361625865536e-005 
-2.910897181861946e-005 
2.403345388865045e-005 
1.203655586849426e-005 
-1.435070968979561e-005 
-1.537366244509832e-005 
1.646599688599912e-005 
8.623794876069746e-006 
-4.06883900787392e-006 
1.164506022963252e-008 
-3.064882792286367e-006 
-5.121474132654664e-006 
-2.033458254254102e-005 
-6.879711570916339e-006 
-1.591890975198752e-005 
-1.514461391067558e-005 
5.30424854954048e-006 
4.566143585345892e-006 
-3.245001100583141e-005 
-2.61979049851643e-005 
5.025061993577473e-005 
7.780246805062522e-005 
3.656077883596814e-005 
9.526853652625197e-005 
3.047441960328066e-005 
4.985120848876951e-005 
7.18547455191161e-006 
3.584357448388221e-005 
9.284327529314476e-006 
3.38092071401042e-005 
-3.426511600077555e-005 
2.113354854830173e-005 
3.540769436747624e-006 
1.445940548038575e-007 
3.632870888534457e-006 
-3.504628681270556e-006 
-1.781860945970747e-005 
8.781399272772235e-008 
7.213604770375668e-006 
-5.985125744509865e-006 
2.263958289429962e-007 
7.431514632433038e-006 
9.792569303455212e-006 
-0.0001006129424032492 
3.902301663091892e-005 
6.688944625548789e-005 
6.470617435556368e-005 
5.254044589214548e-005 
7.682130903134461e-005 
-1.180358847219472e-005 
3.882470424726112e-005 
2.467638744861814e-005 
-1.777759828424932e-005 
-6.602920520517488e-005 
-1.039725761137851e-006 
-3.517215814637242e-005 
2.30910056227386e-005 
-4.990362560798077e-007 
-7.829307380734871e-006 
2.223504443932958e-006 
-4.345471106550697e-006 
-1.596969273042365e-005 
2.109495810743974e-005 
6.863440748267398e-006 
-2.57937414085929e-005 
-3.542055700222722e-006 
5.401347854052338e-006 
1.086372198263096e-005 
-0.0001526315515954925 
6.49003487283143e-005 
4.763762300880615e-005 
7.690288046122184e-005 
5.474489752379866e-005 
5.386850635099359e-005 
-2.518008323253267e-005 
8.012151359997733e-005 
2.611310954539132e-005 
-2.579007767592326e-005 
-1.441153449768002e-006 
3.587364593476038e-005 
-1.112105971967154e-005 
1.452197007864666e-005 
-8.542771721454849e-006 
-7.907444796910003e-006 
1.637426251850562e-006 
-1.249094923882183e-005 
-1.957258593102161e-005 
2.006057515605303e-005 
-1.530438806900564e-005 
-2.964035416344879e-005 
-1.020753735673115e-006 
-8.374892715310233e-006 
7.272473968253771e-006 
-0.0001262304331366447 
5.536226698561269e-005 
1.847487279341151e-005 
3.674475104358586e-005 
5.952886574589088e-005 
0.0001121825259647212 
4.634676363429128e-005 
0.000153203479523971 
-4.255599534344226e-006 
-7.411825788313501e-005 
-3.109923848335906e-007 
1.162369434247242e-005 
2.077405588545509e-005 
-1.764854136354321e-006 
-1.445748050005374e-005 
-9.745536632890911e-006 
-1.123161732985187e-005 
-3.209316810209976e-005 
-2.689913648582725e-005 
4.749204458883768e-006 
-1.659722525217184e-005 
-1.65103867951906e-005 
1.278668931997988e-006 
-9.87977044985502e-006 
5.534448699117975e-007 
-7.524678860726732e-005 
3.824204013408021e-005 
3.174416115837081e-005 
5.224595937784151e-005 
4.125369961998161e-005 
1.513289701630154e-005 
-9.646402265973402e-005 
9.296492112840767e-005 
-5.487071366365411e-005 
-8.418770227794245e-005 
-2.867851851672859e-005 
-1.439694978609663e-005 
3.769899038571958e-005 
-8.389029729293296e-006 
-1.488268359140905e-005 
-1.111880102709011e-005 
-2.286012914510914e-005 
-4.865188500182612e-005 
-2.993448843425937e-005 
-1.425715635106804e-005 
-8.798059302772799e-006 
1.208549875813084e-006 
1.193592401487398e-007 
-1.285001098654344e-005 
-2.973383045318837e-006 
-3.543515665497422e-005 
4.352789960650324e-005 
2.548967222635085e-006 
2.830694350729908e-005 
3.128058795616084e-006 
-6.427639016575011e-005 
-0.0001106574142865628 
5.614902192749614e-005 
-1.781760292019748e-005 
-7.113088887628591e-005 
-4.601711400352973e-005 
-2.530318882534064e-005 
3.299643807265067e-005 
-1.017132484396438e-005 
-1.216957535131742e-005 
-1.185088004762985e-005 
-2.587010179825706e-005 
-5.078208878014342e-005 
-3.643898081053527e-005 
-2.074906507568247e-005 
7.048713455905124e-006 
1.651674409740502e-005 
8.701910642505136e-006 
-3.852392464134687e-006 
-9.580654573501678e-007 
-9.53394896885444e-006 
2.887244315404646e-005 
-1.881307787669285e-005 
2.552783518635831e-005 
-3.135543420033673e-005 
-0.0001011615158627953 
-9.635066127015103e-005 
5.736307209660657e-005 
-1.109619088479028e-005 
-2.124101371422705e-005 
2.200866138912632e-005 
-9.912898275228651e-006 
2.016222191606278e-005 
-8.102694957072535e-006 
-1.269311894467831e-005 
-1.32788288449148e-005 
-2.001241830070386e-005 
-1.775390378375906e-005 
2.824510554942008e-006 
-1.144441259878406e-005 
1.039530929586043e-005 
9.892957592873929e-006 
1.243879628463539e-005 
7.932092091236061e-006 
-2.831106871027625e-007 
5.895895590007996e-006 
9.190512222518421e-006 
-1.709444236597654e-005 
-9.150373033590288e-006 
-3.35170757868686e-005 
-8.358031784400068e-005 
-0.0001359042050102374 
6.725868649874176e-005 
9.10071296119327e-006 
-2.300805297131616e-005 
1.785495649863349e-005 
-9.88033241579589e-006 
1.052704888501082e-005 
-8.861411418371727e-006 
-7.994992425841053e-006 
-5.628071830952882e-006 
-9.646022708348759e-006 
6.239908295785091e-006 
6.811981677526217e-006 
-1.675750731852487e-005 
-7.891544816931149e-006 
-2.825908541545407e-006 
9.088829638792844e-006 
8.112635548154988e-006 
-1.825872072229974e-006 
4.898882644999449e-006 
1.489727470334326e-005 
-2.189987016692467e-005 
4.580753885931734e-006 
-4.048595866579449e-005 
-6.398460809435195e-005 
-6.971779269005004e-005 
3.018813790580026e-005 
-1.63533081328043e-005 
-5.878427672198015e-005 
1.579250901379417e-006 
1.755201491437856e-005 
2.894629247658018e-006 
-4.930326442871854e-006 
-3.903707706734699e-006 
1.041594118076749e-006 
7.662939445805111e-006 
1.614463724740063e-005 
1.135553609728499e-006 
-1.999087853610452e-005 
-2.486112967870434e-005 
-2.681233518777376e-005 
-1.328650393123351e-005 
-5.878170813947499e-006 
-4.057489033775842e-006 
9.983683730008326e-006 
6.208351866352533e-006 
-3.588261571476536e-005 
1.064014652578113e-005 
-4.053672629919933e-005 
-5.166530933423509e-005 
-8.991388775231544e-005 
-1.405082283437133e-005 
-5.464677399009067e-005 
-6.64887476434702e-005 
9.641724183308381e-006 
1.527487720858697e-006 
4.930515457560074e-006 
7.619753623648439e-006 
6.919525305124655e-007 
1.363987956722315e-005 
1.837616544263861e-005 
7.969781896630469e-006 
1.568714605130772e-005 
-9.122478252107958e-006 
-1.973420983460868e-005 
-9.4749843970523e-007 
-1.020868270700342e-007 
-1.8677103008463e-006 
-4.990607021407768e-006 
2.895313869557682e-006 
5.711833197437463e-006 
-2.893753704752771e-005 
2.084051416947892e-005 
1.046914529124258e-005 
-3.639572260973178e-005 
-0.0001136681594656351 
-1.93670072201366e-006 
-0.0001035281229349472 
-0.0001335622857858816 
-4.031730576453363e-005 
-4.500769619433739e-005 
-1.466919159790793e-006 
1.543096029699471e-005 
8.943305803030294e-006 
1.286796530749084e-005 
1.402758144365032e-005 
-7.846100107882876e-006 
2.434750774693993e-005 
2.442584706003725e-006 
-1.010327368038721e-005 
1.07312083164867e-005 
-4.395424274998631e-006 
1.367886444732882e-006 
-2.20016750984001e-006 
3.155027877028347e-005 
5.188191994803632e-005 
-1.011586833335712e-005 
5.091882962912149e-005 
3.288600239309647e-005 
-5.752590445376937e-005 
-3.549390820000111e-005 
3.770864906906509e-005 
-4.598301490291133e-005 
9.643437601449757e-006 
3.829276698356229e-005 
1.206104278383001e-005 
-7.392150111778606e-006 
2.392351314403051e-005 
1.849151458174506e-005 
5.048713206098174e-006 
2.950628031723269e-007 
-1.548011717014204e-005 
2.335300421664991e-005 
4.455766689869171e-006 
1.021360834101182e-005 
3.199334951214211e-005 
7.617322577761367e-006 
9.77858988328715e-006 
1.195248583908441e-006 
-1.321898108330407e-005 
6.921532775640776e-005 
9.933333024466478e-006 
4.878113321001661e-005 
-7.059393905079683e-006 
-0.0001002849113776095 
2.480998484241226e-005 
1.652132639804519e-005 
-7.120150638349742e-005 
-4.319437915915052e-005 
-3.472337217859654e-005 
1.912475058060087e-005 
-1.639900871991397e-006 
7.639328186550909e-006 
3.633424327733801e-006 
-2.100171285736375e-005 
-1.749213417131008e-005 
-1.463108055803726e-005 
4.694687823275053e-006 
-2.073296564420261e-005 
1.117910295051838e-005 
4.562215285768867e-005 
4.083808753778956e-005 
2.232745037388636e-005 
5.135380453714448e-006 
-1.89198980122096e-005 
9.407442272301754e-005 
3.713963827281204e-005 
2.191337029448109e-005 
-3.029713146668779e-005 
-9.712129897311739e-005 
-4.238810344464405e-005 
-1.00100975847491e-006 
-1.974192928981322e-005 
4.829415829523291e-005 
4.493133781180816e-005 
1.835422131253623e-005 
2.621185349751288e-006 
-1.683944826236181e-005 
-9.699972624132562e-006 
-4.462017901964603e-005 
-8.362915028135546e-006 
4.353717461978454e-006 
-2.641296005331925e-005 
-2.440877574623203e-005 
7.182993309334306e-007 
1.499226224427792e-005 
4.14677521934636e-005 
2.044135122989848e-005 
6.459436051813031e-006 
1.993081874080409e-005 
2.281223432676807e-005 
-3.439809525455471e-005 
-6.966526161574193e-005 
-4.540006990635935e-005 
-8.975359550363128e-005 
-8.674773454624844e-005 
-8.624662864487316e-005 
-6.075315007495986e-005 
7.522344966773523e-005 
0.0001605538424889355 
6.34831907805172e-005 
1.501480423860419e-005 
-2.652931837252051e-005 
-1.59701824277897e-005 
-4.823233051113962e-005 
2.385938550894844e-006 
2.41417961901393e-005 
-2.36252194944409e-005 
-6.302348594897729e-006 
1.701746422741114e-005 
1.592415312143266e-005 
3.224389547561945e-005 
1.250642516153407e-005 
4.28650789791049e-006 
2.808119307479906e-005 
-9.11379799987476e-006 
-3.645000817506495e-005 
-0.0001129586336330643 
1.024176342516966e-005 
-4.102297782269969e-005 
-0.0001117797932281899 
-3.295147559646736e-005 
-4.761567487947971e-005 
2.539565856935369e-005 
0.0001479927522483887 
9.208841329786572e-005 
1.398931502283137e-005 
-2.470805896104035e-005 
-1.019701409054078e-005 
-3.064517875140245e-005 
7.975680033255284e-006 
3.54796878072584e-005 
-1.691200584016787e-006 
1.357431631460078e-006 
3.448211758977723e-006 
-1.339279711487909e-005 
-6.967983113531694e-006 
-6.328834958915471e-006 
1.186139900674816e-006 
3.83543829296913e-005 
-1.183741737923501e-005 
-3.312271076543286e-005 
-0.0001249446801755739 
-1.539916359637856e-005 
-7.624891811157034e-006 
-5.862049457544497e-005 
9.847818554685418e-007 
2.782286222333451e-005 
4.787586333116703e-005 
7.496545443923226e-005 
4.478973252866261e-005 
1.048880218458473e-005 
-4.521501040740655e-006 
1.000927454239762e-005 
-2.711386526046201e-006 
5.786773993834243e-006 
4.39235545413013e-005 
1.413356510620975e-005 
1.40949796928225e-005 
1.755021825828917e-005 
-1.788807705681561e-005 
-3.531270964860045e-005 
-2.544964159825617e-005 
-2.054998501267132e-006 
4.181483946342646e-005 
-1.214082277335161e-005 
-1.448308204117539e-005 
-0.0001036726946861721 
-5.419216282979194e-006 
3.921305746066807e-005 
-6.490772269435188e-005 
-3.782947132571495e-005 
-4.678887755801621e-005 
-4.99600045541213e-006 
5.288583789694372e-005 
-3.943225270058233e-006 
6.791007171967436e-006 
6.907067980141642e-006 
1.180960360527189e-005 
2.30698643401439e-005 
1.64378609381187e-006 
3.317195983807875e-005 
2.264461523123453e-005 
1.098151084100608e-005 
9.600727516216498e-006 
-4.090428342155595e-006 
-3.414369805258222e-005 
-2.455327678594485e-005 
-4.47113655085848e-006 
6.550806237906902e-005 
1.718291993002805e-006 
4.664780072233261e-006 
-8.78652125003077e-005 
-8.635726453874589e-006 
8.974587727108296e-005 
-3.951566135224891e-005 
-1.333267613229826e-005 
2.658471997253064e-005 
9.788936218565586e-007 
3.154397396354238e-005 
-1.574928206546752e-005 
1.230763983779224e-006 
7.913124448514389e-006 
1.099422819790373e-005 
3.1270790011747e-005 
8.745899807595891e-006 
1.51097397979697e-005 
1.411850452170332e-005 
1.191522299767163e-005 
5.509236295180235e-006 
-3.263275492127653e-006 
-3.374107504932552e-005 
-2.027560458629911e-005 
-5.319816798316748e-006 
4.845944438844686e-005 
1.864365916849259e-005 
3.704215777150638e-006 
-1.614893632692346e-005 
1.507900980099352e-005 
7.615167241483903e-005 
-8.10937347602408e-006 
2.911480107925751e-005 
1.007022192707013e-006 
2.839200732247542e-005 
-1.015018052284722e-006 
-4.083767445253928e-007 
-2.485993063901779e-006 
9.61814824183356e-006 
8.450268811364981e-006 
3.019183684016093e-005 
2.818137985333688e-006 
-9.003995259688962e-006 
4.709570596861443e-006 
4.066046640586784e-006 
2.099709344395294e-005 
1.375480287350754e-005 
-2.295818383498583e-005 
-8.307610417480426e-006 
-5.327440049220495e-006 
4.118588374113291e-005 
1.233590597208203e-005 
1.275475771284531e-005 
-1.235264934954101e-005 
1.808121209507018e-005 
4.9454743766526e-005 
-1.642712413911461e-005 
2.708902887973248e-005 
3.14711712314466e-005 
1.486549347425714e-005 
-6.678933222560265e-005 
-5.835572723442289e-005 
-6.223950800311822e-006 
4.01137988748584e-006 
4.144416722226359e-006 
2.422617407275907e-005 
-1.941689502089792e-006 
-1.026222054804625e-005 
2.27032341773857e-006 
-1.614120871042506e-005 
-7.24549581958206e-006 
9.181220015299439e-006 
2.0379650428756e-006 
-4.045503260734113e-006 
-4.16343892885289e-006 
4.154596200057422e-005 
3.064110528866536e-005 
2.372326550705461e-005 
9.530097833405753e-006 
-4.687016514055112e-006 
1.433870217905695e-005 
-5.290419415315128e-005 
-3.771014635566262e-005 
5.575358748812191e-005 
5.683462009108161e-005 
-1.273854420686752e-005 
-2.417799776659419e-005 
-5.278456857818555e-006 
-5.211560486805989e-006 
6.215103818264514e-006 
7.503581955238411e-006 
-8.276222659858994e-006 
-7.952764819794737e-006 
2.074187163886997e-006 
-1.889587960654775e-005 
-5.480245068334677e-006 
-6.637016200103963e-006 
7.684005243531478e-006 
3.101756909042639e-006 
-1.562855623213296e-006 
3.784504865750159e-005 
1.577651616892296e-005 
1.537739582480138e-005 
2.042610268371201e-005 
-8.461205589359978e-006 
6.934126056268715e-005 
-5.766596028823765e-006 
-6.06264700625559e-005 
-3.701606126032703e-005 
3.266373310195019e-005 
4.759557385532607e-005 
-2.409189137910006e-005 
-5.677945219451106e-006 
-5.870041626790193e-006 
1.549176664746424e-006 
-4.452844523325639e-006 
-3.099507314329184e-007 
7.087274229034943e-006 
1.564289156982267e-005 
-1.314374279066882e-005 
-6.575976882886528e-006 
-6.399464845309623e-006 
1.786322144099691e-005 
2.234949936024272e-005 
1.642593969978322e-006 
2.37375252045035e-005 
-9.134354046325285e-006 
3.346842703098389e-005 
4.979586214153174e-006 
-1.30308826150476e-005 
2.644459357356241e-005 
-3.068670192523637e-006 
-2.150712520272338e-005 
7.849402043085083e-006 
-1.369219806161318e-005 
-1.978737362513015e-005 
-2.031519101764719e-006 
-6.819163247815727e-006 
-1.266895137562347e-005 
-1.370589757774047e-006 
-2.003007392801789e-005 
2.306993808487803e-006 
5.741275880117695e-006 
1.284439145074194e-005 
-2.317310299194207e-006 
6.92282161343354e-006 
-1.483769833446724e-005 
4.299094194097214e-006 
1.596186646446057e-005 
5.254473532952526e-006 
2.170031903552428e-005 
2.873407627693284e-006 
1.562805936066838e-005 
-3.234155445485455e-005 
2.070348087073437e-005 
7.883816647261462e-005 
3.686942110026184e-005 
-4.673136328765214e-005 
2.254333740741064e-005 
1.813152204882365e-005 
2.60510215025758e-005 
4.231870973019656e-005 
-5.478979035524683e-006 
-1.968612053451675e-005 
-5.10970655669741e-006 
-3.285049024913521e-005 
-2.633336416021156e-006 
7.207154398741219e-006 
1.427722143792866e-005 
-3.909765940112533e-006 
3.028877929031381e-005 
-9.951010452643152e-006 
-2.63213030674766e-006 
1.059954821345962e-005 
8.638633219550717e-006 
1.552251121224555e-005 
-2.625198928088261e-005 
1.67449858641953e-005 
-6.423655359439938e-005 
-7.7343679905024e-006 
3.829657161829345e-005 
-9.999992389946751e-006 
-5.624419386711934e-005 
6.058799256564303e-005 
-1.008757579735413e-005 
1.952914730452201e-005 
2.24258666376729e-005 
-4.97767793660259e-006 
-2.312900464680183e-005 
-1.278516380308109e-005 
-3.605857883477636e-005 
-7.27823715733503e-006 
2.369993338844662e-005 
2.326621373416392e-005 
-1.049760007109121e-005 
2.072533539639158e-005 
-3.59148981477084e-006 
-6.737204829700649e-007 
-1.429792399380105e-005 
1.05326271067002e-005 
1.45576604760072e-005 
-7.409514822483883e-005 
-1.809415045538111e-006 
-0.0001092181039827445 
-2.427621210988221e-005 
9.945098195791752e-005 
6.90850369065101e-005 
-6.280682152336431e-005 
8.805858114814025e-005 
-1.889361998885072e-005 
1.477666505556737e-005 
1.66771455999904e-005 
-3.908895127097563e-006 
-2.990788183488586e-005 
-4.067197775340228e-006 
-2.52118748515156e-005 
-1.620063295128945e-006 
2.925691195673141e-005 
2.719298800290332e-005 
1.925978224709147e-006 
2.513498498496332e-005 
-7.359978796158137e-006 
-2.92972398124434e-005 
-2.679449543902081e-005 
9.828184681207337e-006 
2.420464801249137e-006 
-8.62952947636775e-005 
-2.173873962602422e-005 
-0.0001368755252325577 
-2.693227864361955e-005 
0.0001346378003364784 
9.715488271285257e-005 
-6.59574004616788e-005 
7.871831704914594e-005 
-1.313702130370838e-005 
-1.751885454868128e-005 
-6.070015507286874e-005 
-2.508528029468884e-006 
-2.32111204415607e-005 
-5.100176558526841e-007 
-1.879320441645602e-005 
7.580820697417212e-006 
2.779446060022521e-005 
2.239745497042851e-005 
8.896947262880463e-006 
1.655647884831743e-005 
-4.245058023167886e-006 
-2.973825811255579e-005 
-1.000063242976241e-005 
7.185745389032725e-006 
8.706889042512258e-006 
-0.0001166436129548007 
1.453387613129419e-005 
-0.0001220815422830193 
2.22021088687372e-005 
0.0001769516640715727 
0.0001192570366622111 
-3.224498187426442e-005 
0.0001391537704579695 
-1.71436068638791e-005 
-0.0001019111177073678 
-5.00909837212459e-005 
-1.717727330242174e-006 
-1.622286457506854e-005 
-1.686145959910931e-007 
-9.725761466463551e-006 
-1.024680590949115e-006 
-5.463852421581729e-006 
-7.164855355723506e-006 
-2.68608038115354e-006 
7.995927749583384e-006 
-7.642555543287338e-006 
-2.159207220939703e-005 
-1.087927297021172e-005 
2.657277779177936e-006 
5.905279218626219e-006 
-0.0001210333627794827 
6.023191914811906e-006 
-0.0001517707999771258 
6.930622531667996e-006 
0.0001385185390462585 
7.690094575549817e-005 
-2.704043282994977e-005 
0.0001178228491587041 
-3.218789600939028e-005 
-7.081830888317765e-005 
5.806754275212401e-006 
3.469250792027968e-006 
-1.339044013996379e-005 
2.910897505766385e-006 
1.028497758722939e-006 
-1.809017719007737e-006 
-2.843027624708378e-005 
-1.914421029222793e-005 
4.6647518534708e-006 
8.99716857034139e-006 
-2.054746639744693e-006 
-7.967974202095252e-006 
1.865622336067028e-007 
-5.940929803355573e-008 
4.226657617313012e-006 
-0.0001378399322602836 
-1.653352066591989e-005 
-0.0001503996766432747 
-4.633099761018325e-005 
7.019135323695159e-005 
4.338761495937074e-005 
-9.569576187512931e-005 
0.0001084857312993915 
-4.758101882114616e-005 
-6.653424837244517e-005 
-7.097262618374227e-005 
5.166566158020491e-006 
-4.926399666627835e-006 
5.719522997356953e-006 
8.916851418370542e-006 
-9.992618187575206e-006 
-4.939576354694717e-005 
-3.495718236546248e-005 
6.114269821644206e-006 
-1.094020304147278e-005 
5.274737645081139e-006 
1.388426785673805e-005 
-3.866060676490098e-006 
-1.010566707987815e-006 
2.200681203701103e-005 
-0.0001426497845503067 
8.349374786337547e-006 
-0.0001175733772951651 
-1.71084674071991e-006 
4.586634649281623e-005 
3.936826127533529e-005 
-1.090823951843136e-005 
0.0001390381803940865 
-8.192043954076031e-006 
-7.504715657084109e-005 
-4.932647962752065e-005 
6.639302763644376e-006 
8.334896755015804e-007 
1.983586847769295e-005 
1.847849500439683e-005 
-8.471098379754039e-006 
-3.60551910278566e-005 
-1.6133558374412e-005 
3.20621388462263e-005 
-2.368424943716556e-005 
6.539380101692316e-006 
2.149012187745945e-005 
-7.381222053264096e-006 
-8.826965587968375e-007 
2.648897781386642e-005 
-0.0001304677893938574 
4.196846321189334e-005 
-9.459572612331593e-005 
-2.344032961814423e-005 
-2.370088728122193e-005 
-3.67623087380324e-005 
-9.7396795783641e-006 
7.384492226952699e-005 
-2.767888808930122e-006 
-3.037529757345737e-005 
-4.185466874722983e-005 
2.169345963732515e-006 
9.596399568886083e-006 
3.236949415307267e-005 
2.152440808586902e-005 
-6.444053405431392e-006 
-1.631183119077535e-005 
-1.302027090813599e-005 
3.666006222547078e-005 
-3.830120524370908e-005 
5.108316944308278e-006 
3.51021997183109e-005 
9.441915779661276e-008 
1.473379387268834e-007 
2.797069140727094e-005 
-0.0001205525635873604 
7.595133732416093e-005 
-8.728018985812195e-005 
-4.687027524377667e-005 
5.188773304883897e-006 
3.630811573213972e-005 
9.029235597139739e-005 
1.672262716046978e-005 
-2.189758248704202e-005 
1.855271017790441e-005 
-4.565837857798057e-005 
-6.536839072948669e-006 
1.054933517913835e-005 
2.970781358365055e-005 
2.714639707234973e-005 
1.205613586902184e-006 
2.260503724398105e-006 
-1.800046823307206e-006 
2.283642208028691e-005 
-4.366513754356289e-005 
-1.092660843107579e-005 
2.011123398474152e-005 
-1.247904134227423e-005 
-2.369299737883739e-006 
1.209141345561819e-005 
-0.0001009071619142095 
0.0001115130587612315 
-5.792394581445354e-005 
-5.597158965052256e-005 
8.971240862761002e-006 
-2.018366644413335e-005 
3.700407853467883e-005 
-2.186240703140258e-005 
-1.518672083417124e-005 
6.217659156101638e-005 
-7.233457055777406e-005 
-5.17853160247741e-006 
1.040669648016817e-005 
2.287993046137752e-005 
1.936774176135307e-005 
8.573913858816319e-006 
9.233562217610034e-006 
7.07838181343557e-006 
2.174072588046658e-005 
-2.557213004718085e-005 
-8.336700876175566e-006 
-6.455718134745405e-006 
-1.889442848128557e-005 
-3.608634735986809e-006 
-3.478611818730272e-006 
-0.0001046833672159397 
0.0001221165506234069 
-1.775522455233916e-007 
2.058282316375816e-005 
4.083278330113767e-005 
2.207881828813217e-005 
7.990223680534578e-005 
-3.143378749476356e-005 
-5.661570402648419e-005 
-2.076704440459722e-005 
-9.648201379376731e-005 
-1.906995330179717e-006 
8.290462500789594e-006 
1.364410731117739e-005 
1.085595348831558e-005 
1.068202694749184e-005 
-5.413933610225578e-007 
-3.519958883580599e-006 
9.488889298558217e-006 
-1.013960271366465e-005 
-2.229525729235917e-006 
-2.282634847741313e-005 
-1.6909426847813e-005 
-3.620666289828904e-006 
1.615058519831473e-005 
-8.638763635496827e-005 
0.0001322009155719347 
-4.266458596892462e-005 
-1.515169095665849e-005 
5.421200084787308e-006 
5.636090237515561e-006 
0.000103836088521131 
-2.872022877559771e-005 
-2.71567079932569e-005 
-4.344415875478146e-005 
-0.0001112177419585453 
2.83901808354638e-006 
4.862777368402308e-006 
5.509366188169783e-006 
-8.290160314908038e-007 
4.814358370794617e-006 
-4.382356804558123e-006 
3.559357248604167e-006 
1.597187467192676e-005 
-1.319305499921512e-006 
6.973457504385271e-007 
-2.342498988291861e-005 
-9.098867516146487e-006 
-6.617444900424221e-023 
-1.770166510863479e-022 
-8.313165156157928e-023 
2.911675756186657e-022 
-9.793818452627848e-022 
-5.823351512373315e-022 
4.102815838263017e-022 
4.499862532288471e-022 
2.646977960169689e-023 
-2.646977960169689e-023 
2.117582368135751e-022 
-2.38228016415272e-022 
1.323488980084844e-023 
3.176373552203626e-022 
-5.955700410381799e-023 
-1.19114008207636e-022 
-1.522012327097571e-022 
1.091878408569997e-022 
1.604730388352874e-022 
-1.257314531080602e-022 
-3.970466940254533e-023 
5.293955920339377e-023 
7.940933880509066e-023 
-1.058791184067875e-022 
-2.646977960169689e-023 
-3.308722450212111e-024 
2.862044919433476e-022 
2.249931266144235e-022 
-5.624828165360588e-022 
1.641126335305207e-021 
-1.111730743271269e-021 
-1.282129949457193e-022 
1.41654679899706e-023 
3.308722450212111e-024 
-9.165161187087547e-022 
3.176373552203626e-022 
9.926167350636332e-022 
-7.146840492458159e-022 
-2.646977960169689e-022 
6.617444900424221e-024 
-5.293955920339377e-023 
3.970466940254533e-023 
4.698385879301197e-022 
2.9778502051909e-022 
3.308722450212111e-023 
1.323488980084844e-023 
6.617444900424221e-023 
-1.522012327097571e-022 
3.88774887899923e-023 
1.042247571816815e-022 
5.955700410381799e-023 
-9.26442286059391e-022 
6.352747104407253e-022 
-2.911675756186657e-022 
2.117582368135751e-022 
-8.768114493062093e-022 
2.911675756186657e-022 
-2.911675756186657e-022 
3.705769144237564e-022 
3.308722450212111e-022 
1.111730743271269e-021 
1.978616025226842e-021 
4.499862532288471e-022 
1.323488980084844e-023 
1.158052857574239e-022 
7.940933880509066e-023 
-1.720535674110298e-022 
3.540333021726958e-022 
1.348304398461435e-022 
-1.985233470127266e-023 
0 
-1.323488980084844e-022 
4.963083675318166e-023 
-3.970466940254533e-023 
1.588186776101813e-022 
1.985233470127266e-023 
1.244079641279754e-021 
6.352747104407253e-022 
6.617444900424221e-023 
-1.774489822033776e-021 
-2.911675756186657e-022 
-5.029258124322408e-022 
3.705769144237564e-022 
6.352747104407253e-022 
3.970466940254533e-022 
-5.293955920339377e-023 
-9.098986738083304e-022 
-2.911675756186657e-022 
1.323488980084844e-023 
6.948317145445433e-023 
-9.926167350636332e-023 
-3.176373552203626e-022 
1.852884572118782e-022 
-1.819797347616661e-023 
1.091878408569997e-022 
-1.389663429089087e-022 
1.455837878093329e-022 
3.308722450212111e-023 
4.632211430296955e-023 
-5.293955920339377e-023 
9.926167350636332e-024 
-2.200300429391054e-022 
-3.308722450212111e-023 
-1.244906821892307e-022 
-2.646977960169689e-022 
7.527343574232552e-022 
-8.933550615572699e-023 
-2.646977960169689e-023 
1.455837878093329e-022 
0 
-7.146840492458159e-022 
-1.852884572118782e-022 
-1.826414792517085e-021 
-3.970466940254533e-023 
-2.249931266144235e-022 
-2.646977960169689e-022 
-1.852884572118782e-022 
-1.654361225106055e-023 
-1.323488980084844e-023 
-2.68006518467181e-022 
4.499862532288471e-022 
-1.720535674110298e-022 
2.646977960169689e-023 
-1.323488980084844e-023 
2.316105715148478e-023 
9.926167350636332e-024 
2.514629062161204e-022 
8.602678370551488e-023 
1.323488980084844e-023 
4.235164736271502e-022 
3.308722450212111e-023 
5.624828165360588e-023 
-7.940933880509066e-023 
1.19114008207636e-022 
6.352747104407253e-022 
5.293955920339377e-023 
-2.646977960169689e-023 
9.926167350636332e-024 
-1.058791184067875e-022 
-5.955700410381799e-023 
5.293955920339377e-023 
4.632211430296955e-023 
5.624828165360588e-023 
0 
1.323488980084844e-023 
-1.323488980084844e-023 
1.323488980084844e-023 
2.316105715148478e-023 
4.135903062765138e-025 
-2.646977960169689e-023 
1.654361225106055e-023 
6.617444900424221e-023 
1.654361225106055e-023 
2.646977960169689e-023 
0 
-2.812414082680294e-023 
6.617444900424221e-023 
1.323488980084844e-023 
1.323488980084844e-023 
0 
2.38228016415272e-022 
-7.610061635487855e-023 
-1.455837878093329e-022 
1.985233470127266e-023 
4.963083675318166e-024 
-4.632211430296955e-023 
-2.316105715148478e-023 
7.279189390466644e-023 
-9.26442286059391e-023 
-3.308722450212111e-023 
3.308722450212111e-022 
9.926167350636332e-024 
2.646977960169689e-023 
-7.279189390466644e-023 
1.985233470127266e-023 
-3.877409121342317e-026 
1.323488980084844e-023 
2.9778502051909e-023 
5.293955920339377e-023 
-6.88214269644119e-022 
-7.940933880509066e-023 
3.176373552203626e-022 
1.19114008207636e-022 
-1.19114008207636e-022 
-8.470329472543003e-022 
-1.588186776101813e-022 
-1.389663429089087e-022 
-1.985233470127266e-023 
8.271806125530277e-024 
1.323488980084844e-023 
-4.135903062765138e-024 
3.474158572722716e-023 
3.308722450212111e-024 
-4.301339185275744e-023 
-5.293955920339377e-023 
-2.646977960169689e-023 
-5.955700410381799e-023 
8.271806125530277e-024 
0 
-3.970466940254533e-023 
-2.895132143935597e-023 
-1.588186776101813e-022 
5.955700410381799e-023 
-3.176373552203626e-022 
8.999725064576941e-022 
-6.617444900424221e-024 
0 
-1.257314531080602e-022 
4.499862532288471e-022 
3.176373552203626e-022 
-7.940933880509066e-023 
-6.617444900424221e-024 
-3.970466940254533e-022 
-6.28657265540301e-023 
-9.926167350636332e-024 
-2.183756817139993e-022 
1.033975765691285e-025 
-4.301339185275744e-023 
-5.293955920339377e-023 
-4.632211430296955e-023 
7.940933880509066e-023 
-1.985233470127266e-022 
-1.091878408569997e-022 
-3.308722450212111e-024 
-8.602678370551488e-023 
1.819797347616661e-023 
-8.205631676526035e-022 
-2.9778502051909e-023 
1.455837878093329e-022 
1.852884572118782e-022 
7.940933880509066e-023 
0 
-2.38228016415272e-022 
1.323488980084844e-022 
-4.235164736271502e-022 
-2.117582368135751e-022 
1.422750653591208e-022 
1.852884572118782e-022 
-4.632211430296955e-023 
1.985233470127266e-023 
3.970466940254533e-023 
-4.135903062765138e-024 
1.654361225106055e-024 
-1.323488980084844e-022 
8.892191584945048e-024 
4.301339185275744e-023 
6.617444900424221e-024 
7.279189390466644e-023 
4.632211430296955e-023 
-1.124965633072118e-022 
-4.963083675318166e-024 
-2.646977960169689e-022 
3.308722450212111e-023 
-5.790264287871194e-024 
-1.058791184067875e-022 
-1.852884572118782e-022 
-3.639594695233322e-023 
-1.852884572118782e-022 
-7.940933880509066e-023 
-5.293955920339377e-022 
1.058791184067875e-022 
-3.474158572722716e-023 
4.499862532288471e-022 
9.926167350636332e-024 
2.316105715148478e-023 
7.940933880509066e-023 
1.522012327097571e-022 
-5.790264287871194e-024 
-2.779326858178173e-022 
-9.26442286059391e-023 
-4.301339185275744e-023 
-5.293955920339377e-023 
-1.819797347616661e-023 
-1.158052857574239e-023 
-1.091878408569997e-022 
8.271806125530277e-024 
2.646977960169689e-023 
-7.940933880509066e-023 
0 
-1.323488980084844e-021 
-5.293955920339377e-023 
3.044024654195142e-022 
-3.970466940254533e-023 
-2.646977960169689e-022 
-1.852884572118782e-022 
1.654361225106055e-023 
-1.985233470127266e-023 
2.38228016415272e-022 
1.240770918829542e-024 
9.926167350636332e-024 
-8.602678370551488e-023 
-1.720535674110298e-022 
-1.78671012311454e-022 
9.26442286059391e-023 
-2.646977960169689e-023 
-1.48892510259545e-023 
9.26442286059391e-023 
4.632211430296955e-023 
1.257314531080602e-022 
-1.985233470127266e-023 
3.308722450212111e-024 
-3.176373552203626e-022 
7.940933880509066e-023 
-1.124965633072118e-022 
-1.323488980084844e-023 
6.617444900424221e-023 
-3.176373552203626e-022 
4.632211430296955e-022 
2.38228016415272e-022 
-7.940933880509066e-023 
1.323488980084844e-023 
1.323488980084844e-023 
7.940933880509066e-023 
-1.985233470127266e-023 
3.308722450212111e-024 
0 
3.308722450212111e-022 
7.940933880509066e-023 
1.240770918829542e-024 
-2.481541837659083e-023 
5.624828165360588e-023 
-1.588186776101813e-022 
-1.389663429089087e-022 
1.654361225106055e-023 
-2.481541837659083e-023 
-3.308722450212111e-024 
-1.19114008207636e-022 
9.26442286059391e-023 
2.646977960169689e-023 
-1.389663429089087e-022 
-2.646977960169689e-023 
3.044024654195142e-022 
-4.102815838263017e-022 
2.646977960169689e-022 
-2.646977960169689e-023 
4.499862532288471e-022 
-1.323488980084844e-022 
-2.646977960169689e-023 
1.323488980084844e-023 
3.929107909626882e-024 
1.323488980084844e-023 
7.940933880509066e-023 
-4.632211430296955e-023 
5.955700410381799e-023 
9.926167350636332e-023 
-6.617444900424221e-024 
9.26442286059391e-023 
-6.617444900424221e-024 
-1.571643163850753e-023 
6.617444900424221e-023 
4.135903062765138e-023 
-7.940933880509066e-023 
-9.26442286059391e-023 
-1.058791184067875e-022 
-3.308722450212111e-022 
1.19114008207636e-022 
6.28657265540301e-023 
-2.274746684520826e-024 
-3.970466940254533e-023 
1.852884572118782e-022 
-4.235164736271502e-022 
3.970466940254533e-023 
3.176373552203626e-022 
3.143286327701505e-023 
-1.158052857574239e-023 
1.323488980084844e-023 
8.602678370551488e-023 
9.926167350636332e-024 
-2.9778502051909e-023 
-3.639594695233322e-023 
3.308722450212111e-023 
2.646977960169689e-023 
-6.617444900424221e-024 
5.293955920339377e-023 
1.985233470127266e-023 
-2.150669592637872e-023 
-1.323488980084844e-023 
-2.249931266144235e-022 
0 
-1.985233470127266e-022 
-1.455837878093329e-022 
-2.895132143935597e-024 
1.919059021123024e-022 
-1.323488980084844e-023 
-6.088049308390284e-022 
3.308722450212111e-023 
-6.617444900424221e-024 
2.249931266144235e-022 
-5.37667398159468e-024 
-9.926167350636332e-024 
-1.323488980084844e-023 
1.985233470127266e-023 
3.970466940254533e-023 
1.985233470127266e-023 
-3.308722450212111e-024 
0 
4.963083675318166e-024 
1.257314531080602e-022 
1.522012327097571e-022 
1.588186776101813e-022 
2.109310562010221e-023 
-1.19114008207636e-022 
-9.26442286059391e-023 
-8.205631676526035e-022 
1.323488980084844e-022 
0 
5.293955920339377e-023 
1.323488980084844e-023 
-1.19114008207636e-022 
3.970466940254533e-023 
3.705769144237564e-022 
3.441071348220595e-022 
0 
2.067951531382569e-025 
0 
-6.617444900424221e-023 
3.308722450212111e-024 
-8.271806125530277e-025 
0 
-1.240770918829542e-024 
1.654361225106055e-023 
-6.617444900424221e-024 
-4.632211430296955e-023 
6.28657265540301e-023 
5.955700410381799e-023 
-3.308722450212111e-024 
3.970466940254533e-023 
2.646977960169689e-022 
-1.058791184067875e-022 
3.441071348220595e-022 
-8.602678370551488e-023 
-6.617444900424221e-024 
2.38228016415272e-022 
1.124965633072118e-022 
-5.293955920339377e-023 
1.158052857574239e-023 
2.779326858178173e-022 
0 
1.48892510259545e-023 
8.271806125530277e-024 
-1.571643163850753e-023 
-7.610061635487855e-023 
-3.308722450212111e-024 
0 
-2.067951531382569e-025 
4.963083675318166e-024 
3.970466940254533e-023 
-9.926167350636332e-023 
-1.809457589959748e-025 
8.271806125530277e-024 
-2.895132143935597e-024 
1.985233470127266e-022 
-7.610061635487855e-023 
5.293955920339377e-023 
3.970466940254533e-022 
-2.911675756186657e-022 
1.985233470127266e-023 
3.474158572722716e-023 
2.249931266144235e-022 
-8.735027268559972e-022 
7.279189390466644e-023 
0 
6.617444900424221e-023 
-3.639594695233322e-023 
-5.293955920339377e-023 
6.617444900424221e-024 
0 
1.985233470127266e-023 
6.617444900424221e-024 
-3.308722450212111e-024 
-8.271806125530277e-025 
-7.279189390466644e-023 
9.926167350636332e-024 
4.466775307786349e-023 
2.316105715148478e-023 
8.271806125530277e-025 
1.257314531080602e-022 
1.058791184067875e-022 
1.058791184067875e-021 
-2.38228016415272e-022 
-3.705769144237564e-022 
3.308722450212111e-023 
3.308722450212111e-023 
-2.646977960169689e-022 
-1.588186776101813e-022 
-9.26442286059391e-023 
-3.970466940254533e-023 
2.646977960169689e-023 
-3.308722450212111e-023 
-4.632211430296955e-023 
-6.28657265540301e-023 
-9.926167350636332e-024 
5.955700410381799e-023 
6.617444900424221e-024 
-3.308722450212111e-024 
-1.323488980084844e-023 
5.624828165360588e-023 
-2.9778502051909e-023 
1.571643163850753e-023 
3.639594695233322e-023 
0 
5.955700410381799e-023 
-7.279189390466644e-023 
4.499862532288471e-022 
3.441071348220595e-022 
2.117582368135751e-022 
-1.588186776101813e-022 
-4.135903062765138e-025 
5.955700410381799e-023 
-5.293955920339377e-023 
5.293955920339377e-023 
-9.26442286059391e-023 
-4.632211430296955e-023 
-3.639594695233322e-023 
-1.323488980084844e-023 
-7.279189390466644e-023 
1.48892510259545e-023 
-1.654361225106055e-023 
-4.632211430296955e-023 
8.271806125530277e-025 
-2.779326858178173e-022 
2.646977960169689e-023 
-7.940933880509066e-023 
1.819797347616661e-023 
1.819797347616661e-023 
1.075334796318936e-023 
-2.646977960169689e-023 
-2.481541837659083e-024 
-2.646977960169689e-023 
3.441071348220595e-022 
-3.441071348220595e-022 
4.235164736271502e-022 
-3.970466940254533e-023 
1.158052857574239e-023 
3.970466940254533e-023 
-2.646977960169689e-023 
1.323488980084844e-022 
-6.617444900424221e-023 
5.790264287871194e-024 
-1.48892510259545e-023 
3.57342024622908e-022 
7.279189390466644e-023 
-1.058791184067875e-022 
-4.632211430296955e-023 
-3.308722450212111e-023 
2.117582368135751e-022 
1.323488980084844e-022 
-8.271806125530277e-024 
-1.654361225106055e-024 
-4.301339185275744e-023 
-8.685396431806791e-024 
3.308722450212111e-023 
2.646977960169689e-023 
-1.985233470127266e-023 
-3.308722450212111e-022 
1.124965633072118e-022 
-2.117582368135751e-022 
-4.301339185275744e-023 
5.293955920339377e-023 
1.323488980084844e-022 
-2.646977960169689e-023 
-2.646977960169689e-023 
-2.911675756186657e-022 
0 
-6.617444900424221e-024 
9.26442286059391e-023 
-2.316105715148478e-022 
3.308722450212111e-023 
-2.729696021424991e-023 
7.279189390466644e-023 
5.293955920339377e-023 
-3.308722450212111e-023 
4.963083675318166e-023 
1.323488980084844e-023 
6.948317145445433e-023 
-1.033975765691285e-023 
0 
0 
-1.058791184067875e-022 
-1.033975765691285e-025 
5.293955920339377e-023 
-1.720535674110298e-022 
2.646977960169689e-023 
-1.588186776101813e-022 
2.117582368135751e-022 
-6.617444900424221e-023 
4.896909226313924e-022 
-2.911675756186657e-022 
3.308722450212111e-024 
-1.985233470127266e-023 
3.970466940254533e-023 
3.308722450212111e-023 
-6.617444900424221e-023 
8.271806125530277e-024 
9.26442286059391e-023 
6.617444900424221e-023 
9.098986738083304e-024 
3.308722450212111e-024 
2.9778502051909e-023 
9.926167350636332e-024 
5.790264287871194e-024 
6.617444900424221e-023 
-3.639594695233322e-023 
3.308722450212111e-024 
6.617444900424221e-024 
3.412120026781239e-024 
-4.499862532288471e-022 
-1.588186776101813e-022 
3.176373552203626e-022 
4.632211430296955e-023 
-3.639594695233322e-023 
-6.617444900424221e-023 
0 
-3.929107909626882e-024 
-1.058791184067875e-022 
0 
3.970466940254533e-023 
-1.819797347616661e-023 
1.257314531080602e-022 
-8.271806125530277e-025 
-1.720535674110298e-022 
9.926167350636332e-024 
-9.926167350636332e-024 
-1.819797347616661e-023 
-3.639594695233322e-023 
8.271806125530277e-024 
0 
-8.602678370551488e-023 
-1.19114008207636e-022 
0 
1.654361225106055e-024 
5.293955920339377e-023 
-7.940933880509066e-022 
-1.323488980084844e-022 
1.323488980084844e-023 
3.970466940254533e-023 
-8.602678370551488e-023 
-6.088049308390284e-022 
6.28657265540301e-023 
7.279189390466644e-023 
9.926167350636332e-023 
2.646977960169689e-023 
1.124965633072118e-022 
3.308722450212111e-023 
-7.940933880509066e-023 
1.588186776101813e-022 
4.963083675318166e-024 
-1.389663429089087e-022 
4.963083675318166e-024 
8.602678370551488e-023 
-2.233387653893175e-023 
-2.9778502051909e-023 
-2.38228016415272e-022 
-6.617444900424221e-024 
-3.176373552203626e-022 
3.970466940254533e-023 
6.617444900424221e-024 
4.549493369041652e-024 
6.617444900424221e-024 
-6.617444900424221e-023 
-1.323488980084844e-022 
1.058791184067875e-022 
-3.308722450212111e-024 
-5.624828165360588e-023 
-4.963083675318166e-024 
-6.617444900424221e-023 
-5.955700410381799e-023 
-5.955700410381799e-023 
6.617444900424221e-024 
7.940933880509066e-023 
1.78671012311454e-022 
-2.316105715148478e-023 
-9.926167350636332e-024 
6.617444900424221e-024 
2.9778502051909e-023 
-8.271806125530277e-025 
-9.926167350636332e-024 
1.19114008207636e-022 
-1.058791184067875e-022 
1.852884572118782e-022 
7.940933880509066e-023 
-5.029258124322408e-022 
1.985233470127266e-023 
-1.720535674110298e-022 
5.293955920339377e-023 
-1.852884572118782e-022 
1.588186776101813e-022 
-1.588186776101813e-022 
3.308722450212111e-023 
6.462348535570529e-027 
1.654361225106055e-023 
-8.271806125530277e-024 
1.323488980084844e-023 
0 
-4.632211430296955e-023 
-1.158052857574239e-023 
-2.646977960169689e-023 
1.48892510259545e-023 
-9.926167350636332e-024 
-6.617444900424221e-023 
-2.584939414228212e-026 
9.926167350636332e-024 
-5.293955920339377e-023 
-1.852884572118782e-022 
-3.441071348220595e-022 
-3.838118042246048e-022 
-2.38228016415272e-022 
1.19114008207636e-022 
-1.852884572118782e-022 
3.639594695233322e-023 
6.617444900424221e-024 
1.19114008207636e-022 
-7.411538288475128e-022 
2.481541837659083e-024 
-1.654361225106055e-023 
-1.075334796318936e-023 
1.323488980084844e-023 
8.271806125530277e-025 
-4.963083675318166e-024 
6.948317145445433e-023 
3.308722450212111e-024 
-4.301339185275744e-023 
-3.639594695233322e-023 
8.602678370551488e-023 
9.26442286059391e-023 
5.169878828456423e-024 
-2.481541837659083e-023 
3.970466940254533e-023 
1.058791184067875e-022 
4.235164736271502e-022 
1.588186776101813e-022 
1.124965633072118e-022 
3.639594695233322e-023 
-7.940933880509066e-023 
-2.646977960169689e-023 
-5.293955920339377e-023 
-1.058791184067875e-022 
-6.352747104407253e-022 
4.135903062765138e-025 
-3.722312756488625e-024 
-5.955700410381799e-023 
2.316105715148478e-023 
1.654361225106055e-023 
1.654361225106055e-024 
9.595295105615121e-023 
5.955700410381799e-023 
3.970466940254533e-023 
-9.098986738083304e-024 
6.617444900424221e-023 
-1.654361225106055e-024 
5.169878828456423e-025 
9.098986738083304e-024 
3.970466940254533e-023 
-1.290401755582723e-022 
-2.646977960169689e-023 
2.38228016415272e-022 
1.124965633072118e-022 
-1.323488980084844e-022 
7.940933880509066e-023 
-1.19114008207636e-022 
-1.058791184067875e-022 
1.323488980084844e-022 
4.235164736271502e-022 
-1.654361225106055e-023 
2.316105715148478e-023 
7.940933880509066e-023 
1.323488980084844e-023 
3.970466940254533e-023 
-3.970466940254533e-023 
1.323488980084844e-023 
1.124965633072118e-022 
9.098986738083304e-024 
-5.955700410381799e-023 
-3.639594695233322e-023 
-9.926167350636332e-023 
-1.158052857574239e-023 
3.308722450212111e-024 
1.058791184067875e-022 
2.580803511165446e-022 
-1.852884572118782e-022 
-1.058791184067875e-022 
1.323488980084844e-022 
-6.617444900424221e-023 
-1.323488980084844e-023 
-1.852884572118782e-022 
-7.411538288475128e-022 
6.617444900424221e-023 
2.646977960169689e-023 
1.19114008207636e-022 
1.654361225106055e-023 
7.940933880509066e-023 
1.720535674110298e-022 
1.852884572118782e-022 
3.970466940254533e-023 
1.654361225106055e-023 
5.955700410381799e-023 
-5.790264287871194e-024 
-2.779326858178173e-022 
4.963083675318166e-023 
-1.455837878093329e-022 
-7.940933880509066e-023 
-2.249931266144235e-022 
0 
3.970466940254533e-023 
5.293955920339377e-023 
-1.058791184067875e-022 
-4.764560328305439e-022 
5.293955920339377e-022 
5.955700410381799e-023 
4.632211430296955e-023 
-2.911675756186657e-022 
-9.26442286059391e-023 
-1.919059021123024e-022 
1.240770918829542e-023 
-1.058791184067875e-022 
1.985233470127266e-022 
7.940933880509066e-023 
1.19114008207636e-022 
-4.632211430296955e-023 
-1.158052857574239e-023 
-7.940933880509066e-023 
-5.293955920339377e-023 
1.720535674110298e-022 
-9.926167350636332e-024 
-2.316105715148478e-023 
-2.646977960169689e-023 
2.646977960169689e-023 
-3.308722450212111e-024 
-7.411538288475128e-022 
2.38228016415272e-022 
1.058791184067875e-022 
-5.823351512373315e-022 
3.441071348220595e-022 
-6.617444900424221e-023 
1.455837878093329e-022 
5.293955920339377e-023 
5.128519797828772e-023 
-4.102815838263017e-022 
-9.926167350636332e-023 
4.632211430296955e-023 
-1.323488980084844e-023 
-2.911675756186657e-022 
2.646977960169689e-023 
2.895132143935597e-024 
-3.308722450212111e-023 
-6.948317145445433e-023 
2.249931266144235e-022 
9.926167350636332e-024 
-6.617444900424221e-024 
7.444625512977249e-024 
-1.323488980084844e-023 
1.985233470127266e-023 
1.588186776101813e-022 
-1.323488980084844e-022 
1.852884572118782e-022 
-1.323488980084844e-022 
0 
3.970466940254533e-023 
0 
-3.176373552203626e-022 
-1.323488980084844e-022 
0 
-2.911675756186657e-022 
3.57342024622908e-022 
9.926167350636332e-024 
-2.9778502051909e-023 
-1.985233470127266e-022 
-9.26442286059391e-023 
1.819797347616661e-023 
1.455837878093329e-022 
-1.19114008207636e-022 
7.940933880509066e-023 
1.852884572118782e-022 
-3.308722450212111e-023 
1.323488980084844e-023 
1.323488980084844e-023 
5.293955920339377e-023 
8.602678370551488e-023 
-2.911675756186657e-022 
-2.646977960169689e-022 
2.249931266144235e-022 
3.176373552203626e-022 
1.852884572118782e-022 
-1.852884572118782e-022 
2.646977960169689e-022 
2.779326858178173e-022 
2.117582368135751e-022 
-2.779326858178173e-022 
-1.78671012311454e-022 
-3.308722450212111e-024 
-1.058791184067875e-022 
-5.293955920339377e-023 
4.963083675318166e-023 
-3.722312756488625e-024 
9.926167350636332e-024 
5.293955920339377e-023 
-1.720535674110298e-022 
2.249931266144235e-022 
4.367513634279986e-022 
0 
7.237830359838992e-025 
-2.911675756186657e-022 
6.617444900424221e-024 
2.38228016415272e-022 
-5.293955920339377e-022 
-5.293955920339377e-023 
5.558653716356346e-022 
5.790264287871194e-024 
1.588186776101813e-022 
6.352747104407253e-022 
5.293955920339377e-022 
-4.764560328305439e-022 
-1.323488980084844e-022 
2.117582368135751e-022 
-2.067951531382569e-025 
-6.617444900424221e-024 
-5.293955920339377e-023 
1.058791184067875e-022 
-1.323488980084844e-023 
-2.646977960169689e-023 
0 
-1.985233470127266e-023 
3.308722450212111e-024 
1.985233470127266e-023 
-1.058791184067875e-022 
4.549493369041652e-024 
5.293955920339377e-023 
-3.308722450212111e-023 
6.617444900424221e-023 
-1.588186776101813e-022 
-1.058791184067875e-022 
-1.058791184067875e-021 
-2.249931266144235e-022 
5.558653716356346e-022 
9.529120656610879e-022 
-4.632211430296955e-023 
-5.293955920339377e-022 
1.720535674110298e-022 
2.117582368135751e-022 
-6.617444900424221e-024 
2.646977960169689e-023 
-2.249931266144235e-022 
-1.323488980084844e-023 
3.308722450212111e-024 
-3.308722450212111e-023 
1.19114008207636e-022 
-1.588186776101813e-022 
2.646977960169689e-023 
9.926167350636332e-024 
-1.985233470127266e-023 
1.48892510259545e-023 
-3.176373552203626e-022 
1.19114008207636e-022 
1.819797347616661e-023 
3.970466940254533e-023 
3.176373552203626e-022 
0 
-6.220398206398768e-022 
-2.38228016415272e-022 
7.146840492458159e-022 
0 
-1.455837878093329e-022 
2.067951531382569e-024 
-2.646977960169689e-023 
6.617444900424221e-023 
-5.293955920339377e-023 
-1.058791184067875e-022 
4.896909226313924e-022 
1.323488980084844e-023 
6.617444900424221e-023 
-2.646977960169689e-023 
1.19114008207636e-022 
-1.058791184067875e-022 
-3.308722450212111e-023 
-1.058791184067875e-022 
0 
7.411538288475128e-022 
-2.117582368135751e-022 
-1.861156378244312e-024 
5.558653716356346e-022 
-6.352747104407253e-022 
-1.720535674110298e-022 
-7.940933880509066e-023 
-3.838118042246048e-022 
-1.323488980084844e-023 
7.940933880509066e-023 
2.646977960169689e-023 
-3.441071348220595e-022 
1.588186776101813e-022 
-6.617444900424221e-024 
-2.316105715148478e-023 
-2.9778502051909e-023 
1.985233470127266e-022 
0 
1.654361225106055e-023 
-5.955700410381799e-023 
2.646977960169689e-023 
2.316105715148478e-023 
8.933550615572699e-023 
-1.124965633072118e-022 
1.985233470127266e-023 
9.529120656610879e-022 
1.323488980084844e-022 
4.301339185275744e-023 
-3.308722450212111e-023 
-6.088049308390284e-022 
2.646977960169689e-023 
-4.499862532288471e-022 
-6.617444900424221e-023 
2.316105715148478e-023 
6.617444900424221e-024 
6.617444900424221e-022 
-1.058791184067875e-022 
3.308722450212111e-022 
-1.323488980084844e-023 
-1.571643163850753e-023 
2.316105715148478e-023 
-3.308722450212111e-024 
1.654361225106055e-024 
1.588186776101813e-022 
1.985233470127266e-023 
-6.617444900424221e-023 
-1.389663429089087e-022 
-5.293955920339377e-023 
-2.117582368135751e-022 
9.926167350636332e-024 
4.235164736271502e-022 
7.940933880509066e-023 
