solver_type L2R_L2LOSS_SVC_DUAL
nr_class 2
label 2 1
nr_feature 5008
bias -1
w
-0.05728726699482324 
-0.02172988344675981 
0.01213325974038351 
0.4434578293338311 
0.009121020842572115 
-0.02800945672872788 
0.0009121020842572144 
-0.02648720793405063 
0.004703241985389282 
-0.02043390509311206 
0.009335413173284034 
0.02935044088809426 
-0.0105601149033535 
0.002895734296198377 
-0.03188149902284515 
-0.005081109160575685 
-0.01369494642975049 
0.0003148843235717808 
-0.02449151786252225 
0.0009314079132705024 
0.007919784067443635 
0.005151138070646805 
-0.0106866392033439 
-0.008617927322544794 
0.00514123478475123 
0.0007207129577394355 
0.00733750065959175 
0.001225775038362819 
-0.003119725915288512 
0.004150032709218869 
0.006115123289235757 
-0.003544049933292076 
0.001966230231991146 
0.02677422814853682 
-0.01392238562843515 
0.0004030632674073967 
-0.01730708931548993 
0.006767375794478705 
0.02442813394626121 
-0.02325345250558684 
0.02648509781804748 
-0.01375007891002301 
-7.163276136010194e-005 
0.02924726488925053 
-0.009792745155149045 
-0.01965990748046299 
0.009381154663373564 
-0.001883096958356341 
-0.00621451629489773 
0.00224165940538956 
0.00262511608383524 
0.01120952649289375 
0.002048751726585237 
0.005223562495384282 
-0.003996948808634067 
0.008804194282105427 
0.004246016332958441 
-0.009096935917362393 
0.02247369229007997 
0.002065763329275701 
-0.03963051069423208 
0.009588395461538271 
0.006481582981819991 
-0.004269432740795102 
0.0004921603180322276 
-0.01473375775831298 
-0.02926488251424646 
0.02125922350635348 
-0.02078568052668745 
-0.01142745128560484 
0.03154338272169613 
0.01202464724830671 
-0.003829887543715321 
-0.001784600938261888 
-0.006598782089664662 
0.0006330939737965107 
0.005355947838600533 
-0.004132443928043118 
0.00504069897692171 
0.001437908280077762 
0.003828606364187323 
0.002267214372076393 
-0.00392218407131977 
0.02286803150680629 
0.01522315027608404 
0.02440412534420249 
0.008157500917552615 
-0.007873839867742214 
0.01960514838953096 
0.007979344722146967 
0.009988712431635342 
0.02021042189798097 
-0.03014084870489802 
0.01767465451422637 
0.02834090618061974 
-0.04937489376410075 
0.001511095556679744 
-0.001410157271669904 
0.002673154158423238 
0.001275162798912274 
0.001919173584449079 
0.003027275370712332 
-0.002922338075126672 
-0.00338866722316704 
-0.001279441376332981 
-0.006252335345542755 
0.003358349050039335 
0.002566810632803729 
0.008425686337104188 
0.02511620872832839 
-0.02181436122959673 
0.007696951439295232 
-0.03623138686079528 
0.008474024512316552 
-0.02071714947304065 
-0.01749461179046461 
-0.005470949918734962 
0.02253955795982693 
0.0004351815403001279 
-0.006799559126703054 
0.003167145636126551 
-0.003837929571670818 
0.002809872090935421 
-0.001596367108574412 
-0.005561204208488629 
0.006651429701798243 
0.00398429418359167 
0.003672692286543783 
0.004587838532152496 
0.004996995269688257 
0.0004642778914872234 
0.003224835040195132 
-0.002500739100120288 
0.007175102470146307 
-0.01789125769709461 
-0.01555538914096443 
-0.002994517356202775 
0.03449938607128768 
0.02765347449455731 
0.002487241697692825 
0.01325370696192168 
-0.04258977975061289 
-0.00710933975683401 
-0.01262510815015768 
0.004685406817245938 
0.007362040607543691 
0.001139727523583131 
-0.007255242118307066 
0.005834734679011889 
0.002603901167925721 
-0.002771216284801123 
-0.002763149227346986 
0.001472649594953519 
-0.00612692348038701 
0.00853398478685234 
-6.117047218249452e-005 
-0.004161792168256269 
0.01604260713366675 
0.01634668574181242 
-0.0005675441207748641 
-0.005602894607141805 
0.007184250989653082 
-0.04251105250802848 
0.02496275645661914 
0.02315941741184702 
0.001996631737853551 
0.02507508036072659 
0.034728419320008 
-0.003315581365989303 
0.01652444882863779 
-0.009328162452234622 
0.003255296428713184 
0.006880066119646338 
-0.001157526049360539 
0.001872167712399096 
0.001011650808562802 
0.002364927053615049 
0.002369608662280262 
0.001038609880411224 
-0.008118039666692686 
0.001673891177869755 
0.008320887285380128 
-0.0008081637674560595 
0.02758638647443892 
0.03376265749066832 
-0.01997759727319174 
0.0375866882104553 
0.008284413932127917 
-0.002497068526764211 
-0.02777779094472617 
0.007607464603824094 
-0.02569846010884385 
0.006433614832735103 
0.01924412276326989 
-0.004131741178298732 
0.03708682262435276 
0.002354045245275443 
0.007286846344846053 
-0.002926530285413142 
-0.002407369199696902 
-0.001999833304597707 
-0.001671160740149039 
-0.004048621791487405 
0.006785036694523649 
-0.001697543035702104 
0.001596663763358957 
-0.003352036304686075 
0.002233122561193791 
0.04383249258711339 
0.01556407947924327 
0.01479781725434635 
-0.01838236605338227 
-0.01376491690459711 
0.02860573620312344 
0.006239516755198267 
-0.002822863583282983 
-0.008725327973661611 
-0.02482005612099563 
-0.00713130136295862 
0.0392129306635225 
-0.01573513734819049 
-0.005487302521033266 
0.0101427715396084 
9.234209453218589e-005 
0.007350897179252343 
-0.007074306458274433 
-0.007186086584013063 
0.001397643814784924 
-0.003761687292504322 
-0.001832635857474274 
0.007040430198505096 
-0.002304785261754617 
-0.001231867184053326 
0.04245390785924889 
-0.01418718498759478 
0.01067803870734709 
-0.004843161139770587 
0.008089041117228543 
0.01583350741749049 
0.002592992571741604 
-0.004579120652298897 
0.008232508928215468 
0.01417767638268118 
-0.002733178963090561 
-0.0234189277277305 
0.02173013848381617 
-0.00980961853047357 
0.001663319041607173 
-0.008889866313319098 
-0.00535814962100827 
0.0005706018295329974 
0.004400562556398988 
0.004957961807595246 
0.002525684716201652 
0.001920936722541845 
-0.0006000237783167001 
-0.0003256423967920608 
-0.01178381074204563 
0.03055432577994765 
-0.004028452793699555 
0.02978355327744905 
0.02886131060026467 
-0.005660688521291168 
-0.01957263633422287 
-0.02795630100174059 
0.01507707210880755 
-0.01069768382172675 
0.02169198308322264 
0.04287748289676601 
0.01464575771658304 
-0.007810571335132714 
-0.001407164350302832 
-0.006154618443514864 
0.01075028148697597 
-0.002704281826055505 
-0.002077770812126384 
-0.006979912218001435 
-0.008502604956619591 
0.0001195212055191849 
0.004772481296186717 
-0.0005329361891867836 
-0.00897420733851864 
-0.004458831261384802 
0.01676979262285228 
-0.00548777385344562 
-0.01915254397900638 
-0.03048340933075241 
-0.02255840461686549 
0.0244474460539729 
0.01132638350904628 
0.02344965141798072 
-0.01208346509372902 
-0.007217788702317301 
-0.008759111739198938 
0.006523645201345091 
-0.02579499586957159 
0.01200558504949648 
-0.00754053811305713 
0.007713614742204822 
-0.006178566302131405 
-0.007623627775283074 
0.004765040777389117 
-0.005459884370872832 
-0.004887199305201551 
-0.0005291641481926546 
-0.004590882083451775 
0.009865272403101078 
0.001565694223387256 
0.01349342140736581 
0.00417779975038983 
-0.001060917702716203 
0.04819007664973333 
-0.01196242122942722 
0.01390996295177672 
-0.0330257562487585 
-0.05934785203638174 
0.002031681060036751 
0.009739235727514169 
-0.006783429489747596 
-0.02063029203282523 
-0.01426860781775698 
0.001358689216164244 
-0.002708126314155731 
-0.01115271659374681 
0.003357185526961096 
0.002382871956084265 
0.004721272722068701 
-0.002357938501172994 
0.002523008916962069 
-0.004105284755384533 
-0.0003182812434907621 
-0.007681830383822549 
0.006579338922470431 
0.0227414693616639 
0.04173784654004865 
-0.01160212019986324 
0.02406071743502762 
-0.01965357711145101 
-0.03902481288308411 
0.02895347783575395 
0.005332964760718445 
-0.02256668960649234 
0.01750969163118251 
-0.0008594708967243668 
0.04354563270133377 
0.03278684408070016 
-0.003387137382669679 
0.004308617730607269 
-0.007439506547241871 
0.01282950355635295 
-0.004446236338479528 
-0.002579053706201969 
0.007809164462276027 
0.004083896901609388 
0.002967331257699599 
-5.5981282457515e-005 
0.005284002882650205 
0.009506466459692891 
0.04050114147322207 
-0.02084795593905756 
0.01246874605695046 
-0.05417317285724074 
0.009674061594415123 
0.02407853376185849 
-0.01316236616313653 
0.01234773197224628 
0.007158830036549995 
-0.01119652648330634 
0.0373352456213123 
-0.04227517222355801 
-0.004202844744766571 
0.002275468274646457 
-0.004153377413314618 
-3.701561873417767e-006 
-0.002607352560257954 
0.003768997586608033 
-0.0008762144882552156 
0.004713681732741603 
0.0013508590589763 
0.0009622818209890347 
-0.003657343937416667 
0.005349445378185593 
-0.005739982521411037 
0.04673366530748906 
-0.009910787748024962 
-0.004373320720459588 
-0.01650048453542943 
0.03077130570157631 
-0.002868642092024321 
-0.01150115122618349 
0.02664626382835533 
0.005768865744178262 
0.01808818663546748 
-0.03110071169889039 
0.04376554084585622 
0.01670471312498643 
-0.01227788804368125 
-0.001232982645034208 
-0.0005129789419691831 
-0.005389823604072197 
0.007313500897081085 
-0.009196248382930298 
0.0002604021670145922 
0.001984749899044473 
0.000444489338228145 
0.0006482427860270068 
-0.002153792211176384 
-0.01061474080399453 
0.04329475507673918 
0.04137921065835699 
-0.02544247112700285 
0.06845072167469819 
-0.05020969032559003 
0.01467426065481975 
-0.01717923191918137 
-0.04643502725965026 
-0.005381815302970379 
0.01425961198368736 
-0.00995151106634653 
0.006007154769149055 
-0.03492607654168874 
0.001495372906704222 
-0.004015528846061103 
0.01091675964220728 
-0.004430632993528618 
-0.001270802215524244 
0.007555858338827087 
-0.007258177001784025 
-0.006308604215363214 
0.004866424073439787 
0.001326366508235036 
-0.002356353952560397 
0.001384177578981188 
0.02015030460634867 
-0.05076490165992428 
0.001188351558754123 
-0.03981684919926239 
-0.01665954053528334 
0.00224660064910838 
-0.01502127130859367 
0.03602750204212706 
-0.006372883698691489 
0.007000843553375363 
0.02602431125416098 
0.008636151815215961 
-0.00492538524098243 
0.006627722869580716 
-0.005534460821805876 
-0.008077423204526715 
-0.001774322503304304 
-0.004293342364405722 
0.001034916925174272 
-0.004280626671908587 
0.003847622660959508 
-0.001244710417622654 
0.003756920276400466 
-0.008404573982417054 
0.001099161550676233 
-0.005959509030420994 
0.007055234743576491 
-0.01038823748929172 
0.01207069261003928 
0.01123594717371213 
0.01516619743094788 
0.02637724657243985 
-0.02863374592809178 
-0.0183133682487175 
0.01867853855627326 
0.01540739964503878 
-0.03649212367775526 
0.01353199685277616 
-0.008558223107275702 
0.01194741059977394 
-0.004167517786863031 
0.01043631280320002 
-0.004203238918550617 
0.004992965448167498 
0.005301030638996889 
-0.003659091687665275 
-0.001554881653863881 
0.0009954722305777785 
-0.0004648992685593748 
0.002611468991683611 
-0.00534147887414164 
0.04039007472794492 
-0.03957071132834777 
-0.02869672335745453 
-0.008824196201905117 
-0.02457712209399207 
-0.02810515908139501 
-0.003656564829678595 
0.03147230915194222 
0.009653540829309843 
-0.02499432889940322 
0.02299005996503655 
-0.002027126577004759 
0.009788198254074685 
0.005931058462552095 
0.01307822718379784 
-0.002043505105044872 
0.003066908389288527 
0.008453845644776187 
-0.0003243379800857208 
0.002364675901310616 
0.003413310191499068 
-0.005417060726080141 
-0.003856558372668515 
-0.0008392468365351918 
0.01088371414831231 
-0.04905995999750649 
0.04794812492844673 
0.03053377847899425 
-0.004687954900979317 
0.0032744164779574 
0.001000387808404619 
-0.001183698026178297 
-0.03601502468126286 
-0.005586385538997944 
0.02744282739879123 
0.005112067709837107 
-0.01889866824187393 
-0.004577053759465924 
0.003014839787049984 
0.003215808301945138 
-0.001688214978080124 
-0.005300554217812537 
0.002497949200119574 
-0.0005330673189795364 
-0.006363920046118639 
-0.001296625416143795 
-0.003316926911598934 
0.001774578647863156 
-0.0010818761724961 
0.03175173078944701 
0.02312911981271818 
-0.008413328705985502 
-0.0009354489636512116 
-0.02302595084949751 
0.01783123101330543 
0.0199422930708358 
0.01903830527562862 
0.02418393303278717 
0.02008408323868365 
0.003288014326160817 
-0.01853865249474077 
0.0137217520496766 
0.004803804132903575 
0.01441468346084091 
0.008526081536554044 
0.00405180393707709 
0.000951912053444182 
0.01129908242144121 
-0.006728427166453944 
-0.01157770244663752 
-0.0009608506726728713 
-0.00446000210497458 
-0.01466195710579936 
-0.006579136766206717 
0.04998931903938757 
-0.01555819290780303 
-0.03036927271931144 
-0.00222340695820926 
-0.0006486348388667272 
-0.01364542171805002 
0.001278141285967547 
-0.01815365053424833 
-0.01335612661999486 
-0.00107180309484425 
0.001828215588083001 
0.02271389565954379 
0.004815394573587378 
0.01000595913933714 
-0.007831033204868282 
-0.002475811817342629 
0.0003501071038117344 
-0.001983875534467041 
-0.004056654153547773 
-0.002665582704528752 
-0.006540170709633271 
0.004239839265331582 
-0.008965779650777078 
-0.006886269082117245 
0.007293399040837638 
0.03180496362153577 
0.03894888313737987 
0.04835101705573069 
0.0235127441325213 
-0.01699050538154301 
0.01299969424205914 
0.004190686290856671 
-0.006439465284181478 
-0.0004988270105378795 
-0.005111705727712094 
-0.01011228621964782 
-0.01384836289403962 
-0.02707733409048845 
-0.0166960918184705 
0.006968260595638448 
-0.006939883761357592 
0.008101555085580621 
-0.008873349349747954 
6.850651386108117e-005 
-0.01276543557739688 
-0.01148811952841473 
0.001218140060260146 
-0.00940552302581126 
9.171164010670514e-005 
0.000162233630928315 
0.008670472238606744 
-0.02807980240959705 
-0.02296678374791376 
-0.02238691875831688 
-0.008208334145868454 
0.01594671853819325 
-0.02204909435956013 
0.01931695174874275 
-0.02258726143148503 
0.02116318599782975 
0.002354125563275236 
-0.01145872351576621 
0.04722876242827359 
0.001106932774597513 
0.0009536269785932336 
-0.003441106258631191 
-0.003297709080803129 
-0.004641026975999998 
0.00320897243142899 
0.00677687243915324 
0.0053790022908722 
0.003671096220072207 
0.00558661360130257 
-0.004148329523936728 
-0.01168125993939214 
-0.0001355717165266601 
-0.05851765476355242 
0.01167017042813164 
-0.02240981738040297 
0.005486255791191452 
-0.02256232706159244 
0.0247932804148074 
-0.04787795499511353 
-0.008206060263728802 
0.01708282015103546 
-0.0323569960513392 
0.02345087538875622 
0.003516728950342149 
-0.006594086253175045 
-0.005570060270726584 
-0.004328677530360555 
-0.003775787204247405 
0.004205551909375858 
-0.001868078030645163 
-0.006620794402901853 
-0.0008521141479900542 
-0.002103978759985394 
0.008887566939228594 
0.001338810691024169 
0.008314947835824992 
0.02349273673295471 
0.04158564807668237 
-0.0100184406313398 
0.01170826371650787 
-0.02922442878513843 
-0.02050038023475158 
0.01004749084149101 
0.03220664107368471 
0.01764349923729117 
0.004250727700072217 
0.03751216721337523 
-0.01226477099205531 
-0.06941358251540365 
0.01006512286976341 
0.00793368249085071 
0.005047925674064451 
-0.006755677587093184 
-0.001039453999748938 
-0.00653694588526123 
-0.008368285142745674 
-0.006629024859906816 
-0.007271912704756692 
0.001120053787275639 
-0.0008733080045269742 
-0.003527721479986072 
0.02817479496784268 
0.01035797599797838 
0.009117579111825893 
-0.01296579986683567 
0.0005287023816905017 
0.04022925756741584 
-0.008749476349333213 
-0.03386569926053209 
0.007692189005496477 
0.0005237879209282577 
0.00317694163939555 
0.0007305072056070217 
0.05323498388807353 
-0.005612114377501368 
0.004689003601578802 
0.00763994005892943 
-0.005417304784137014 
-0.003828366675382942 
-0.01404759086380817 
0.008560786364135794 
-0.0141096266320489 
-0.01138969496198953 
0.001057251257874301 
-0.006022105278081582 
0.01650806025324964 
0.01367666178250159 
0.04383656367380938 
0.006972969518892857 
-0.01161470970689884 
-0.0120198476750733 
-0.02202181588388371 
0.009320434574859768 
-0.008725157507052271 
-0.004057018614394377 
0.01753653711376177 
-0.01790417066431799 
0.02393181931059954 
-0.02417511034763726 
-0.01379679945266134 
0.004884196126641423 
0.009943119800638391 
-0.02126530881726495 
-0.003394901086602115 
-0.003013803266923261 
0.003485305072943948 
-0.02152002789923491 
0.007634087516963206 
0.01665958888892607 
0.01872978410121743 
0.02841950705381159 
-0.003194571775005544 
-0.03693376844434029 
0.008399984241980425 
-0.002159288988039256 
0.005233835019986025 
-0.01832321893397958 
0.02057437611493554 
0.02510713374781182 
-0.004987590025083302 
-0.02841852325157595 
-0.008001756419114246 
-0.006971724091838077 
0.02301100133671168 
-0.01407930518332207 
0.002388360771685499 
0.01104420397950341 
-0.01817355263254993 
-0.01390358106677422 
-0.01497492749884595 
0.01617986971260785 
-0.02413224911141446 
-0.0006067003012185158 
0.03712295658999915 
0.0205999277221298 
0.008401630088624936 
-0.03787379874335628 
0.04816408942965609 
0.007905780908715458 
0.01762089550300243 
-0.0231286084204369 
0.01759235434671599 
0.02207466569342122 
0.004686584508373536 
0.008094553807654548 
0.03199282943766507 
0.005153139429126115 
-0.007390256100793492 
-0.00838079217375691 
-0.01320750470734929 
-0.0121901522664261 
0.01346713410262475 
-0.009377228710338591 
-0.01106624705847479 
-0.02394979288943415 
0.0006690034959988668 
-0.01569955730655698 
0.008586315512290761 
0.03385079414694382 
0.03065378016278743 
0.01674109748846477 
-0.0202103521371817 
-0.0282688144381956 
-0.007751629681409513 
-0.02875241943979694 
0.03145352578558818 
0.01861764772107125 
-0.02395945929955117 
-0.01508293922353136 
-0.01242115541130837 
-0.02364103156451764 
0.01636713744938666 
-0.02643186242153791 
0.009019253911787373 
-0.004048390997728131 
-0.01807917233007719 
0.01012234775019974 
-0.004992301438968937 
-0.008354614729619982 
-0.01902626988997895 
-0.003444522687420532 
-0.004946226085859159 
0.01665006730709666 
0.03378409709039629 
0.02163328467627413 
0.002169387428685141 
-0.01813336645422604 
0.002002607628278174 
-0.0343606853633065 
0.01039112269081583 
0.03034506253810431 
0.008910101198859839 
0.007710149515408435 
0.0198990509580156 
0.01692740396079957 
-0.002316728078286009 
-0.01577314330470759 
-0.01451697622554924 
0.009103594101948657 
-0.01305309388656661 
0.004993382874076894 
0.02127831389988037 
0.002892797133644519 
-0.02403768517157102 
-0.02694346090368986 
-0.01382549862660171 
-0.01774095705482187 
-0.003133229272157105 
0.001323600376483075 
-0.009767969312049275 
0.002366154723903118 
-0.02377509347288685 
0.01504093733626851 
-0.01191955752297547 
0.009567572553409698 
0.01548555042628117 
-0.01995422552598295 
0.01600293064001354 
0.0339181286618866 
0.01001871851857529 
-0.02307147992913801 
0.03920326848784562 
-0.011712267220558 
-0.01373843079381078 
-0.001199181909325429 
0.00647788404569148 
0.02561065092004011 
-0.004281547323270478 
-0.007788395558884088 
-0.01829344431834012 
-0.0196146901972277 
-0.01021459242063379 
-0.001023693720684147 
0.008712409629263883 
-0.009654438562137989 
0.01688423122671568 
-0.02550821472053147 
-0.003721591430668368 
0.03085347640236657 
0.001915422681832382 
-0.01297341462876782 
-0.02153402683461882 
0.01762319987897622 
0.00280520711620532 
-0.04032335572173001 
0.01204732911374064 
-0.03911346096887785 
-0.001505887359614321 
-0.02085643723948838 
-0.01102402452038653 
0.02045826949219382 
0.01995749842396598 
0.006475474492292568 
-0.001883760787443372 
-0.02193129087499438 
0.006289516364739869 
-0.003623648066431449 
-0.02873581907566882 
0.005930674702167195 
-0.02769946888274622 
0.01830774027222806 
-0.03655547175028601 
-0.02042992796124038 
-0.01408219214717904 
0.001369545676068951 
0.01051733783706817 
0.03261238290908494 
-0.02945339988960522 
-0.005245265528695814 
0.003601833420626283 
0.01091783063235052 
0.03608915181784958 
0.0048715845845926 
0.02369926512665098 
-0.005167871508884852 
0.03103533186436115 
0.02338843021080619 
0.01191325100758338 
-0.0007701561012373127 
-0.03406908208551828 
0.03790751770701203 
-0.01130859225258959 
-0.03244304530480249 
0.002755996210044795 
-0.01689421036641612 
0.02137131925896448 
-0.04129302571280959 
-0.01416049590742281 
0.01370828956390046 
-0.006276090874463482 
-0.0164655499912207 
0.01097059306802286 
0.04268933428592445 
-0.0263101047654624 
0.0239511313090749 
-0.01221629022733759 
0.01649716139743418 
0.03679407037848514 
0.01652074367724507 
-0.0004152210649063942 
0.01897138011266446 
0.03138558095866802 
0.01269143622907272 
-0.001162719711349424 
-0.01435770291784863 
0.03695930301621977 
-0.008943749958341244 
-0.0235436526034096 
0.03771611746622636 
0.00894125281748062 
0.01815575219615311 
-0.02866149729107416 
0.03597062748440255 
0.009987862246935937 
-0.02701142022337142 
0.005542128524605689 
0.01321958080519333 
0.005077469904473365 
0.0109134534268811 
-0.04471606650246856 
-0.00662194343428435 
-0.03728300952395158 
0.02175640445853249 
-0.04677867807375877 
0.006024777091789964 
0.01106616065716601 
0.01082944289770031 
0.007060397177823644 
0.01769660858743745 
0.004869923847335206 
0.03420624994218115 
-0.02395830684270923 
-0.01166377871070932 
0.0311738960393988 
0.002499841162818738 
0.006699062613684428 
-0.01522008553125956 
-0.02481574360125722 
-0.02945161758038172 
-0.00132292931181436 
0.01655953255301298 
-0.03555809375319505 
-0.00290872033074278 
-0.0183610135006674 
0.03279566787334769 
0.04913801763250002 
0.01073266105282262 
-0.04547209233915095 
0.01686285050919664 
0.0135616098372948 
0.0008910401639934074 
-0.005968320261171591 
-0.004694447695077766 
0.02225320483597412 
0.02749106520902289 
-0.01003950126147678 
-0.02916026965335689 
0.01846147434736364 
0.02202113786392675 
-0.01309124033505617 
0.003824835155204534 
0.002246668241569946 
-0.01436717057665217 
0.002117573486923258 
-0.05928286229504145 
0.04612248889714161 
0.004038542100766704 
0.05444081449081061 
0.04853932975081156 
0.02048243835782488 
-0.03987255479204578 
-0.03361941441178225 
-0.08222899470921921 
-0.02948547447056125 
0.003657846216365168 
-0.02084351515347445 
-0.01281686765579559 
0.006592507036744058 
0.02842578268970625 
0.03791781725897756 
-0.01787172162078704 
0.007139615440723186 
0.02644615879879118 
-0.006731537846163462 
-0.04814868700519843 
0.003307462380543117 
0.04126520522900482 
0.01347911899883839 
0.0007684610395729835 
0.07230549419800915 
-0.02112647002787018 
-0.03745096472758353 
-0.01140076987939296 
-0.02069086955061567 
-0.03008009568632003 
0.004966834841591825 
0.01281611096824578 
0.02352382382536962 
6.172182257848768e-005 
0.002022483225051935 
-0.01808733299240779 
0.0001928970822459135 
0.006857541969464233 
-0.0002576716573133881 
-0.01776612402484572 
0.007753232395477335 
0.002304734619735954 
0.004811404730558522 
-0.0288820991519133 
-0.08409074363540406 
-0.04188337957742434 
0.04298678362823014 
0.01313341498387804 
0.01064352088430427 
-0.009551033367678489 
0.01737698437654024 
0.03881113217861204 
-0.04124026528693476 
0.01109639044644198 
0.02473396858879446 
-0.02378795042734433 
-0.0250124980904028 
0.0201661262667355 
0.007463234126272918 
-0.009623277811854248 
0.01346457822771418 
0.02540572636388439 
0.01828761246383472 
0.01817177869830153 
-0.01829903472233817 
0.01850216841174588 
-0.00742041478068435 
-0.02633130047179881 
-0.05235966498139755 
-0.08260310150161197 
-0.02362260811594377 
0.00443472592780003 
0.02467010595154446 
0.04073634346801475 
0.02325924384724347 
-0.006595343471528817 
-0.01633707986129705 
0.01525041458690275 
-0.02986131814422996 
-0.01398574562853067 
0.0114167266165678 
-0.0035311032202257 
0.01449956724141414 
-0.0388984212404106 
-0.004435870625993447 
0.0316689713660499 
0.03851608426107719 
0.01031625373232537 
-0.015101504702399 
-0.04053278139317593 
0.02185297036397126 
-0.01445095417373767 
-0.009941889780478773 
-0.03728093251022974 
-0.08303095838464962 
-0.03428589588330763 
-0.01360160958991539 
-0.05279902189892595 
0.03006310896520974 
-0.04397546589782998 
-0.01452048345721338 
-0.01490584385531829 
0.007537056960983576 
-0.01904613868691709 
0.003041516900051627 
0.02146034212781409 
0.0263374018923405 
0.04630604228984588 
0.04989916403924016 
0.01042348220598403 
0.03625753574974983 
0.02491797225917584 
-0.01391063926377353 
-0.02719594126250041 
-0.04331696252449366 
-0.02386579870631421 
-0.03084254971568642 
0.00366745668432877 
-0.0151627924675708 
-0.03825846894701142 
-0.02835361977240382 
-0.02955791076993574 
0.02219731619184671 
0.01010414141817343 
-0.002104129914195904 
0.01140165427646101 
-0.008728920775250238 
0.03838958770512484 
0.02677962716846663 
-0.003373692256981789 
-0.02539005989738382 
0.04611263563535444 
-0.06473281775427726 
-0.01472181184125965 
0.007352447814880176 
0.03406017696045878 
0.01931027393221754 
0.02284271495574319 
-0.008623874975971491 
-0.02699010002174005 
-0.04767985419774989 
-0.03089553621015121 
0.04269201088085418 
0.007690257471917802 
-0.00313627598760307 
-0.009390084891750415 
-0.02457812145873801 
0.006178053885339845 
0.04113565898207529 
-0.01947486102851405 
0.008703252857588885 
0.01103356809343878 
-0.02610304228143004 
-0.0206014033273004 
0.02896207761690141 
-0.018567480835949 
-0.03299080513796022 
0.01557860353583681 
0.06654941511313857 
0.02549838005864175 
0.001238145604744113 
-0.01015610011100873 
-0.01020854129887636 
-0.008305391042317518 
-0.03176750073118857 
-0.02558421424748376 
-0.04285285264288516 
0.03588651241190529 
0.005928409626568608 
-0.04940730555462252 
-0.01160851339791763 
-0.03945563765968189 
-0.004802479703608087 
-0.05099465093603483 
-0.05582795485192807 
0.03806936772563302 
-0.03479384410304236 
0.03804686384509506 
0.03049579682342624 
-0.01733458744594353 
-0.002007890077270086 
0.02846203028123206 
0.03578900148176548 
-0.02266252826539807 
0.005164582236966598 
-0.01300118591257552 
-0.04151446389166754 
0.01465403181794343 
0.02378768498420616 
0.008820119986911386 
0.00884236112159884 
-0.05349059603579082 
0.03954625260247642 
-0.009198659221119723 
-0.03184428266086565 
0.04945604717681784 
-0.04222498807860581 
-0.001082769233722332 
0.03135932261458824 
0.03830531319537499 
-0.02652495448836741 
0.05601320693643021 
-0.02501086473483896 
-0.02724791025986773 
0.03520803591907785 
-0.05416004237027235 
0.01372662407597707 
0.009507937244042098 
0.002755330468221475 
-0.008293831524635181 
-0.02016728421174746 
-0.03111685169152902 
-0.01711465747956494 
0.002421328978966361 
0.001359396280486474 
0.02947602003770611 
-0.02028612339445236 
0.04571129001601851 
0.008974641448733285 
-0.0467750840884693 
-0.01792640323681927 
-0.02845587738464016 
0.02177168745396114 
-0.05013972124366848 
0.01086910018201615 
0.06108558931655978 
0.02387964359804806 
-0.01714689374299852 
0.0166577416513519 
0.007122074987531642 
-0.02877443646224691 
-0.03108028505201674 
0.02148218790386115 
-0.01590145671907351 
-0.01809476972114951 
0.02075675454238532 
-0.02159439599114583 
0.01743025214616029 
-0.006404630752606872 
-0.0321140202122131 
-0.009190171586484644 
0.005551594521371654 
0.001435352072063675 
-0.02546388491773575 
-0.007184742437270146 
0.01138834779619074 
-0.01461114310212901 
0.01055862686453304 
-0.01831510924193328 
-0.002334376225361862 
0.01318053033468763 
-0.01323492603956402 
0.02548574346947971 
-0.0007679431951545725 
0.004716043502321616 
-0.002684946425872354 
-0.001846238283286957 
-0.05971787024259335 
0.03006480406014855 
-0.04073048356499902 
0.02085573448244679 
0.008885512567650957 
0.05211536786889633 
0.01441942097607073 
-0.0197960738086052 
-0.0304046684389662 
-0.01029010954122399 
-0.02513128106854162 
-0.02307216765978784 
-0.002248120548897318 
0.01316842764086399 
0.007210118095493174 
0.002993020677539057 
0.06934242182785827 
-0.05434789227722862 
-0.03467729120310856 
-0.01915058645687568 
0.02307345890527087 
-0.0326477606402416 
0.01619610377121447 
-0.03642521237532685 
-0.02117608569545039 
-0.004460325379422566 
0.02747752121884545 
-0.03176610942925887 
0.01719185556104162 
-0.01871219155631923 
0.02397222519136657 
-0.0133707043391008 
0.001212451678138311 
-0.01452340562630639 
-0.01444485614843704 
-0.002794848280839689 
-0.006800987751283824 
-0.02810186164646099 
0.01675771781054489 
0.004311395206193766 
-0.00704346162989712 
0.000832972066031053 
0.03311160761718072 
0.01284722646772794 
0.02274202197886062 
-0.01485530025630361 
0.02564313226661563 
-0.03255080859302102 
0.01179820557389244 
0.04847665968397148 
-0.04026470686667088 
-0.0512113544242918 
-0.02424513338581184 
0.03812342842100529 
-0.0226223681310138 
0.05398448393995659 
-0.0001575084670547309 
-0.001491739509827917 
-0.02180364854575393 
0.008244145341446496 
0.03413407172266667 
-0.04223165547537802 
-0.03903553752941934 
-0.005495556368026867 
-0.003166484636992928 
-0.05063946579105657 
0.005993776088624769 
0.001386998710771036 
0.009778892768929093 
-0.02410691271265535 
0.04353475363815344 
-0.005440902891163872 
0.02979047413284115 
-0.02737601631130512 
0.03198093830887099 
0.02075102305186187 
0.0369721420760718 
-0.01467366689632231 
0.03095820316289799 
-0.03315256064238439 
0.02836538943509338 
-0.001940778753650311 
0.003594321042180127 
-0.00728689245854137 
0.01901013150507958 
0.01300376491755875 
0.01245495804908255 
-0.05243476224018641 
-0.009924587625463855 
-0.003127011388023947 
-0.004286295266821826 
-0.02709189091771539 
0.02127714613998131 
0.03149008037633508 
-0.0297162417646067 
-0.05167365877781954 
0.02857656735026058 
-0.02417267132547714 
0.02244440621178219 
-0.04811776413635334 
0.009160843263801457 
-0.01043172219463398 
-0.001761090814985536 
0.02477466146639541 
-0.02599819299962588 
0.01112269474386731 
-0.005074706282039016 
-0.003413236083177619 
0.005038785437100805 
0.03686749919480523 
-0.05418598120556323 
0.02441505077721821 
-0.004197411941930141 
0.01823003414584962 
0.005674404821356929 
0.002941285700733364 
-0.01503913005293787 
0.008999931389807403 
-0.03318789205012354 
0.004042945570796609 
-0.006792818324378342 
0.008581661336379805 
-0.01600074508482798 
-0.04578088642863031 
0.03910919243668031 
0.06304283623511101 
0.01701114097864654 
0.01674944135591523 
0.03552013480438925 
-0.004759778535110042 
0.03031089004151931 
-0.006475546278999854 
-0.01407146051124805 
-0.006573090230476754 
-0.001115581731602218 
-0.03466190497491713 
0.06041660900827411 
-0.004025174881420526 
0.01565901724789246 
0.002175131604438991 
0.007878471341129971 
0.002594193023561613 
-0.02633723714341321 
-0.007144893914968192 
0.005236740316868259 
0.01529105889735739 
0.03155398187593805 
-0.04003040132495176 
0.02797998078613414 
-0.04628537560144074 
-0.005746955457886873 
0.008462004135936181 
-0.01015915813079792 
-0.01051547364588948 
-0.003609731855351854 
0.01542507237820002 
0.008895929708647167 
0.003205371417712511 
0.002431395737839895 
-0.006468215819232951 
-0.03601976920683457 
0.02250285156013588 
-0.002596459473954077 
0.03444616308131243 
-1.841706992780945e-005 
-0.001655086217768241 
0.03744587173415802 
0.01219393066516814 
0.04388291837353836 
-0.005215950498103639 
0.004054043064549926 
-0.02921922283560335 
0.03993922664751842 
-0.004012524177673876 
-0.02199418607118805 
-0.01965785358012042 
-0.02329716181292081 
-0.02691800864722644 
-0.01164147998282644 
-0.006056937351396798 
0.008328449260787798 
-0.003228395368937736 
-0.005871661610047421 
-0.03801529888374096 
-0.02839812373968296 
0.003630798720962604 
-0.0251938583464706 
-0.01336627203238812 
0.02158644467056087 
-0.006419997023572077 
-0.01393395636069406 
-0.03439856916676948 
0.0238416465744981 
0.00302334673710005 
0.01276447309535267 
0.01877917676858206 
-0.02939742457434926 
-0.006975514642726269 
-0.03199211935633071 
0.03715363421922877 
0.004065496327030571 
-0.0002000320056242692 
-0.039372118774623 
0.004454026056736391 
0.02274771005332806 
0.008215975639744341 
-0.01169825868323299 
-0.01595227361700559 
-0.01892466696133293 
-0.0384875865401352 
0.005648200428584316 
-0.05138590454882508 
-0.0127832427236072 
-0.009484903909746765 
-0.004052954125943979 
-0.02427132128296082 
-0.03208921124786282 
-0.02309495924218267 
-0.02415960794312313 
0.01592578258318073 
0.04213049970533417 
0.0320120053783606 
0.0001913170196207376 
0.01537741646036621 
0.02391730431735141 
-0.008800492449261866 
0.02326470850312877 
-0.02444848994212391 
-0.006883560415153453 
0.01121626088554311 
0.02940981013060631 
0.002133887760704527 
-0.01899570147043676 
-0.01605907530454833 
-0.04086634926724308 
-4.644735672355304e-005 
-0.01423406350465478 
0.01822141371144768 
-0.01001060019219648 
-0.006089217888373875 
0.03275631212215529 
-0.005296671260903095 
0.01378919690978694 
-0.02567135819480808 
-0.04812614853178571 
-0.06014165595154229 
0.001323375245057829 
0.01347794946326922 
-0.02466370137894601 
-0.04277011840750868 
-0.02186748463728607 
-0.02430612512983512 
0.002341687733804218 
-0.02242920942831009 
0.007972096587776175 
0.02252144287146495 
-0.009244463359653085 
-0.009656908343966875 
-0.02333653939634447 
-0.02294051622813182 
0.0116038765676313 
-0.02089463606057627 
0.0008135898637267404 
-0.03275784132469122 
-0.003856411015581601 
0.01658390639842194 
0.02181752141086961 
-0.07431741582190864 
0.03714957570402162 
0.001932463735086075 
0.005639097904109243 
0.03127337791761927 
-0.01379762052250237 
0.05947922096424363 
0.04367591150437992 
0.009907070259670723 
0.008299957848024057 
0.007463027671602869 
-0.03027946444582768 
0.001898375903975935 
0.004180900106031949 
-0.01843929317526742 
0.003766371303305662 
-0.008163886310293292 
0.001346555535789242 
0.02153611939024724 
0.003609689265483587 
-0.01483420400269257 
-0.008570301445252998 
0.00403597808766407 
0.01560517724957972 
-0.01529130301789939 
0.01156729664729273 
-0.05177135392109895 
0.0412178338332462 
0.04595813477703357 
-0.03705114168721653 
0.03888839758432232 
-0.05670311380441234 
-0.03534765826487264 
-0.008936803617168093 
-0.007365818832450626 
-0.01044982363819056 
-0.02214177963094836 
-0.01892527356450229 
-0.01561155034418995 
0.004465177529218837 
0.01143755977885375 
-0.00268831327801921 
-0.02425230814529585 
0.03925179909161373 
0.006581091815214206 
0.01760105792684234 
0.01383664644051039 
0.0096686422934144 
-0.02634532479283575 
0.06881783382462199 
0.0613078090466753 
0.056608597398134 
-0.03196241649769787 
-0.0132894393425828 
0.04333859491364843 
-0.005721864778833221 
-0.01951799322895341 
0.03013143081186855 
-0.0249111169520989 
0.02481947699064982 
-0.01998113220258295 
-0.004287946469174141 
-0.007642096631294821 
-0.01963428021082326 
0.009758699875761804 
0.00254869261069319 
5.296721053278862e-005 
-0.02155592275581149 
0.01099048295698504 
-0.01102096641638085 
-0.002698890130011745 
0.01657096663915 
0.001685257737903343 
0.003576014878407911 
-0.04254046690906701 
-0.01019294692445493 
-0.004744375160679842 
-0.01197853678877649 
-0.01522748582170168 
0.01412333758056098 
-0.04895603896169824 
0.05085680760198458 
-0.011959564005348 
0.03358112452022578 
-0.01636997823846047 
-0.02220053893085982 
-0.009851030796884864 
-0.02683406020074059 
-0.01160777242904492 
0.01983202709397782 
-0.00754497945896705 
0.01399951362157895 
-0.006555097475720337 
0.02191839357488522 
-0.009727256013484103 
-0.008621012496022353 
0.02925877132502817 
-0.00682710499572826 
-0.001724513778108195 
0.0366154515886722 
-0.0005215620928495591 
-0.02766274984760736 
0.007200231157183211 
0.03048376009726273 
0.001781368655524468 
-0.014344046905607 
-0.05426180767878818 
0.005996484342477728 
0.008770601588229799 
-0.01631321036143423 
-0.004546173421418048 
-0.02525471482033118 
-0.02519767286966313 
-0.04419586398860338 
-0.003355168279053129 
-0.02059564694459391 
-0.009222579402938049 
-0.006702901643202017 
-0.009905574050887336 
0.007241688832482172 
-0.02770064579808461 
0.01514322560070177 
0.0008399372296383629 
0.004961749552524568 
-0.009169130255681503 
-0.003013170648661437 
0.02758074935928553 
-0.005381250582604014 
-0.003698928746441926 
0.02063328349772361 
0.03185783280013674 
0.001143270819366991 
-0.0186506623850272 
0.01904788079049351 
0.02728384488305068 
-0.003537615138026272 
-0.00582102061125469 
-0.01533243915791308 
-0.0166788079223164 
-0.001832199061387801 
0.01081323261158042 
0.01359963550114974 
-0.0005984296482699589 
0.01255868443596584 
0.02582996003785317 
-0.02114323799778741 
0.0007456913095176148 
0.003654436133214223 
-0.04658647768984871 
-0.02354252911958711 
-0.03359506329390652 
-0.04797080374393748 
-0.053108738850795 
-0.02815033816468934 
-0.02235904093716203 
-0.005971919408285714 
0.01250572914833815 
0.04503790911106032 
-0.04552786155738008 
0.002436883280165881 
0.006737378686501898 
-0.003588711066810665 
-0.01447108747596679 
-0.0004554623575613487 
-0.01420324340974163 
-0.007041407581611571 
0.02127719679163205 
-0.0007587268516184722 
0.0514739670026562 
0.02222767424450482 
-0.01236964427340192 
0.0223953696262735 
0.007405089702547308 
0.01360071375377298 
0.04462564616892195 
-0.03487479010217193 
0.03452200086657916 
0.002618499402595557 
0.05211711329622205 
0.01537996007179845 
-0.06438955491395558 
0.01094334864713503 
-0.01515380136727209 
0.0533116056527892 
-0.05717045048403718 
0.008900994503618673 
0.004716979647513934 
-0.01489465436867389 
-0.00872442535303134 
-0.01571776284457901 
-0.005338386965634451 
0.01437395773532969 
-0.0002545041225768125 
0.04490035724656313 
0.04158179170735473 
-0.01229133708918227 
0.02515114575064505 
0.009359342429587797 
0.0005109821078295631 
-0.01817858234473046 
0.03326163644888737 
0.01668305239809781 
-0.03417392737097635 
-0.07273080564116237 
-0.004393437041228823 
-0.006224254493081335 
0.005017291228484574 
-0.02170275988957171 
-0.02956904661461502 
0.0386201934869494 
0.002250412087932992 
-0.0009750820982995469 
0.003404679891527372 
-0.004136398241374373 
-0.01207825506665955 
0.0008104823093350082 
-0.001115085548813054 
-0.0004887685419225403 
0.0390327310301203 
0.02176162135966598 
-0.00486371767258928 
0.02871728760655783 
0.00781092046467011 
-0.0111565470543018 
-0.02007978521929805 
0.03218262082872347 
0.01822759502745757 
0.01003381182353553 
-0.02274223517727738 
-0.005047526238123518 
0.01383138775064205 
0.01940814330687567 
-0.007188462646088917 
-0.004723966970286625 
0.01860844618867858 
-0.004133756089188039 
-0.001089982632635132 
-0.01176877563607749 
-0.008004836038282399 
-0.02606298886661675 
-0.003799845550160982 
0.02038525660014935 
0.01061003871359982 
0.02062390771268646 
0.005549989126833402 
-0.01805533032125824 
0.02728884132519397 
0.002393422149563418 
-0.0204286274840361 
-0.007606253444594971 
0.0442963252941757 
0.0409651210648672 
0.05442478727048536 
-0.009766825066456375 
0.04619293200594809 
0.01100148605556621 
0.009513951253132881 
0.008816822369296167 
0.03109885312604413 
-0.0371313198628906 
0.005530909559591224 
0.005638018240641736 
-0.01013084814955826 
0.02042863357662731 
0.01531106608618717 
0.006784677522834932 
0.02280934410012716 
-0.002880006250861264 
0.03437232906839452 
0.005972846858450778 
-0.01461940872876204 
-0.02035272254700713 
0.000702956399143392 
0.008272104683409004 
0.00150797765355212 
-0.05284546554019694 
-0.05656019952480727 
-0.06345157661637858 
0.01278954284037997 
-0.01084658654566701 
0.02861140718022731 
-0.0110360778980735 
0.002444468442812182 
-0.02318973451102645 
-0.01941913970514942 
0.004523161863870576 
0.006683801373624787 
-0.01214745126218294 
0.01975117683275715 
0.01163271724052721 
0.004894372156439606 
0.01274095634874387 
-0.006400708472481098 
0.01533641089325692 
-0.01214012826100906 
-0.02552433005826206 
-0.005552173813373184 
-0.002760501230120783 
0.02976832345674888 
-0.009558758666518775 
-0.002439800000627485 
0.02975363718309761 
0.004275368313686663 
-0.006950342883420094 
-0.01026503948565193 
-0.03936764265707456 
-0.06104175921844824 
0.03963259136588405 
-0.01764663299384268 
-0.05062466777919671 
0.02087499200241811 
0.0001091682133799883 
-0.02554420379858488 
0.007338784546340923 
0.003920609181762593 
0.011444246086877 
0.0122915832627451 
-0.04025019185701528 
-0.005570478326964199 
-0.006109207311599985 
-0.0136560043097471 
-0.007572922045330257 
-0.004379177585183003 
0.001687200564535066 
0.02531255219013588 
0.004232362839176113 
0.004708001607500574 
0.03768759666565848 
0.03604476499958399 
0.01164421146122365 
0.02853060873391946 
-0.001008237081738115 
-0.0001200147603153848 
-0.04598379876720229 
0.02297039963495994 
0.01058875063705843 
-0.0003117650767012529 
-0.02923245659690315 
-0.0003905813406854348 
0.01873872782378587 
0.0227765917508819 
0.02128581042512299 
-0.02971207884176047 
-0.001989693891493655 
-0.001858921675089628 
-0.01353692534060599 
-0.02105777432910478 
0.003764526466173829 
0.002654024034369823 
-0.01127131589870106 
-0.02145145760772451 
-0.01741983542268234 
-0.03019100409820769 
0.004101877912352303 
0.01265411605641022 
-0.01352776710887178 
-0.0157917001913512 
-0.01482582782579207 
-0.01377848152404052 
0.03403010502990102 
0.006188274470759479 
-0.0008179149638635762 
-0.02088323942120562 
-0.01051028917545598 
0.01633336313988211 
0.001077829865341438 
0.01407440435761297 
-0.02104707771742764 
0.003978086083690264 
-0.009917151619097722 
0.008766454773560096 
-0.01445297842891572 
0.005151718539411977 
-0.02327635710134837 
0.02920456681587492 
0.02733292570376977 
0.02856630651075456 
-0.02840831199644566 
-0.0328971268840452 
-0.02826544802725207 
-0.05207477056655961 
-0.01118542005220638 
-0.04397807777820578 
0.02935564044687926 
-0.01647554322578137 
0.003640131260696816 
-0.009884147741915421 
-0.01180899529636315 
-0.008529141853375572 
0.01147751375691849 
-0.004012308513381444 
0.01706869740039406 
-0.02085401248675825 
0.007548962040833852 
-0.01176792758291455 
-0.01155378075430905 
-0.001309116980188669 
-0.002698529216106995 
0.01175306408153203 
0.01126611121338605 
-0.04242546118579847 
-0.02748154310309361 
-0.01881564674215304 
0.003165416483351659 
0.01590040172298776 
0.01282596564834789 
0.02112057119824437 
0.0245203025059621 
0.05392324247724963 
0.0003218213706983322 
-0.004112143720353072 
-0.003812065425685937 
-0.005328398870610988 
-0.005329611661472709 
0.005277837711166439 
-0.01303012818984459 
0.01936711057292857 
-0.01579992804890959 
0.01259878750759874 
-0.01008643145828092 
-0.01741963763652477 
-0.01201282323346441 
0.001403458486105866 
0.003448264042113873 
-0.00422551409135717 
0.02690288702690413 
0.01281699297171474 
-0.01720895503714664 
0.03709873839919272 
-0.01999766842902044 
-0.007046723613127939 
-0.03479625450376134 
0.006496460283551964 
-0.007941995268595244 
0.003456237604124153 
-0.006294435904803139 
-0.01305540696320681 
-0.0154851608049459 
-0.01300780838526164 
-0.007167461691488077 
-0.01923107830286424 
0.01028764174008052 
-0.02515780726594858 
-0.006813913394430581 
-0.01393317259537055 
-0.006078146902369398 
0.0003036160926106507 
0.002014951916584362 
-0.03383304686678168 
0.01528813208967544 
0.01375151367488964 
-0.001441683129549595 
-0.002276735031640024 
0.02393968824965341 
0.001843936675147213 
-0.0173300562306965 
0.02774795040981127 
-0.01458851311880363 
0.03144724978623892 
-0.04432499672999039 
-0.005611013307127975 
0.003501223570858509 
-0.008581131146959567 
-0.002960284472970221 
-0.00233567183608503 
-0.0298294911526142 
0.006590053332036856 
-0.006985295165229413 
-0.002230744055536767 
-0.005964358051300031 
-0.02374777030806538 
-0.001629460316125206 
0.003043719028711152 
-0.01426083974046893 
0.02449820356999795 
0.004705843398555011 
0.01329540923283388 
-0.01347982369693666 
-0.03274770587928663 
-0.01964930024262034 
-0.01860724401624804 
-0.06273184478883312 
-0.00690146622678784 
0.008989811308966532 
0.004349676614061829 
-0.002050569784436638 
0.003783847643551871 
-0.002085498652333916 
-0.01100708803018078 
-0.004749495006132341 
-0.01930634966435144 
0.005556412612819854 
0.003208166358112816 
0.0008424965778103272 
-0.01101998521012713 
-0.01035042888994217 
0.006147277148589834 
0.007062459816559082 
-0.02268791694714754 
0.01199305680531188 
0.03070097646394282 
0.02171483638880978 
-0.006082207468948229 
0.006578335752264615 
-0.03226935659767093 
0.03525925689686552 
0.04608301154926869 
-0.01707785398843909 
-0.008681154535518532 
-0.005468034608642556 
0.002766297386356038 
-0.0006090202640822346 
0.006503310036317211 
-0.01569118237786083 
-0.01944467836805802 
-0.02155145017731593 
0.0005245383917651004 
-0.002729456554752761 
-0.004529352344673383 
-0.0170600440870236 
-0.008815484483560464 
0.006411206206646092 
0.008975591074016858 
-0.0007599351537961037 
-0.04857470644834625 
-0.02761112177656901 
-0.04228039465298972 
-0.01865670168268985 
-0.02199645799558923 
0.004195252957441915 
-0.03554459073188146 
0.003643896336646082 
-0.05627159495942042 
-0.00900468124979021 
-0.00369939021701665 
-0.0005957822508924379 
-0.0166733463250029 
0.00553005147753591 
-0.01299806996070799 
-0.01760400493259765 
-0.01717347055495041 
-0.001498231921522238 
-0.0002977401221114087 
-0.01207535836261097 
-0.02947059142953898 
-0.0146056011874004 
-0.01178395281453533 
0.0034641124207784 
-0.002645228643008876 
-0.009871325478444763 
-0.005356785688417713 
0.01300016362711073 
0.005811377193512524 
-0.01827589594788984 
0.04712823297988252 
0.03688748175816087 
0.02629424122910745 
-0.01108188907162624 
0.005273409727091062 
0.02779520065928976 
-0.001064102805572597 
-0.004846587040539832 
0.004392719696043977 
-0.00686882745633504 
-0.007102613020190909 
-0.007777554896422172 
-0.0008088744420668401 
-0.007267883481268763 
-0.01580174868739335 
-0.02136289014377393 
-0.007232872487535884 
-0.001523026883623141 
0.001073086643765157 
-0.0009239135244429761 
-0.01730130796551709 
-0.02438333198631358 
0.02768666331734579 
0.008702211768898389 
9.575522562617312e-005 
-0.001172965306791112 
0.0209874265707237 
-0.02536548734856732 
0.003715767934204079 
-0.006485621461752971 
-0.01553224913408362 
-0.0003930239014989153 
0.005537758112185951 
0.0008600296287189367 
-0.004795648080902606 
0.001327665676591411 
-0.005507296702504752 
-0.01111245839293605 
-0.01056648532844687 
-0.01417018946214615 
-0.01233120970429509 
-0.005144491232306316 
0.0009130014979963965 
-0.0003971074618115558 
0.01779391554089855 
-0.006919280311114205 
-0.009785775210451765 
0.01175706845928657 
0.00847798145071293 
0.0205395735151373 
0.0002313633475059795 
0.03636338067058378 
0.01426326047119304 
0.01601120896438418 
0.007651719210438316 
0.007569821514707929 
0.00220179114599747 
0.009082242722440214 
0.001152973478997552 
-0.006111104009477051 
0.003938437266633833 
-0.001690626085388672 
0.001180747779745351 
-0.0122796525908482 
-0.007011939306265767 
-0.009739735920217939 
0.0005991201269674083 
0.005662381960160542 
-0.001054972175813648 
0.02875925015917078 
0.007133583345252849 
-4.366890299351403e-005 
-0.006266286681365105 
0.003076123886523912 
-0.005343566669531227 
-0.01261196904266665 
0.002074993217796986 
-0.01853529677795 
-0.005778656640054051 
0.00803139134390723 
0.02015669961430366 
0.003255136553173383 
0.007091161478893744 
-0.0007267567905960147 
-0.005613244968654731 
0.004388805833485871 
-0.003427347303284796 
0.003486404314660814 
-0.006520821905366458 
-0.002937654607059189 
-8.35869339096129e-005 
0.002775382584428672 
0.008532030534546301 
-0.0006590824224269322 
0.02241718320144602 
0.01165316307276832 
-0.008807065532832089 
-0.01763965291942092 
-0.008292825758958398 
-0.01434685582698098 
-0.009454417462602309 
-0.008270167749153387 
-0.01752290866388608 
0.0003770028352998689 
-0.008259470184065032 
0.01991326578240812 
0.0004203468883400837 
0.001430469426489362 
5.599797974158759e-007 
-0.001446437595116183 
0.001410566859976862 
-0.00143351159320279 
0.008529858822473974 
-0.001025395939716767 
0.0004847464246599125 
0.0005953578183805852 
-5.416868089262956e-006 
-0.0003164401075900149 
-0.001041326896052515 
0.0155039462874616 
0.01241047226053008 
-0.01167875067704398 
-0.01845712014089208 
-0.003226026962446939 
0.001304323743799218 
-0.0009261303017014716 
0.02257308841136124 
0.006839156474150184 
-0.008275637985646005 
0.004144267923643434 
0.0264287803965786 
-0.0001387696942121643 
-0.001542450960921536 
0.001697000115378274 
0.002713891861426931 
0.000338491734611181 
0.002162052805716009 
0.006728523421408117 
0.004670626085169723 
0.00559442214647232 
0.002243795660472909 
0.0003948627417533595 
-0.003438879339527032 
-0.0009174322165234866 
0.01558768460651455 
0.0109680403378775 
-0.007476058895161591 
-0.02297360749989619 
0.002232496807154103 
-0.002317073718877625 
-0.01575498182918509 
0.02882489743031493 
0.007895938264430547 
0.01809051699866374 
0.007959624937270537 
0.007277694020928554 
-0.0005187598748863706 
-0.002108025655299932 
0.003389095064244136 
0.004318242360195768 
0.0005220630336602103 
-0.0004579406647094692 
0.000875100477076676 
-0.002365177516352373 
0.008615126744746213 
0.001982809554540786 
-0.001260306788176185 
-0.00608110883651662 
-0.0005590006745281517 
-0.001407493738298739 
0.01400684772259738 
0.00670396861735306 
-0.003039364933950523 
0.001928094886569734 
-0.004258744632185077 
-0.02084620258662258 
0.02476974472612285 
0.01151505373128185 
-0.004550577349658495 
-0.0006645083893722203 
0.003450726422134728 
-0.002646684517306678 
-0.004634844808684015 
0.002875741357957098 
0.001890516018436068 
-0.00336349579057586 
-0.0009571748342678557 
-0.002255952638534591 
-0.007480943699664833 
0.002581510343242431 
-0.0008921268209739918 
-0.003688729723689512 
-0.00395721204765264 
0.0003082011438135743 
0.005443638854304284 
0.007990802691422678 
0.009687715366870778 
-0.00478864026267799 
-0.009701913986552726 
0.002858281923255822 
-0.02223791350390607 
0.00127545820250987 
0.01356947388253646 
-0.004971675960581283 
-0.01857157346385147 
-0.01259555015183669 
-0.004369667188312731 
-0.006159991335816481 
0.001689503671927578 
0.002232629794310578 
-0.002285047341186721 
0.001235713328915782 
0.001438840832972234 
-0.00603839060107675 
0.0004813398684933573 
-0.002455764465282602 
-0.005815778006079667 
-0.004863359481862496 
0.001360903059935654 
-0.00653531219874325 
0.01225166158515708 
0.01475944260097332 
0.009617977792297323 
0.0004481864407145331 
0.01107558712136254 
-0.01335104699470467 
0.009984199008453648 
0.01389844325041949 
-0.001560550284329421 
-0.00383292403863497 
0.01126644724292901 
-0.003822517455536938 
-0.007132614505701734 
-4.348637604442868e-005 
-0.001668288371390025 
0.001208377274885326 
0.0007598483435890399 
0.004842781441316154 
-0.002531360119141431 
-0.0008206179272903107 
0.0006359371530690035 
-0.003762563322941375 
-0.005664582280351811 
0.002374748132383956 
-0.02011485480312998 
-0.002563625094962682 
0.01418080227803775 
0.0107507626979273 
-0.006998163591379833 
0.001753104252209591 
-0.007072798790866359 
0.0177819955159881 
-0.001173273704840926 
-0.01197687997639509 
-0.01231313236350928 
0.0009816866396603369 
-0.003139891272480856 
-0.007424501981066935 
-0.001764653971718902 
0.0004526108459489512 
0.003081339692169225 
-0.004140561474408724 
0.004699758958442929 
0.001075503771872901 
-4.928014333697969e-005 
0.002557959949226611 
-0.003964105578741634 
-0.00122676666362679 
0.002814236031048395 
-0.01854202923209615 
-0.01167955531340001 
0.01032300381276363 
-0.00405723069177364 
0.005488830039221085 
-0.009893906219609058 
0.00386732711802615 
0.01824588904009116 
0.01003454544725837 
-0.006574030639766075 
-0.008893132328926287 
-0.006480219112195843 
-0.0006303887736157773 
-0.006715296475978302 
-0.002601923480550708 
-0.001124134923514285 
0.004509335532579189 
-0.005263438523742913 
0.00416671680234289 
-0.001659149827120997 
0.002105171464570177 
0.004738747905878428 
-0.007466527560715239 
-0.001898888448729744 
0.003107705061407717 
-0.01485944914090785 
-0.01467526037023988 
0.004895627578765135 
0.002886608949749596 
0.004729355701227098 
-0.01558767117910024 
-0.01087653244151322 
0.02402123435405429 
0.01314833214322145 
-0.002953434533829604 
-0.01003183301833729 
0.01205360330693624 
0.002027956512564148 
-0.003916617516006382 
-0.001808426172752746 
-0.0005085087096008251 
0.003812936011241936 
-0.005207709330906371 
0.0002741242201413188 
-0.00377384388813478 
0.003673534992445686 
0.004000339946711673 
-0.0073271423393694 
0.0004136480425039619 
0.002309480936921995 
-0.01200641176262164 
-0.01676170148542217 
0.01554408324532552 
-0.01474852304223096 
0.01121535499277775 
-0.01610669394772184 
-0.004970751599215223 
0.01177500216666715 
0.005876856840211547 
-0.008534567958918379 
-0.0207149659289105 
0.007463999540472942 
0.001398641776819499 
-0.0009915833518737037 
-0.0003605426759775112 
0.0004534689943138895 
0.001254501550161484 
-0.001439262559611056 
-0.0007332472982353436 
-0.003680364200645655 
0.001119704204584344 
0.0005953684767202818 
-0.006828508046719222 
0.001691968891086192 
-0.000102008987162546 
0.005943825454073157 
-0.005826236571110774 
-0.002797647293168182 
-0.01290656783971028 
0.005498176917548453 
0.004330912732749374 
-0.0001728745288149891 
0.006187356457679565 
0.01826427479286723 
-0.0005120349491754958 
0.0001577020482434697 
-0.01635651576973171 
0.002051225251774426 
0.0008289201514140276 
0.001515994001274702 
0.0008923452432627166 
-0.002104032794689124 
-0.001222795741474217 
-0.003556333584351398 
0.0002387202276679978 
0.00172481300027522 
0.001117724081830877 
-0.001666884572123638 
-0.0001827873583716592 
-2.788943113838899e-005 
0.004636273436823019 
-0.005115633655750121 
0.0095308913780327 
-0.005341748608252595 
0.002980590427852637 
-0.000655046796035907 
-0.004933584797057466 
0.005931345008860832 
0.01224324024117048 
0.003331859618213126 
-0.0004224023710528274 
-0.005049587083250915 
0.001050580870003208 
0.0004321129102916464 
0.001191092293243037 
0.0008773121438191343 
-0.0007600140397456454 
0.0003377035420273274 
-0.00241261109377173 
0.000126412502106599 
0.0001783056251321334 
0.001516841012201258 
-0.0001570037517085633 
0.001485380640111835 
-0.0001818259497168083 
0.006451515969507707 
-0.002274730114537093 
0.009007131267440337 
0.006551368159341901 
0.001169954104967246 
0.005252548770656061 
-0.003995431045781358 
-0.003907616340586274 
0.004393922270336235 
0.002882596200616959 
-9.367140542275221e-005 
-0.0002055821895002256 
0.001027857975813209 
0.0006174707952542135 
-0.001366888385542633 
0.0001182466256839162 
-0.0002829323054981297 
0.0002434068225583145 
-0.0001288207908195471 
-0.0005172810639271932 
-0.002430806056458279 
0.0002141033322629455 
0.001272564431871166 
0.001126527533233599 
-0.0002957892996405043 
0.006573136289941511 
-0.0005009080879541436 
0.006708991076704664 
0.001508196760025481 
-6.091427401018141e-006 
0.005540758192528248 
-0.001260058955170793 
0.0004232400313917258 
0.001088568886368241 
0.002248583944376005 
0.001577031581627788 
-0.001521754501551483 
0.0009069063206443122 
0.0005336400055316327 
-0.001540358661884965 
0.0001693653924130555 
-0.0003833082772083074 
0.000112836002951702 
0.0004667193569203663 
0.0002878686362218917 
-0.002374376270857572 
-0.0006369851391972647 
0.001410506999744706 
6.036292523216444e-005 
-9.78872459514774e-005 
0.008250481963708025 
0.001948224569291399 
-0.0004262654678993555 
0.002608816430363356 
0.002398360746662651 
0.007287506308418812 
0.002853411025597566 
0.0005678946028463425 
-0.002003236642926216 
-0.001558735689664622 
0.002405757667046324 
-0.0008578195344677061 
0.0003427482143787312 
0.0001061725827159827 
-0.0008549737904975496 
4.379794092896701e-005 
-0.0001396796946647518 
0.0002691439490315251 
0.0001938732591941362 
0.0007543564475756511 
-0.001729186575402137 
-0.001340968198139466 
0.00152573574465357 
0.0001409522674134624 
0.0001199124701611563 
0.004823387892046613 
0.001632758518854143 
-0.0008782155845582871 
0.003315829741460099 
-0.000792057609533422 
0.002641033173222017 
0.003829052151583612 
0.003327095593879747 
-0.006087270294941792 
-0.003551221316204714 
0.002165152746839485 
-0.001216366586381666 
-0.0002199610663689123 
-0.0002229840289564039 
1.382644933614146e-005 
0.0001910276926722313 
0.0008403957342043161 
0.0006405839086385639 
-0.0003542826452438714 
0.0002251799677526582 
-0.0005700315222597341 
-0.001190469649717742 
0.0007146200589762146 
-0.0002726961342835578 
0.0001598831232398645 
-0.0005923451215016533 
-0.002799940880148418 
-0.001646091750151501 
0.0007363494120814981 
0.002754856972762182 
0.001477640152023805 
0.005245986212544918 
-0.003425912383081675 
-0.0001777576205328774 
0.0001516071554297364 
0.0029788675565635 
0.003459326017806036 
-0.0001957104202044549 
-0.0003178654334361593 
0.0008341331269647671 
0.0002411259320698279 
0.001256515740716825 
-0.0002307737094336025 
-0.0003011529561380727 
0.0003315722437843128 
0.000574502323869659 
-0.0004443881692237721 
-0.0006785077140226733 
-0.0005436179844944479 
0.0001332996505104526 
-0.0008375691986425637 
-0.002727411498077161 
-0.001927905031296513 
0.001906321885935635 
0.004660376985375869 
0.003159967816693667 
0.00444339398604779 
-0.002859509243037117 
0.0007036649123800627 
-0.002907238860525752 
0.0007235955054873236 
0.001673301575178525 
0.0001268616608094031 
-7.595315676448583e-005 
0.000786435007112366 
-0.0001979085676603323 
0.0004634375140682752 
-0.0006557163422933687 
-0.001132991627320282 
0.0006610143636732519 
0.0007059739555551324 
5.25625019713352e-005 
-0.00142808907544542 
-0.0007938887667090628 
2.867098912356144e-005 
0.0001167510319994633 
-0.00256386769906534 
0.000476799296386018 
0.001095314976195971 
0.003873355581721435 
-0.0005028458161675802 
0.002597330330636791 
-0.0008711561085957765 
0.001885399497504177 
-0.001584729533790276 
-0.001964643167663812 
0.001364617104204316 
0.0001447651191664793 
-8.119542963102176e-006 
0.00066268149877051 
-0.0003075866673090726 
4.259339258597347e-005 
-0.0009896300571322857 
-0.001486474665677351 
0.001089458554731065 
7.99106616552449e-005 
0.0008016099422559835 
-0.001550312889440449 
-0.000971966481870743 
6.679141941555963e-005 
0.0006788428269932718 
-0.002168569007622499 
-0.0002946582117532883 
0.0002586393507131742 
0.002344060537326912 
-0.001091644214933641 
0.0005595724547866837 
0.0005099447490348511 
0.001436203158693057 
-2.817360029971901e-005 
-0.002608919673846208 
-0.0003103272486638196 
-5.191056188042618e-007 
-6.665066736466568e-005 
0.0007960371825329366 
-0.0007066528789462923 
-0.0003807097832950991 
-0.001378972113945839 
-0.001268759818919531 
0.0006993347171431934 
-3.306057311262467e-005 
0.001953439937618158 
-0.00101659535094503 
-0.0006817677812226836 
5.469571788459544e-006 
8.691233897811493e-005 
-0.002646484749985295 
0.0001365869989165406 
0.001171033329417193 
0.004692638358871187 
-0.001166282103266892 
0.0002752127475297717 
0.0008401692863240028 
-0.001390407064126171 
0.0004466611251668484 
-0.002630115682711418 
-0.0009677499143440428 
-0.0001256485291649319 
-3.671706399939545e-005 
0.0007948427633764449 
-0.000324411602488662 
-6.096020825827904e-005 
-0.001056715123852886 
-0.001162543137189477 
-0.0001699336302044772 
-0.0001167604211227586 
0.002017271986242309 
-0.0005181642246785993 
-0.0004646103267986294 
0.0001275455894208135 
0.000245217100013292 
-0.002309148505016879 
0.001151235321341021 
5.836361588811628e-005 
0.003197148264455323 
-0.003135539135339909 
4.019763281650859e-005 
0.0005367449843019261 
0.0003073744307967744 
0.002434096034610061 
-0.003312150672705515 
-0.001407887612438284 
-0.0001705653249696981 
0.0001128336300453221 
0.0008788834452190202 
0.0002335596383284633 
8.219508437336594e-005 
-0.0006222732782834867 
-0.001029595075013633 
-0.0003761936445661954 
0.0003807857965436283 
0.001632080196677021 
-0.0005384679175673849 
-0.0002626884869894944 
3.493348636207228e-006 
0.0003313668610176604 
-0.002248255988003691 
0.001482689198887462 
0.001074249187412788 
0.003470668469226797 
-0.004264564396669565 
-0.00309334849459701 
-6.518551898432503e-005 
0.0009810044602329676 
0.004675395781959232 
-0.003374269536543053 
-0.001585803551741345 
5.501630003071397e-005 
0.0003277701759169006 
0.0006419773510843276 
0.0006691263093050127 
-0.0001205576541258739 
1.369142784091541e-005 
-0.0005608194548123402 
-0.000445717507143498 
0.000318722932113003 
0.0008902897409607426 
-0.0004711330978942608 
-0.0003553761141901975 
-0.0002480548320158264 
0.001504003528430993 
-0.0004412637601711843 
0.002954791743600645 
0.0002519462949251635 
0.002496482969891523 
-0.00213653600625946 
-0.003627447582184974 
-0.000306885390315035 
0.002244769908325045 
0.004306660037801836 
-0.004031727133834298 
-0.002112875656353156 
9.308857029629891e-005 
0.0002401073948510309 
0.0003341417210040205 
0.0007089219825948559 
9.240772283146206e-005 
0.0004389096278493446 
-8.010101619793482e-005 
-0.000178684079087071 
-0.0001928696098247529 
0.0002385221804690188 
-0.0002688350599442484 
-0.0002546407812452553 
-2.279716855438537e-005 
-0.0001389824222105808 
0.0002578790113792565 
0.001829670990061382 
-0.0009181332493868554 
-0.0007590433135551663 
-0.0003944226353186875 
-0.001501312788696106 
-0.00185497428961568 
-0.0001413436028837868 
-1.289321168770609e-005 
-0.0009423965166321423 
-0.0003431544141419854 
-2.912967168430433e-005 
-0.0001582490939750914 
-5.921823324699417e-005 
0.0004175962352704952 
-0.0001796584573343794 
0.0002356793782407426 
0.0003282423127961432 
8.358209419816414e-005 
-0.0003506330467193256 
7.799139785456881e-005 
-0.0001380758400081969 
-0.0001753649779092056 
6.28938100467884e-006 
0.0001832409881290353 
-6.543253405948673e-005 
-3.369941034579094e-005 
-7.900372406712667e-005 
-0.0005051898873869863 
-0.001027191672161051 
0.0003182927340962715 
-0.0002229185474280247 
-0.0006384403522979341 
-0.0006152025440817035 
-0.0003542105427015398 
-3.315441019295994e-005 
-4.770928767191526e-005 
-4.73055425308956e-005 
-0.0001257082389059256 
0.000301385721361138 
7.44796672661819e-005 
-0.0002889358164804106 
4.533057404755966e-005 
0.0001057053307947959 
-0.0001354036968349782 
-0.0001166698133151228 
-0.0001595411160163832 
-2.822178483896568e-005 
4.145490120207806e-005 
-4.700219595286719e-006 
-2.964618993934527e-005 
-0.0001180934900123571 
-5.961808901555575e-005 
-0.000155138244573659 
-0.0006437622341318205 
0.0002912795212492694 
-0.0001572400345970398 
-0.0003370751359310685 
-0.0006853334119736504 
-0.000967990889234501 
0.0001347008145369296 
-0.0001112468053234704 
4.666238214641715e-005 
-5.351065777565185e-005 
0.000290360353777263 
0.0001531882978886525 
-7.197402402604862e-005 
-9.027140014063596e-005 
1.042555930285821e-005 
-3.91778542973032e-005 
-8.028707294599178e-005 
-0.0002439852899946267 
2.900324935287551e-005 
6.591578747836651e-005 
-0.0001208665796180944 
0.0003129055442798077 
7.639316418206968e-006 
0.0003427972456979613 
-0.0001977063241058779 
-0.0006845732635748834 
0.0003381507711317111 
-0.0001180148448016945 
-0.0007173820318319353 
-0.001281948528607919 
-0.001264934848787282 
0.0003896529644324325 
-0.0001579516657155489 
-4.777442562019414e-005 
-0.0001073765228870605 
0.0002050001543921269 
0.0001676836184951412 
5.326971421730147e-005 
-0.0001806849925625099 
-8.199172869518912e-005 
-5.40938779224204e-005 
-5.998583072172071e-005 
-0.0002837197515536604 
3.637615950625881e-005 
7.153070105793843e-005 
-0.0003556906614458883 
5.912133038705731e-006 
-2.273387338039006e-005 
0.0007356232610964348 
0.0001237592168931038 
-0.0004648928992856913 
0.0002419310311337321 
-0.0005029439040936738 
-0.0006714948912651195 
-0.0006922935807895616 
-0.001453281183412195 
0.0001176260297629411 
-8.797897830420057e-005 
-8.195836152268584e-005 
-0.0001328821530735184 
0.0001518780535731601 
0.0001686307697649066 
4.759192177425471e-005 
-0.0003087362860989138 
-0.0001332115307772698 
-9.543558140005712e-005 
-2.865712489183196e-005 
-0.0001724558798834111 
-6.926162709106968e-005 
5.141115373516897e-005 
-0.0004310231602260928 
-0.0003220843896968607 
-0.0006182612392937096 
0.0005483759439693792 
0.0001937781519970633 
-0.0008502706068876961 
-0.0005604593569121703 
-0.0004600265784450331 
-0.000741702377279285 
-0.0009116525835604284 
-0.001530163672143649 
0.0001572640182454102 
-3.183034893771493e-006 
-9.538458052599645e-005 
-0.0002338682961374551 
-3.409151531777391e-005 
0.0001140571599191558 
0.0001034079772632376 
-0.0002560956578866189 
-0.0001672320757140388 
-6.547117788520887e-005 
3.01557513178752e-005 
3.486072516248795e-005 
-0.0001249949711332265 
6.709793194862947e-005 
-0.0003133819404533468 
-0.0002896196440538917 
-0.000476377698115607 
0.0004994139273975728 
0.0003698620910132822 
-0.0003370449923413703 
-0.0006522560600380994 
-0.0005234344379774276 
-0.0005271612695118564 
-0.0006699261452606185 
-0.001196825337755696 
6.439104399507946e-005 
6.878110805923874e-005 
-4.990488990325828e-005 
-0.0002059062126692623 
-0.0001448131903358829 
-6.111226106368131e-005 
0.0001160728267665815 
-1.806627419150914e-005 
-1.172210445282892e-005 
-0.000112143129150347 
-0.0001070368775405158 
0.000227282537191655 
-0.0001210095763234147 
6.589070045466238e-005 
-0.0001937346111402785 
-0.0002677672400358816 
-0.0009451147186616112 
0.000144091653641481 
6.591036408221766e-005 
-0.0002525990360461511 
-0.0002689732885685569 
-0.0007506470333007425 
-0.0007045064117974838 
-0.000626591685013554 
-0.0004676139620493456 
3.099896299249113e-005 
1.378241969615892e-005 
-1.859214976095097e-005 
-7.186797658940001e-005 
-9.660033670148129e-005 
-0.0001474965552856436 
0.0001531810335662488 
0.0002307382758737731 
0.0001559809090335488 
4.863067761770258e-005 
-0.0001090240377735228 
0.0003470600336333555 
-0.0002239832948955439 
7.222737570130751e-005 
-0.0001830436853407002 
-0.0004969222825836139 
-0.0009264582519838421 
0.0002171562666917151 
-0.0003417485799682218 
-0.0003191411158149503 
0.0001485242925463717 
-0.0002068232360320651 
-0.000797074726376714 
-0.0008807552576326099 
-0.0001081977336533551 
-0.0003105075985161525 
-0.0001261548538423062 
-0.0001500645937209489 
-8.651773490581382e-005 
-0.0001690705824493031 
-0.0001794438204739976 
5.600829103664375e-006 
0.0003191443034040829 
0.0003161026666206703 
0.0002015345368410613 
1.368702458990835e-005 
0.0004185330840199352 
-0.000152557665276809 
8.191508377991332e-005 
-0.0004511481681794806 
-0.0004790699880413334 
-0.0007593829003551047 
0.0001089356529378119 
-0.0003103093619140223 
-0.0001074173134985862 
0.0003436824908188866 
0.0002904268433854801 
-8.865839871716054e-005 
-0.001007519512976464 
0.0001616518501330661 
-0.0006153995882054477 
-0.0002040263355860965 
-0.0001726105389261019 
-1.455146861765733e-005 
-0.0001733291719559108 
-3.241332198376849e-005 
-2.907079470243806e-005 
0.0002165193079483756 
0.0003309775812575136 
0.0003204157579741834 
0.0001267652011413304 
0.0002575795756109216 
-0.0001331419122396609 
7.534491782771286e-005 
-0.0008154550909301756 
-0.0009342909322078071 
-0.001001833571769596 
-0.0003283631833194597 
-0.00033924772870898 
-0.0003816329439266809 
0.0006371391795250894 
0.0005365392322080503 
0.0001725866147340377 
-0.0004110266726106513 
0.0005812086443140155 
-0.0003751989807322889 
-0.0001936170015306921 
-0.0001844901476969532 
-9.899729498956329e-006 
-0.0002058944024558219 
5.786247993991897e-005 
-4.752879320306457e-006 
0.0001575776535384304 
4.900849404583667e-005 
0.0002790732630598315 
0.0002565015473517367 
3.474019433755207e-005 
-0.0001458381370025676 
4.870142363579092e-005 
-0.0008976641176532876 
-0.0009121348197808691 
-0.0009801879741446337 
-0.0004497957682145099 
-9.740570421558264e-005 
-0.0003667039479077452 
0.0005693155175087654 
0.0005325598160439972 
0.0004127433662160886 
-0.0002276282456710732 
0.0004755798076772697 
-0.0006023661449048835 
-1.806179068385313e-005 
-0.000121360672108734 
3.76565384264662e-005 
-0.0001249816734608517 
1.730690291444938e-005 
-3.953319742252204e-005 
0.0001263146146855423 
-0.0001309511086731707 
0.0001514331248629243 
0.0002693048204335744 
-0.0001651445344324442 
-0.0001454812274064656 
1.020715712133716e-006 
-0.0009278725234877116 
-0.001202840911646714 
-0.000865554459308932 
-0.0005329509218097286 
-0.000158889218181175 
-0.0002132607117901036 
0.0008235935641314966 
-8.284742930937008e-005 
0.0003475906418203825 
1.180984531895454e-005 
-9.145922522626837e-005 
-0.00104621357057618 
0.0001180508412455946 
3.216786531565961e-005 
4.133765928135335e-005 
5.788777451433395e-005 
-3.797001054835312e-005 
-1.485210937574361e-005 
9.144547822625627e-006 
-0.0001272741829100018 
9.168673520641685e-006 
0.0002120014820558275 
-0.0002113530571092814 
-4.12914839628951e-005 
-6.083269389487026e-005 
-0.0004852484053199781 
-0.0009515954715617702 
-0.0006392396751802285 
-0.0004136798865886808 
-0.0003139546441748136 
-0.0003892700568746829 
0.0008820238354465565 
-5.463664292042595e-005 
0.0005810076809006441 
0.0001275871035709541 
-0.0003277370165298819 
-0.001007296318637277 
0.0001019265503094542 
0.0002166966855728106 
2.865924981025806e-005 
0.000241228207046981 
-0.0001136836504367993 
4.395745073580782e-005 
-5.255534649372328e-006 
-7.448272268266912e-005 
2.908167462300625e-006 
0.0001620204531110083 
-5.58585537936537e-005 
0.0001263014827253537 
-9.727155978584846e-005 
-0.0004314077736181951 
-0.0007537198121339894 
-0.0009656176024293193 
-5.69834639698474e-005 
-0.0004208237031620312 
-0.000444611328899712 
0.0005265066286246902 
0.0001937678687453751 
0.0001342987644141663 
0.0004713703629583676 
-7.389629462749255e-005 
-0.000379189137366581 
-5.151771099204663e-005 
0.0002525575907854976 
-7.364865903017062e-005 
0.0003127789096964024 
-0.0001472934967960328 
5.696905222279817e-005 
-3.240398536344693e-005 
0.0001221713693907046 
0.0001444923021779165 
6.891168583559859e-005 
1.78722758746064e-005 
0.000131321288052782 
-7.911479667287803e-005 
-0.000636263209509093 
-5.321494486456615e-005 
-0.0007868602744394792 
0.0005183640921896111 
-0.0005348590027649382 
-3.124362662332967e-005 
0.0006915822313596084 
2.183956876030013e-005 
0.0005339288409438983 
0.0003526935319505943 
0.0001875063634830447 
-0.0003043694970069227 
-0.0001867432879738012 
0.0001361477317698137 
-0.0001223480722051782 
0.0002611393011494423 
-7.790226018197895e-005 
7.00601206739984e-005 
-1.003985735466811e-005 
0.000168080900141176 
0.0001360200497796691 
-4.949201371440705e-006 
1.89421562086136e-005 
2.154972206620971e-005 
-3.818921238214592e-005 
-0.001109956209302715 
-0.0003892464967166991 
-0.001159991019665581 
0.0005649228530380968 
-0.0007849066306665434 
-0.000107430133406862 
0.0007567983284352712 
0.0004897710053556887 
0.001093591201604796 
0.0002438122543678575 
-0.0002597197130369309 
-0.0007410733815898156 
-0.0001768800706147958 
1.645821133574803e-005 
-8.922597128859463e-005 
0.0001851718280904485 
-6.828183620696083e-006 
3.137720450961957e-005 
-1.125049499843102e-005 
0.0001015791067978192 
0.0001185031954963086 
-9.202956381144318e-005 
-1.293371973430108e-005 
-5.638124266848728e-005 
-2.243895794220718e-005 
-0.0002678699148243605 
-0.0005023416315261327 
-0.0003567926535976496 
0.0001043097623110148 
7.669572314967917e-005 
-0.0006032984194158806 
0.000493544486751453 
0.0008674835928417641 
0.0008156728111094122 
0.0003861641872125964 
-0.0003038975838727281 
-0.0006763403531882799 
-3.194369493897932e-007 
-6.179957932313036e-005 
-2.932225219369655e-005 
9.747275100372192e-005 
4.381069986603697e-005 
-2.297244504506318e-005 
-0.0001007638213825951 
4.279116930531655e-005 
-0.0001256066873961064 
-5.851092707091341e-005 
7.669620677501034e-005 
0.0001107864727465572 
1.226357769864935e-006 
-0.0002822732444384076 
-0.0005207339028719868 
-0.0004312743399810574 
0.0003607724064481628 
0.0001364374766885178 
-0.0005953040926910057 
0.0002345713435200018 
0.0006234172331941491 
0.000637263426426644 
0.0002488039533921327 
-0.000138536410625962 
-0.0004117073427056978 
5.610972730146383e-005 
-2.387392266243556e-005 
-4.06182890547304e-005 
1.006071267752835e-005 
-6.282486502529206e-005 
9.777743496238332e-006 
-6.784586321389724e-005 
-3.143516290321282e-005 
-0.0002239567347506405 
-5.709874110378499e-005 
0.0001817285053308502 
0.0001416615975162308 
1.266073082063767e-005 
-0.0001398383300175749 
-0.0003767068938608167 
-0.0002607451464449988 
0.0005075938026230558 
4.731040621279304e-005 
-0.0003660980885954291 
0.0001162398319812627 
0.0005338981843874791 
0.0003120621467141869 
0.0002527682302320481 
5.96532501032275e-005 
-3.851171383705306e-005 
2.916497723598755e-005 
-2.01335159883369e-005 
-0.0001049558857535091 
-9.454343237259262e-005 
-0.0001236542919340182 
5.110227062213236e-005 
1.177419722599956e-005 
3.097876567815149e-005 
-0.0001345479525194869 
-4.803289409508528e-005 
0.0001362715931999136 
-5.506171120873517e-005 
3.061870661906681e-005 
-8.15992003828009e-005 
-0.000620679913819509 
-0.0006141026093150767 
-6.317065713710585e-005 
-0.0004862175629836458 
-0.000572878386082875 
0.0003830859119794551 
0.0007291087130764253 
0.0002598248074397093 
0.0001945615034944642 
0.0003033651123830672 
-0.000309409945397841 
-8.124808839234413e-007 
3.279013599365927e-006 
-8.755939896461282e-005 
-0.0001098787079998793 
-7.832070426253922e-006 
0.0001008165365436968 
7.189187273478655e-005 
0.0001367726290430452 
-4.542803969866399e-005 
-1.68446219234544e-005 
8.604613530326184e-005 
-0.0002597425911334034 
4.391637200090593e-005 
-0.0002223825342975573 
-0.0005530352387433951 
-0.0007901567386348567 
-0.000156435867759315 
-0.000230247733058999 
-0.0003589994359839538 
0.0004781574632137276 
0.0009695333739800431 
0.0003316533252561076 
0.0001731209416860039 
0.00015650986243499 
-0.001002797124260555 
-4.552031541185851e-005 
2.444875973110984e-005 
-9.504543546638707e-005 
-5.430967381870613e-005 
0.0001065624891037833 
7.042310260390682e-005 
3.460798688860536e-005 
0.0001300918287177326 
6.923144978780934e-005 
6.309134258278792e-006 
2.969865778897604e-005 
-0.000297583371548471 
4.091272015637001e-005 
-0.0002450640787058985 
-0.0004161750735154007 
-0.0006043623951445384 
0.000143393943452619 
0.0002360560732868113 
-9.477073627826084e-005 
0.0004130726170156988 
0.001089462783613094 
0.0004003271550370336 
0.0002044042462352175 
0.0002432654760991342 
-0.001228277762429831 
-4.959722859141195e-005 
6.759969792031232e-005 
-4.884422395072044e-005 
6.535084013019327e-005 
0.0001734464215339069 
6.10804284556235e-005 
-2.001348018113102e-005 
2.927263223471458e-005 
0.0001000180711218716 
5.096782278005649e-005 
1.368625833546502e-005 
-6.788793861771247e-005 
2.111667792415039e-005 
-0.0002857074679153185 
-0.0003567147899193255 
-0.0007408414636115401 
0.0001327619241713345 
0.0002189840990951561 
-0.0002530380931668623 
0.0002742866557188333 
0.00100418029270781 
0.000587967496416576 
0.0002793922883404 
0.0002381961153774085 
-0.001066993550725155 
-3.43283547221007e-005 
-7.031235240306018e-007 
-6.908394406179067e-005 
1.329539234278239e-005 
4.531047038064716e-005 
-3.642027609224243e-005 
9.934244653417344e-007 
-7.251333128538933e-005 
5.011083869315519e-005 
0.0001164013628418864 
8.116248670871973e-005 
0.000153049039564863 
6.040625474391888e-006 
-0.0002979219092803171 
-0.0003808404395666544 
-0.0008829837847069915 
0.0001189848893612015 
0.0001563966941074874 
-0.0003204588497146273 
0.0003849536730085813 
0.0008581447876961298 
0.0006317597701574924 
0.000396264702254883 
0.0003309530357765172 
-0.0006167528761300973 
1.484362211557976e-005 
-1.272785801660938e-005 
-4.982791787439829e-005 
-1.046492672935229e-005 
-4.665557751433695e-005 
-7.516988522971693e-005 
2.449562302570387e-005 
-0.0001375701272142079 
-3.207214582694736e-005 
0.0001613499847497238 
0.0001422346935337125 
0.0002459244481701182 
9.761928947907823e-007 
-0.000367595392620851 
-0.0005742228645036339 
-0.0009962681822892402 
-7.775437899969437e-005 
3.613455024656452e-005 
-0.0004282570015396487 
0.0004971861854954513 
0.0007226232973849211 
0.0004664924202249817 
0.0006592006714502564 
0.0005184802088285575 
-0.0005433143695861073 
4.903090332856689e-005 
-3.469445909782537e-005 
9.683146381453957e-006 
-7.438689581849041e-006 
-4.001467627884935e-005 
-4.283353488433033e-005 
1.139218157687812e-005 
-0.0001673517751100192 
-9.797088509486666e-005 
0.0001660324452064824 
0.0002227926485784218 
0.0002134485235541453 
4.68983574306036e-006 
-0.0001299017639625681 
-0.0003710615353696206 
-0.0007257910433043358 
0.0001963272195787062 
9.420296013942225e-005 
-0.0003830119173037801 
0.0004241016926939056 
0.0005423906452034979 
0.000300704205810759 
0.0008212490111782448 
0.0008142993151687789 
-0.0002604946285234321 
6.99288375154117e-005 
-1.838158322603458e-005 
5.889008933058071e-005 
4.205683260240976e-006 
4.267306799943536e-005 
-2.622651808609859e-005 
-5.17706408298624e-005 
-0.0001759646586335094 
-9.0935103776447e-005 
0.0001482277786380468 
0.0002112702750623821 
0.0001808928007585225 
6.350871124362058e-006 
-0.0001245620566806964 
-0.0005350782301956269 
-0.0007710196842789429 
5.689755296600225e-005 
5.000734287227666e-005 
-0.0004359292337939378 
0.0003116733119478961 
0.0003252984884040293 
0.0002636396440522807 
0.0008970621180984679 
0.001110485976760721 
-0.0001778798149450944 
6.969089385245728e-005 
-6.57227480098925e-006 
3.765859875280142e-005 
-6.496393986522608e-007 
9.570703491948012e-005 
7.159976303473644e-007 
-0.0001221942270591002 
-0.0001740620765805355 
-7.84474140993159e-006 
0.000102692519203454 
0.0001245311046594988 
0.000199298129988319 
2.883949738808439e-006 
-6.97943896733358e-005 
-0.0004923209146634962 
-0.000701155168932581 
7.268743640462455e-005 
0.0003628253959791423 
-0.0004477553240179751 
0.0002188559383823857 
0.0001769860753330211 
0.0002785087048602826 
0.001018471421245017 
0.001091300559871685 
0.0001049945757800057 
4.499268017551006e-005 
-2.550673850566124e-005 
-1.060077708488873e-005 
-4.511387668351096e-005 
0.0001341097879694119 
6.218357783610957e-006 
-9.803569088924845e-005 
-0.000160617775998274 
1.568188990216319e-005 
2.652762321730897e-005 
-4.174557133924395e-006 
0.0002047693833602798 
-7.145902806335508e-007 
-4.919581956650893e-005 
-0.0005464530979856484 
-0.0008202914330224521 
-1.918266022464803e-005 
0.000380357781486109 
-0.0003923052616682804 
-1.116308825748463e-005 
3.501843970720177e-005 
0.0004383662218378959 
0.001074049644307481 
0.001002632691647943 
0.0002704307109531086 
7.360874266057608e-005 
1.823001504723382e-005 
1.922159206381042e-005 
-1.353120805427961e-005 
0.0001407078883630878 
5.695607163107848e-005 
-4.535839765096993e-005 
-9.731073651776724e-005 
-7.002652983231585e-005 
-7.598963016611502e-005 
-0.0001503949037471913 
0.0002255415749610101 
-2.842701334309674e-006 
5.737827654522328e-005 
-0.000492906101314258 
-0.0007541556689797055 
8.798015300276436e-006 
0.0005995793406188883 
-0.0003737321144485534 
9.534093054375555e-005 
-0.0001155579202642589 
0.000291749882803436 
0.0008653943314109435 
0.0008473502703035607 
0.0005391987180175214 
7.284654913859179e-005 
2.001942877270483e-005 
2.7736734907863e-005 
-6.263383301946467e-006 
7.995003800338018e-005 
7.233342266217972e-005 
1.336788777993056e-006 
-4.339429845586642e-005 
-0.000127472513923908 
-0.0001330042204622696 
-0.0001743774002964831 
0.0001717759796399133 
-2.071667141270797e-006 
0.0001798941144495769 
-0.0004436329016947551 
-0.0006484109903109966 
2.118612652171191e-005 
0.0006351693287425109 
-0.0001881612058612529 
0.0001466385857996963 
-1.498416363682888e-005 
-9.311335226820975e-005 
0.0005936500940582739 
0.0004804866028088269 
0.000732726230553864 
5.80693771435202e-005 
2.549131085759573e-005 
4.495070149676126e-005 
9.31259265268212e-006 
5.452198533910674e-005 
5.938580529506931e-005 
3.669018738958976e-005 
5.685451031151515e-008 
-0.0001447824317785181 
-0.0001232538501597777 
-0.0001411160681426277 
0.00011181224207405 
-1.058791184067875e-022 
-1.01643953670516e-020 
-1.10114283143059e-020 
7.707999820014133e-020 
1.041850525122789e-019 
5.505714157152952e-021 
7.411538288475128e-022 
7.199780051661553e-021 
1.905824131322176e-020 
-1.651714247145886e-020 
-2.117582368135751e-020 
8.046812998915853e-021 
-1.228197773518736e-020 
-1.524659305057741e-020 
1.905824131322176e-021 
6.564505341220828e-021 
-3.705769144237564e-022 
-1.058791184067875e-021 
-5.823351512373315e-021 
-9.595295105615121e-023 
1.032321404466179e-021 
-6.88214269644119e-022 
-8.470329472543003e-022 
-8.602678370551488e-022 
2.117582368135751e-021 
-1.588186776101813e-021 
-8.470329472543003e-021 
-2.710505431213761e-020 
-4.065758146820642e-020 
-5.505714157152952e-021 
2.837560373301906e-020 
-1.244079641279754e-021 
-1.259961509040772e-020 
-2.032879073410321e-020 
-8.629148150153185e-021 
-7.877406409464993e-020 
6.352747104407253e-021 
-1.334076891925523e-020 
-1.439956010332311e-020 
-4.552802091491864e-021 
7.411538288475128e-022 
1.799945012915388e-021 
-1.482307657695026e-021 
3.65282958503417e-021 
-7.411538288475128e-022 
1.228197773518736e-020 
-4.976318565119015e-021 
1.389663429089087e-022 
2.646977960169689e-021 
-3.811648262644352e-021 
-7.940933880509066e-022 
4.319868030996932e-020 
7.707999820014133e-020 
-2.286988957586611e-020 
3.811648262644352e-020 
1.567010952420456e-020 
-1.058791184067875e-022 
-1.228197773518736e-020 
-1.508777437296723e-021 
-2.117582368135751e-022 
6.776263578034403e-020 
2.117582368135751e-021 
5.717472393966527e-021 
-5.823351512373315e-022 
-7.199780051661553e-021 
-3.639594695233322e-023 
2.276401045745932e-021 
7.623296525288703e-021 
-1.058791184067875e-021 
1.932293910923873e-021 
7.411538288475128e-021 
-3.441071348220595e-021 
1.932293910923873e-021 
-2.38228016415272e-022 
9.740878893424454e-021 
-6.617444900424221e-022 
-3.811648262644352e-021 
5.082197683525802e-021 
-3.472835083742631e-020 
2.879912020664621e-020 
2.202285662861181e-020 
1.905824131322176e-021 
-2.005085804828539e-021 
-9.105604182983729e-021 
6.643914680025918e-021 
-1.863472483959461e-020 
2.646977960169689e-020 
4.235164736271502e-022 
2.488159282559507e-021 
2.779326858178173e-022 
1.19114008207636e-022 
-6.776263578034403e-021 
9.793818452627848e-022 
2.233387653893175e-022 
-1.005851624864482e-021 
-1.005851624864482e-021 
-8.629148150153185e-021 
-3.017554874593445e-021 
6.988021814847978e-021 
-7.940933880509066e-021 
-1.009160347314694e-022 
1.10114283143059e-020 
-1.177375796683478e-019 
-1.355252715606881e-020 
-9.656175598699024e-020 
-3.981054852095212e-020 
-4.764560328305439e-022 
-1.175258214315342e-020 
1.079967007749233e-020 
-1.058791184067875e-020 
2.456395547037471e-020 
1.905824131322176e-021 
-2.435219723356114e-021 
5.426304818347862e-022 
8.007108329513308e-022 
-6.352747104407253e-022 
1.588186776101813e-022 
-1.773475233313691e-021 
-2.117582368135751e-022 
-1.95876369052557e-021 
-4.764560328305439e-021 
-4.605741650695258e-021 
5.823351512373315e-021 
1.588186776101813e-021 
1.482307657695026e-021 
1.555099551599692e-022 
6.056285572868247e-020 
-2.371692252312041e-020 
1.694065894508601e-021 
-6.776263578034403e-020 
2.795208725939191e-020 
3.970466940254533e-021 
7.623296525288703e-021 
-2.752857078576476e-021 
-1.10114283143059e-020 
-6.945670167485263e-020 
5.378659215064807e-020 
5.082197683525802e-021 
-2.845501307182415e-022 
-6.352747104407253e-022 
8.999725064576941e-021 
2.911675756186657e-022 
-1.085260963669572e-021 
-6.140988867593678e-021 
-2.646977960169689e-022 
2.541098841762901e-021 
2.858736196983264e-021 
2.964615315390051e-021 
-1.164670302474663e-021 
4.764560328305439e-021 
-3.639594695233322e-022 
2.117582368135751e-020 
-7.623296525288703e-021 
-1.168905467210935e-019 
-2.541098841762901e-021 
8.470329472543003e-021 
8.046812998915853e-021 
-2.032879073410321e-020 
-1.567010952420456e-020 
2.117582368135751e-021 
-1.609362599783171e-020 
-1.482307657695026e-020 
-5.61159327555974e-021 
1.164670302474663e-021 
-2.713152409173931e-022 
-8.364450354136216e-021 
2.152737544169255e-022 
1.323488980084844e-021 
2.752857078576476e-021 
2.858736196983264e-021 
3.441071348220595e-021 
1.694065894508601e-021 
-8.867376166568457e-022 
-6.88214269644119e-021 
-3.441071348220595e-021 
8.999725064576941e-022 
-9.740878893424454e-021 
9.317362419797304e-020 
-2.202285662861181e-020 
-7.962109704190423e-020 
2.625802136488331e-020 
1.270549420881451e-021 
3.176373552203626e-022 
-8.470329472543003e-021 
1.397604362969596e-020 
-1.024909866177703e-019 
-1.270549420881451e-021 
7.093900933254765e-021 
-9.952637130238029e-021 
2.144052147737448e-021 
1.058791184067875e-021 
4.446922973085077e-021 
6.352747104407253e-022 
-4.764560328305439e-021 
-1.291725244562808e-020 
1.985233470127266e-021 
-1.588186776101813e-021 
-5.929230630780102e-021 
2.159934015498466e-020 
-1.058791184067875e-021 
-7.676236084492097e-022 
1.439956010332311e-020 
6.776263578034403e-021 
0 
-3.642241673193492e-020 
3.091670257478196e-020 
1.609362599783171e-020 
-5.929230630780102e-021 
4.277516383634217e-020 
-6.776263578034403e-021 
1.01643953670516e-020 
-2.117582368135751e-021 
-2.911675756186657e-022 
-1.164670302474663e-021 
-6.352747104407253e-022 
2.276401045745932e-021 
6.88214269644119e-022 
-4.473392752686774e-021 
7.279189390466644e-022 
4.658681209898652e-021 
-7.246102165964522e-022 
1.508777437296723e-021 
1.270549420881451e-020 
-5.293955920339377e-021 
-1.217609861678057e-021 
-7.742410533496339e-022 
1.651714247145886e-020 
1.01643953670516e-020 
-1.694065894508601e-021 
5.759824041329242e-020 
1.10114283143059e-020 
-1.217609861678057e-020 
-5.293955920339377e-021 
-3.388131789017201e-021 
5.082197683525802e-021 
1.185846126156021e-020 
-7.517417406881916e-021 
5.293955920339377e-022 
2.223461486542538e-021 
3.599890025830776e-021 
1.177905192275511e-021 
1.985233470127266e-023 
-1.588186776101813e-021 
4.341043854678289e-021 
3.599890025830776e-021 
-3.282252670610414e-021 
1.932293910923873e-021 
1.524659305057741e-020 
-7.676236084492097e-022 
0 
-7.940933880509066e-023 
1.524659305057741e-020 
5.166900978251232e-020 
-5.082197683525802e-021 
-5.759824041329242e-020 
-1.270549420881451e-020 
-3.938703204732497e-020 
1.969351602366248e-020 
-4.446922973085077e-020 
1.397604362969596e-020 
-4.658681209898652e-020 
-1.694065894508601e-021 
9.529120656610879e-021 
-1.058791184067875e-022 
-3.282252670610414e-021 
2.170521927339145e-021 
5.823351512373315e-022 
-3.22931311140702e-021 
4.023406499457927e-021 
6.88214269644119e-022 
-9.529120656610879e-022 
4.288104295474896e-021 
8.999725064576941e-022 
3.361662009415505e-021 
-3.705769144237564e-021 
-8.470329472543003e-022 
1.778769189234031e-020 
-3.430483436379916e-020 
5.929230630780102e-020 
1.270549420881451e-020 
2.541098841762901e-021 
4.658681209898652e-021 
8.258571235729428e-021 
-2.414043899674756e-020 
-4.489274620447792e-020 
-1.905824131322176e-020 
5.293955920339377e-021 
1.694065894508601e-021 
3.176373552203626e-021 
-4.235164736271502e-022 
-2.435219723356114e-021 
7.30565917006834e-021 
-1.376428539288238e-021 
-2.795208725939191e-020 
2.196164526328289e-022 
-1.175258214315342e-020 
3.864587821847745e-021 
1.217609861678057e-021 
1.005851624864482e-021 
-2.075230720773036e-020 
3.599890025830776e-021 
2.911675756186657e-021 
3.599890025830776e-020 
2.541098841762901e-020 
-1.10114283143059e-020 
1.609362599783171e-020 
2.498747194400186e-020 
1.588186776101813e-021 
-2.456395547037471e-020 
1.778769189234031e-020 
-7.623296525288703e-021 
3.335192229813808e-021 
3.388131789017201e-021 
3.176373552203626e-021 
-5.558653716356346e-021 
2.911675756186657e-022 
7.835054762102278e-021 
8.258571235729428e-021 
8.364450354136216e-021 
1.455837878093329e-022 
1.037615360386518e-020 
4.605741650695258e-021 
7.940933880509066e-022 
1.396280873989511e-021 
-6.45862622281404e-021 
-3.705769144237564e-022 
2.985791139071409e-020 
3.218725199566341e-020 
2.541098841762901e-020 
1.355252715606881e-020 
-1.863472483959461e-020 
3.006966962752766e-020 
2.646977960169689e-021 
-1.863472483959461e-020 
-1.143494478793306e-020 
2.371692252312041e-020 
6.988021814847978e-021 
3.388131789017201e-020 
-2.329340604949326e-021 
2.541098841762901e-021 
2.964615315390051e-021 
1.085260963669572e-021 
-1.524659305057741e-020 
-2.858736196983264e-021 
-3.705769144237564e-022 
-1.270549420881451e-021 
1.654361225106055e-021 
2.964615315390051e-021 
1.971998580326418e-021 
4.658681209898652e-021 
6.617444900424221e-022 
7.623296525288703e-021 
2.541098841762901e-021 
-1.253608761936365e-019 
3.726944967918922e-020 
-3.176373552203626e-022 
-2.117582368135751e-021 
-2.244637310223896e-020 
5.082197683525802e-021 
1.694065894508601e-020 
-1.164670302474663e-020 
-4.460157862885925e-021 
-5.082197683525802e-021 
2.170521927339145e-021 
1.905824131322176e-021 
6.193928426797071e-021 
5.717472393966527e-021 
-8.893845946170154e-021 
-1.01643953670516e-020 
6.03510974918689e-021 
-1.291725244562808e-020 
-1.090554919589912e-020 
5.18807680193259e-021 
-4.764560328305439e-022 
-6.352747104407253e-022 
-3.308722450212111e-022 
5.082197683525802e-021 
1.694065894508601e-021 
3.557538378468061e-020 
7.877406409464993e-020 
3.599890025830776e-021 
-2.117582368135751e-021 
-4.446922973085077e-021 
-2.255225222064575e-020 
-2.541098841762901e-021 
-6.246867986000465e-021 
6.061579528788587e-021 
8.639736061993864e-020 
-1.535247216898419e-021 
3.599890025830776e-021 
-2.011703249728963e-021 
1.757593365552673e-020 
-3.938703204732497e-020 
-1.185846126156021e-020 
7.940933880509066e-023 
-1.990527426047606e-020 
-3.176373552203626e-022 
4.632211430296955e-022 
-3.57342024622908e-022 
5.293955920339377e-023 
7.940933880509066e-022 
7.199780051661553e-021 
-1.588186776101813e-020 
4.912791094074942e-020 
-1.948175778684891e-020 
1.050320854595332e-019 
-4.573977915173222e-020 
-9.529120656610879e-021 
-3.282252670610414e-021 
-5.929230630780102e-021 
3.599890025830776e-021 
-1.079967007749233e-020 
-6.352747104407253e-021 
4.301339185275744e-023 
-4.446922973085077e-021 
0 
6.776263578034403e-021 
1.10114283143059e-020 
1.524659305057741e-020 
2.699917519373082e-021 
-2.541098841762901e-021 
1.819797347616661e-022 
-4.605741650695258e-021 
-1.217609861678057e-020 
2.514629062161204e-022 
-1.561716996500116e-021 
5.505714157152952e-021 
2.159934015498466e-020 
5.421010862427522e-020 
-1.228197773518736e-019 
-1.135024149320763e-019 
7.115076756936123e-020 
8.470329472543003e-021 
1.069379095908554e-020 
-3.345780141654486e-020 
4.616329562535937e-020 
-1.058791184067875e-022 
-8.809142651444724e-020 
-1.058791184067875e-021 
3.123433993000233e-021 
-2.096406544454393e-020 
-4.036641389258775e-022 
5.293955920339377e-022 
1.037615360386518e-020 
-2.541098841762901e-021 
-3.705769144237564e-021 
-5.876291071576709e-021 
-5.293955920339377e-022 
-4.764560328305439e-021 
5.505714157152952e-021 
-2.249931266144235e-022 
2.752857078576476e-021 
-1.228197773518736e-020 
-9.317362419797304e-021 
6.691560283308973e-020 
3.134021904840911e-020 
8.470329472543003e-022 
6.776263578034403e-021 
9.740878893424454e-021 
-6.649208635946258e-020 
4.658681209898652e-021 
1.694065894508601e-020 
2.117582368135751e-020 
4.102815838263017e-022 
3.639594695233322e-022 
2.699917519373082e-021 
1.058791184067875e-022 
6.564505341220828e-021 
3.441071348220595e-021 
1.270549420881451e-021 
-4.605741650695258e-021 
-6.88214269644119e-022 
2.481541837659083e-023 
1.270549420881451e-021 
-5.293955920339377e-023 
-6.617444900424221e-024 
2.371692252312041e-020 
-1.821120836596746e-020 
-3.642241673193492e-020 
-1.10114283143059e-020 
-1.397604362969596e-020 
7.453889935837843e-020 
-1.556423040579777e-020 
-1.694065894508601e-021 
4.235164736271502e-020 
-3.261076846929056e-020 
7.623296525288703e-021 
2.541098841762901e-020 
3.811648262644352e-021 
-1.482307657695026e-021 
-1.522012327097571e-022 
-1.720535674110298e-021 
-1.228197773518736e-020 
-7.940933880509066e-022 
1.270549420881451e-020 
1.038938849366603e-021 
1.058791184067875e-021 
-9.634999775017666e-021 
7.411538288475128e-022 
-1.376428539288238e-021 
1.111730743271269e-021 
2.244637310223896e-020 
8.046812998915853e-021 
4.828087799349512e-020 
3.726944967918922e-020 
1.524659305057741e-020 
-6.776263578034403e-020 
1.461131834013668e-020 
7.665648172651418e-020 
-6.098637220230962e-020 
1.376428539288238e-020 
4.573977915173222e-020 
-3.134021904840911e-020 
4.341043854678289e-021 
7.411538288475128e-021 
-1.164670302474663e-021 
-2.699917519373082e-021 
-7.411538288475128e-022 
-1.588186776101813e-022 
8.893845946170154e-021 
-4.341043854678289e-021 
4.341043854678289e-021 
-1.760240343512843e-021 
3.811648262644352e-021 
7.464477847678522e-021 
-1.402898318889935e-021 
1.990527426047606e-020 
1.312901068244166e-020 
-2.456395547037471e-020 
-2.625802136488331e-020 
2.858736196983264e-020 
-8.470329472543003e-021 
4.912791094074942e-020 
1.508777437296723e-020 
-3.388131789017201e-021 
3.546950466627383e-021 
1.852884572118782e-020 
-5.166900978251232e-020 
6.246867986000465e-021 
4.235164736271502e-022 
-6.88214269644119e-021 
3.123433993000233e-021 
1.164670302474663e-021 
4.235164736271502e-021 
-9.529120656610879e-022 
3.176373552203626e-022 
6.564505341220828e-021 
1.217609861678057e-021 
3.959879028413854e-020 
5.399835038746165e-021 
-2.196991706940842e-021 
2.244637310223896e-020 
-7.940933880509066e-022 
1.355252715606881e-020 
1.202786785101107e-019 
-8.046812998915853e-021 
-9.063252535621014e-020 
1.079967007749233e-020 
8.364450354136216e-021 
-2.286988957586611e-020 
-2.498747194400186e-020 
7.199780051661553e-021 
-8.470329472543003e-022 
-4.446922973085077e-021 
-1.376428539288238e-021 
1.10114283143059e-020 
-1.270549420881451e-021 
3.705769144237564e-022 
1.291725244562808e-020 
1.058791184067875e-022 
-4.341043854678289e-021 
-2.223461486542538e-020 
-1.408192274810274e-020 
8.046812998915853e-021 
2.686682629572234e-021 
-3.441071348220595e-021 
-7.369186641112413e-020 
2.752857078576476e-021 
1.524659305057741e-020 
3.557538378468061e-020 
1.439956010332311e-020 
-5.759824041329242e-020 
-7.199780051661553e-021 
1.058791184067875e-020 
3.758708703440958e-021 
-2.159934015498466e-020 
6.776263578034403e-021 
3.811648262644352e-021 
-5.293955920339377e-023 
-3.811648262644352e-021 
1.694065894508601e-020 
6.03510974918689e-021 
1.085260963669572e-021 
4.129285617864714e-021 
-6.723324018831009e-021 
-2.329340604949326e-021 
-1.694065894508601e-020 
7.093900933254765e-021 
-1.482307657695026e-020 
-7.940933880509066e-022 
4.235164736271502e-022 
-3.388131789017201e-021 
2.117582368135751e-022 
-7.623296525288703e-021 
2.541098841762901e-021 
6.776263578034403e-021 
8.470329472543003e-022 
-1.694065894508601e-021 
1.694065894508601e-021 
-5.505714157152952e-021 
5.929230630780102e-021 
2.541098841762901e-021 
1.482307657695026e-021 
5.293955920339377e-023 
-3.805030817743927e-023 
-2.117582368135751e-022 
0 
-4.235164736271502e-022 
0 
-3.176373552203626e-022 
2.117582368135751e-021 
1.588186776101813e-021 
3.970466940254533e-023 
1.588186776101813e-022 
1.058791184067875e-021 
1.058791184067875e-022 
1.694065894508601e-021 
-1.058791184067875e-022 
6.776263578034403e-021 
2.286988957586611e-020 
4.235164736271502e-021 
1.694065894508601e-021 
-2.117582368135751e-021 
-1.694065894508601e-021 
4.235164736271502e-021 
-1.10114283143059e-020 
0 
-2.541098841762901e-021 
3.705769144237564e-022 
7.940933880509066e-023 
-1.588186776101813e-022 
-2.646977960169689e-022 
-1.058791184067875e-022 
2.646977960169689e-023 
1.058791184067875e-022 
-2.117582368135751e-022 
0 
-7.940933880509066e-023 
-1.058791184067875e-022 
4.235164736271502e-022 
1.455837878093329e-022 
-3.811648262644352e-021 
3.441071348220595e-022 
1.10114283143059e-020 
-1.694065894508601e-021 
-5.082197683525802e-021 
-1.694065894508601e-021 
-2.117582368135751e-022 
-3.811648262644352e-021 
-2.541098841762901e-021 
2.964615315390051e-021 
2.117582368135751e-021 
-2.964615315390051e-021 
-5.128519797828772e-023 
-3.308722450212111e-023 
2.646977960169689e-023 
0 
-1.852884572118782e-022 
-5.293955920339377e-023 
-1.588186776101813e-022 
-1.588186776101813e-022 
2.117582368135751e-022 
0 
-3.705769144237564e-022 
-2.911675756186657e-022 
-4.963083675318166e-024 
-2.541098841762901e-021 
1.455837878093329e-022 
1.185846126156021e-020 
9.317362419797304e-021 
-3.388131789017201e-021 
-3.388131789017201e-021 
-1.323488980084844e-022 
4.235164736271502e-021 
1.694065894508601e-021 
-6.352747104407253e-021 
0 
-7.411538288475128e-022 
-1.985233470127266e-023 
-9.926167350636332e-024 
-1.323488980084844e-022 
2.911675756186657e-022 
1.852884572118782e-022 
5.029258124322408e-022 
1.058791184067875e-022 
2.117582368135751e-022 
2.117582368135751e-022 
1.323488980084844e-023 
3.176373552203626e-022 
-2.514629062161204e-022 
0 
0 
0 
0 
0 
0 
0 
0 
0 
0 
0 
0 
0 
0 
0 
0 
0 
0 
0 
0 
0 
0 
0 
0 
0 
0 
0 
0 
0 
0 
0 
0 
0 
0 
0 
0 
0 
0 
0 
0 
0 
0 
0 
0 
0 
0 
0 
0 
0 
0 
0 
0 
0 
0 
0 
0 
0 
0 
0 
0 
0 
0 
0 
0 
0 
0 
0 
0 
0 
0 
0 
0 
0 
0 
0 
0 
0 
0 
0 
0 
0 
0 
0 
0 
0 
0 
0 
0 
0 
0 
0 
0 
0 
0 
0 
0 
0 
0 
0 
0 
0 
0 
0 
0 
0 
0 
0 
0 
0 
0 
0 
0 
0 
0 
0 
0 
0 
0 
0 
0 
0 
0 
0 
0 
0 
0 
0 
0 
0 
0 
0 
0 
0 
0 
0 
0 
0 
0 
0 
0 
0 
0 
0 
0 
0 
0 
0 
0 
0 
0 
0 
0 
0 
0 
0 
0 
0 
0 
0 
0 
0 
0 
0 
0 
0 
0 
0 
0 
0 
0 
0 
0 
0 
0 
0 
0 
0 
0 
0 
0 
0 
0 
0 
0 
0 
0 
0 
0 
0 
0 
0 
0 
0 
0 
0 
0 
0 
0 
0 
0 
0 
0 
0 
0 
0 
0 
0 
0 
0 
0 
0 
0 
0 
0 
0 
0 
0 
0 
0 
0 
0 
0 
0 
0 
0 
0 
0 
0 
0 
0 
0 
0 
0 
0 
0 
0 
0 
0 
0 
0 
0 
0 
0 
0 
0 
0 
0 
0 
0 
0 
0 
0 
0 
0 
0 
0 
0 
0 
0 
0 
0 
0 
0 
0 
0 
0 
0 
0 
0 
0 
0 
0 
0 
0 
0 
0 
0 
0 
0 
0 
0 
0 
0 
0 
0 
0 
0 
0 
0 
0 
0 
0 
0 
0 
0 
0 
0 
0 
0 
0 
0 
0 
0 
0 
0 
0 
0 
0 
0 
0 
0 
0 
0 
0 
0 
0 
0 
0 
0 
0 
0 
0 
0 
0 
0 
0 
0 
0 
0 
0 
0 
0 
0 
0 
0 
0 
0 
0 
0 
0 
0 
0 
0 
0 
0 
0 
0 
0 
0 
0 
0 
0 
0 
0 
0 
0 
0 
0 
0 
0 
0 
0 
0 
0 
0 
0 
0 
0 
0 
0 
0 
0 
0 
0 
0 
0 
0 
0 
0 
0 
0 
0 
0 
0 
0 
0 
0 
0 
0 
0 
0 
0 
0 
0 
0 
0 
0 
0 
0 
0 
0 
0 
0 
0 
0 
0 
0 
0 
0 
0 
0 
0 
0 
0 
0 
0 
0 
0 
0 
0 
0 
0 
0 
0 
0 
0 
0 
0 
0 
0 
0 
0 
0 
0 
0 
0 
0 
0 
0 
0 
0 
0 
0 
0 
0 
0 
0 
0 
0 
0 
0 
0 
0 
0 
0 
0 
0 
0 
0 
0 
0 
0 
0 
0 
0 
0 
0 
0 
0 
0 
0 
0 
0 
0 
0 
0 
0 
0 
0 
0 
0 
0 
0 
0 
0 
0 
0 
0 
0 
0 
0 
0 
0 
0 
0 
0 
0 
0 
0 
0 
0 
0 
0 
0 
0 
0 
0 
0 
0 
0 
0 
0 
0 
0 
0 
0 
0 
0 
0 
0 
0 
0 
0 
0 
0 
0 
0 
0 
0 
0 
0 
0 
0 
0 
0 
0 
0 
0 
0 
0 
0 
0 
0 
0 
0 
0 
0 
0 
0 
0 
0 
0 
0 
0 
0 
0 
0 
0 
0 
0 
0 
0 
0 
0 
0 
0 
0 
0 
0 
0 
0 
0 
0 
0 
0 
0 
0 
0 
0 
0 
0 
0 
0 
0 
0 
0 
0 
0 
0 
0 
0 
0 
0 
0 
0 
0 
0 
0 
0 
0 
0 
0 
0 
0 
0 
0 
0 
0 
0 
0 
0 
0 
0 
0 
0 
0 
0 
0 
0 
0 
0 
0 
0 
0 
0 
0 
0 
0 
0 
0 
0 
0 
0 
0 
0 
0 
0 
0 
0 
0 
0 
0 
0 
0 
0 
0 
0 
0 
0 
0 
0 
0 
0 
0 
0 
0 
0 
0 
0 
0 
0 
0 
0 
0 
0 
0 
0 
0 
0 
0 
0 
0 
0 
0 
0 
0 
0 
0 
0 
0 
0 
0 
0 
0 
0 
0 
0 
0 
0 
0 
0 
0 
0 
0 
0 
0 
0 
0 
0 
0 
0 
0 
0 
0 
0 
0 
0 
0 
0 
0 
0 
0 
0 
0 
0 
0 
0 
0 
0 
0 
0 
0 
0 
0 
0 
0 
0 
0 
0 
0 
0 
0 
0 
0 
0 
0 
0 
0 
0 
0 
0 
0 
0 
0 
0 
0 
0 
0 
0 
0 
