solver_type L2R_L2LOSS_SVC_DUAL
nr_class 3
label 2 3 1
nr_feature 5506
bias -1
w
-0.0001569082009564237 -9.00605639419625e-008 0.0001571706923208114 
-0.00400803144793989 0.0007682973622529559 0.003984663039977581 
0.00201863696215471 -2.103239079953852e-005 -0.002021537568243408 
-0.0006284613025888234 -4.907557853225654e-006 0.0006277623819671899 
-0.00975732040242781 -0.0002826808994990721 0.009753037909198356 
-6.849522096025441e-005 5.169878828456423e-026 6.853260802275643e-005 
-0.0009757320402427702 -2.826808994990721e-005 0.0009753037909198223 
-0.0006049125975114921 5.357808866554639e-007 0.0006006361197360797 
0.0002952222716199245 -2.661674554265573e-006 -0.0002997121163427088 
0.001719303474847234 -4.680671187398497e-007 -0.001729424605982456 
-0.0008070777593740988 -2.341651492046196e-006 0.0007999619952317475 
-0.0007366650605529294 -3.611571719990116e-006 0.0007402996498552298 
-0.004757998159370822 -3.208105402957656e-006 0.004755546324227564 
-0.001206657986636572 6.985034230833685e-007 0.001199302445254046 
0.001573507713601905 4.313036399515146e-007 -0.001571994806890191 
-0.003947917141015948 -1.627584369020022e-007 0.003947471025045213 
-0.000618583396963077 -3.960097891622751e-006 0.0006233123410858912 
0.000461647188511972 1.912103541907376e-006 -0.0004621637883569936 
-0.001696991482899612 2.045246385562367e-006 0.001693868664920145 
-5.246268990974632e-005 -3.333878673291302e-007 5.201891985775885e-005 
-0.0001157825736160666 2.508288308505519e-007 0.0001164400096282149 
-9.02686425328595e-005 1.55193964597132e-007 9.123998082179687e-005 
0.0002153912243424712 9.772890833630219e-007 -0.0002108532713848726 
0.000250248703479924 1.884968100198844e-006 -0.0002515296551949004 
0.0003784004999295019 2.669706644441515e-007 -0.0003778012503170706 
-0.0003349235895303927 -1.082094933356054e-006 0.0003362043813297812 
-0.0002162057530081396 -7.14685940511104e-007 0.0002164224453823471 
0.0008153053028201942 -9.81917680951084e-007 -0.0008153433228572262 
0.0001509343196297866 4.96696494985218e-007 -0.0001523737619708132 
-0.0004059948701975117 4.068914025559854e-007 0.0004059246494416253 
0.0005593945560335081 -5.726537033378239e-007 -0.000559910710776549 
0.0001123446538658532 -1.456455509200624e-007 -0.0001128313275348203 
-0.000852973562538677 -8.106301148066607e-007 0.0008460460884549912 
-0.0002625863496063992 -1.406453192975678e-006 0.0002597324753618683 
0.0005442947780280576 -1.481051457080884e-006 -0.0005480530769507674 
-0.001788837290315559 1.407722819636313e-007 0.001798620560565431 
-0.0006173874752198257 2.662583224369979e-006 0.0006264106495393197 
-0.004433096469313684 -2.646353262753149e-006 0.004432608921667569 
-0.001466084817423446 -2.605985070416712e-006 0.001467554090807505 
0.00303487761229075 -1.424150991177037e-006 -0.00303636667215589 
-0.0008727046287731325 -1.899377754412517e-006 0.0008652868055666418 
-0.0007712098688192506 -2.890864538736451e-006 0.0007677988871946416 
2.61521337329737e-005 3.132258778499543e-006 -3.021732800868419e-005 
0.0003732036036997572 -7.710862563801019e-007 -0.0003785492667716321 
9.117188170632762e-005 -5.128696582481019e-007 -9.080396193676728e-005 
-4.298949647376383e-005 1.012205640616405e-007 4.333737424782011e-005 
-0.0002482907867229982 9.137008442870446e-007 0.0002492743322465119 
1.748651361890513e-005 1.543018698075592e-006 -1.455593661438049e-005 
0.0005984402101681921 2.444838570206351e-006 -0.0005988985191429963 
0.0007645995996849482 -8.413715605769092e-008 -0.0007644387434865148 
-0.000317926872623777 -1.130613697475151e-006 0.0003202928133048816 
-0.0002742392370654738 -9.505292864367381e-007 0.0002736982014663117 
0.001076889879344507 -1.659850155915991e-006 -0.001075147417885466 
0.0004153129447147655 1.016279964646121e-006 -0.0004157121014405989 
-3.334836347147689e-005 3.92104140869475e-007 3.52077221303889e-005 
0.0003299011562924622 1.52341588322836e-007 -0.0003285988947714406 
9.658051220298527e-005 -3.813205621634887e-007 -9.735600550095292e-005 
-0.0007432046903362127 -4.579501803251957e-007 0.0007380349180364143 
-4.788107186935511e-006 -2.035144000626762e-006 2.767454303986555e-006 
0.001855458239811391 8.143903042209791e-007 -0.001863904202325728 
0.0007607608773360363 1.303587046883183e-006 -0.0007536364014981452 
0.0004549296824274974 2.676189892931948e-006 -0.0004603941793723798 
-0.003028449667001775 -2.154127386679793e-006 0.003028011926142799 
-0.002751559597022372 -3.0597248092486e-006 0.002746195568460592 
-0.0002382170758533545 -2.214407859682021e-006 0.0002423144248452818 
-0.001408991275694518 -4.204028573191709e-006 0.001411840888153345 
0.0002123962408597833 -2.011226927000938e-006 -0.0002107945446771673 
-0.00135058810433823 3.336476418089325e-006 0.001351494722656412 
6.488467739224585e-005 5.901573852427235e-007 -6.94767993206485e-005 
0.0002783822682121945 -4.700931371499851e-007 -0.0002768828531526449 
0.000175358000083208 1.926163216980588e-007 -0.0001762937361442122 
-0.0005293424498872547 1.182641979755775e-006 0.0005317159311193318 
-0.0003327488145496555 1.788033235511123e-006 0.0003342479539342153 
0.0006719595422457592 2.082354473374151e-006 -0.0006712219744942149 
0.001199079522380514 -4.29004134993292e-007 -0.00120036675377802 
-9.827119462052823e-005 -8.464234331431133e-007 0.0001003198430662261 
9.803277154338175e-005 -2.586758293657012e-007 -9.821703091553035e-005 
0.0009334495095653712 -1.71294984022002e-006 -0.0009326627862719143 
0.0005225822568728801 7.135657483276268e-007 -0.0005234153751767358 
0.0008192026176044598 4.117741613782067e-007 -0.0008188711069248917 
0.0001680111319178079 5.80504475167727e-007 -0.0001668434607881508 
3.629211391815842e-005 -4.944962274276355e-007 -3.753307921094977e-005 
-7.99137861595428e-005 -1.531698602009946e-006 7.792358814135207e-005 
0.0002302808332854215 -2.468843960859504e-006 -0.0002342659171454907 
0.000409762244169517 3.459203136945161e-006 -0.0004158032395183935 
-0.001503563279915563 3.550832761560234e-006 0.001503980235427357 
0.00165973190006362 5.468741210759356e-006 -0.00165383932349893 
-0.001799776521820214 -4.155780552014868e-006 0.001797121913037194 
-0.002023832484596517 -3.075443137872712e-006 0.002027310863003194 
0.001108159182693116 -2.99847968908125e-006 -0.001110643691616501 
0.0001670736705496093 -6.441346130897776e-006 -0.0001604553594702466 
0.001042487288050223 1.468717880794315e-007 -0.001038190471160343 
0.001201017882444443 3.16044138471325e-006 -0.001192949234243035 
-0.0009284223907293137 3.534504093680288e-006 0.0009325455551499571 
0.0003179456128429334 -3.05783566946687e-007 -0.0003161386523772493 
7.441015690023552e-005 3.285974408796422e-007 -7.552370554646189e-005 
-0.0002908705801324159 9.492382986089785e-007 0.000292145288872408 
0.0001911645457849053 9.853349031605225e-007 -0.0001927861345677098 
0.0006976601152896326 2.823064454938454e-007 -0.0006978890205990922 
0.001130626009416172 -7.156570162634734e-007 -0.00113186738141395 
0.0004546731451931034 2.97662650588388e-007 -0.0004555683516814128 
-0.0008082334079549762 1.77329506630077e-007 0.0008089386200826808 
0.0002854304473816491 -1.422171237589692e-006 -0.0002838595714659272 
0.0003114051677841903 1.240359601969453e-008 -0.0003122707083956957 
0.00105461593270536 9.119169932282557e-008 -0.001053723430551808 
-4.963987645208283e-005 6.746784567738515e-007 5.130925854073909e-005 
-0.0001351030616080343 -3.69667940904096e-007 0.0001338824875090546 
0.0004004643994539882 -1.454153029729527e-006 -0.000399712438051964 
0.000925578899177205 -1.1673906510666e-006 -0.0009341818124816621 
-0.0008601395728223873 2.975009657454358e-006 0.0008630271955739349 
-0.002613469440983286 4.893504929829465e-006 0.00261853252598599 
0.001484570037196893 5.397130134662513e-006 -0.001475682319343281 
-7.925959897466407e-005 -4.598407226619858e-006 7.145512693475515e-005 
-0.001419134830869188 -3.298886247103513e-006 0.001421017929840391 
0.00302701353499101 -7.49122772175703e-008 -0.003025924199981251 
0.0001994430468273561 -6.456522563824604e-006 -0.0002029736253338156 
0.00108747333752714 -1.91113550006656e-006 -0.001090763884515801 
0.003970227451027844 3.956884452025665e-006 -0.003975153384649566 
-0.0002061191913415414 2.794978721893201e-006 0.0002041003388164373 
0.0003408719959101471 -2.009022078332616e-007 -0.0003400693539168231 
-0.0001328321206692553 6.166305473918181e-007 0.000132708862144892 
-0.000221295967880457 5.339526808275027e-007 0.00022326944380328 
0.000146679786197961 3.33329177070863e-007 -0.0001464748817178135 
-2.039232852962278e-006 -9.162892319916779e-007 2.723125707260272e-006 
0.0004324172537244697 -1.064160463857109e-006 -0.0004351087505639022 
0.0004506587657689506 5.752806743955663e-007 -0.0004516652052490096 
-0.0008080479167502915 5.415508422618107e-007 0.0008088926331275827 
0.0005915229726023647 1.061649064076035e-007 -0.0005915489035966251 
0.0002189991686295606 -9.791842341536592e-008 -0.000222073366279962 
0.0007742910299784384 -3.157533567499563e-007 -0.0007745425353721962 
7.839061966819062e-005 -2.853009509683467e-007 -7.825594849725443e-005 
-0.000119610171340754 -8.997455976131839e-008 0.0001187055752048337 
0.0001649199429333743 -1.841444669743069e-006 -0.000165773477942926 
-0.0003557161842433409 -1.973436388670613e-007 0.0003505856677760089 
0.0004477487983592972 2.184821185990824e-006 -0.00045080026675919 
0.000854107773656353 3.272505960342876e-006 -0.0008514018123247215 
0.002356093511654277 2.713647829827917e-006 -0.002355391008992798 
-0.0002545566361099599 -5.002489061432769e-006 0.0002515455667983356 
0.0001410681222466641 -9.98089021681277e-007 -0.0001476984664556854 
-0.002638926428300009 -1.607255070493571e-006 0.002642467432513925 
-0.0002497885889461094 -7.884010624053127e-006 0.0002534152796897203 
0.0003482684179276153 -2.878894116100865e-006 -0.0003535609578176079 
0.002638830581173371 3.27801074817391e-006 -0.00263551696168122 
0.0002605046981970665 1.499894426432444e-006 -0.0002587900573128374 
0.0001662726216778861 5.333664293786831e-008 -0.0001657866961210752 
-0.0003403669936500174 5.044887341585781e-007 0.0003422215255209038 
3.297943727050787e-005 -1.359257958839881e-007 -3.217845490388135e-005 
0.00021017780810887 -3.606103482048761e-007 -0.0002087729123664873 
-0.0002024150625754482 -1.885512277999879e-006 0.0002005131445184089 
-0.000448669762343812 -1.119795850640238e-006 0.0004466510557349326 
-0.0002963387372701764 3.704680934759763e-007 0.0002941945609086427 
-0.0007855005772430372 5.28057042383404e-007 0.0007858141609753727 
0.0006139900660644192 1.389643309340051e-006 -0.0006134584894916848 
-0.0002173879061844282 -1.241519999828085e-007 0.0002144157806902823 
-0.0001219428969888197 4.925363485552814e-007 0.000120759306768722 
0.0002662569859187317 -7.69372119428207e-007 -0.0002670570101628883 
-4.930989927602716e-005 2.409151990362139e-007 4.864535174359484e-005 
0.0008387459408310935 -1.30758028478714e-006 -0.0008404708088438822 
-0.0003759467906146663 -8.774272795873312e-008 0.000373882560478745 
0.0007299944316355084 4.121351984111417e-006 -0.0007300676945543133 
0.0003153393461749268 3.109396275925373e-006 -0.0003083349454598728 
9.654589111588344e-005 -5.277131476481946e-007 -9.59959593984793e-005 
-0.001638980465691594 -7.051583996491489e-006 0.001625263408486331 
-0.001580720130155507 -1.221999458820599e-006 0.001575378295406992 
-0.002404910761265989 -2.022628284156468e-007 0.002410218963288483 
0.00175704715569497 -2.951897341884358e-006 -0.001752831349181395 
0.001654501140262059 -9.879352863374975e-007 -0.001663475748635817 
0.001801965080158458 1.698926105649701e-006 -0.001799938434502434 
-0.0001376189521637721 1.809560359799642e-007 0.0001349044242190902 
-2.642425957248458e-005 1.321144813839708e-007 2.603638080048152e-005 
-0.0003780061748935919 4.836603519280873e-008 0.0003813244064426073 
0.0001221676809902236 -1.909478599605551e-007 -0.0001239519789640002 
-1.085796282529162e-006 -7.707957809644066e-007 1.013492398868171e-006 
-0.0001760328969447886 -1.792735144583199e-006 0.000175268871500667 
-0.00116788698207668 -9.937500513335047e-007 0.001168737555776332 
-0.0004628871986686926 2.758325859460257e-007 0.0004637103989026265 
-0.0001010027838493826 1.764249434725753e-007 0.0001009765346633279 
0.000605942013005703 1.934085643976832e-006 -0.0006058135381763222 
-0.0002843989491123605 7.355736736393093e-007 0.000284751102122073 
-0.0002409060393798368 4.937355260359368e-007 0.000241446687846856 
0.0002366044633057166 -4.20996255433384e-007 -0.0002364752768956652 
1.253106600068883e-005 3.055189911965879e-007 -1.239573023992302e-005 
0.0005323122139636936 -1.338299505307627e-006 -0.0005306343578442573 
-0.0008207914492817239 -4.862174446241304e-007 0.0008228097166178922 
-0.0002203976330679821 2.206413599635697e-006 0.0002198420094976773 
-0.001917071906577838 2.639838797077959e-006 0.001923542689114245 
0.001341672209141911 -9.963971602799759e-007 -0.001341120381893233 
-0.003263278011528771 -8.528186551874018e-006 0.003253486132318523 
-0.00342473897477037 -2.261539458620228e-006 0.003421108930858257 
-0.000103381621829221 -2.945137166342156e-007 0.0001003556487702609 
0.002458224843115422 -1.24545706633629e-006 -0.002452821838338383 
-0.0003279692607884292 -9.354905734271947e-007 0.0003202474158491978 
0.001675428193496773 6.752098655758156e-006 -0.001676753774134234 
0.0003686152406259849 9.946488279379348e-007 -0.000368144389277798 
-0.0001245865775825182 6.857436319531779e-008 0.0001242592229369584 
-5.214074322703544e-006 -5.649073171610479e-008 8.067770120595129e-006 
-0.000290765941344656 -6.354947768307762e-007 0.0002906090304057172 
-0.0005107471877218226 -5.760011855263378e-007 0.000510905721906819 
-0.0003887162966954072 -8.591436477272824e-007 0.0003902212000326272 
-0.001068887446207222 1.421425274500375e-007 0.00107345189635894 
-0.0003716257324051866 -1.60228570994663e-007 0.0003750397372591076 
0.0009394319514349427 3.618192638223287e-007 -0.0009385540682619289 
5.90455526702644e-005 1.931884405686639e-006 -5.979616550938474e-005 
-7.539011006517951e-005 1.842342824589327e-006 7.771137116836426e-005 
7.689237642783761e-005 7.978080085872882e-007 -7.774390243550583e-005 
0.0002562183967439145 4.527645786165723e-007 -0.0002543282646987833 
5.976356875739946e-005 2.246201192928382e-007 -5.942281921784855e-005 
8.46477263994597e-005 -1.045152362339329e-006 -8.710083742120054e-005 
-0.0007319133869332097 -7.811195156691742e-007 0.0007363272166680677 
8.477721983872477e-005 2.009476982252323e-006 -9.205902868511075e-005 
-0.001233308310691089 1.355835250437602e-006 0.00123612751057616 
0.001111612318861713 -1.711538713219726e-006 -0.001106469373253394 
-0.004414349548980155 -7.804343450294993e-006 0.004414188344707351 
-0.001950671489061433 -1.287999765525076e-006 0.001955170433756701 
0.001254222051085408 1.508443508915604e-007 -0.00124998043828014 
0.001875142859964497 -1.053764617562304e-007 -0.001878919265794346 
3.603752901509849e-006 7.950241045760202e-007 -3.91894261858255e-006 
0.003247390287584137 4.688519403369321e-006 -0.003247293373945003 
0.0009228549626346733 9.426185086010423e-007 -0.000923606003065431 
-0.0002658337688766314 -1.395533975952845e-007 0.0002661458194821802 
7.119402900217693e-005 -8.041592978126096e-008 -6.922836618427829e-005 
-0.0004120858903457707 -1.475716207127541e-006 0.0004117544918974013 
-8.588576655299016e-005 -9.764143242616626e-007 8.465247969219583e-005 
2.468824384113732e-005 -7.303659583300255e-007 -2.529850175518956e-005 
6.553713376151836e-005 1.368673708713242e-006 -5.819096988987461e-005 
0.000787679935790409 6.515777837836853e-008 -0.0007862984614722575 
0.0003045905957885174 1.206931513945156e-007 -0.0003033095290362278 
-0.0006484479997399737 1.333466309521466e-006 0.0006489239688629912 
0.0003642869406770018 1.783518673933654e-006 -0.0003639198886870318 
0.0003101890001061314 3.935572323302555e-007 -0.0003120321344424178 
0.0003727478610783929 5.501035760750776e-007 -0.0003703161011887172 
-7.291867778049014e-005 1.337384567346237e-007 7.345206696360584e-005 
-8.09623553044679e-005 -1.629787466054995e-006 7.883618238467323e-005 
-0.0002038011043381271 -1.331078466669848e-007 0.0002097000321704888 
-0.0006834686801364346 6.328713059546944e-008 0.0006832369502109486 
-0.0009253095749806511 1.269289029006197e-006 0.000930900925598893 
-9.501967443760167e-005 -9.90157857761948e-007 0.000100950199021614 
-0.00421131960611231 -3.915399494691975e-006 0.004224352923652592 
-0.001532087225925326 -1.766231922875209e-006 0.001537606526711657 
0.0002286747357690727 2.528856230298646e-008 -0.0002202110211873436 
-1.360400233657398e-005 3.521771010187881e-007 1.747372620381865e-005 
0.0007967684278939885 5.441331404006734e-006 -0.0007947844038815867 
0.00230057757799425 5.772263625859465e-006 -0.002300556717051494 
0.001011367611291094 3.382895895833073e-006 -0.00100118406909496 
-0.0002213420198964661 -1.599481898604228e-007 0.0002218438088429757 
6.520010847288943e-005 -6.982185409810516e-008 -6.523799967152095e-005 
-0.0001164668493502232 -1.192426607582345e-006 0.0001170924405420648 
0.000444479817949372 -1.007304801364844e-006 -0.0004467238918125379 
-8.15260403814441e-005 -9.68251500606841e-007 7.797341512779345e-005 
0.0005821358435847693 1.283593572899573e-006 -0.0005781347312866922 
0.001633280666169134 6.528691101566761e-007 -0.0016331850272671 
-0.0004044999476161682 -4.27868871518242e-008 0.0004049215396947393 
-0.0006458276478587817 9.915789713957857e-007 0.0006463443252209298 
0.001148539195795907 1.510586280955883e-006 -0.001149843595407724 
0.0001638512979662834 -9.012325247576588e-008 -0.0001659849024323367 
0.0001359602541643436 4.812470300340345e-007 -0.0001344053721965745 
-0.0001619584615345939 8.484444988037042e-008 0.0001626475807380423 
-0.000183781067154454 -1.859602441752413e-006 0.0001855184823127661 
-0.0003284732607830076 -6.663784474038635e-007 0.0003342969963910029 
-0.001098905682099015 -2.18567604372275e-006 0.001097013494717097 
-0.0006099664675542257 -1.087385238210341e-006 0.000611244150712841 
0.0009383270166260652 -4.18265908515887e-006 -0.0009435176972021013 
-0.0008372721191737452 -2.514604755731805e-006 0.000848873335169961 
0.00141135762582951 -1.143861625919179e-006 -0.001414366758998031 
-0.001047988316513419 2.413016890581622e-007 0.00105395698252285 
-0.0002492736834212896 2.916628839783686e-006 0.0002566360039714335 
0.002913574160537677 4.741245556414491e-006 -0.002925566461806856 
0.003040342885154193 4.156633348362997e-006 -0.003048205187903267 
0.001404737811638353 1.737347103998894e-006 -0.001400149876746398 
-6.989073029109368e-005 -9.62596534035205e-008 7.079094407546645e-005 
0.0003655051261606642 9.478062041414771e-008 -0.0003673672941293208 
-0.0001942050652513426 -1.049640889664283e-006 0.0001967963190438893 
0.0001015369895046048 -1.298894955938721e-006 -0.0001039563079718029 
-0.0001401897630839147 -6.607719772741429e-007 0.0001359858473131869 
0.000654929270968629 6.115072821511392e-007 -0.0006548005307065661 
0.001384993842203168 5.886769848786746e-007 -0.001386602226569416 
-0.0004042999777493402 5.909748446914384e-008 0.0004029324899105773 
-0.0002828220346618456 8.294982709047173e-007 0.0002829968015188961 
0.0008097103120620829 2.533586642904144e-007 -0.0008112075062289827 
-0.0004202117371158174 2.643149945965407e-007 0.000418915865096859 
-0.000399538624499606 4.721034696923154e-007 0.0004005552094890001 
-0.0001915733952037288 9.537918990109085e-008 0.000192368082977094 
-0.0004401810215853673 -1.730814088210198e-006 0.0004422725502797052 
-0.0006965131751430679 -8.926975084032508e-007 0.000697637028239618 
-0.0002108942953281675 -1.65813741772507e-006 0.0002107718242172344 
-6.339787339210697e-006 -1.175074776286235e-006 2.360903534545309e-006 
0.001020680182754749 -4.602104682993982e-006 -0.001032724635855489 
-0.002141130562022528 -4.755051902490406e-006 0.002145462998287817 
0.003060656612472374 9.307396418238006e-007 -0.003060054401697463 
-0.0009747756359716873 -5.536766486318321e-007 0.0009729940573063782 
0.000291301804420096 2.201440995298453e-006 -0.0002888847940917318 
0.003959739813014344 4.644329075577507e-006 -0.0039681450942821 
0.002598223298484092 6.567450462090792e-006 -0.002606237287431823 
0.0008074689491259082 3.003528003390815e-006 -0.0008018931365603337 
-8.564692468667811e-005 3.408282038088337e-007 8.570208453671841e-005 
0.0007470407829229406 1.871221322733114e-007 -0.0007504104212660247 
9.119861841072649e-005 -5.815326689375273e-007 -8.969895943105643e-005 
1.417782454392922e-005 -1.330238272210171e-006 -1.672986020806726e-005 
1.78519793224561e-005 -6.269392528311569e-007 -2.100345081619138e-005 
0.000394075825946829 -4.961859545307699e-007 -0.0003968252887262512 
0.0003253620375838008 6.192601505992757e-007 -0.000326491612445089 
-0.0002382099917455547 6.295192012848078e-007 0.0002378768574173271 
6.468922784037397e-005 7.553249266584844e-007 -6.761575260851556e-005 
0.0006246248748689549 -1.317843679390483e-006 -0.0006246440156391502 
-0.0002069586269515532 -6.671790944267757e-007 0.0002065459817597241 
-0.0005098491729700409 -1.320465331819958e-007 0.00050930888628489 
-0.0001446420457683333 1.529180577268925e-007 0.0001456918255924269 
-8.519618853246415e-005 -1.475936782518769e-006 8.513529865893721e-005 
0.00134196894023853 7.257694841212643e-008 -0.001344478362506514 
-0.00112253200713492 -2.378013303516475e-006 0.001128151808613037 
-0.001185123599454267 -3.916473873252463e-006 0.001180631297107687 
-0.0001471896951757679 -3.209419286458376e-006 0.000140300565350035 
-0.002174784977582434 -4.326948424624543e-006 0.002179617907817988 
0.002677919154008247 3.069000623933253e-007 -0.002679003566576634 
-0.0001655545904572213 7.35816678353708e-007 0.0001680814254067592 
0.0003085839712362536 3.11747879777621e-006 -0.0003107602165150297 
0.002470663161192709 2.460319678081389e-006 -0.002473269655598149 
0.0009975132919564892 5.612509631148416e-006 -0.0009998783527756172 
-0.0009728998881154467 3.492815267523603e-006 0.0009795356397544924 
-0.0002154263662780468 4.80115198647477e-007 0.0002145248496526897 
0.0008059967561972328 3.354183320908063e-007 -0.0008092021314837973 
0.0002559916101853992 -1.902253018220805e-007 -0.0002536772738590652 
-0.0003380569129132202 -8.802077452744836e-007 0.0003383258074996133 
-0.0001072733743102781 -4.065898369466724e-007 0.0001079242219961142 
0.0002937765395804524 -5.523340126250248e-007 -0.0002958203382667076 
-0.0009279140638826104 2.233893013049321e-007 0.0009275613177970291 
9.272255581710671e-005 6.892136041882808e-007 -9.212826624169302e-005 
8.458862472288784e-005 4.147968083741029e-007 -8.688213985842974e-005 
1.057858223131749e-005 -1.293032455005135e-006 -7.542690453358654e-006 
-0.0004844614949782082 -7.952756863725559e-007 0.00048535152400227 
-0.0002621952103276191 -1.703246130490236e-007 0.0002630599785886144 
7.8400438151092e-005 1.937946505340184e-007 -7.774680349248367e-005 
-0.0005584887009814934 -1.174806594071522e-007 0.0005575374696754972 
0.002696175364395442 4.330213148524082e-007 -0.002702958041131159 
-0.0002156684454201651 -2.748217318416843e-006 0.0002191790072146459 
-0.0005668504457101466 -3.967353014660097e-006 0.0005625666535117906 
0.0005370066957619033 -4.611461449239524e-006 -0.0005459843008679131 
-0.00157218332382499 -5.490163484280554e-006 0.001574853438572825 
-0.0005385585418288111 6.046858268487137e-007 0.0005374676027424141 
-0.001403589566072838 2.925627101495975e-006 0.001412108482491429 
3.091337300786061e-005 4.028363657996953e-006 -3.690700780290182e-005 
0.004141339794534769 -7.41487276682922e-009 -0.004144144310011142 
0.002287190569558083 1.708423818475603e-006 -0.002291981602350435 
-0.0003490631526566304 1.844929668072497e-006 0.000355521363626247 
-0.0002286359379207814 6.713144060566359e-007 0.0002281406333050991 
0.0003391191486808113 1.551997189382205e-007 -0.0003399012923833702 
0.000143390519126497 -3.188217617599739e-008 -0.0001423064944159749 
-0.0004943689334712828 -5.259667673991942e-007 0.0004955882486575538 
-0.0003929042910508889 -3.775662443340001e-007 0.0003951506195431703 
0.000247221656347774 -4.236231535450417e-007 -0.0002478165382234835 
-0.002039602413706214 -9.471294913518181e-007 0.002040183702178304 
0.0004175388113743689 5.289371336765895e-007 -0.000416028069330386 
-0.0001025405289529771 5.718156514857947e-007 0.0001022949948586816 
-0.000378520331615848 -6.926167987971583e-007 0.0003814567303031355 
-0.0004367351073103456 -1.318401031261089e-006 0.000437313358109271 
0.0005693248285889896 -5.214794677259993e-007 -0.0005689595054431947 
0.0002690194145288624 1.971982294865423e-007 -0.0002689822868299829 
-0.001201759660303644 -2.656914851962231e-007 0.001200510876452753 
0.00200516626221896 3.478527262826976e-007 -0.002011416122759883 
0.0001834409443809641 -2.591763726998353e-006 -0.000175577931346552 
-0.002020007738947625 -4.092284330702469e-006 0.002022782434831906 
0.0006438141213965202 -6.210904631095742e-006 -0.0006472840444134759 
0.0003471507294599294 -4.908721683016455e-006 -0.0003449373715530452 
-0.001428597098750299 1.361096563935429e-007 0.001424670795952008 
-0.0003699743187705331 1.947717476515134e-006 0.0003737641596420492 
0.0003038757987447712 4.077148044906485e-006 -0.0003037757229429329 
0.00287566656413537 6.019437496472096e-007 -0.002875279784245194 
0.0007735492527500225 2.60975903622831e-006 -0.0007785728723067485 
0.0006720309559489967 1.465027453494337e-006 -0.0006635603769538808 
6.413901533558755e-005 1.008458562825597e-006 -6.457945487445467e-005 
-0.0004997879707680168 5.035625583565538e-008 0.0005002725606616034 
0.0002038420658022418 3.07415584197916e-008 -0.0002045444258561897 
-0.0001850560604032498 1.822426810050314e-009 0.0001866762939329356 
-0.0006102835371833373 -2.113762845747713e-007 0.0006132877236508385 
-0.0001915221888789721 -1.913516990713696e-007 0.0001912700065342303 
-0.001846088393060142 -1.185002616919465e-006 0.001847360017313231 
0.0004553504722762001 -3.809448699810293e-007 -0.0004546018859168372 
0.0003069930065347261 -1.092115370059473e-008 -0.0003078892167751251 
-0.0002328905528713396 -3.022727113099191e-008 0.0002330006300132534 
-0.0002459903343001748 -8.709441289620032e-007 0.0002442607662451471 
0.0006784435280194443 3.574802244153066e-009 -0.0006804712034157569 
0.000354990114736976 2.090729386816311e-007 -0.0003555108119160343 
-0.001025081917656563 1.020637716433492e-006 0.001025290883644792 
0.0006674895571600105 -2.543387284245404e-007 -0.0006684061989600406 
-0.0001469309151772255 -1.710673297536135e-006 0.0001511069526116266 
-0.002060740962842046 -3.71700126917528e-006 0.002059225139188269 
-0.001339330336045288 -4.98918429267472e-006 0.00133680787951709 
-0.002165983101558371 -6.582260237393477e-006 0.002168650918839297 
-0.005084100820222147 -3.719518206777002e-006 0.005089030439868548 
0.001215126233212172 1.485058180433965e-006 -0.001209985617490667 
-0.0002190500504840645 4.580681555544653e-006 0.0002191012333634231 
0.00186463307652756 2.110419312573314e-006 -0.00185985303425898 
0.000526522570483841 1.476789248945217e-006 -0.0005303160126903528 
0.002831641388351148 1.4100206823158e-006 -0.002825156356590613 
0.0003570488864833085 6.603918432497523e-007 -0.0003564461902071925 
-0.0007838783249041084 2.355285494040123e-007 0.0007849155546764437 
0.000144722746273891 -9.194999802328449e-008 -0.0001453265765866772 
-0.0001959199727434228 -1.279915668229501e-008 0.0001977843427459992 
-0.0008654199771843236 7.10785756941374e-007 0.0008678373972587292 
7.354696227614602e-005 1.499849762783983e-006 -7.519246912725928e-005 
-0.001001968464143001 -4.492068600423604e-007 0.001003410155477147 
0.0002465043294197943 -7.53833197406929e-007 -0.0002481721738410302 
0.0007474249554406691 -2.957887525090744e-007 -0.0007498271093487128 
-7.969651210028263e-005 7.763037809975492e-007 7.888202119870309e-005 
-0.0003348004959574463 -5.654802297567775e-007 0.0003332224160664101 
1.695313978466156e-005 -4.91653501790412e-007 -2.021229413845449e-005 
0.0003110230480793154 9.511844609329711e-008 -0.0003115267161631083 
0.0004687915247866556 2.997286589068116e-006 -0.0004716347215027916 
-0.0001426253874253244 6.680359068573797e-007 0.0001396059079511145 
-0.0001376806031537384 -2.743077274513451e-006 0.000139455873785141 
-0.001363443948269249 -4.03253523105724e-006 0.001365668778268462 
-0.002260435262296024 -4.077451786351784e-006 0.002265339453597304 
-0.002835492881899789 -4.73764698152525e-006 0.002839066035895054 
-0.004279756196856153 -3.456001254852042e-006 0.004282019666830889 
0.0008018392688561377 -4.486275754245275e-007 -0.0007938803509174047 
0.001968535757124491 2.786717074823015e-006 -0.001978215451626678 
0.002444567748471527 1.250264059540992e-006 -0.00245041615545446 
0.0006478940588282291 1.373607269211472e-006 -0.0006594057528101601 
0.0008289636112140473 3.728143822342921e-006 -0.0008324796533962733 
0.000449031053409731 8.989109746320479e-008 -0.0004483643419089373 
-0.0007278641565220519 1.058592889379535e-007 0.0007280152775307784 
4.921955355611905e-005 -1.524144132744014e-007 -5.032988601335105e-005 
0.0001057897967936191 5.358860675519685e-008 -0.0001047893423312705 
-0.0003180610588256982 1.714726502257378e-006 0.0003180143316220741 
0.0002435341720258373 2.130821456272139e-006 -0.0002454746773762555 
-0.0005103711984351657 5.948885518907903e-007 0.0005117849392747062 
-0.0002802753281481738 -1.295746788365751e-006 0.0002787739864269659 
0.000569635776201419 -3.194182748801864e-007 -0.0005723888201581544 
0.0002136225989526115 7.784213847833286e-007 -0.0002147219958105948 
0.0001535658312787758 -1.244400762392501e-006 -0.0001531319212709365 
-0.0004606301936949929 -9.704282114619976e-007 0.0004582049240329857 
0.0001191805583671501 -1.659506725362209e-007 -0.0001192809546173313 
0.0003914807011111563 1.55298491549479e-006 -0.0003886213153721039 
-0.0001493202373615617 1.45056985895853e-006 0.0001461085118742297 
0.000668499798848417 -3.132311839567216e-006 -0.0006649645519575868 
-0.001874726658205233 -4.061227384303572e-006 0.001880039617198927 
-0.002337972877031088 -2.124277172012008e-006 0.002336895325195953 
0.0003868688730626757 1.923551687308441e-006 -0.0003931061778866102 
-0.004122823570043797 1.547082819360226e-007 0.004125846208556955 
-0.0007569739366124121 3.546408542443066e-007 0.0007550691133402903 
0.002935708370089937 3.194639927021582e-006 -0.002948822885632263 
0.003958408696862162 3.549948624564032e-006 -0.003962168113467362 
0.000676013715683108 -5.009023247853332e-007 -0.0006854510737251921 
-0.0003427631583780594 -1.744897649790619e-006 0.0003389188938132285 
0.0002784487539716017 -5.032463888289677e-007 -0.0002783749530036161 
-0.0002574759016605211 1.666451922633842e-007 0.000256924750804923 
-0.0001505801937572604 -1.111416987677983e-007 0.0001499789739117133 
3.905174380010632e-005 1.54230567193735e-007 -3.812828596148365e-005 
0.0004932045708150348 2.234516649860533e-006 -0.0004943944454518509 
0.0005893977634373467 2.572010262112507e-006 -0.0005919299324912816 
0.0005848937163657995 1.512251846216006e-006 -0.0005864277503330301 
-0.0003746633747190518 -7.146869433708458e-007 0.0003723427307379512 
0.0004795726816425161 4.886211734804065e-007 -0.0004801700605248067 
0.0001126015001536468 8.390957503723483e-007 -0.0001121299701697778 
0.0003921786871851507 -8.556873014021923e-007 -0.0003921010581499935 
-0.0007884928407012248 -1.566357309776414e-006 0.0007867032041535681 
2.301529966120992e-005 -4.208749691979647e-007 -2.281480009980435e-005 
0.0003351165235108534 -8.240417757803573e-008 -0.0003343569796435805 
-0.001225751587420444 2.468918872417722e-008 0.001221404852969708 
2.182210115626327e-005 -2.643016009348778e-006 -1.919034852121645e-005 
-0.001584061245592502 -3.65223402031218e-006 0.001588423807416818 
-0.0004471779694184129 9.302411904526751e-007 0.0004427519798236721 
0.0002883902341906359 1.492472738968954e-006 -0.0002914268680447973 
-0.004461092885342453 1.173437686872049e-006 0.004465188777276054 
-0.0007852986865928157 -3.965811653773001e-006 0.0007851045793906883 
0.00157467086905974 3.173074321905843e-006 -0.001581753173341693 
0.002896896212620113 3.774298350565125e-006 -0.002897736699834081 
0.001466633068106013 -2.623398491468082e-006 -0.001466665178388779 
-4.392223454725314e-005 -1.809662705856368e-006 4.543109905502057e-005 
5.313728529164574e-006 -1.017035142271221e-006 -6.098516066922293e-006 
4.71089348748063e-005 -1.377152482940343e-007 -4.717371615361069e-005 
-0.0003951610117941435 2.126258658214507e-007 0.0003945881494838816 
-0.0003986750584405368 5.062984562505235e-007 0.0003978492912015488 
0.0007043269723301782 2.373327747405748e-006 -0.0007053179213980124 
0.0006707723152282927 2.028438676860683e-006 -0.0006714481191090181 
0.000842765236191235 1.454886295793239e-006 -0.0008436210277183171 
-0.0001163736360359692 7.588632691606719e-008 0.0001144164780418558 
-0.0001409350195238195 7.332910441819094e-007 0.0001442238102044322 
-0.0005572563723992207 4.916893750261345e-007 0.0005595766204107591 
-1.017036519510585e-005 -7.126585896166406e-007 1.176380660047376e-005 
-0.0005856450993101955 -1.426116030726189e-006 0.0005868575438956104 
-1.405641387090306e-005 -5.880555546832608e-007 1.438226617493947e-005 
0.0004340020117717792 4.424997887654086e-008 -0.0004352253940344408 
-7.832497240109571e-005 9.005593354607463e-007 7.531616975961986e-005 
-0.0009795804462741102 -2.316413078640591e-006 0.0009803221498168135 
-0.001755159786098821 -3.135999229018247e-006 0.001757192391717696 
0.0002200629280192363 3.679563819453372e-006 -0.0002238696834340297 
-0.0007809377972202139 3.162705076219168e-006 0.0007742496454677741 
-0.002068964083410288 1.527023979437366e-006 0.002065307286057353 
0.0001353813533318228 -3.297882285029489e-007 -0.0001377674383143023 
0.002375733873950617 6.83059176958918e-006 -0.00237996826829228 
0.002201484477724443 5.043893055099108e-006 -0.002196850747224458 
0.002078037982177502 -8.031532565604015e-007 -0.002087183060044327 
-0.0006743868064635428 -3.652863883037534e-006 0.0006694111711775084 
0.0001070472663540045 -6.894149440080103e-007 -0.0001092507087501436 
0.000229300973839272 -4.411153007135612e-007 -0.0002299036208345552 
-0.0003655489709749354 3.789344606388887e-007 0.0003631136494867919 
-0.0004479240819801202 4.65406008181553e-007 0.0004469102550488042 
0.0004174888659455159 1.669872730560632e-006 -0.0004154972209208144 
4.602340654079248e-005 1.238487662598701e-006 -4.437917386408814e-005 
0.0006670332997618681 5.385401070521586e-007 -0.0006656298317368727 
-0.0001410556666839241 5.048133458284054e-007 0.0001427588963628195 
-9.448446777918445e-006 6.451971361703092e-007 1.382270948921408e-005 
-0.0004508676516876772 -3.479787167467212e-007 0.0004528441771967669 
-0.000187578670228205 -4.505807731376303e-007 0.0001904659303971737 
-0.0002043452579547361 -6.646069566670733e-007 0.0002041219286540941 
-3.216823947084402e-005 -5.067255020112651e-007 3.208421065455483e-005 
0.0004741019892925015 -1.333518626289035e-006 -0.0004788277531749541 
5.742394216531884e-005 2.544696467764587e-007 -6.086878926919379e-005 
-0.001289446486879452 -2.087901302139613e-006 0.001289754236282483 
-0.003416603266949524 -1.963657878084748e-006 0.003416339378193955 
-1.781403914202217e-005 4.887281182679789e-006 1.9128084614515e-005 
0.001102272242970039 4.784976569161917e-006 -0.001101852692212321 
-0.001092853556887868 3.132275205220997e-006 0.001094177772432932 
-0.0002262134216240604 2.730180752243966e-007 0.0002246272000217585 
0.001543834488933796 4.63519895240316e-006 -0.001541510246200979 
0.0005367486441270307 2.961740457176296e-006 -0.0005351923675685335 
-0.0001039734300420486 -2.038563402043318e-006 0.0001002828077273602 
-0.001933454336807732 -2.448452919723743e-006 0.001936566221546481 
0.0001339922189849518 -3.153001810246831e-007 -0.0001356175850269833 
0.0003668629902622962 -5.203513503263107e-007 -0.0003672814164229803 
-5.743593570268049e-005 3.891784048185142e-007 5.489045984849016e-005 
-0.0003745373557176931 1.239107507643638e-008 0.0003719588121950897 
-4.522504194456622e-005 8.26555439713055e-007 4.725694422085296e-005 
0.0002227751384929638 1.441916898493773e-006 -0.0002205581859360648 
0.001024229577444158 6.255650150045046e-007 -0.001023723360119703 
-0.0002321402423362132 1.08924729771117e-006 0.0002315060624919749 
-0.0002006856613306232 2.594663892765984e-007 0.0002030046448201913 
-0.0003800062271087058 -6.57401406903593e-007 0.0003790498354456623 
-0.0002785410942784736 -1.836988296271947e-007 0.0002811875674427688 
9.303710786493864e-005 -7.328193794790395e-007 -9.564573004193075e-005 
5.09209421055106e-007 -3.188695242777445e-007 -9.011726064253535e-007 
0.000857227604644906 -1.268537128317911e-006 -0.0008626427864111591 
0.0003555973588446121 -8.698959741484883e-007 -0.000362273235045305 
-0.0005036172416283219 -1.515205003818134e-006 0.0004961379090668477 
-0.003198079662446415 -2.578474226635574e-006 0.003200636686169129 
-0.000465209106861023 4.246562847413922e-006 0.000471219797076016 
0.0002100368195310132 6.46971442628947e-006 -0.000209781060965103 
-0.002471777314102454 1.867987108320516e-006 0.002483203127306239 
-0.001741800412654959 7.592782718627387e-007 0.001749107825306274 
0.002903881577072562 5.689558878848935e-006 -0.002899828032315417 
0.002884142590643262 2.216335251556936e-006 -0.002879217709677329 
0.0005234285671723204 -3.046226586944883e-006 -0.0005166003860044475 
-0.0004197262041233761 -4.748538100586948e-006 0.0004139637655279442 
8.707650466007402e-005 -6.292919360963172e-008 -8.770814140871126e-005 
0.0004528800662078758 -4.870592757352303e-007 -0.000452628524252554 
0.000584236553276622 2.989225380318274e-007 -0.0005858979087380505 
-0.0001561693053944834 -4.7412320645436e-007 0.0001536805060778657 
0.0002505587645617533 1.968661344355215e-007 -0.0002504563211312652 
0.0004329565275807047 1.011376820768839e-006 -0.0004318547302600162 
0.000756411942397999 8.76368364410161e-007 -0.0007572438344939376 
-0.0005956323699213884 6.991442846088992e-007 0.0005957145380765073 
-0.0003856795111585067 -1.997159004165488e-008 0.0003870765936413118 
-0.0003452952948614048 -1.205812485718368e-006 0.000343242242561593 
-0.0002965878758781094 -6.951048380501295e-007 0.0003003097309780433 
0.0002230883676204577 -7.045402875054533e-007 -0.0002260386257475741 
-1.740307213744951e-005 -1.988791829980668e-007 1.685330988538346e-005 
0.000793463683563789 -1.00251924555561e-006 -0.000798735101165029 
0.0003916058458771712 -1.691827334108886e-006 -0.000396211183806089 
-0.0005033537860295768 -1.097729752090451e-006 0.0004973686970337362 
-0.002735294472077798 -3.8690419888094e-006 0.002726502073840698 
-0.0003306681286272193 4.779522454337152e-006 0.0003314929598691896 
0.0009067693156094997 7.048530008879957e-006 -0.0009021930810068725 
0.000861467848061743 4.130780446689541e-006 -0.000862382165481743 
-0.001007410293599632 9.358819532270735e-007 0.0009991985645779787 
0.0003071773046907307 5.040918052732604e-006 -0.0003068087040570441 
0.000655529539188045 1.901059648564449e-006 -0.0006612975317722739 
0.0008512360792408259 -2.420354956124259e-006 -0.0008460224352482327 
0.0002939367294194821 -4.925915285822688e-006 -0.0003050775825745146 
1.823230352651182e-005 2.427772506809709e-007 -1.766576674767519e-005 
0.0003694927618917236 3.738376530812105e-008 -0.0003684099343468914 
0.0005816210159030369 2.510164818805694e-007 -0.0005817813420827167 
0.000406659405638414 -1.491964306486457e-007 -0.0004091804843827704 
0.0007661013722464654 4.520371626363101e-007 -0.0007679159405287307 
0.0001749564645794681 8.172340757035278e-008 -0.0001777871740327511 
0.0002288185111907166 9.693788452341449e-008 -0.0002327911167459531 
-0.0003499623016994946 8.265271764916238e-007 0.0003491151649184407 
-0.0001350144757342602 7.086501816951201e-008 0.0001340409375218518 
-0.0004569448270722758 -1.166187319419913e-006 0.0004552047500047946 
-0.0002806181975628608 -5.073112026808592e-007 0.000281146275050265 
-5.017774757091146e-005 -7.464840247531799e-007 4.675129818887014e-005 
-1.626817306902798e-005 -1.088984971019163e-007 1.587176408438182e-005 
0.000709704801351647 -4.358930644243317e-007 -0.0007138135458742406 
0.002018980445181482 -5.615811146135689e-007 -0.002020151277207736 
0.001548546031221926 -1.316879960812123e-006 -0.001552964621698141 
-0.002876657099438803 -4.553916666558624e-006 0.002870509947756463 
0.001629278524826236 4.717772848439022e-006 -0.001632328391592515 
0.001481582454662719 7.087792931534255e-006 -0.001484839906408918 
0.0007359359941195728 5.409602190156065e-006 -0.0007426329807582541 
-0.002452181359418929 2.834504852322581e-006 0.002453518878913938 
0.001065673993045848 6.527864241515414e-006 -0.001061945203225842 
0.0004156173429526454 -4.548416180659461e-007 -0.0004175867598636635 
0.0001174976539807607 -4.087779216757233e-006 -0.0001124856017137096 
-0.0006726441214628792 -5.936835340833217e-006 0.0006600435768210672 
3.221510012108353e-005 2.729135654439878e-007 -3.139118425900167e-005 
0.0003368419402182425 4.197622393097254e-007 -0.0003353738071599764 
-2.728595697751559e-005 -2.217206211484821e-008 2.985623899818268e-005 
0.0004344978966934235 4.080848933365306e-007 -0.0004348596765851831 
0.001002546302364261 8.736884314678268e-007 -0.001003421896997836 
0.0001766789857136421 -6.335684056762186e-007 -0.0001799443615143901 
-0.0004099279922568947 -4.663254860627638e-007 0.0004053941365015843 
-3.81039525892287e-005 4.254859664766691e-007 3.618595564322155e-005 
-0.0001597361428904991 -9.199751805137664e-007 0.000155452194823958 
-0.0006070200103857951 -7.296403433423435e-007 0.000607094349310713 
-0.0006274798746500438 -7.415630696458295e-008 0.0006248515023507739 
-0.0004979829547695386 -3.272689012263874e-007 0.0004986346522083662 
-6.948765418174699e-005 -9.160067159679576e-009 6.949854916384506e-005 
0.0006390201930273126 -5.359540733929052e-007 -0.0006415664622566209 
0.001073194751704899 2.872299765687431e-007 -0.00107397799730311 
0.0005925828827627527 -9.319770083794133e-007 -0.0005946071288981536 
-0.001544003872443428 -1.721917278210373e-006 0.001535486714491954 
0.002765456260952086 6.911860870837703e-006 -0.002768684815345107 
0.001341283153801724 4.884559795778501e-006 -0.001353260517262192 
-0.001552621806095143 1.846157094591593e-006 0.001543144410517419 
-0.001620823936603386 3.368035174606577e-006 0.001617986936959875 
0.001787860913720475 4.57036296769712e-006 -0.001790242044846745 
-0.0005137077020142561 -1.533602297461002e-006 0.0005100107429821533 
-0.001304094559276189 -4.054342683059809e-006 0.001303952362684172 
-0.002057891239329586 -5.586730353874117e-006 0.002047289920248704 
0.0001700660900645976 5.020717538617971e-007 -0.0001690977399204107 
1.152287265319062e-005 4.562607943516411e-007 -9.921835881754982e-006 
-0.0004524521505879934 -2.372798580988305e-007 0.0004551122835753779 
0.0006209628041831781 9.611493471407633e-007 -0.0006181965352871092 
0.0006212982768559164 9.455783396520002e-008 -0.0006223818753333648 
-5.197330952945616e-005 -7.17899078432717e-007 4.979728641334703e-005 
-0.0008222921380733562 -1.328662690440928e-006 0.0008201821387008333 
0.00022345689457376 -5.462919294021798e-007 -0.0002255823348618341 
0.0003742837362635751 -1.270105818800267e-006 -0.0003779454094243707 
-0.0002152314399494153 -1.104957656182117e-007 0.0002177343753447021 
-0.0005199254868643046 3.610585060680283e-008 0.0005184797211846716 
-0.0005731863925824323 4.60016106446518e-007 0.0005754602148461034 
-0.0001395998981166933 1.413273703070505e-007 0.0001395764575048674 
0.001095524657274926 -1.372517876366377e-007 -0.001098182843859172 
0.001699013999753565 2.3938624623494e-007 -0.001700260279189869 
-0.001188013183364274 -1.708943076264439e-006 0.001191404813548195 
-0.001621222441530042 -1.611616195483543e-006 0.001621832956044959 
0.002999466342177629 7.548871465036091e-006 -0.002995806946249223 
0.0008761885809984922 4.383892469980957e-006 -0.0008839829372349585 
-0.003314367810627195 6.786851064036168e-007 0.003307405850883871 
-0.001625613522826889 1.670637169170164e-006 0.001620643520970777 
0.00136485853862612 1.324980847115628e-006 -0.001380849849461573 
0.0004336640262592726 2.854623848047233e-007 -0.0004294029832309052 
-0.001536302514861923 -2.600019803404925e-006 0.001532666709760048 
-0.001733727738126554 -6.054482652216828e-006 0.001730954025830299 
7.459130775886804e-007 8.426361845108806e-007 1.835271984250563e-007 
-0.0004274309482967052 -3.381985044833368e-007 0.0004279254251619473 
-0.0007950547524390433 -4.304329603929472e-007 0.0007958355030938251 
0.00052562330621324 7.790968410308771e-007 -0.0005225610543118978 
-0.0001570746924424601 -8.394116807006329e-007 0.000156845464327114 
-0.0001088234646285614 -8.497093760302984e-007 0.0001104660853457647 
-0.0002187960843778194 -1.004417878945764e-006 0.0002192707356840612 
0.0005071723538826919 -1.504574580095158e-006 -0.0005096670887482412 
0.0006772207912948455 -5.001669935794233e-007 -0.0006796910801038059 
4.338006797757153e-005 6.06646692865102e-007 -4.088425882087508e-005 
-0.0004783638955728949 -5.009259288525434e-008 0.0004811857424922608 
-0.000276623776778098 8.455597313646532e-007 0.0002813356797735153 
-6.063058007864948e-005 2.005627665668789e-007 6.04353606698883e-005 
0.001450886615137578 1.358522436929681e-006 -0.001452041560058411 
0.0006092063855712093 1.889906453326101e-007 -0.0006057688190276777 
-0.001397333542571357 -2.088099893650028e-006 0.001400744010097749 
-0.0002581974594054213 -5.344447893384766e-007 0.000259857640840322 
0.002090738533648502 3.836772486772789e-006 -0.002098686343733609 
0.0009495992303215102 4.811006491613463e-006 -0.0009536346941328138 
-0.001224842935836819 -1.470651677570686e-007 0.001213511107673577 
-0.0003034103667680201 -1.213641379951827e-006 0.0002877251930974072 
0.002029002056094242 1.291850570141953e-006 -0.002037081744717458 
-0.0004296540719755134 9.784270548442692e-007 0.0004332855244634637 
-0.0009214895232677081 -2.983697979400475e-006 0.0009237982957785186 
-0.002041452024204889 -2.567010394731244e-006 0.00203676685860543 
-0.0001592855896013429 9.45319543349131e-007 0.0001595775778725815 
-0.0003767120723027711 -6.23100411300535e-007 0.0003768717937584569 
-7.772098602564657e-005 -1.129103594641041e-007 7.764862345378892e-005 
0.0003043564687257462 -4.66823874631026e-008 -0.0003008933490699947 
-0.0004373205830258036 -2.20867259187045e-006 0.0004382737943066036 
0.0004255739924559166 -8.793621640559335e-007 -0.0004228579304575684 
0.001004814530847072 3.897265025808447e-007 -0.001003316082738519 
0.0007193757680680927 -1.25566607841349e-006 -0.0007177747294833049 
0.0007831335204549625 1.972973489227886e-007 -0.0007831989206864346 
0.0003853615461448746 2.128982795653951e-007 -0.0003843870946895521 
-3.329146800695717e-005 -1.169420650869883e-008 3.686966039458413e-005 
0.0003060519565429251 5.703385190761454e-007 -0.0003010297181420992 
-2.746690879811054e-006 2.887492104723204e-007 2.361366198122793e-006 
0.0003074996013721022 2.830058137109911e-006 -0.000307656823181942 
0.0001138196821650935 -2.203455772595343e-006 -0.0001146285292040584 
-0.00143176059562453 -2.890981763849634e-006 0.001428528387594241 
-0.0008914528360363102 -1.252164995231701e-006 0.0008955283163004965 
0.001181277146528067 2.058254496772801e-006 -0.001183113535042213 
0.00113330306691214 2.876039817062983e-006 -0.001132318353065565 
-0.000521928346877564 1.384119052375704e-006 0.0005185318409594959 
-0.0005750246145641705 -2.397520407093894e-006 0.0005703125393064785 
0.00433120796205563 5.666295834527753e-006 -0.004336981317832116 
0.0005904936371223047 1.322383480686487e-006 -0.0005836481996246585 
-0.002465632318256286 -4.873566547808726e-006 0.002483528162239078 
-0.002063982559947988 -3.21891115957769e-006 0.002071983427776687 
-8.599091843477032e-005 3.308239330859342e-007 8.607033554391174e-005 
-0.0004041249628681328 -3.276529263667473e-007 0.000404801453885708 
0.0004067788931463074 -7.104566527857893e-008 -0.0004074617093032767 
0.0005793011732454821 -1.873193216344429e-007 -0.0005783640228430926 
-0.0006292312260248643 -2.250646104184521e-006 0.0006314183215664732 
0.0007412601308347082 -1.015434478814854e-006 -0.0007390232524478052 
0.001389888746071509 2.330814350378718e-007 -0.001388289928172151 
0.0004819189429713685 -9.363485664935171e-007 -0.0004780098515581914 
5.890451561481771e-005 3.635743373179496e-007 -5.6279616870439e-005 
0.0001405982361070926 -1.114752992284275e-007 -0.0001414322311686897 
-0.0004216283265641492 5.731061287004654e-007 0.0004229149235576081 
0.0007536108098166424 8.999331033357508e-007 -0.0007518595860354956 
-3.589350496572591e-005 3.377021398090095e-007 3.568428253750577e-005 
0.0002365995542583584 2.706994722616416e-006 -0.0002389363446353318 
-1.777223028152116e-005 -1.606850378450898e-006 1.756886674299657e-005 
0.0003258486292602347 -9.055098462134248e-007 -0.0003249227698046157 
-0.0003871389778309008 -2.135065293506208e-006 0.0003942050312005183 
0.001487947628413069 -1.386211766172283e-006 -0.001483662264498813 
0.003340594062093973 1.241670774409682e-006 -0.003343380649043252 
0.002075231738241565 3.442068314327443e-006 -0.002078999635501292 
0.001450752458497032 -8.762241015771909e-007 -0.001445713205694641 
0.004220355683348129 3.386191343281813e-006 -0.004228172772665165 
0.001334689094513397 -9.87574030975525e-007 -0.001334805964040655 
-0.001005894487117648 -2.976037360420535e-006 0.001012877447735766 
-0.0003624967576310725 -4.15281838731417e-006 0.0003716193660944232 
0.0001175400086431484 -2.950563491888989e-007 -0.0001177112865871207 
-8.186414808572442e-006 1.287478380693462e-007 8.688911041533745e-006 
0.0006422673716428776 -9.625788269089898e-008 -0.0006430908756702795 
0.000443909766341412 -2.99492768083167e-007 -0.0004450118947499722 
-0.0007701218786969977 -1.63591513305774e-006 0.0007735676401798635 
0.0005008055498989729 -1.800779889749395e-006 -0.000499591005911722 
0.0008194134616517426 -5.963410575940784e-007 -0.000816404747874407 
0.0004952611183431093 -1.198807043491853e-007 -0.0004900717939801082 
-0.0004467777278676533 -4.506610007214416e-008 0.0004475504477953786 
4.429348528545235e-005 -1.923563473933943e-007 -4.435128582843163e-005 
-0.0003705156865048564 8.860133270018626e-007 0.0003689042850552883 
0.0009201063073995429 4.895368663574164e-007 -0.0009206911665890515 
-7.625525235392593e-005 3.773728476524205e-007 7.644784254726521e-005 
0.001272716987681528 8.426298302397621e-007 -0.001274387131730995 
-8.119842181303299e-006 -5.009581468150828e-007 1.207648587206844e-005 
-1.571609698829576e-005 -2.65546802313336e-006 1.693592199106928e-005 
0.001339739946720142 -1.747902198041672e-006 -0.001337146595043796 
0.0001547044863497584 -1.09289250525172e-006 -0.0001462261561260975 
0.003386998809541843 1.091398161225156e-006 -0.003384233215174689 
0.001985041836973444 4.951387275883286e-008 -0.001987791679329468 
-9.310844808010395e-005 -3.179813248518744e-006 9.732170466271372e-005 
0.0005637097927073802 2.095694898591294e-006 -0.0005667078806526509 
0.0002544793076120339 7.110891768301542e-007 -0.0002525140762475063 
-0.003602235633101967 2.616844351516093e-007 0.003602695735909771 
0.00119484326978623 -7.619107170778471e-007 -0.001195764763767309 
3.664004731168413e-005 -3.596157506114949e-007 -3.652600646463471e-005 
0.0002012893010838975 6.707394283395971e-007 -0.000200082188891357 
0.0003533447120915219 2.333788004149462e-007 -0.000352893273365874 
0.0001072544747471946 -1.727761413176363e-008 -0.0001084438834311995 
-0.0007111429126767039 -1.620026635139829e-006 0.0007123154169705786 
-8.228986581255591e-005 -1.548043396493987e-006 8.060164349949165e-005 
0.0006166857185837899 -1.587456324403195e-006 -0.0006143664920414397 
0.0007916614441861074 -1.349387816809232e-007 -0.0007903254595062741 
-0.0008880313337241252 -1.064586915959056e-006 0.000888675936114568 
-6.509411507779668e-005 -6.734643188188825e-009 6.455161452633879e-005 
0.0004817534714667798 1.129031700066582e-006 -0.0004859191688717918 
0.0008841281746211219 1.041132933111834e-006 -0.000887053339279606 
-4.889002768960012e-005 4.013691071641919e-007 4.926723910459551e-005 
0.001555970869883595 8.769538824595826e-007 -0.001557225736760098 
0.0006292438200588379 -1.85184992240526e-008 -0.0006256765409221183 
0.001105970745711979 -2.687150040709956e-006 -0.001108903834341283 
0.0008457664908999281 -1.7840370575803e-006 -0.0008488759190800317 
-0.001246594720896742 -2.767228103119126e-006 0.001250718394950927 
0.002326789569113118 -3.300574017606944e-006 -0.002325642782711539 
0.001618739938905004 -2.461468874691804e-006 -0.001615351594181202 
0.001931947803797035 -1.421892629928164e-006 -0.001926149009474536 
0.001678870126904781 2.851820739759719e-006 -0.001684473850682269 
-4.018368640685642e-005 3.22290374081526e-007 4.596625844393474e-005 
-0.002205762764677159 -1.121250124990023e-006 0.002208732375519558 
0.0009296653511644006 -1.347824203884686e-006 -0.000932813638813667 
-0.0002037715607838585 1.276799364584335e-007 0.0002047566507224408 
8.832454910024799e-005 2.189084076418223e-007 -8.809651355878762e-005 
-8.729429192609245e-005 8.272136522867158e-008 8.587738911674329e-005 
-6.81369316112963e-005 1.035474736831332e-006 6.818159137222692e-005 
-0.000799306519809821 -6.915399660669783e-007 0.0007988752567529546 
-0.0006068236823950373 -2.73962700208638e-007 0.0006060701243510393 
0.0005127955890946345 -1.365349166740139e-006 -0.0005106064745641042 
0.000540140714385927 -6.13762645027138e-008 -0.0005428298931977783 
-0.0006771477206607207 -4.594895681815894e-007 0.0006802149792162627 
-0.0002745645970429982 1.972163446599611e-008 0.000274453768593914 
0.000449187525713977 5.113836506229681e-007 -0.0004511079152556259 
0.0003337521793945322 1.550423249153378e-007 -0.0003347049166343453 
7.56832794017839e-005 8.50393590791007e-008 -7.538448402446452e-005 
-0.0001689877304823045 1.947000555450507e-006 0.0001688597673656882 
0.0007967594918522411 3.560677289556357e-007 -0.0007934181000973982 
-5.508997787870862e-005 -8.332643784619435e-007 5.604443917500421e-005 
-0.0009716149904649046 -1.514056756901682e-006 0.000974831098971905 
-0.001007176249701591 -5.351403226171808e-006 0.001011283246457546 
0.001228761386681341 -2.593044266321048e-006 -0.00123818450559462 
0.002789743501453923 -3.60138098831706e-006 -0.002785121983605208 
0.003142687822500289 -2.799377405642541e-006 -0.00314109974269481 
0.001161788488171789 6.105358742479036e-007 -0.001165445563256336 
0.000952453506293966 6.337798476388136e-007 -0.0009512702998117851 
0.0005430653357492723 -1.558079728209493e-007 -0.0005439913273259468 
0.001710581980223571 5.842598840897018e-007 -0.001711071503205728 
-0.0003561462830551257 3.963725049136833e-007 0.0003568457639846985 
0.000104416894194977 -1.055086296178854e-007 -0.0001065552452271657 
-0.0001381240445363338 9.812736562582023e-007 0.0001365784570426543 
-0.0003470248666462672 2.025464489602152e-006 0.000349334485446592 
-0.0004270052548199727 -3.145109040691305e-007 0.0004256606432485452 
-0.0004851245841334765 1.100450903621879e-006 0.0004829332612208922 
0.0001974432918107784 6.769265410471569e-007 -0.0001958972912034943 
0.00055986103909075 2.457976038682792e-007 -0.0005620730383256654 
-5.719445375323429e-005 -1.58213977186898e-006 5.972454431941718e-005 
-0.000563790591531056 -7.480214666368453e-007 0.0005626183538567194 
0.0002943054394655502 -4.994530688825619e-007 -0.0002941649060530398 
-0.0002669385664258466 -3.627491674855701e-007 0.0002699071024192499 
0.000123382757160232 -3.888397298839719e-007 -0.0001229919615161496 
-6.139978032130307e-005 2.793209463647244e-006 6.321731946509002e-005 
2.141378915148879e-005 -9.408180784031236e-007 -2.016938334609149e-005 
-9.09161137088715e-005 -1.403002932821064e-006 8.489012216881464e-005 
0.0004278525929873628 2.925383919053332e-006 -0.0004208746300531802 
-0.001927639095145176 -2.714661885912553e-006 0.001931953808383895 
0.001385582399505265 1.714069485588905e-006 -0.001386042399965536 
0.004236862045995192 -1.559227570879813e-006 -0.004233370025687284 
0.002533557441850498 -1.373321447702089e-006 -0.00254065148999434 
0.0005355826475042996 1.831324067905644e-006 -0.0005277339955285834 
-0.0003871258309876387 -8.503101396993348e-007 0.0003868458613779284 
-0.0008326101508857298 -2.10360127665042e-007 0.0008306842402793602 
0.001048395437609548 -4.050694236111459e-006 -0.001044252523336684 
-0.0003473234248210162 7.323688331176785e-008 0.0003466797792225246 
-7.37522823304063e-005 3.772179706111765e-007 7.241142353143521e-005 
-0.0001434161172108949 1.674128342441185e-006 0.0001435707061216156 
-0.0001689818496936899 2.143452246597408e-006 0.0001711379293165239 
-0.0002209068921799084 3.184181678853764e-007 0.0002204006511073142 
-0.0002206832641702045 1.945387050305693e-006 0.0002183939854621621 
-0.0002623689170162326 1.771390362088073e-006 0.0002617556043471342 
-0.0002288659586310478 1.227322161019447e-007 0.0002274198123069642 
8.000227546090272e-005 -1.85291392575174e-006 -7.60386743452451e-005 
-0.0005711756513141336 -1.300238072363974e-006 0.0005688381535917243 
-0.000330762145293144 -7.296200776567979e-007 0.0003311800512044109 
-0.0005048993011695371 3.498987496316933e-007 0.000507440837021642 
9.717160322443433e-005 -7.814743412833662e-007 -9.663433197268628e-005 
0.0003006721657727781 1.866367040226097e-006 -0.0003003811089227953 
0.0008178757302453437 -5.673521505175445e-007 -0.0008234494237142705 
-0.0001078859051338537 1.608829267349924e-006 0.0001029242768553792 
-0.000186434543434839 6.024707543299802e-006 0.0001955323059843347 
-0.001639798085630967 -2.691724229822213e-006 0.001641457907112414 
0.001431979084282588 4.086342571417712e-006 -0.001439366695816313 
0.001663198676265107 2.983030593713977e-006 -0.001658270354076409 
0.002405385610420364 -1.975112906655704e-006 -0.00240578589831466 
0.0008493813602097825 -5.304766062215161e-006 -0.0008464552434561887 
-0.00239100272129332 -2.442724904067214e-006 0.002390138064238431 
-0.002817291834276395 -2.691032821821212e-006 0.002820902366758608 
-0.0001992207851144088 -1.224224512779857e-006 0.0002094964001025777 
-0.0001199422689618448 -5.449466461438958e-007 0.000117797956860496 
1.077156936506868e-005 8.029009742926253e-007 -1.279951149865024e-005 
-2.825656824940894e-005 1.941504058889151e-006 2.968961087091777e-005 
4.000581674017555e-005 1.597692150933524e-006 -3.984220935175189e-005 
-1.47212460645473e-005 7.829915191245639e-007 1.406718147717056e-005 
-0.0001315315050134109 1.585003319926256e-006 0.0001329569618637879 
-0.001082462683086707 1.922957950602463e-006 0.001082882021361313 
-0.0007350131516806021 6.902541563861777e-007 0.0007348909474373503 
7.846458806445774e-005 -1.884206024399041e-006 -7.583666282204716e-005 
-0.0003024668764203977 -1.177630604533748e-006 0.0003020970847334403 
-0.0002079081196615121 -5.012765285230612e-007 0.0002094041493684608 
-0.0003494893645570315 1.146150505206514e-006 0.0003502594721127127 
6.071609118601315e-005 -7.816549233514589e-007 -6.015018022105963e-005 
-0.0004154756990273723 1.283451086153844e-006 0.0004107930881794114 
0.0002499208726099032 2.329279124065414e-006 -0.0002486003575867753 
0.0004152822599554828 4.462454481806448e-006 -0.0004144843647230313 
-0.000391741349167233 5.163829691869262e-006 0.0003964714897528344 
-0.002034817214787317 -2.504954995449108e-006 0.002037633306644634 
0.001121764110671393 3.08665750406676e-006 -0.00113308147928462 
0.0008701637080980874 3.103270494565937e-006 -0.0008699953376829801 
0.001156258446082786 -1.220365766111009e-006 -0.001156696202956499 
0.002235087328219137 -3.455079716356468e-006 -0.002224164641051368 
-0.001224330834541908 -4.640646111226938e-006 0.001219449851385635 
-0.002179393742786054 -3.50173428843459e-006 0.002182184621467224 
-0.0006399311866677096 1.305902613086349e-006 0.0006441080027930473 
-6.629975537291003e-005 -7.793721049803191e-007 6.358030553713736e-005 
0.0002264806840418519 1.075005026195947e-006 -0.0002268134245663717 
-9.120666878528127e-005 1.841403030156375e-006 9.556084763189984e-005 
-1.735578395599021e-005 4.571232096860263e-007 1.518659936714898e-005 
0.0004289960349731595 6.857278577412221e-007 -0.0004301092066768344 
-0.0003673634384090024 6.189728501911271e-007 0.0003693102104035655 
-0.001751663666646247 2.762444079430583e-007 0.001751492676159242 
-0.000406318027227676 9.388800544038358e-007 0.0004076479027517041 
-0.0001212923741276731 -1.999252271117552e-006 0.0001204995801047807 
-3.269929102779195e-005 -8.183924515093994e-007 3.286649468724818e-005 
0.0003153284027356741 -3.848019615425384e-007 -0.0003150247827788412 
-0.0001251042754277544 2.268426403546198e-006 0.0001230758566754435 
9.225067015783692e-005 -5.236052782037549e-007 -9.191302604706362e-005 
-0.0005916586277765035 -2.284144844511849e-008 0.0005840591825959502 
0.0007363590039823114 2.735520913598899e-006 -0.0007431953475948511 
-0.0004494859807084244 5.94151821957481e-006 0.0004541937289148962 
-0.000361794954656956 5.355178913253899e-006 0.0003669530299611389 
-0.00102719393352183 -1.541271525194743e-006 0.00102877982972934 
0.0007030166426932617 4.645688193742353e-006 -0.0006998837467310966 
-0.0009392199894350451 3.682157975445247e-006 0.0009476000040185781 
0.0001562758728052269 5.754293638975555e-007 -0.0001586269445097169 
0.0007043857583759231 -6.167273811449034e-006 -0.0006964402754456775 
-0.000141278693403871 -3.359196591629795e-006 0.0001429134381463963 
0.0001769198396355103 -1.016501773062349e-006 -0.00017272408936705 
0.0008072958059247468 3.636703829957799e-006 -0.0008039517624847883 
-0.0001686452730827835 -6.03955726149111e-007 0.000168141490983782 
-0.0001333553429129352 7.202995798859302e-007 0.0001350890170961775 
-0.0001655222438036791 6.467654338237163e-007 0.0001692195058309267 
0.0002463071259418082 -9.817330505619158e-008 -0.0002495774600494206 
0.0001853048932298778 9.440655374863812e-007 -0.0001870876668505989 
-0.0001718313207120672 2.2125967518671e-007 0.0001761582517473089 
-0.000781022603878569 -8.750561704385497e-007 0.0007806734346404273 
-0.0004387944455559976 1.226852191637529e-006 0.0004408651379123873 
-0.0004339205759358363 -1.028268718559719e-006 0.0004312171656379999 
0.0002347649071898386 -7.458659667264441e-007 -0.0002343574877336587 
0.0006061602592769569 -9.760034448120675e-008 -0.0006065009557269331 
0.0004347990211820158 1.536332451857116e-006 -0.000439324434490575 
0.0001123549669158645 -2.546976318770588e-007 -0.0001128556714524876 
5.325998892010816e-005 -1.590514606929567e-007 -6.109442512995222e-005 
0.001194576286294304 2.782774648311685e-006 -0.001194364221564648 
-0.0003761545834618873 5.637662838777552e-006 0.0003870647449450016 
0.0004287632141917318 5.545770135982257e-006 -0.0004306613259316051 
-8.895933772884203e-005 1.387455341479239e-007 8.774512226997285e-005 
-8.676906218895813e-005 4.529243416969691e-006 9.078264299197119e-005 
-0.003220248497776292 -5.27561204044827e-007 0.003221159740155794 
0.00162652785143191 2.045804604986027e-006 -0.001625997161352093 
1.622533112048115e-006 -7.733671990686509e-006 -2.474970913081494e-007 
-0.001675484809481477 -4.48403931914599e-006 0.001674791150527659 
-0.0007530649963923216 -2.971643487310778e-006 0.0007523645440535958 
-8.038658588180569e-005 4.860982115512666e-006 7.785321109098809e-005 
3.430745076434157e-005 -4.004667107677575e-007 -3.141937543097403e-005 
3.49305283145652e-005 1.524526370906219e-007 -3.289823860188571e-005 
-4.4129792665127e-005 -2.936863298393976e-007 4.616773009955496e-005 
0.0001810211311506358 -9.277452770417913e-008 -0.0001844440292854464 
-7.247655849978738e-005 4.206087645122707e-007 7.135648053850268e-005 
-0.000356304783483995 5.434435134168111e-007 0.000360814099497027 
-3.814248852697894e-005 -7.852911580037843e-007 3.756129040607234e-005 
-0.0002896035266768493 1.082736277903971e-006 0.0002920411855020775 
-0.0009961766724235033 -1.269537930179412e-006 0.0009927244079105167 
-0.0001459837161305783 -1.373635148256657e-007 0.0001462769889698385 
-0.0002378842583689007 -7.389464812846152e-007 0.0002368840818955992 
0.0005162787540909049 5.702684241726769e-007 -0.0005197160462678018 
5.23357548671587e-005 -1.151278434575561e-007 -5.339711399762462e-005 
-0.0007769216625070368 -4.321634876254978e-007 0.0007762697473568372 
-0.0003212347321020621 2.807405707258919e-006 0.0003248836764081712 
-0.0005397682966006789 4.255047767594413e-006 0.0005482367938964236 
0.0006348417830803983 5.342866587396828e-006 -0.0006387815643332282 
-0.001686202672611117 7.067472513792882e-007 0.001680963725186906 
0.001177081605530684 4.471330850285697e-006 -0.00117050003304937 
-0.0001967110688988344 4.23165180581738e-007 0.0001995221411107123 
-2.372375812801979e-005 2.526050397900475e-006 3.319267324629342e-005 
-0.0002034914859937986 -8.306830771679807e-006 0.0001976743975621509 
-0.0009915993592643215 -6.250345315463936e-006 0.0009906781440547521 
-0.0004996495103586878 -3.444082846075771e-006 0.000503302236533807 
0.001694996365060916 4.679887171144981e-006 -0.001703992721365685 
0.0002552051603929481 -1.017527209762043e-007 -0.0002515470692077296 
-7.196509385461286e-005 -2.54031809367582e-008 7.419012552701402e-005 
4.765795075325058e-005 -6.447101512993437e-007 -4.809228247583445e-005 
0.0002315546043964853 -3.225474069810691e-007 -0.0002346971238919049 
-0.0003248105707520014 -1.202603335729163e-007 0.0003256070526185856 
-0.0003170349577505724 4.060996789317239e-007 0.0003174554604170096 
0.0006079637613523198 -8.015804835522561e-007 -0.0006107448689662129 
-0.0002942759130066214 7.459475424388903e-007 0.0002963292411134052 
-0.0009703228780858782 -5.633986645110857e-007 0.0009684557227418121 
5.913378014724455e-005 4.043649079052561e-007 -5.792950377217144e-005 
-0.0007802998861159248 -1.37836587471501e-006 0.0007801537991414197 
-0.0001423960189110332 -1.065843377837573e-007 0.0001395074723498674 
1.483111266856636e-005 -8.383730225806896e-008 -1.595137849427359e-005 
-0.0001513156658669731 -5.142254459789596e-007 0.0001575996735182134 
0.0009533686665681592 3.055609228941223e-006 -0.0009471293090184898 
0.0002397788950900264 3.837235574472151e-006 -0.0002306716952336667 
1.50383280913189e-005 4.706113391860899e-006 -2.28737416228555e-005 
-0.002067696328755472 -1.525922061345684e-006 0.00206832446429964 
-0.0008967816737648347 5.891067018684357e-006 0.0009062865583628156 
0.0003081912600331774 8.06310891306753e-007 -0.0003081443828971173 
-0.000201752962172986 3.218013734210439e-006 0.00020759352902145 
-0.002291872923670936 -8.73303726660206e-006 0.002292415548641626 
-0.001529090237806287 -3.881888063321439e-006 0.001526953593088534 
-0.003030533235290449 -5.982700891358692e-006 0.003028594717386798 
0.001497612750610795 3.635651560732329e-006 -0.001504452196455044 
0.0004192319573868506 -1.342471938437167e-008 -0.0004170592410334825 
-0.0002110362163351237 -2.035564471832492e-007 0.0002107306152707952 
-0.0001607500852363558 -5.567985335213195e-007 0.0001585739948648676 
6.587265930636787e-005 -4.743148484134891e-007 -6.818958956643228e-005 
-0.0007731944207228188 -3.980340304093614e-007 0.0007760454043125271 
-9.712138137416927e-006 5.751604770667781e-007 9.36729416004026e-006 
0.0008681358489146258 -3.221782646597302e-007 -0.000870399484607472 
-0.0004909141325210244 4.92410307429935e-007 0.0004928368530957693 
-0.0006277229529550389 -1.845449161853923e-007 0.0006269610523794111 
0.0004776039334145106 9.913675401475156e-007 -0.0004755359554290915 
-0.0006644034937696734 -1.134992284097716e-006 0.0006657329484563983 
-0.000216167831686042 -3.714336029070572e-007 0.0002155249912002752 
-1.17582934680875e-005 1.792187062798422e-008 1.106080985699181e-005 
0.0007866568773235836 -3.540162280992e-007 -0.0007830250838351053 
0.0004971382870735527 2.472091922260059e-006 -0.0004958631229765129 
-0.0005191760925129384 3.618164210691308e-006 0.0005226136525324369 
0.001002832935711449 4.162266692174621e-006 -0.001010418777776827 
-0.001661882705824382 -1.310228117498102e-006 0.00166652985418447 
-0.0004771445557375103 5.995293343367055e-006 0.0004796343395077177 
0.0003363781389202122 -9.926785211927957e-007 -0.0003414714791440816 
-0.0004009678518238608 3.71905565064068e-006 0.000406228509371937 
-0.003000499026149849 -8.484611653924757e-006 0.002999524911643368 
8.119199617741827e-005 -1.638444259998528e-006 -7.281439469496734e-005 
-0.00258584369524711 -6.402784256578744e-006 0.002589928039616231 
-0.0006936799467722757 3.716447354949478e-006 0.0006847342730431172 
0.0006489781928619753 5.828086861187625e-008 -0.0006485987340402351 
-0.0001754575148215095 -2.872469837299433e-007 0.0001738543792219859 
-0.0002266554118536974 -2.830985088131028e-007 0.0002251850933558353 
-4.728216663541692e-005 -4.098365357695871e-007 4.531049159462407e-005 
-0.0005710884149798403 -2.416377759646844e-007 0.0005743771068024879 
7.971654264069902e-005 5.095528094266178e-007 -8.132687280231447e-005 
0.0003868635890006878 -5.944233252528665e-007 -0.0003883895434277551 
-0.0002647780036978421 3.46394771866033e-007 0.0002651320543072109 
-2.777145546314563e-005 -3.558496692749756e-008 2.773348950030719e-005 
0.0003712558423545701 1.088316986464976e-006 -0.0003688122919456808 
-0.000744932491117361 -8.630924039167964e-007 0.0007444730210924032 
-0.000515167142191919 -2.53881354513481e-007 0.0005154927350483223 
-3.60304443880234e-005 9.981214830463696e-009 3.623843402720317e-005 
0.00152894595284501 4.884654436178075e-007 -0.001528119037904626 
-0.0005135750768622673 7.936002134528336e-007 0.0005135371496850044 
-0.001658581749647279 9.836672948112701e-007 0.001661302138952676 
-0.0002992368954248349 -3.161507389314293e-007 0.0002879038143162883 
-0.00349328294177966 1.37092423560586e-006 0.003501203386473974 
-0.0001744333299991989 2.595756186570548e-006 0.0001790925520282038 
0.0008846946153586864 -1.286570270901785e-006 -0.000891160817394104 
-0.001402110672023752 3.478529043529075e-007 0.001414644316296509 
-0.00059945026271116 -3.245545434889255e-006 0.0005941682849222854 
0.0006143324844591228 2.142346018997083e-007 -0.000609499515962786 
-0.001701091285939477 -9.488770516141211e-007 0.001706324615791711 
-0.0007267250489794771 -6.469729373288047e-008 0.000721236295761894 
0.0003482615196447003 4.086729000896003e-008 -0.0003477422079498469 
-0.0005962604553175587 -2.519509410018176e-007 0.0005951618784011263 
-6.890206541990381e-005 -2.588224566725426e-007 6.778277268449192e-005 
0.000216905479810042 -2.463162634951534e-007 -0.0002176576932349604 
-0.0003317995927528271 3.302158057947473e-007 0.0003328216640381251 
0.0004757376783623001 2.057460544381762e-007 -0.0004773405265206715 
0.0001606438381755624 -8.881354463609458e-008 -0.0001595867731638477 
1.577994875817793e-005 5.197171508429693e-008 -1.571005495920762e-005 
4.317680657761994e-005 -8.847495169185374e-008 -4.320384005093111e-005 
2.199191273883042e-005 1.825156042471061e-007 -2.060484072879955e-005 
-0.000269849792336198 -3.288360966749576e-007 0.0002703276000124806 
-0.0003761215216566501 -6.02740011773061e-008 0.0003749014024409868 
-6.894896126237682e-005 2.274746684520826e-024 6.96000431669142e-005 
0.001366030694173021 1.19114008207636e-022 -0.001363814277431829 
0.0001517699031041116 0 -0.0001573563249148721 
-0.001992058620952318 -1.058791184067875e-022 0.001994448610990855 
-0.0005656459025136208 -2.646977960169689e-022 0.0005563817410471557 
-0.002941125030621008 5.293955920339377e-023 0.002942564611448628 
0.0009524291662297918 -9.26442286059391e-023 -0.000962397586592096 
0.002003571560717083 5.293955920339377e-023 -0.002002019525186131 
-0.0007093071946642964 5.293955920339377e-023 0.0007151136754820697 
0.0002408881930278974 -5.293955920339377e-023 -0.0002343210626490902 
0.0005947821933388993 -1.588186776101813e-022 -0.0005881064958812956 
-0.001629454441601103 1.852884572118782e-022 0.001627877397665145 
-0.0008158058664802272 -1.852884572118782e-022 0.000809049227154171 
0.0001264560507273352 -1.240770918829542e-023 -0.0001255710257683178 
-0.0003136989547610665 -9.926167350636332e-024 0.0003139723656374676 
0.0005409994014363576 -1.323488980084844e-023 -0.0005421086334114089 
0.0005676400572173546 5.624828165360588e-023 -0.0005673837623238623 
-0.0001177711263207547 1.240770918829542e-023 0.0001169213710998997 
0.0002646198109074557 -1.985233470127266e-023 -0.0002637193203189128 
7.651397237600188e-005 -1.323488980084844e-023 -7.460222472138915e-005 
0.0003744423357993879 -3.226004388956808e-023 -0.0003776248714532614 
-0.0001949234385902598 9.512577044359818e-024 0.0001958856853620085 
-0.0008360677691222715 -3.308722450212111e-024 0.0008363655339370729 
-0.0003377725214966798 2.646977960169689e-023 0.0003383470482596036 
-0.0002698971950793162 -8.271806125530277e-024 0.0002697170122268873 
-0.0001281453631501242 1.323488980084844e-023 0.0001284954272324898 
0.0008056607904405959 6.617444900424221e-023 -0.0007986706771199821 
-0.0007756388044445753 7.940933880509066e-023 0.0007732208726786651 
-0.0008324036135104666 7.940933880509066e-023 0.0008333937947656143 
0.0008764812006943335 -1.588186776101813e-022 -0.000883313017795399 
-0.002268046295220191 1.323488980084844e-022 0.002266402160846362 
0.001033779792308989 0 -0.001042688474104176 
0.0006554676910808289 1.058791184067875e-022 -0.0006486172276345668 
0.000773874187810952 1.588186776101813e-022 -0.000771342539324575 
-0.002285540904751854 3.705769144237564e-022 0.002296944497433709 
-0.0005795058070309547 3.970466940254533e-023 0.000583491164826298 
-0.000950218603840294 5.293955920339377e-023 0.0009548471971677874 
-0.001315097764483444 1.058791184067875e-022 0.001302777834277696 
7.956562553561693e-005 -9.719372197498075e-024 -7.81176847137272e-005 
-0.0001386080478917815 -2.646977960169689e-023 0.0001388103532735117 
0.0004554352377923937 1.985233470127266e-023 -0.0004556826991597346 
0.000527340684733559 1.323488980084844e-023 -0.0005251483469205562 
0.00029480861149451 -1.323488980084844e-023 -0.0002960808766068764 
0.0001401301024563945 0 -0.0001374978347181436 
-2.256202279305805e-005 3.970466940254533e-023 2.401336774559751e-005 
0.000214855755792969 3.970466940254533e-023 -0.0002189251947140157 
-0.0003832588733990738 -1.985233470127266e-023 0.0003840391345468679 
-0.001068532439854645 2.119650319667133e-024 0.001068535874171569 
-0.0002645554239233361 1.654361225106055e-024 0.0002654149232622524 
-0.0001709521603968916 1.323488980084844e-023 0.0001716294662939979 
-0.0001460856140063658 -3.308722450212111e-024 0.0001458545604072794 
0.001084367366194585 6.617444900424221e-023 -0.001081444898623146 
-0.0003768696205768527 -1.323488980084844e-023 0.0003731176795784582 
-0.0003775629807808462 -1.323488980084844e-023 0.0003729562736762082 
0.002096695260760483 2.117582368135751e-022 -0.002101583024041083 
-0.002294423616661824 3.970466940254533e-023 0.002292876917901411 
0.00142638395062396 5.293955920339377e-023 -0.001427972646016696 
0.001472653178276169 1.323488980084844e-023 -0.001471061068523744 
0.0007138497379732227 -2.646977960169689e-023 -0.00072129623585327 
-0.001840019938890486 -1.058791184067875e-022 0.001849084993290891 
-0.002441457194616188 5.293955920339377e-023 0.002448670270432759 
-0.001514374994459848 0 0.001520989942988463 
-0.001600342952569357 5.293955920339377e-023 0.00159348489938866 
-0.0001464412229190669 3.722312756488625e-024 0.0001461983245943645 
4.446342360095324e-005 6.617444900424221e-024 -4.502352430483793e-005 
0.0002105603550796441 0 -0.0002113680928744559 
0.0005192147015184147 0 -0.000516708588576544 
0.0003050289260187853 -3.970466940254533e-023 -0.0003048665803637762 
0.0003142308112970261 1.48892510259545e-023 -0.0003097452569402583 
0.0001827506171225501 6.617444900424221e-024 -0.000181669015806402 
-0.0004064395688516003 0 0.0004039102848527437 
-7.813398926154092e-005 6.948317145445433e-023 7.705371633958185e-005 
-0.0007457553644747406 -4.963083675318166e-024 0.0007450371223573186 
0.0001648810795276184 -9.926167350636332e-024 -0.0001634979205174281 
8.400926141544409e-005 1.654361225106055e-024 -8.118513812584653e-005 
-0.000118601595385467 -9.926167350636332e-024 0.0001180982027342857 
0.001563826247758116 -1.323488980084844e-022 -0.001557779657632825 
4.019587932000824e-005 1.323488980084844e-023 -4.46345735986392e-005 
-0.000754280325393445 0 0.0007570787151086414 
0.001195107012367819 -1.852884572118782e-022 -0.001195371390059405 
-0.002165583203674051 -7.940933880509066e-023 0.002162782509988438 
0.001326515720844021 1.058791184067875e-022 -0.001324292029767118 
0.00154533896455378 0 -0.001541437020763957 
0.0001427426318255179 -2.646977960169689e-023 -0.0001464436001913448 
-0.001754386615793799 0 0.001762057635704894 
-0.003065684009398325 -1.588186776101813e-022 0.003069375230380432 
-0.001818179823987432 0 0.001825014763496242 
-0.001096587716408046 1.323488980084844e-023 0.001095397024391089 
-0.0004166716936777893 -4.549493369041652e-024 0.0004160786463833143 
0.0002793408987570977 9.926167350636332e-024 -0.0002801085220069734 
-4.072091047852113e-005 0 4.091146771545326e-005 
8.489732623230239e-005 3.970466940254533e-023 -8.308375342614626e-005 
0.0003884847455653484 -6.617444900424221e-024 -0.000387395686495948 
0.00033202657024843 -2.646977960169689e-023 -0.0003277922035882276 
0.0003701519689872569 6.617444900424221e-024 -0.0003702488693394201 
-0.0008303126691018898 1.323488980084844e-023 0.0008297673090322782 
0.000833133300758393 1.323488980084844e-023 -0.0008364652308596961 
-0.0003741767418966207 -1.406207041340147e-023 0.0003722394287852169 
0.0004347709164717783 0 -0.0004357224419298712 
0.0003945016014156523 -4.632211430296955e-023 -0.0003900407536843321 
-8.053167270966534e-005 6.617444900424221e-024 7.981959519753071e-005 
0.0002547405852622299 9.26442286059391e-023 -0.0002532668927941993 
-3.383288342871108e-005 -9.512577044359818e-024 2.645635461685629e-005 
-0.0009783205882124249 0 0.0009757677680460574 
0.001871109640713766 -1.323488980084844e-023 -0.001871126872944514 
-0.0014672099968035 1.058791184067875e-022 0.00147003960622687 
0.002377222740677892 -1.19114008207636e-022 -0.002370329592869124 
0.00247238910780927 2.646977960169689e-023 -0.002463954782296426 
-0.002425930924084078 1.19114008207636e-022 0.002422207304462195 
-0.0004153647724833832 -2.646977960169689e-022 0.0004183968561469116 
-0.001890912055305377 -2.646977960169689e-023 0.001894143589858159 
-0.0003710699919967621 1.323488980084844e-023 0.0003753055956142885 
-0.0005050193077170424 -5.293955920339377e-023 0.0005068186269961231 
-0.0008099492230858594 1.023636008034372e-023 0.0008105038352025884 
9.630400387670649e-006 1.075334796318936e-023 -8.34160835836461e-006 
-7.154405659430396e-005 1.985233470127266e-023 7.29645984674095e-005 
-0.0002508419954343626 -3.970466940254533e-023 0.0002524543408663263 
0.0007387757090253264 3.308722450212111e-024 -0.0007369230210467647 
0.0002062864052609415 3.970466940254533e-023 -0.0002042940542448099 
0.0003082666975116221 2.646977960169689e-023 -0.0003091715176201303 
-0.000543156021993282 -1.323488980084844e-023 0.0005447878518880079 
0.0005754295361202678 9.26442286059391e-023 -0.0005786249381832654 
8.758697807705221e-005 1.819797347616661e-023 -8.958372270092127e-005 
0.0006871953863205193 1.720535674110298e-022 -0.0006906109788730429 
0.0003739911782948829 9.926167350636332e-024 -0.0003719367357769688 
-3.53589313713733e-006 0 2.900709019902133e-006 
-0.0008608945188888692 -3.970466940254533e-023 0.0008639447879136253 
0.0004482319693911216 -5.293955920339377e-023 -0.0004515534637502977 
-0.0007397189621763588 0 0.0007441144557674737 
0.001406952145401994 -7.940933880509066e-023 -0.001401357715177763 
-0.0007382897572757189 -2.646977960169689e-023 0.0007390963877457999 
0.00221926694335053 3.970466940254533e-023 -0.002211904540132731 
0.002006245349256466 -9.26442286059391e-023 -0.002003205565749917 
-0.001813365948939609 -2.646977960169689e-023 0.001816055297014226 
0.001173005601433557 -2.713152409173931e-022 -0.001179683190872795 
-0.002723391678659183 -6.617444900424221e-023 0.002717744184529077 
0.0006542006593384169 0 -0.0006550247831002621 
0.0001082549622640502 5.293955920339377e-023 -0.0001013305726175918 
-0.0009389233147523984 -7.444625512977249e-024 0.000938831535801126 
-0.0003023635953944531 -3.308722450212111e-024 0.0003045011959200291 
6.744064073265078e-005 9.926167350636332e-024 -6.788046353139535e-005 
-0.0003763978340490327 -6.617444900424221e-024 0.0003786338466914339 
0.0008358787853802569 1.737079286361358e-023 -0.0008338442826651134 
-0.0002932628766320453 2.646977960169689e-023 0.0002942534324842565 
0.0001782104940422004 2.481541837659083e-023 -0.0001802905857869796 
-0.0002037607930368175 -1.323488980084844e-023 0.000204327963704587 
5.240121030338839e-005 1.323488980084844e-023 -5.330829937253121e-005 
0.0002751644734739623 8.271806125530277e-024 -0.0002754460796250239 
0.0008074761971575522 -2.646977960169689e-023 -0.0008131569836728294 
0.0003388568005795983 -1.19941188820189e-023 -0.0003373449673507637 
4.411941204853696e-005 3.308722450212111e-024 -4.447791501367314e-005 
-0.001750027330683137 -3.970466940254533e-023 0.001754672539695278 
-0.0005347066449785776 0 0.0005385234660009716 
-0.000748694352276722 -6.617444900424221e-024 0.0007556109896276081 
0.000726355539340688 6.617444900424221e-023 -0.0007174205532863102 
0.0006872139300219007 1.323488980084844e-023 -0.0006825104551894056 
0.002012595552718782 -2.646977960169689e-023 -0.002007781590967205 
0.002783361003148023 -3.970466940254533e-023 -0.002785719549072517 
-0.001032233914775973 5.169878828456423e-023 0.00103687031353787 
-0.000418735073879751 -1.058791184067875e-022 0.0004123403608065049 
-0.002171258999472442 -5.293955920339377e-023 0.002170252087634746 
0.0006887362645383597 -1.323488980084844e-023 -0.0006981968641605945 
-0.0003350455463031801 -2.646977960169689e-023 0.000336305323304274 
-0.0005916503022755835 -4.135903062765138e-025 0.0005924181799383194 
-0.0002241358886477969 0 0.0002264142514694221 
6.496587269333918e-005 9.926167350636332e-024 -6.537569858473108e-005 
-0.0003698378636310028 6.617444900424221e-024 0.0003715548291065173 
0.000631908430685191 -6.617444900424221e-024 -0.0006308911336906333 
-0.0004895795119553677 6.617444900424221e-024 0.0004883742062016473 
-8.264541634615569e-005 -5.544695043519514e-024 8.226737172330562e-005 
0.000209018263443916 -3.308722450212111e-023 -0.0002076683200418115 
-0.0005820833530564395 1.323488980084844e-023 0.0005828374371466116 
8.703725383358112e-005 -3.308722450212111e-023 -8.612492793705679e-005 
0.0002373918963273685 1.943874439499615e-023 -0.0002407591078672459 
0.0003755254578991373 -1.323488980084844e-023 -0.0003732009660475109 
2.299963848468606e-006 1.887005772386594e-024 -2.518217119860143e-006 
-0.00197538589790736 -4.632211430296955e-023 0.001977070333044184 
-0.0006593624257107338 1.323488980084844e-023 0.0006620039871225539 
-2.272274484439278e-005 -3.308722450212111e-024 2.535066168689373e-005 
-0.0004135422628566423 1.588186776101813e-022 0.0004278807056680395 
0.001723027825685401 -6.948317145445433e-023 -0.00171771531207478 
0.0008448158649536296 5.128519797828772e-023 -0.0008382643109435082 
0.002055306964929179 -4.303924124689972e-023 -0.002056937426837153 
-0.001540851527574199 6.948317145445433e-023 0.001542126718086285 
-0.002218716160680792 9.26442286059391e-023 0.002219844235946893 
-0.001375571217759322 8.271806125530277e-024 0.001376625223623011 
0.001809807449245553 -4.963083675318166e-023 -0.001828043328092059 
8.617327060832458e-005 -3.308722450212111e-023 -7.928425747577026e-005 
-0.0002313796370221097 -6.617444900424221e-024 0.0002317373281475084 
-0.0001035995266669311 5.37667398159468e-024 0.0001043580166738816 
6.81825044379296e-006 6.617444900424221e-024 -8.661729742340293e-006 
-0.0002246870663845841 2.067951531382569e-024 0.000225490370157234 
0.000204959043351213 1.819797347616661e-023 -0.0002047879313677425 
-0.0004053314374888775 9.926167350636332e-024 0.0004046983915812878 
-0.0001938773692238681 6.203854594147708e-024 0.0001965747275232761 
0.0001479539036090733 -5.37667398159468e-024 -0.0001473787951034267 
-0.0008212968937656905 -4.963083675318166e-024 0.000823571297169376 
0.0001520305678568025 -4.218621124020441e-023 -0.0001499098451146174 
-0.0002174822538761012 -4.963083675318166e-024 0.0002175429182570731 
0.0003433323854425392 -8.943890373229612e-024 -0.000341835381347056 
-2.528418288480031e-005 -1.654361225106055e-024 2.545489026540256e-005 
-0.00178515967458139 3.970466940254533e-023 0.001788312645648912 
0.0002589755842545078 2.150669592637872e-023 -0.0002578861798358949 
-0.0004179710808854023 -1.323488980084844e-023 0.0004165107740910092 
0.0003966762615168442 -2.051407919131509e-022 -0.0003887613945156193 
0.001682673798670109 5.293955920339377e-023 -0.001679632478450289 
0.001751941291459791 -5.293955920339377e-023 -0.001753384389047337 
0.001714822713632608 1.058791184067875e-022 -0.001710011163756815 
-0.001381485544816472 3.970466940254533e-023 0.001390562693476082 
-0.002239083916343007 -5.293955920339377e-023 0.002238741845081547 
-0.001735300607348741 0 0.001736967784845453 
0.0003548480659789471 -6.617444900424221e-024 -0.0003595360307298277 
0.0004990324646352493 -8.933550615572699e-023 -0.0004868404884418438 
8.365655051225961e-006 3.308722450212111e-024 -8.228533471402593e-006 
-2.686603798698306e-005 0 2.713589567461528e-005 
-1.500059179477259e-005 3.308722450212111e-024 1.313939639436414e-005 
-0.000100484348484889 1.571643163850753e-023 0.000100348102013955 
-8.648096350725006e-005 -4.963083675318166e-024 8.524832079763765e-005 
-0.0001376436197139065 -9.098986738083304e-024 0.0001377533701414028 
6.296001400739344e-005 -3.308722450212111e-024 -6.121203117406363e-005 
0.0003444616271934823 3.308722450212111e-024 -0.000346109990475757 
-0.0001196412329332614 0 0.0001218357965887381 
-0.0001162639572586821 -3.308722450212111e-024 0.0001165673478689976 
-0.0004165712984594045 -6.617444900424221e-024 0.0004188384858256924 
0.0004690101609027183 -4.963083675318166e-024 -0.0004677781377376572 
-9.404980740907982e-005 2.481541837659083e-024 9.426411321076458e-005 
-0.001817321852163665 2.646977960169689e-023 0.001820179611610674 
0.0002025594017589349 1.158052857574239e-023 -0.0002019879410297764 
0.0004718516212537264 -5.293955920339377e-023 -0.0004722902865072544 
-0.0002163919688366848 9.926167350636332e-023 0.0002239003509056424 
0.001123861285638676 0 -0.001125523296673556 
0.001335053546557169 -2.646977960169689e-023 -0.001329357929759109 
0.001260647684486191 7.940933880509066e-023 -0.0012584989786405 
-0.0005158064068622667 5.293955920339377e-023 0.0005214583335030211 
-0.00160282015298675 5.293955920339377e-023 0.00160350021948474 
-0.001579770142699227 1.985233470127266e-023 0.001581158550411413 
-0.0001278441205702896 -1.323488980084844e-023 0.0001285589584328224 
0.0008917025950261411 -5.955700410381799e-023 -0.0008857405252987218 
5.641943890719324e-005 -4.135903062765138e-024 -5.554716901140904e-005 
-2.841482364176415e-005 4.135903062765138e-024 2.914229343548315e-005 
-7.289361715337031e-005 6.617444900424221e-024 7.273197895404572e-005 
0.0002347404354598492 -2.067951531382569e-023 -0.0002361625802145764 
-0.000220475166500832 0 0.0002188789482615376 
1.147793578972503e-006 3.639594695233322e-023 -1.163136187712269e-006 
0.0003180443138998548 -6.617444900424221e-024 -0.0003190540518865578 
0.0003755286308149554 0 -0.0003785604100167444 
0.0001217132429703213 0 -0.0001195457605780316 
-0.000212895945990906 -9.926167350636332e-024 0.0002123479553442271 
-0.0005607497358914918 3.308722450212111e-024 0.0005640417592971787 
9.290431840747644e-005 0 -9.414381708857568e-005 
-0.0001699489959516656 -2.067951531382569e-024 0.0001701304773643707 
-0.001889179620573704 0 0.001890773512923663 
-0.0008944158245545893 -3.308722450212111e-024 0.0009000774402388056 
0.0002278883491119393 -9.926167350636332e-024 -0.0002283387640481839 
-0.0006580054665138499 1.058791184067875e-022 0.0006646450195634143 
0.0009751450110076605 -2.646977960169689e-023 -0.0009776172860974238 
0.001586648187028275 0 -0.001581961535264355 
0.002768115897132626 4.632211430296955e-023 -0.002775755763626505 
0.001085115380913387 -1.985233470127266e-023 -0.001088628339457084 
-0.0006014349528229328 7.940933880509066e-023 0.0006033130719789213 
-0.003260288153690219 1.323488980084844e-023 0.003263083441925548 
6.017292510724849e-005 0 -6.29380017777692e-005 
0.00135487520282955 -8.933550615572699e-023 -0.001349094189789498 
0.0003378961549181873 -2.481541837659083e-024 -0.0003377575217604056 
-9.730201326463979e-006 1.654361225106055e-024 1.09135089603397e-005 
0.0001207901639382503 6.617444900424221e-024 -0.0001202332547213205 
0.0004097832194753646 -1.613002194478404e-023 -0.000411282730799364 
-0.0003669931524458587 1.158052857574239e-023 0.0003667138130685001 
-0.0003683974162038812 3.805030817743927e-023 0.0003685143555602174 
-3.379124003794435e-005 0 3.304230345890789e-005 
7.438498641738428e-005 8.271806125530277e-025 -7.794080782346054e-005 
6.664624116642583e-006 6.617444900424221e-024 -4.420401419320813e-006 
4.414818564802314e-005 -1.323488980084844e-023 -4.502245110046047e-005 
-0.0003967445625649651 1.571643163850753e-023 0.0003974227852909203 
-0.0001534849064338779 -3.308722450212111e-024 0.0001522451247524836 
-0.0002372232160277489 4.135903062765138e-025 0.0002376289259501282 
-0.001401684903820615 7.940933880509066e-023 0.001406741634249811 
-0.0002372976270754591 -9.926167350636332e-024 0.0002432375246107727 
-8.748990524242618e-006 3.970466940254533e-023 8.548117163773263e-006 
0.0008215303558896588 -5.293955920339377e-023 -0.0008190170895140705 
0.0005594637823539523 -5.293955920339377e-023 -0.0005627317801444091 
0.0007410052252107732 -1.323488980084844e-023 -0.0007372833792541921 
0.002984046761596898 1.985233470127266e-023 -0.002993045658128276 
-1.043515137185168e-005 1.323488980084844e-023 3.993222429334051e-006 
-0.0008843528773938278 1.389663429089087e-022 0.0008912531713847241 
-0.002383274650897521 0 0.002383823199100401 
-0.000420545135965461 1.985233470127266e-023 0.0004223861733637123 
0.0008541186448791068 4.632211430296955e-023 -0.0008485794132698525 
0.0004221033943749551 -4.963083675318166e-024 -0.0004225705655670493 
2.109718482992679e-005 -5.790264287871194e-024 -1.937107578550604e-005 
0.0002343636893177919 1.323488980084844e-023 -0.0002336090560178141 
0.0008767389846442597 9.926167350636332e-024 -0.0008786140923716901 
-3.504243801076166e-005 6.617444900424221e-024 3.523332505538718e-005 
-0.0003136342612286819 3.308722450212111e-024 0.0003126493023692752 
-0.0003953773928273202 0 0.0003955393567098887 
-9.394878193884634e-005 -9.926167350636332e-024 9.323134376050533e-005 
-0.0004472700552138986 -4.466775307786349e-023 0.0004476802757881103 
3.504453449854903e-005 -1.654361225106055e-023 -3.575716362375986e-005 
-0.0002483536570107652 -1.654361225106055e-024 0.0002486336123749816 
-0.0002955484127851586 0 0.0002953449251511662 
-0.000273174132955008 8.271806125530277e-025 0.0002734814418654391 
0.0003003843196486513 3.970466940254533e-023 -0.0002970893482484524 
0.0001833570668942242 -3.308722450212111e-024 -0.0001792197004204116 
0.0006063710745816786 -4.632211430296955e-023 -0.0006060518948517765 
0.0009655984962628697 0 -0.0009689841608601552 
-5.451457235809123e-005 2.646977960169689e-023 5.517711946513669e-005 
-0.0004441951499357145 -2.646977960169689e-023 0.0004436669643029856 
0.0004397028246735887 5.293955920339377e-023 -0.0004410107839220484 
-0.00200578384803835 -3.308722450212111e-023 0.001996238356822993 
-0.0002260854479444299 -1.323488980084844e-023 0.0002334040625765844 
-0.001465634746411687 1.985233470127266e-023 0.001468016197146742 
-0.00052055542395498 0 0.0005241133850158471 
-0.0003015884004990689 9.26442286059391e-023 0.0003084639925534545 
0.0003580625018017716 3.308722450212111e-023 -0.0003583532688207013 
0.0001474995451074586 1.406207041340147e-023 -0.0001469719417636411 
0.0003738546929211434 -9.926167350636332e-024 -0.000373061679944038 
0.001019005909773773 -6.617444900424221e-024 -0.001020018387161287 
0.000268847716075345 3.308722450212111e-024 -0.0002691447526501483 
-0.0001107055261879404 -3.308722450212111e-024 0.0001091849744878626 
-0.0007401445830611165 3.308722450212111e-023 0.0007425660441740786 
-0.0002879140821193243 -1.323488980084844e-023 0.0002908148830539791 
-0.0007418835152791184 0 0.0007412203620725794 
0.0002275446082518409 1.323488980084844e-023 -0.0002296797800027286 
0.0001381174060372456 -3.308722450212111e-024 -0.0001380805573417667 
-0.0003562282927230874 6.617444900424221e-024 0.0003557724317473963 
-0.0002597838523507576 -3.308722450212111e-024 0.0002598810264363933 
9.002331769359169e-005 3.970466940254533e-023 -8.936575254904833e-005 
-0.000348326507611359 -3.143286327701505e-023 0.0003542432942634569 
0.0004195734064231364 6.617444900424221e-023 -0.0004181885868284749 
0.002063705097529565 -8.602678370551488e-023 -0.002068561831898249 
0.001368101722585938 0 -0.001369980243759077 
0.0001365467576412139 0 -0.000138443509730646 
0.000705836417513885 -7.940933880509066e-023 -0.0007110316412230142 
-0.001137191003600852 -3.970466940254533e-023 0.001132697295073585 
-0.00116433192598326 -1.323488980084844e-023 0.001166834039848387 
-0.002283582289888301 -3.970466940254533e-023 0.002288963377793769 
4.540816346139218e-005 6.617444900424221e-024 -4.186644493215062e-005 
-7.97723763971205e-005 1.323488980084844e-023 8.315682070920764e-005 
0.0002092965638007415 -2.646977960169689e-023 -0.0002095724656515479 
0.000174890378391846 0 -0.0001742763817466374 
0.0003566027136451199 0 -0.0003563546295815302 
0.000869814604133628 -3.308722450212111e-024 -0.0008713266402391195 
0.000613164489064344 0 -0.0006147308483714064 
1.6084341557707e-005 0 -1.593808462218174e-005 
-0.000533144993707994 1.323488980084844e-023 0.0005359418870526829 
0.0001283183594701245 -1.654361225106055e-023 -0.000126423960825783 
-0.0008737285195933747 -2.316105715148478e-023 0.0008732636246026086 
0.0003705167408101699 -2.646977960169689e-023 -0.0003724962605301901 
0.0002861196786932717 1.323488980084844e-023 -0.0002867608153140202 
-0.0001432100472145402 -9.926167350636332e-024 0.0001424887775133969 
-0.0002191944778266124 -6.617444900424221e-024 0.0002193936362033966 
-0.0001338553525528754 0 0.0001369403264569518 
5.19517092583003e-005 2.150669592637872e-023 -4.903312486726294e-005 
0.0008847692108871795 5.293955920339377e-023 -0.0008828564389450738 
0.002820255339473508 -2.316105715148478e-023 -0.002823690758405606 
0.002269010698442945 0 -0.002272800134723232 
0.0009720416698817449 2.646977960169689e-023 -0.0009779004775869492 
0.0001611367070120814 -5.293955920339377e-023 -0.0001632737966188856 
-0.00141254675221343 -1.323488980084844e-023 0.001412039279120828 
-0.002104313640878273 0 0.002107880909212911 
-0.001666851613113841 3.970466940254533e-023 0.001664713865239763 
0.001080010431447007 -1.323488980084844e-023 -0.001079784305671311 
-0.0003113002872777115 7.940933880509066e-023 0.0003139825142954952 
-0.0001101280480544858 0 0.00011013235726075 
-0.0001003385974839948 -4.135903062765138e-024 0.0001004504325865945 
0.0001330875859740066 -6.617444900424221e-024 -0.0001329307609150816 
0.0007033879186240412 2.233387653893175e-023 -0.0007045536325500769 
0.000606515599655787 0 -0.000608585448547296 
0.0003041962347297583 -6.617444900424221e-024 -0.0003037868729875318 
-0.0001332420781540899 0 0.0001349060478873109 
0.0005177674468962348 -1.985233470127266e-023 -0.0005176835845162923 
-0.0006494564144591611 2.316105715148478e-023 0.0006503730392407399 
0.0006726382920515933 -1.323488980084844e-023 -0.0006757111494945459 
0.0001870359739565644 1.323488980084844e-023 -0.0001865020815962469 
-9.138313328942044e-005 -3.722312756488625e-023 9.147451901580412e-005 
-0.0001153676091429919 0 0.0001156248106089458 
-0.0001786135981225515 5.293955920339377e-023 0.0001818236933980326 
0.0005340132900091669 0 -0.0005290537036733914 
0.000802412890018584 0 -0.000796862606267343 
0.003160468438684274 5.624828165360588e-023 -0.003164268532906335 
0.00281497793889852 5.293955920339377e-023 -0.002819403920330545 
0.0001719397132414173 1.323488980084844e-023 -0.0001698810966771221 
0.0007847662739144737 -5.293955920339377e-023 -0.0007850198389712086 
-4.652949824382612e-005 -1.654361225106055e-023 4.243389797217635e-005 
-0.002849299034907213 7.031035206700735e-024 0.002853635113512441 
-0.000652777903032005 -2.646977960169689e-023 0.000652960610572964 
0.0004420527135533654 0 -0.0004414112537046827 
-4.657593098700364e-005 1.323488980084844e-023 4.813894335780645e-005 
-0.0001153539012965821 -1.985233470127266e-023 0.0001154341210251503 
-0.0002120833805150979 6.617444900424221e-024 0.0002115159849235211 
0.0001647997985422421 0 -0.0001656750225758136 
0.0006505225064708635 1.985233470127266e-023 -0.0006513776875385636 
0.0001219481012823034 0 -0.0001230634453319698 
1.264815896106864e-006 -6.617444900424221e-024 7.611816178297944e-007 
-0.0001458648698946418 9.926167350636332e-024 0.0001485952599668662 
0.0001927937403183025 -2.646977960169689e-023 -0.0001942053883748254 
-0.0003209735532535748 1.654361225106055e-023 0.0003214789881632785 
0.0007762598531733726 -1.323488980084844e-023 -0.000778634983267163 
-7.819635569062381e-005 3.308722450212111e-024 7.85791898342392e-005 
0.0002007670492826806 6.617444900424221e-024 -0.000201646427963767 
-2.978896420337136e-005 6.617444900424221e-024 3.02637932640504e-005 
-0.0001304291446409181 1.19114008207636e-022 0.0001290660837227338 
-0.0009575141326618626 -1.323488980084844e-023 0.0009622389910392041 
-0.0001100194415826879 1.058791184067875e-022 0.0001159995756629841 
0.002906337339063728 -6.617444900424221e-023 -0.002910556776885915 
0.00262231890579291 1.985233470127266e-023 -0.002628178070606093 
0.001198165358494248 2.646977960169689e-023 -0.001198160317778768 
0.0006612148255080209 -1.058791184067875e-022 -0.0006643962253879462 
0.0003172063554426145 0 -0.0003226357432194289 
-0.001828241264188927 2.646977960169689e-023 0.001830979349764366 
0.0009431033542417238 2.646977960169689e-023 -0.0009476685172374912 
0.0002964555303209443 0 -0.0002898259236369694 
-0.0001908302730843083 9.26442286059391e-023 0.0001959939748854996 
-9.742643069229702e-005 -3.929107909626882e-024 9.720305689753055e-005 
-0.0003304554936103262 1.323488980084844e-023 0.0003296249675634355 
0.0002114404754339413 0 -0.0002135182867687641 
0.0004326499876847639 0 -0.0004337048562651546 
-0.0003254548157608266 0 0.0003248451720284667 
-0.0002392347640938386 2.274746684520826e-024 0.0002419211344386457 
9.724558583463521e-005 0 -9.570498974368967e-005 
-1.175144695832365e-005 -1.323488980084844e-023 1.163107835285928e-005 
-0.0003385794214096101 6.617444900424221e-024 0.0003382324655364966 
0.0003374707507292645 4.135903062765138e-024 -0.0003399610991829179 
-0.000311082104277107 -1.654361225106055e-023 0.0003119589185163941 
0.0002226448097727494 6.617444900424221e-024 -0.0002227098882035687 
4.042615181862235e-005 -1.654361225106055e-024 -4.003274390088031e-005 
-0.0003597784640508709 -3.970466940254533e-023 0.0003603847504575387 
-0.001349679270368022 1.323488980084844e-023 0.001352808200470565 
0.0003470640442260798 -7.940933880509066e-023 -0.0003471480034336744 
0.003790262693258426 6.617444900424221e-024 -0.003791075319981734 
0.002129099227624848 -5.293955920339377e-023 -0.002135139497801637 
0.0004957743630238685 4.135903062765138e-023 -0.0004906946078716475 
0.0009898773107600547 1.058791184067875e-022 -0.0009882094704003245 
-0.0009127943819583535 -1.058791184067875e-022 0.0009086296693508811 
-0.002596393553686848 0 0.002598293187411089 
0.0004759966142977234 0 -0.0004796783342793639 
