solver_type L2R_L2LOSS_SVC_DUAL
nr_class 2
label 2 1
nr_feature 6431
bias -1
w
-1.842326720137859e-005 
-0.001613185870936278 
0.0009919098835216667 
0.0003326302787318071 
-0.001405426710596576 
5.315698883149361e-005 
-0.0001405426710596489 
-0.002661576657679192 
-0.002847606688760208 
0.007258212566436956 
0.0003637154104873202 
-0.003990303517333959 
-0.006747876695211711 
-0.00498992353507396 
0.00323118797443117 
-7.957130270844331e-005 
-0.001142574719003796 
0.002931496364351304 
-0.0008333030206202595 
0.0004300487260117275 
-0.0003814283852684174 
-0.001223742198853881 
-0.0005561570836810889 
0.001410758097177814 
0.0009992582668278717 
0.0009467922074248703 
-0.001164844937933705 
0.001052617391748864 
-0.0004003245431755923 
-0.001156298212519273 
0.0003350470482604119 
5.408470732570016e-005 
-0.0006485378991462369 
-0.004099706451794714 
0.003273671998246508 
-0.002238244699990777 
-0.002354734221958223 
-0.004440184933691459 
-0.001793878557469207 
0.003434332224445609 
0.004336129287743139 
-0.0008822628362757689 
0.0009756016828007367 
0.002084453684196914 
0.0006170728254573653 
-0.0003476669157775296 
-0.002081385401685291 
-0.0006672127591554178 
0.001905448514008072 
0.001224222851364565 
0.00101420004207639 
-0.001067729272009011 
0.001550054467859337 
0.0005032982356093744 
-0.0004770254310528741 
-9.950780678658872e-005 
9.068028266500254e-005 
-0.001517867051374758 
-0.004128689748918808 
0.003131750700734156 
-0.001116066573028634 
0.002245700966115293 
-0.002905406760897379 
-0.001853980416548488 
-0.002694619271668689 
0.002975690454449142 
-0.003274359772901939 
-0.001872040347209218 
-0.0006169140929379432 
0.0005591559916881782 
0.0002517202333368125 
-0.002128328517046151 
-0.0005017253252571328 
0.002349000945653786 
0.001421437960510688 
0.0002436323972788369 
-0.0007191941550018026 
2.255974913289679e-005 
0.001140102130754957 
0.0004872071595070753 
-0.000424297314462058 
1.065928101192212e-006 
-0.0001480713204286108 
-0.003945392614859562 
-0.001085510550675192 
-0.002232448555370272 
0.002418945579789434 
-0.00254799034563727 
-0.001486888454846943 
0.0008554303105754252 
0.006143084539877306 
0.002439800995335935 
0.002948146256863753 
-0.001439007985923595 
0.0002012899393421309 
0.0007098586642892224 
-0.0009826742290200375 
0.0006953187875027526 
0.001801403081211872 
0.001115441290306338 
-0.0006190750217520482 
-0.00182081945233246 
-0.001482612806168578 
0.0006254912673984563 
0.0009597658620178669 
-0.0006409286644465715 
-0.0002565788267626075 
-0.0001160397721127337 
-0.001666164913965091 
-0.001203836292024848 
-0.002147785207779904 
0.005367862226642465 
-0.0005867746624039856 
-0.003925266762209081 
0.0009246541347583505 
-0.0008702538918986647 
0.002896903627182238 
0.004381269217031247 
-0.001193048073974609 
0.0005196660764826001 
0.0005103920711292129 
-0.0009805550443722113 
0.0005092357906870266 
-0.0001171406919366634 
-5.129566885029846e-006 
-0.0006913590908832507 
-0.001588887893802633 
-0.0006532138868376224 
0.0002570446733623739 
0.000422298511820338 
0.0005894761226658623 
-0.000303328077400942 
-0.0003429981622113689 
-0.00178168471053383 
0.000528092796399728 
0.001754224510949544 
0.00509118582129512 
-2.229114171212342e-005 
-0.003853617648476872 
-0.007479439109972486 
-0.001153976914085318 
-0.000840446674060328 
0.002647785319235976 
-0.000832127588810335 
0.0005609479171330782 
-1.159690355423926e-005 
-0.0006221776011379325 
-3.826529713264633e-005 
-0.0008120400688209022 
-0.0002054167630693989 
-0.0007676197522867443 
-0.001639327859718474 
3.274011139690665e-005 
-0.0007161158572380439 
-0.000115172073109747 
0.0009270229757423576 
-0.0002433265305978579 
0.001177938497429125 
-0.002658598552198119 
-0.002577791894688318 
-0.0005632007123401348 
0.0003238493461124898 
-0.004193908633225858 
-0.004127422681265402 
-0.006471623836008167 
0.003358135942872097 
-0.0003490038741060615 
0.0003896355543931126 
0.002027025069772061 
0.0002978009840019776 
-0.0003365912251340441 
-0.0008436742989336252 
-0.0001034851672362342 
-0.0007665378774384517 
-0.0008892793024451225 
0.0004127105548413999 
0.000270854078909669 
0.00135649196524228 
-0.000426225746881773 
-0.0002449126778592825 
0.0003384133992347409 
-6.468454681687911e-005 
0.002009676610608312 
-0.003507155103727617 
-0.003509392754822737 
-0.003216070481948669 
0.0008807529912972122 
-0.00177152934842969 
-0.005223922432693283 
-0.003643059240433732 
0.004192602788364743 
0.0004821613774746563 
0.004368085431000917 
0.001586069310998434 
-0.0003346369323104385 
0.0002235107839306937 
-0.0008794516986291225 
0.0001594889079827874 
0.0003025719938955696 
-0.000585038295988459 
0.001398646967128622 
0.002593204658863515 
0.0008570733417110961 
-6.653403502522519e-005 
-0.0001537497187370125 
-0.0007556371141672507 
6.282106454208151e-005 
0.0001966262841129999 
-0.002486399920717786 
-0.0034034540377678 
-0.0001800779941018492 
0.003640390934548492 
-0.004158563202997352 
-0.00117657001585173 
0.000360733799255693 
0.003238924475478847 
0.0001044799675016454 
0.002296548681108738 
-0.000710072735544796 
-0.0007555632879438507 
0.0009266703162636952 
-0.0001849423465499428 
0.0004538997869919556 
0.001202992900260497 
0.000520559505389634 
0.002097542518146575 
0.001921777265369384 
0.000440494999049699 
0.001065721778874692 
4.71745656126659e-005 
-0.001215907128300721 
-0.0001111795570271929 
-0.001525523673268824 
-0.0007502259230040947 
-0.003456341484344277 
0.002360124900533741 
0.004945788346544401 
-0.002965166566965202 
0.001664194676528601 
0.002070422930389889 
0.003191001768693664 
-0.001399856144389435 
0.0009255996822422632 
-0.00324175608070057 
-0.0005664714258386822 
0.00138358051612588 
0.000166222312328291 
0.0002299929377992769 
0.0005589163476178483 
0.0005003574091476653 
0.002868167417578334 
0.0007392012932016489 
6.674729949422257e-005 
0.001614020033566092 
-0.0006175474757719463 
-0.0005845113640702376 
-9.776104957141642e-005 
-0.0008322723339176941 
0.0005962861337640216 
-0.003529049864153843 
-0.001081805791592778 
0.004306324635191552 
-0.000994284582193711 
0.002916240437746355 
0.0002805200388640154 
0.006061407183482845 
0.005920625519418978 
0.002346761812327997 
-0.001638613783556959 
7.729202075536566e-006 
0.001224563201144875 
0.0001393540841484136 
-0.000891300329887825 
-0.001014964092566075 
0.0004581788074094554 
0.001646027232339244 
0.0002245830074441743 
0.0003117816504620155 
0.0009921469552648041 
-0.0003035766941113294 
-0.0001140174483768311 
2.841072928734929e-005 
-0.0003082204723722062 
0.001869412059004047 
-0.002615498797628828 
-0.001615228816296007 
0.0033423782850403 
-0.0008518772962164348 
0.00707053438330028 
9.305319518365464e-005 
0.003115082599861758 
0.005644213105728655 
0.00125527165551904 
-0.0008722158323995641 
9.926760224185798e-005 
0.001165491003229927 
0.0005226886037303802 
-0.0008482577378032179 
-0.001764537678698001 
-0.0001851196497017687 
-3.394361010642734e-005 
3.485362609571883e-005 
-0.0001876613763292013 
0.001250637684923063 
0.0006043142543957125 
0.0006402266128544024 
0.0001838650916992567 
-0.0003733752819194202 
0.002326597123564012 
-0.003127090070704431 
-0.002648920771974261 
-0.0006327442567837373 
-0.002924310301669742 
0.004350403898675239 
0.002472323913955514 
0.004835792668010785 
0.001543164613120252 
0.0006138325407381843 
-0.002464926513551422 
-0.0003486122121726427 
0.0005890627872068469 
0.0009217334663738235 
-0.0001797407951724155 
-0.001417622008743949 
-0.0001084184081862097 
-0.0007530783557860528 
-0.0004188709279292278 
-0.0008581051134718684 
-0.0001466403696024752 
0.0004389828670884532 
0.001400515294102895 
0.0003038769804454111 
-0.001258628443942671 
0.004212072749199939 
-0.001043869628835076 
-0.001097631958947673 
-0.001407363506364122 
-0.00292576252688904 
0.0007773985041773553 
0.001148812820814158 
0.002865514287374437 
0.007042053089536358 
0.004813617284947377 
0.0003725273466496106 
-0.0004571079882870176 
-0.0001835243476488666 
0.001201225113966699 
0.00068417341845418 
-0.001227080842937379 
-0.0001295453790759622 
-0.001924413609361681 
-0.0006823180489192249 
-0.001085775068440018 
-0.0004200489645941435 
0.0004074129547571562 
0.002145840540991385 
0.0002855135520718654 
-0.0021001330593053 
0.002370261625564786 
0.0002938026381756874 
-0.002239323805676137 
-0.0004069110627718619 
-0.0004994136610385067 
0.002297423250215481 
-0.002341722277624415 
0.001895689634634358 
0.004488499033496276 
0.002762490492763126 
0.004741592489484556 
8.501805579561832e-005 
-0.0009159939939130867 
0.0006385673480525632 
0.0006638545581088764 
-0.0005785255351200289 
2.776737799750258e-005 
-0.001560978165576523 
-0.0005932959695684515 
-0.0008128370458145456 
-0.0002726951114831956 
-0.0001558886619199273 
0.002012449601757184 
0.0002697387536761021 
-0.001730384456383475 
0.0009299575127222785 
0.001680183880023864 
0.001600838821320968 
-0.002905922494461379 
-0.002712049640730684 
-0.001525052276153573 
-0.0009115197083676107 
-0.0008437375450202532 
0.002071297159804968 
0.002217989435062094 
0.006253747078344293 
0.0007190377444049226 
-0.001161649134219228 
-0.0001105023033651165 
-8.225315203212453e-005 
-0.0009204289293797797 
0.001012671808117902 
-0.0004077678309054072 
4.581844016856424e-005 
0.0004630895515203075 
-0.0005115639141659709 
-0.0008039326516639804 
-0.0001544340657279438 
0.0001837675825801959 
0.0002875836999193116 
-0.0006123258815791968 
-0.001296256417555277 
-0.0006788943649820111 
-0.00277609551309409 
-0.002892320487137387 
-0.002303267178394834 
0.0005360017057608814 
0.002626218644896491 
0.00266506749107903 
0.001132208824050024 
0.004656712606866965 
0.0008772521339626833 
-0.001000525683194361 
0.0001330816765727778 
-0.0002453522950479986 
-0.0008920515986118012 
0.0004044367247060298 
-0.0008169741528879144 
0.0003306456025055904 
0.0009857225722671684 
0.0003298070021262682 
-0.0001501138770500142 
-0.001899501767223727 
0.0001296900432570699 
0.001142699771976685 
-0.0001048853040584406 
-0.0008013582212746619 
-0.00228910774778795 
-0.004824925166610759 
0.003334043480937659 
0.001038901707588807 
-6.098635820487058e-005 
0.004815694008298142 
0.005395950155626657 
0.001609114015861425 
-0.0003572000152977678 
0.0004700016440715253 
-0.000495654903590596 
-0.0003294618305216876 
-0.001254779143257267 
-0.0001644386614817623 
0.0009487468961086918 
6.182641915271762e-005 
0.0008251588547748262 
0.0008595064134444901 
0.0005712407782479871 
0.0003987276560611891 
-0.002016279840093875 
9.90118564255744e-005 
0.0008495813242355263 
-0.002114935593849248 
0.002199972342980533 
-0.001521114180254136 
-0.003907688588617419 
-0.001500291479966502 
-0.003069415614711746 
-0.001113768314127861 
0.003994573223898991 
0.004475197606394431 
0.002316362483313705 
-0.001450451994812602 
-0.0001618165061701185 
-5.889515557595842e-005 
-0.0001458017798706178 
-0.0009003471810176701 
0.0004975753464805886 
0.001179651602868625 
8.997133577677959e-005 
0.0003624393389396152 
-2.406930310722714e-005 
0.0005447898682704726 
0.0003662242497994551 
-0.001129764247816735 
0.0001037345778264957 
0.0003386384997206411 
-0.0007969875394162702 
-0.001715244139318343 
-0.004251899529452418 
-0.003162324589115915 
0.001335670410875648 
-0.000832839430101044 
0.004039152840151104 
0.002769599435286113 
0.004022451166135304 
0.003619525707905719 
-0.0007740926716274083 
-6.245439304643705e-005 
0.0001734420265325776 
-0.0003151758342375187 
-0.0001550081233744551 
0.001029173809105575 
0.0001296178598641079 
-0.0009731393895354327 
-0.0004508349645213301 
9.487888729621707e-006 
-6.718428476426696e-005 
0.0002277450251921489 
-7.297436818709012e-005 
-1.281080244188534e-005 
-0.0001194647532454012 
-0.000560732816478895 
-0.001568323045683165 
-0.004199228380508519 
-0.001119515789848724 
0.00400512164993116 
-0.0009175296926711864 
0.0002981335676699145 
0.00352892607017123 
0.006075771795763008 
0.001958105088840158 
-0.0007836667389210341 
0.00040406852276005 
0.0002391293243428656 
-0.0008531755383385638 
-2.998161163591125e-005 
0.001151203296256871 
0.0006582273178314085 
0.0005059750139857194 
-0.0004957229400969833 
-5.525325744684522e-005 
-0.0005657566700096445 
-0.0004015423531817042 
0.0002938638458457304 
-0.0002399337652861565 
0.001314945967863637 
-1.477607711322421e-005 
-0.0004930798304078249 
-0.001725098056546443 
-0.001073149072457534 
0.001229417491047002 
-0.004902762541093998 
-0.003021101755360797 
0.005095948552783986 
0.004259756546377311 
0.002926959774988908 
-0.001055480786289142 
0.0004807925501099122 
0.001003471929476964 
0.0005171569382665379 
0.0001466780991627977 
0.001007516643379975 
0.0004657239906333365 
0.001139371773788744 
-0.00101240558966329 
0.0003668713504950665 
-0.001066951138941948 
-0.001310581230121474 
0.0004014338479035699 
-0.0004478159359530854 
0.002381766452355065 
-0.001310391040135796 
-0.002676987707588 
-0.002934449318279062 
0.0008037323134947943 
0.001843955563347348 
0.001495440963284641 
-6.224626551402681e-005 
0.002555141835298251 
0.001527761694489392 
0.0006549456005785021 
0.000159556167215525 
0.0003325443126044746 
0.0009686828844721603 
0.000388419497088942 
0.0002434076463506713 
0.0006290684847044501 
-7.675835615528778e-005 
0.001203865231342971 
9.958086955682481e-005 
9.080659587748405e-005 
-0.001751377598458624 
-0.001679661343744138 
8.388556083247736e-005 
-0.0006553514646714634 
0.001491982743657914 
0.004595201754861371 
0.00142487104513563 
-0.004150921287867946 
0.0009136238199519657 
0.004744858537511525 
0.00365753718960029 
-0.0008426768698263766 
0.00509085514931354 
0.0009616966794495578 
-0.002281785464791129 
0.0007614667096964422 
2.967017860585444e-005 
0.0009839201176790439 
-0.0003500913513874906 
-4.508238449242959e-005 
0.0003127904653417153 
0.00052467915904094 
0.0004337655366801715 
0.000191414877319174 
-0.0007297619387755826 
-0.0005071344029692216 
-0.002257154565105331 
-0.0001909224244129597 
-0.000735643338025476 
0.001454742839926255 
0.001977690032348195 
-0.0005851981778518102 
-0.001769249858978899 
0.001032435440063041 
0.001863609045400511 
0.0008216324857505921 
-0.0002931759936643974 
0.003985505742814773 
-0.001032079963667215 
-0.00383581401933398 
-0.001272715252614637 
-0.0002104659324444158 
0.0001418073022916702 
-0.0003717609209305447 
0.0004868778853804204 
-0.0006193331795057437 
1.081489213283994e-005 
-0.001078128921985892 
-0.0006051699510392531 
-0.0009115711740582078 
4.443266723721174e-005 
-0.001029761708907423 
-0.001307594126349475 
-0.0004772140596126252 
0.001926805989327499 
0.003260776254021653 
-0.003289435068977977 
-0.002533089297084396 
0.000376467295603773 
0.003843020419147036 
-0.002397027710348008 
-0.001948574017889408 
0.000731962175982492 
0.003004002094606777 
-0.00611342232111776 
-0.001293940535442006 
-0.000272431989626785 
-0.001294723779934764 
-0.0007410631991322108 
0.0003260209797652961 
-0.001271927821314973 
-0.0005250579274901449 
-0.000820817182428432 
-5.237227264196663e-005 
-0.0001457547283147989 
0.0005767631150830761 
-0.0005853294370107955 
-0.001310812222786692 
2.038318045440065e-005 
0.001112023518424179 
6.586176066060746e-005 
-0.00217866231732724 
-0.001308961847969204 
-0.002024343316385475 
0.002348952737150548 
-0.00086792711939658 
-0.002535143915315908 
0.0001767337561735528 
0.0007287666472924079 
-0.002578055431759706 
-0.00535069584624521 
-0.0002927011693573514 
-0.0008910581310891077 
0.0003424515842523759 
-0.0001513832646966318 
-0.0009526768632970075 
0.0006507862068385224 
0.0005131111538677167 
0.0009277190883560244 
0.0002085667151581875 
0.000171640967748136 
0.0005649588761305449 
0.0001914996293722261 
0.0005112422881624266 
0.0003011800518692169 
-0.0009224985882393057 
-0.001483713272507325 
-0.002750954982873817 
-0.003917615848737019 
0.001876904587995385 
0.000398246766527188 
1.645427246626474e-005 
0.006266458677444099 
0.002965098823265401 
-0.005837327150171899 
-0.003753622399961849 
0.0001233520000133193 
-0.0003779588733749803 
0.0009270488641764387 
0.0002413675437708496 
1.796472481964145e-005 
0.001134377455175438 
0.00146132448559256 
0.001183521067190643 
-0.0002738644761313924 
-0.0007366992351514284 
0.0005916509798342815 
0.001204090048208846 
0.0004776119597547624 
0.000804047814612129 
-0.0003859761764044738 
0.0002241820557731528 
-0.002417279399431885 
-0.001583913343782896 
0.006100573378686914 
0.001989535119616736 
0.003362902075613007 
0.002261081878805366 
-0.0001544255187126093 
-0.001149077420610488 
0.0009146376749551622 
0.0004075416591298648 
0.0005691256597910991 
0.000879137784165488 
0.0007552418091019296 
4.490203222203421e-005 
0.0006065006432150045 
0.0009773530187995108 
0.001479268070339734 
-0.000640626793065359 
-0.0002728406169984815 
-0.0001011141642827557 
0.002209458314286105 
0.0002202548022429482 
0.002697552637760738 
0.001596904214408138 
0.0001443839663267074 
-0.0007721244641884818 
0.0002460707061429366 
0.007639092475168903 
0.003480872667418036 
0.001020004561287863 
-0.001679515455453646 
-0.0002379098646878996 
-0.00386966064703017 
0.001593835833963328 
1.111847184434592e-006 
0.000983617113449216 
0.0004350046590092231 
0.0009574411094995072 
-1.336447593554376e-005 
-7.372128537828721e-005 
0.0003788087810525134 
0.0005112859857975432 
-0.0006328432853120041 
-0.001006239582430961 
0.0001558098041208588 
0.001415549921205783 
9.798124961282722e-005 
0.001951536661753552 
0.001651787199393995 
0.001402980506946289 
0.001477859095673926 
-0.003881696614681021 
0.002500355509388261 
0.002477511648029776 
0.004359431421591626 
0.0009465982561042546 
0.0009660699051281989 
-0.004067431630897432 
0.003022870077424011 
-0.0005476560015382187 
0.0009010233818400431 
6.788904205299729e-006 
0.001256516300937752 
-0.000195698529586143 
-0.0007282395548476702 
0.000115262808131895 
0.0001542595622816979 
0.0004592109903432626 
-0.0001035877669226381 
-0.0002879106182125315 
0.0006608630165780995 
3.309034297723658e-005 
-0.0007362860770130415 
0.002781159522817155 
1.111061697931521e-005 
0.0005806036428147527 
-0.001935315960778437 
0.002461445840893441 
0.00129046949382579 
0.001937248078803252 
0.003925356388410071 
-0.001672356358677025 
-0.003305755786387583 
0.002139496485149502 
-0.0006738990859898746 
0.000652274076899409 
-0.0002031129857056002 
0.0001567705029742036 
-0.0003540319343280839 
-0.0002184392535500037 
-0.0005253621315257594 
0.0003372814039750116 
0.0001018904219569784 
-0.0008681547450963126 
-0.0004824932041962377 
-0.0001942250882413517 
-2.220961838711932e-006 
-0.001078385713351222 
0.003106711280485601 
0.000173245512985484 
0.003824120862174891 
-0.0005659433088217138 
0.004177179425971666 
0.00336878743103322 
0.002858330276222026 
0.002159939426142662 
0.001546097109519387 
-0.002523765164823572 
0.003715796413137098 
-0.0005117127698984111 
0.0005734331074154189 
-0.0006449972833463583 
-0.0008369216559701462 
0.0006747951088933553 
0.0009714355365530239 
-0.0004158487500075261 
-0.0004847675625895914 
-0.0007084907097905897 
-0.00114766885867525 
-0.0005558860045184331 
-0.0009564145870284593 
-8.942264465700982e-005 
-5.190655774311247e-005 
0.003680250591518065 
-0.0001503165825594319 
-0.0002608240534790302 
-0.002398008886631782 
0.005362395252727224 
0.0006704757017271647 
0.002213811601118386 
-0.001113348478379405 
-0.003390171875954267 
-0.006041973206657703 
0.0001715392529185496 
-6.44772047261738e-005 
-4.613037683061524e-005 
-0.0008119643956918136 
-0.001322040627137653 
0.0005348470414228638 
0.0009075444250289444 
-0.0002542229875904915 
-0.0004422098723399959 
-0.001060276969491315 
-0.0001393925025925401 
0.0006554385783063047 
-0.00065903150213309 
1.634908038796422e-005 
-0.001254018292601932 
0.003406890672227811 
-0.001796363444856498 
-0.001562039957662627 
-0.001130153396206947 
0.005087653008619455 
-3.327747622643637e-005 
-0.0002983853650091478 
-0.0002129808338115968 
-0.002663621223611092 
-0.004638625384244808 
0.0003650108388561723 
0.0001344026413915535 
-0.0004431097808716615 
-0.0008357699546459997 
-0.000940397577782303 
0.0004948526674817014 
-0.0005877270061149541 
-0.001841962435748819 
-0.0006676390577577926 
-0.0005611421404638112 
-0.0001912021829252395 
0.001843869720805676 
-0.0003700602155611902 
0.0002355545899707961 
-0.0004399996841949824 
0.002011196696603379 
-0.003148613520042769 
-0.002849229294594731 
-0.001535346626174976 
0.00550548408291474 
0.001355934676858358 
0.0003880681186349515 
6.953941632982875e-005 
7.925409584537028e-005 
0.002019172743278202 
0.002350921184245208 
0.0001386730509276825 
-0.0008796490811392094 
-0.0004661275530288 
0.000438800811792368 
0.0004999314637516768 
-0.0008522482056088846 
-0.001241087541382017 
-0.0004808471804713003 
-0.000194328765117235 
4.150368262931778e-005 
0.002463295803301521 
0.0002016499052440687 
0.0002380662756164819 
0.0005847385626529071 
0.001401677192298969 
-0.002293545969139087 
0.000618491721548703 
-0.0001222669367172976 
0.0003773871443889091 
-0.00643644209475959 
0.0004808088266141617 
-0.0008346225631127628 
-0.001083427649053977 
0.002659444936261982 
0.001658146672291439 
0.0005521740556465662 
-0.0002516219709451622 
0.000717320635630578 
0.0008645156592743746 
-0.0004469059177746994 
-0.0005551097847269849 
-0.0001130107229983502 
0.0003456069716068394 
-0.0001070105684839569 
-0.0001916622389051555 
0.0007248779973556801 
0.0004424572676082693 
5.043680019185747e-005 
0.0002850689948613501 
9.254893934297612e-005 
-0.002408725524992374 
0.001199363907877202 
-0.001873130792431338 
0.002885455702538078 
-0.003060969495445153 
-0.0008785642165254164 
-0.001414537936482578 
-0.003822933234955479 
0.003483045745526623 
0.001867416048736682 
0.0004660466228277004 
0.0002781407066945046 
0.0008520491626168637 
0.0006853881301037254 
-0.0003870178986039972 
0.000379288532347392 
0.0003903637563236646 
-0.0004599527271998096 
-0.0007837932159939429 
-0.0009905638513926852 
-0.001905018497635456 
-0.001082488580042165 
-0.0001203453333456025 
0.001293913484398186 
0.00304307862443522 
0.001279332657205661 
0.0006488654107080318 
-0.003247934043899335 
0.003812804628616106 
0.001461253341581518 
0.002025724647310268 
0.0002991783260044727 
-0.001884549839405468 
-0.001761107864703939 
0.002938497095943877 
0.0003696835572655467 
0.000223160639462905 
0.0003315913559690642 
-0.0003641480964633894 
-0.0006480046848694117 
0.00162626811238525 
0.001509670741932908 
-0.0002067984811914163 
-0.0008460765130911221 
-0.0005062196730758346 
-0.002323336250649799 
-0.0005691322963980595 
-0.0001247457081465927 
0.001491492083695841 
0.002598573888456463 
-0.0006976133715706023 
0.0005945011118272882 
-0.001844280559992449 
0.005923090714808104 
-0.0006491794699250929 
-0.002776824061699889 
-0.004219750238514231 
-0.004510389897222708 
-0.005180231499117975 
-0.003682611547095456 
0.0002133255226844766 
-2.264014625869622e-005 
0.0001525847025505711 
-0.0005800635277981259 
-0.0001573381815587218 
0.001129481233377473 
0.00057003422556597 
-0.0001213984754856279 
-0.0006646732559443381 
-0.000203406857984097 
-0.001909513718847751 
-0.0006712003773412633 
0.0001565753790810244 
0.001738492799309951 
0.0006960278266727189 
-0.0005633967524953767 
-0.00273401548986731 
-0.003242275038723028 
0.003266892327454271 
-0.0006091498046098544 
-0.001731501932894197 
-0.003160428342541828 
-0.00130404667099173 
-0.0001995960164109447 
0.001034493660592239 
-0.0002458246311706635 
-0.0008782333706875545 
-0.0002191436508457863 
4.589720868789577e-005 
0.0002593407127251643 
0.0002105294140350701 
-0.0003990645966248338 
-0.0003234785227494273 
-0.001084615999314757 
0.0001088079258201938 
-6.494648147381305e-005 
-0.0006066113799478472 
0.0001219696375267739 
0.0008359442864458567 
0.0008783790313846758 
-0.0006455130373359925 
-0.00287463828166054 
-0.001819627580316833 
0.003630135046580829 
0.001275504630993292 
-0.001798892029506052 
9.062497302541703e-005 
-0.001275513479319592 
0.001531977188286502 
-0.001883647858978055 
0.0001140329058475061 
-0.0002413693270873725 
0.0006683361766500927 
0.000991143388805806 
0.0004482653141511566 
-0.0007438914232389465 
4.866215099599274e-005 
0.0008302390759397975 
0.0001536443659954417 
0.0007056145912274406 
0.00046140605829106 
0.0003945121193364308 
-0.0001545764085000729 
-0.0003343772214085386 
-5.111142960293502e-006 
0.001109758791633545 
0.0006839493774473985 
-0.00114179480996824 
0.001256872027577311 
-0.001912824335101692 
-0.0006492043223210064 
-0.003581536868148347 
-8.000350641023817e-006 
0.002889862014750757 
-0.001582132375620485 
0.0002941890066888734 
0.0003875461736904471 
0.000594700590680574 
0.001575244859655822 
0.0004752332467418197 
-0.001314381383062229 
0.0004522823364893913 
0.0005106711242176993 
-0.0002193101375250174 
-0.0001581103261239666 
-0.0009295353035213176 
-0.0001895346418185958 
-0.0004809288390586422 
0.001557629134737879 
0.001264429955746659 
0.001515502967482524 
0.002232363813180645 
-0.0008697966014860216 
-0.0004007522564422764 
0.0006710378362656162 
-0.001180327565001352 
-0.0007315076739547516 
0.0004072624105781224 
0.000475040405413923 
-7.618886647503618e-005 
0.0001596407974655438 
0.0004355167265165929 
3.104075933594725e-005 
0.00141191750163761 
-7.460919202781075e-006 
-0.00115372370343522 
0.0005372156558467267 
0.0001170051850445659 
-0.0003067995930274958 
0.000112107922387373 
-0.001356667260330876 
0.0003373208427414438 
-0.0005231385019374366 
0.001937887874555286 
0.002541549719709075 
0.001469069247848305 
0.003876823628999666 
-0.001846661794995917 
-0.001683615227200139 
0.002452321583467766 
0.0009082626902262674 
-0.002427849608893143 
-0.00346715760805287 
-0.003847444165667407 
-0.0009785499992896614 
-0.0001316847209928834 
0.0003026326013459436 
-2.341393302810943e-005 
0.0006512978253303932 
5.676988813054622e-005 
-0.0002037242325951612 
0.0005683272596590264 
-0.0004195502487433521 
0.0003786018052283833 
0.0002422744389239287 
-0.0008451306350132162 
0.0007569894612838265 
-0.0004228215213053654 
0.001090676982229436 
0.001299078183015931 
0.0007290264085219974 
0.003833370364052783 
-0.004964471150464973 
-0.001923487121895038 
0.001318924513152458 
-0.003363866120212471 
-0.004594815260505562 
-0.001620333202657001 
-0.00310847980228643 
-0.0002040502096502081 
-0.0005649648251602383 
-0.0004251493083601237 
-0.0001159152856624213 
-0.0001192689178862966 
0.0003211579262540112 
0.0001611597442427184 
-0.0009094751709542113 
-0.0004703616368355901 
-0.0006643000341003473 
0.0001854043121872259 
0.0008459049834141243 
0.0003364508352098669 
-0.0002418742919824615 
0.0007593662816177221 
0.001022048238573648 
0.0008380529996993564 
0.00194465192483304 
-0.001815162613593173 
0.002070946188467181 
0.001764645951815957 
-0.004126033800612771 
-0.001885751616371244 
-0.001068939391967498 
0.001006711109466711 
0.001193777352130168 
-0.001029655646006056 
-0.0009558294015731363 
0.0001705284127841393 
-0.0003051487969822676 
0.001160124196634764 
0.0002198469677641623 
-0.0006664654982298529 
-2.641417580683766e-006 
-0.0008994800161479707 
0.0005804646083873535 
0.001011296214967868 
-9.3717773271166e-005 
-8.155749008475368e-005 
-0.0001432719976061644 
-0.0005705588661795304 
0.0004572146447062407 
0.001491503431205083 
-0.001309730489468922 
0.0001309723072207248 
-0.0003605387181916833 
-0.003554388626810382 
-0.006795137679341778 
-0.003583289106767218 
0.001506472453831761 
-0.001113448857127299 
-0.0007077109699626787 
-0.0007468122442766345 
-4.760983808416687e-005 
0.0001735202588021377 
0.001309169959680067 
-0.000386926826049114 
-0.0003859912511862751 
0.001074044942672382 
-0.000386313751652112 
-0.0001300153029993252 
0.0002125147540736757 
-7.508036697107144e-005 
-0.0001020845974199248 
-0.002198669706633182 
-0.001076683535288487 
0.00188877272273449 
0.002024769695975519 
0.002489507477024319 
0.0009232840374622525 
0.001528851065526915 
0.001291126422552064 
-0.007687278515363987 
-0.002216602278781877 
-0.0003241353231480912 
-0.003335768244373827 
-0.0005761637952084442 
-0.0004058774620379453 
-0.0005254351337479775 
-0.0003067613555105646 
0.001028371891087838 
-0.0006733710487379473 
-0.000215981454157783 
0.001332712716277453 
0.0001703470864721727 
-1.911825668622334e-005 
-0.0007189518507209103 
-0.0003271594468322727 
0.0001026994606391529 
-0.001448694137244152 
-0.0005152823916364123 
-4.210345472409652e-005 
0.003805630964675763 
0.003199105846344556 
-0.0003535433717341114 
0.001571064666736411 
0.001923287706314425 
-0.003078128205744239 
-0.002325718982695604 
-0.001100978611025463 
-0.002117487268917853 
-0.0001611127265934076 
-8.685127651597938e-005 
-0.0006040578434987922 
-0.0007003610871661066 
0.0006282581521373616 
-0.0001523047252133783 
0.0001993298712382187 
0.0006871829467904062 
0.001302481021793792 
0.0003773189568940654 
-0.0008004808611292978 
0.0002987241229648606 
0.0002016217837672307 
-0.001605690612301168 
-0.0005996252225624042 
0.001878062834184827 
-0.0007808870057248917 
0.002886676034676003 
-8.085010805147432e-005 
-0.0009238721144657655 
0.002764552996920493 
-0.003168920479859988 
-0.003645967607466161 
-0.001811270958337778 
-0.001219479205509226 
0.0001626393240702991 
0.0001128827220334731 
-0.001029752407862417 
-0.0009561008320199405 
-0.0004105056898892131 
-0.0003213149124910679 
0.0001117492208252098 
-0.0003269209620772975 
0.001281167143925947 
0.0001637586988130152 
-0.0006473873406729389 
1.032370163257357e-005 
0.0001287146412737306 
-0.001909320337268701 
-0.000972420085562623 
0.00321457283127138 
-0.0009521118289065798 
0.0003473252091813239 
-0.0007981008396151811 
0.0002665901827903328 
0.001784512027545935 
-0.003289283427066026 
-0.004171488977353364 
-0.00130363236634028 
9.427145617816734e-005 
0.0003940134273854266 
0.0004389494194092581 
-0.0008105572657655532 
-0.0002141075725597876 
-0.0006950783084745858 
-0.0005980555871741043 
0.0001109742603257323 
-0.0006712662645607761 
0.0003120180626735416 
3.717177909184077e-006 
-0.000280818834584995 
-0.0002525318304726009 
-0.0001014060002637235 
-0.001234975891987563 
-7.641891326252436e-005 
0.00119507173106376 
-0.0005680714637524478 
-0.002413328660036189 
-0.002285211829362646 
0.001131675221506016 
-0.0001034178436389863 
-0.00259671177410845 
-0.004232485611016319 
-0.002063070758082135 
-0.0005217617255243991 
0.0002145022895085383 
0.0004198314223725688 
-0.0005847389862060827 
0.001741382560931754 
0.000359145766354442 
-0.0003886964864626599 
-0.0001787665701717434 
-0.0004692149142234838 
-0.0003031330907101723 
-0.0002467627873629645 
8.561993197571321e-005 
-0.0001320363898115005 
-0.0004241908568126916 
0.0006258258402456647 
1.686682175593527e-005 
0.000176361642655841 
0.001531461179310917 
-0.0003505902253759383 
-0.003607820585597492 
-3.632834933962613e-005 
-0.00164403409342074 
-0.002310883937349056 
-0.003020323057045239 
-0.002411850831336856 
-0.0007004099186861089 
5.475461668621288e-005 
0.0006606896309160107 
-7.592000954713957e-005 
0.00238737087352377 
0.001134702170153558 
0.0001763651910166561 
-0.0005128789519934494 
0.000108078722022258 
-0.0007916636814335306 
0.0003014487107793834 
0.001161147056462891 
-0.000353088892027334 
-0.000541448197772085 
-0.001131320985039755 
-0.0004197774102189578 
0.0003061769463551323 
0.004891328796351799 
0.003721970533187662 
-0.001585961010626551 
-0.001346558011728557 
-0.0008990098118359951 
-0.003484517947440548 
-0.002238580797283792 
-0.0007219600223160259 
-0.001015430695154676 
-0.0001353276605781314 
0.0005882206415316365 
0.0002882096542206921 
0.002146378717739613 
0.001638208802003223 
0.0008706554200124141 
-0.000239285481408378 
0.000555895196047758 
-0.001290005284526076 
0.000402857798954162 
0.00149506764365037 
5.101789449734785e-005 
-0.0005099790212595131 
-0.001460017378503896 
0.001069182847337869 
0.001281751650868451 
0.00608744684367722 
0.003987525762725912 
-0.001246264481472985 
-0.0003675790785243304 
0.0005230027470594123 
-0.005172979451716293 
-0.0004636094436082029 
0.002881979808042335 
-0.00168110537338659 
-0.0001923356513332046 
3.530052519521802e-005 
0.0001415161483886486 
0.001221473830273695 
0.00101161417356234 
0.001012586337344412 
-0.0002012764017702548 
0.0007547313070684631 
-0.0009146731394109005 
0.0003806899062250512 
0.0007930658686336543 
0.000273169525709016 
-0.0002480958580123422 
-0.001090738632357373 
0.001134889647624733 
0.001449710411173531 
0.006209467549042265 
0.004251240964012268 
0.0004231199366388343 
0.001040223541017047 
0.0002269056792628843 
-0.006630718254780325 
-0.0009413127283015324 
0.002692583566830989 
0.0002338911161859586 
-7.010199569519276e-005 
-0.0002748954104370576 
-1.1534721800487e-005 
0.0004941688903401562 
0.0004108892826766894 
0.0002997591364422675 
-0.0003326581889133776 
-5.127989184274426e-005 
-0.0002470451013749567 
0.0001206157140811516 
0.0001732113215227388 
0.0006033688555167248 
4.944595585284221e-005 
-0.0002510461557013433 
-0.0005071894627164049 
0.0003300908966397497 
0.005160893385686381 
0.003306346738084719 
-2.982195034691386e-005 
-0.0006521294743942341 
0.001092355029958005 
-0.004866198521181966 
-0.001445716315309773 
0.0001343479166483691 
0.001029975765684552 
-1.232140396011699e-005 
-0.0006983396494962418 
-5.80599909552069e-005 
-8.162168947487739e-005 
0.0002293481110777424 
3.2212941056362e-005 
-0.0003163305998270929 
-0.0003001250700983114 
-0.0002711404239823569 
-0.0002648619878513482 
-0.0005199276639408007 
0.0003226113002753193 
0.0002478703062643746 
-0.001185249726728726 
-0.001313999561301336 
0.0008233352455744993 
0.004847037442303271 
0.003419585557764013 
-0.0008193613587117708 
-0.0003927785327108454 
-0.001112216649965068 
-0.004134538134035521 
-0.001383229158312376 
0.001114010694466105 
0.001283238353718739 
-5.406371508581038e-005 
-0.0006207168803501596 
0.000240070908276494 
-0.0003323076845912957 
-0.0003846783601263559 
-0.0003035185961482163 
-0.0005079956495359565 
-0.0005625502073906453 
-0.0001363821454848676 
-0.0001411715059910995 
-0.0001719497310001182 
-5.37781715790326e-005 
0.0001449378848150174 
0.0003022418174025336 
-0.0002774790510658787 
0.0006008224791753943 
0.001388470899715907 
0.001951042421112317 
-0.001953925148830441 
3.287303345493737e-005 
0.0003476866753543506 
-0.003539898882493323 
-0.00229464721649513 
0.001241633299978918 
-1.90872950230358e-005 
0.0001867141160017475 
-0.0002906311414905201 
0.0001677329047068499 
-2.039973467418667e-005 
-0.0004479445641353661 
-5.164647246657602e-005 
-0.000179225251860083 
0.0001954636475419928 
-0.0001783386429101476 
-0.0001208085567084114 
-0.0001228316471624338 
-0.0005251748057001927 
9.101095759056221e-005 
-5.129270897712176e-005 
0.0002775504604468607 
0.001662745715198019 
0.001724472890666579 
3.292542622735595e-005 
-0.001311364255376925 
-0.001353147453444499 
0.0007581267187103443 
-0.002400629322644071 
-0.001212244831013896 
0.001831960883777994 
-0.0004036954520763203 
0.0001218565695501916 
-0.0003339984167195654 
0.0003445246382491307 
-7.292042304389615e-005 
-0.0009609332709613922 
-2.747654151319736e-005 
-0.0002191165033668542 
0.0003712417338685879 
-0.0001182941821396567 
-0.0001522015935454775 
-0.0006838050929172384 
-0.0003446350925442222 
6.572017945599564e-005 
-0.0002786035591786691 
0.0002172501324309978 
0.001650415177916589 
0.002913279265017799 
0.0008922571356638026 
-0.001192449086041954 
-0.001517268759055844 
0.002306803611309628 
-0.002784221631684082 
-0.001435603677120109 
0.0006869184060089227 
-0.0008682889751664502 
-0.0001091457156054114 
-0.0004498210166550067 
-4.167588720045854e-005 
-5.646258628995947e-005 
-0.0003874639528657715 
-0.0002353302292947367 
0.0001168625914916617 
3.129632325376844e-006 
0.0002950272381734885 
0.0001256624043404077 
-0.0008281443180188192 
-5.185709006354283e-005 
0.0001359991472791489 
-0.0002246085047890952 
-0.0005366394646818041 
0.002268627984323539 
0.001547274183104645 
-0.00205015275841684 
-0.00136373267913045 
-0.001580172031796042 
0.001687471498479017 
-0.002415871963047958 
-0.002715635611103543 
-0.001580993887196881 
-0.0007855905681931092 
-0.0001809701718957236 
-0.0006143001587773045 
-0.0002698190877865545 
-0.0003943098430568154 
8.656694278354935e-006 
-0.0004974962139832406 
0.0008727731644192809 
-0.0001610959628962369 
6.547840071351041e-006 
-2.983098093131706e-005 
-0.0006742004445937641 
0.0002644253499555936 
0.0001977023617598788 
-0.0009577324987421088 
-0.0009283324630424751 
0.0005304231121446474 
0.001146384875414583 
0.0009037523236987451 
-0.002253464755280532 
-0.0001916941553483041 
-2.710811112738781e-005 
-0.002572217179301086 
-0.001496493843278049 
-0.0009541082356052386 
0.0001059876897661838 
-0.0001253200789185733 
-0.0006982808342044547 
-0.0003247057117543168 
-0.0004761170860504026 
6.966984890135175e-005 
-0.0007107671327849288 
0.001156491994981596 
-0.0003023904804015659 
0.0001612455709557643 
0.0003221329218945021 
-0.0001852114292280912 
0.0003605082160777479 
0.0002199052627233088 
-0.001298020579071092 
-0.00183333548320094 
0.0009028685139377927 
0.0005445360264013975 
0.0006433692291454279 
-0.003292007881789877 
0.001856728874914755 
0.0006338635454415056 
-0.0030002478317698 
-0.001291057730234956 
-0.0004977020837028431 
0.0004959548150854615 
1.161669607210317e-005 
-0.00066449471441869 
-0.0002598828319783105 
-0.0004376601001000001 
0.0001780792961710833 
-0.0009069934135061737 
0.0009892804891445729 
-0.0001470894585363625 
0.0003397175142882758 
0.0006410254420000686 
-3.025561176713933e-005 
0.0003325734852461105 
2.083854425059646e-005 
-0.0001813249345889467 
-0.001499589011886245 
0.0008961741634665387 
0.0006935169553759013 
3.298468590560932e-005 
-0.003229870952486119 
0.002739070815601293 
0.0007123300754958183 
-0.001730624914487972 
-0.0005978442007177349 
-0.0005401377274995666 
0.0007426354594285506 
0.000248744008009634 
-0.0006087242148589669 
0.0001229368757362528 
-0.0003542883511930117 
-0.0003510982209549846 
-0.0006290284874377472 
0.0003974422673306866 
9.91736424860741e-006 
0.0006805511249350259 
0.000949368595944883 
-0.0001180122084505278 
0.0001976243103003575 
-3.898395281253486e-005 
0.0001921083050393684 
-0.002050589719562638 
0.0008552830416149991 
-0.0006261291947736463 
0.0007266709468181706 
-0.002534922041843464 
0.001965589080727843 
-4.23555249640894e-005 
0.0001793471552870654 
0.0008053550579932868 
-0.001025420209416557 
0.0004092525484596623 
0.0002853458956129874 
-0.0004009107856609416 
-8.813165524251185e-005 
-0.0004028908330891699 
-0.0001996621205685404 
-0.0005270392905471172 
-9.858053127778305e-005 
-0.0003734494537549929 
0.0006106952193284885 
0.0006975961033712827 
1.301059317284399e-005 
0.0001395979082040665 
-3.614515823097435e-005 
0.0007545082090953506 
-0.00243136331742483 
0.001077840442461764 
-0.0005698171781638125 
0.0003486088177884121 
-0.002623448723168929 
0.000673682489968788 
-0.0005952981266472583 
0.00119866474525703 
0.002715695257681107 
-4.487177106543232e-005 
-6.810106849941835e-005 
0.0002896342229293704 
-9.426643559128817e-005 
-7.541101376618218e-005 
-0.000319034958440396 
-0.0001338654781472613 
-0.0003997441011215494 
-0.0003892585907504644 
-0.0002571034724310788 
7.622379573499441e-005 
0.0001640539818735025 
-5.665752641327536e-005 
3.72996762281005e-005 
-5.46341524838836e-005 
0.0004741077185246287 
-0.002004867550487111 
-0.0002472907299518083 
-0.0007989891091678601 
0.0006376459404712864 
-0.002962724327495337 
0.00165871953630789 
-0.0008872751374388136 
0.001038886492138997 
0.001352998565126666 
0.0008454896940880295 
0.0001668447321383477 
9.068303753373267e-005 
0.0001568326345621744 
-0.0001411871352454027 
-0.0001492562711403672 
1.561637729928213e-005 
-0.0003195682871594193 
-0.0001794062792178828 
0.0001873180744473062 
3.201344436153059e-005 
-2.851282171641947e-005 
5.598995091902599e-005 
0.0001016299635639357 
-7.228408265631063e-005 
0.001043253621055205 
-0.001666660017731609 
0.0002167375489807135 
-0.001718119850335497 
0.0009554341597004029 
-0.002162594382229361 
0.0007941646433002508 
0.0003176051654280162 
-0.0005825956400806032 
-0.0003342770887190655 
-0.0002386016064157676 
0.0007218364833335619 
-7.862901917939392e-005 
0.0002156100736147502 
3.184707266377159e-006 
0.0001993297006018347 
9.978371116214206e-005 
-0.0001023120789768071 
-0.0001423931331182678 
0.000386165660445839 
-2.894261641087859e-006 
-4.400018922950642e-005 
-0.0003975594040132414 
6.433420157518731e-005 
-3.483911757958801e-005 
0.0002985725786845989 
-0.00136616604182496 
0.0004640162310551713 
-0.001123642968748488 
0.001361365770772589 
-0.002213580695626947 
0.001043709686446887 
0.0007763832763573699 
0.0005731512265990475 
0.000701544526109661 
0.0004084950244004982 
0.001126785873866323 
-0.0001450294943638776 
5.435978899139647e-005 
8.891188342175414e-005 
0.000297075148027255 
4.220892533769492e-005 
0.000194227577688032 
-0.0002986348504450983 
0.000218708860625915 
0.0002288066303198637 
0.0002139389101827339 
-0.0003955955370184525 
-3.795159215510793e-005 
-1.809139740201124e-005 
0.0003783679211150433 
-0.001420305322823201 
0.0002175113089488654 
-0.0003015005869714792 
0.001340237085666426 
-0.001651636093956223 
5.952909845892891e-005 
0.0005400287885501217 
0.0009347022672175498 
0.001310121836562161 
-0.0007435456978667806 
-6.534097375293498e-005 
-0.0001845775813122942 
-9.673946157054623e-005 
1.287031057207757e-006 
0.0003141423995319361 
-6.216123367507437e-005 
0.000265983024832448 
-0.0002059613846057756 
-6.557414609431486e-005 
0.0002794337822435467 
0.0002266037052241204 
-7.143987097754867e-005 
-4.783222422764802e-005 
-1.73492915215381e-005 
-0.0002844339058818797 
-0.0004015086269706942 
-0.0001827305820815629 
-0.0003747739040853157 
0.0004138533241103985 
-0.0003951617934643392 
-8.290546926980408e-006 
0.0004054773565477441 
0.0002962771478724262 
-0.0004879657897377442 
-0.000186145160649253 
-0.0001470190011444781 
-0.0001429856706965063 
-0.0001314608573339449 
2.93894659736955e-006 
3.17865554791797e-005 
-0.0002519425261699129 
7.512436485307194e-005 
-3.39249773366359e-005 
-4.968361931962536e-005 
-2.641582786540359e-005 
-0.00011781073848781 
5.971199203732869e-005 
0.0001929857258639824 
1.607154265153079e-005 
-0.0002189609029221993 
-0.000592407436083542 
-0.0004322969158544104 
-0.0003438575351935074 
0.0001703154193314419 
-1.269156559881435e-005 
-8.17322203714176e-005 
5.259001996902169e-005 
0.0002518265959706396 
0.0001734843094045142 
0.0003638811986025185 
-4.666271777845409e-005 
-7.328593555457172e-005 
-8.037244310391097e-005 
-8.97690005706716e-006 
-1.723826886525821e-005 
-9.609971908220997e-005 
-4.952095186368816e-005 
-1.918847618132811e-005 
-6.42421950505436e-005 
-5.667632806926115e-005 
-8.213941285399449e-005 
0.0001345129847632904 
7.070169522663679e-005 
2.850816241155293e-005 
-0.0001449118556990759 
-0.0003369981542917912 
-9.455371364412447e-005 
-0.0002790256661509926 
7.45300449134861e-005 
-2.720456290392897e-005 
-0.0002047717300274638 
9.178692322085359e-005 
2.682203566562127e-005 
-6.197465883367035e-005 
2.827780964735707e-005 
6.512724373576981e-005 
1.61150314108538e-005 
7.310437130076825e-005 
1.797538585841317e-005 
7.137887099841614e-006 
-0.0001082466702994696 
-0.0001009128621915691 
1.263914907569751e-005 
-7.052643796600581e-005 
-5.009413557374832e-005 
-1.169812984971834e-005 
2.772092628801694e-005 
4.010802289310288e-005 
1.774374868782127e-005 
1.036515419402111e-005 
3.774710472535897e-005 
0.0001108619146796919 
-6.519702688373045e-005 
5.613581037753124e-005 
5.563474540381417e-005 
-7.415801006194583e-005 
6.057813334892183e-006 
0.0002053929496650314 
-0.0001128074231911107 
0.0001130787118245394 
-2.684271173894877e-005 
4.977474923747641e-005 
0.0001103038412152496 
3.097028881880779e-005 
3.653124163698253e-005 
-5.565299943063789e-005 
-0.0001032401947590497 
7.475035394002249e-005 
-5.679803993474675e-005 
-3.705412155787777e-005 
6.659024218155073e-006 
2.922756691823665e-005 
8.375953619708746e-006 
5.001941114563985e-006 
0.0001024629601012043 
0.0001007736985735255 
-1.624531825528717e-005 
-0.0001383733636482784 
-3.903825174711784e-005 
-0.0003188214957632536 
2.022774541105794e-005 
-0.0001715186929492065 
-1.946071498742574e-005 
7.160536949623021e-005 
3.31916243730228e-005 
4.068311819680188e-005 
3.967255091709889e-005 
4.827886322265086e-005 
2.513649050252092e-005 
1.418995516596501e-005 
-4.91773945113154e-005 
-7.192905364012198e-005 
6.663261887291385e-005 
-3.101557458457769e-005 
-6.039492105908032e-005 
4.542222876588535e-005 
7.241922937951604e-006 
6.868086923302606e-006 
2.727416492188571e-006 
7.577447953452295e-005 
5.555194002246454e-005 
6.157766640136374e-006 
-0.0001718456690550521 
-2.95354759318507e-005 
-0.000251609500418956 
0.000101632978781375 
-7.574385985131783e-005 
2.705577963497501e-005 
2.711827757740038e-005 
5.014942176457252e-005 
2.609481967666831e-005 
-2.179867204255558e-005 
-2.758692479371935e-005 
8.249638605165141e-006 
3.105578563859864e-006 
-4.782859627865954e-005 
-6.40300058577408e-005 
2.196350253788529e-005 
1.963781815451199e-005 
-7.589907471640766e-005 
7.713932265737746e-005 
2.253600229439904e-005 
4.958882519151445e-005 
9.630014476944547e-006 
2.074624987093165e-005 
-0.0001045066214947655 
8.348043009459345e-005 
-0.0001547521089439045 
-0.0001285215474001541 
-0.0002332282591935631 
4.049582872102607e-005 
-2.239046294705947e-005 
-0.0001859835814540025 
9.51732314507512e-005 
9.595200109327419e-005 
7.299882377344064e-005 
-5.778295483990591e-005 
-4.42732269109288e-005 
3.159381613567444e-005 
2.093103886499608e-005 
-5.835535432572345e-005 
-1.816340452802871e-005 
-2.541755682778416e-005 
3.735430087871538e-005 
-3.331684101608599e-005 
5.56923384555533e-005 
4.211984300957437e-005 
4.929035926044291e-005 
7.65562746114411e-006 
-5.776989813069678e-005 
2.45322817592053e-006 
0.0001022471610452613 
-4.147980909323306e-005 
-0.0001382660628976451 
-0.0003073105494275183 
2.552550864911114e-005 
2.968145673124654e-005 
-9.084163222754111e-005 
0.0002611044204897016 
0.0001943782683233078 
0.0002049435614303033 
-3.988061748137026e-005 
1.302579215876423e-005 
4.93571766004285e-005 
3.925742268648119e-005 
-5.949455468636116e-005 
-2.893254634883194e-005 
-2.744336891324253e-005 
-7.733490558319329e-006 
-5.522133172059636e-005 
2.42521348773962e-005 
2.421380457301328e-005 
4.322849306058506e-005 
7.140540798147545e-006 
-8.825975732186923e-005 
-0.0001288785862988518 
-7.467299320828569e-006 
-0.0002072940774551698 
-3.844225946108835e-005 
-0.0001183622326077525 
-0.0001409780734257905 
0.0001659103085517101 
2.981927546305001e-005 
0.0002049028550359511 
0.0001237312861438233 
5.356955414420278e-005 
-9.266970017540254e-006 
3.744628091347653e-005 
5.152652822846795e-005 
3.108616454513708e-005 
1.511527849005304e-005 
-7.423686001921606e-006 
-2.679840452741418e-005 
-5.614456969820128e-005 
-3.344761957699895e-005 
-4.835097611669656e-005 
-4.581310152306946e-005 
-4.884910193815078e-006 
1.098157152928321e-005 
-2.199610566089627e-005 
8.061418139125701e-005 
0.0001466980544183137 
-0.0001118775847840499 
-1.503771942574766e-005 
-5.856747117185443e-005 
-5.310365356777662e-005 
9.649412671248992e-005 
-0.0001215792952046455 
5.125834864696132e-005 
8.54105540898333e-005 
3.573998149875775e-005 
-1.421051377158904e-005 
5.061329755580163e-005 
5.179470780997474e-005 
4.338555742936985e-005 
5.623469114616178e-005 
3.226429765574799e-005 
-3.16042263232615e-005 
-8.481056372265351e-005 
-8.185403403895605e-005 
-7.836797257466581e-005 
-4.714334871402579e-005 
-3.041708106785463e-005 
8.229044032332216e-006 
-4.961213019754958e-005 
8.063766758678591e-005 
0.0001594390423975529 
-0.000120666337627276 
0.000179311367863436 
2.077162827841004e-005 
-0.0001856837735201332 
-6.02713127289015e-005 
-0.000116359078605358 
-6.065364614449144e-005 
-0.0001341968441097083 
-8.859320667932285e-005 
-1.784309086263914e-005 
3.100805929023799e-005 
2.001643785403065e-005 
6.965950974871332e-005 
0.0001119185490785774 
5.200116785439323e-005 
1.919592303464492e-005 
-3.48180117765921e-005 
-3.796761983516307e-005 
-7.945489185612846e-005 
-5.898885721489388e-005 
-2.881838120009482e-005 
8.69035660777121e-007 
-0.000116726391779621 
0.0001159259494645538 
0.0001766211060941667 
2.37404472504661e-005 
0.0002720378718605834 
4.786896291775611e-005 
-0.000182314596842895 
-7.790999176184835e-005 
-0.0002701070881118544 
-2.612762785929125e-005 
3.967965425111558e-005 
-2.020206072729964e-005 
-3.752465926367245e-005 
-2.91138703112865e-005 
-3.064921207017707e-005 
2.513926867046148e-005 
6.393297446906604e-005 
3.570721006313571e-005 
5.045217133066011e-005 
3.890570217984276e-005 
2.242024996643397e-005 
-3.701806748801563e-005 
-4.069065304005426e-005 
-4.609930539416824e-006 
-5.121219554179368e-006 
-0.0001301099729923486 
8.506181139575632e-006 
7.765328218280933e-005 
7.319363598524896e-005 
0.0003776115979074442 
8.842525307176027e-005 
1.960698607546348e-005 
7.902176271532459e-005 
-8.575492725916106e-005 
-0.0001536791894916894 
-0.0001483470038206938 
-6.255193155289585e-005 
-3.825136584859019e-005 
-2.988536452488768e-005 
-3.018358458904793e-005 
1.581055180630345e-006 
8.397844235315177e-006 
7.725428995411153e-006 
8.967602953133318e-005 
7.339763817199614e-005 
1.827277900270289e-005 
-2.171148574251922e-005 
4.806777629386303e-006 
4.375997108135125e-006 
-5.89088402929168e-006 
-0.0001693704259627996 
-2.888965907257265e-005 
3.434501072244801e-005 
-8.311109169035644e-005 
0.0002054769013499296 
8.614163019950056e-005 
9.651133171619141e-005 
0.0002213765095325364 
-2.478031221228188e-005 
-8.731867092892412e-005 
-0.0001109670850643518 
-3.304016139409829e-007 
-2.45244765381928e-005 
-1.963014455663643e-005 
-1.407497657576238e-005 
-2.203977359886261e-005 
-8.290517783653151e-006 
1.017921754713799e-005 
5.923109274319991e-005 
5.90311869859058e-005 
2.475532399262007e-005 
-4.328888169428505e-006 
7.103099432949414e-006 
-1.41225497764737e-006 
-4.114999932935596e-006 
-0.0002145472154442089 
3.618976945266956e-006 
7.965971332876622e-005 
-5.933514205129977e-005 
0.0002545810742953385 
4.026243961459352e-005 
0.0001232834098569894 
0.0001570734909362382 
-0.0001476588036726321 
-0.0001386152529174448 
-3.483958630504338e-005 
-7.664883768099509e-005 
-1.765520129840635e-005 
-1.743587846550612e-006 
-1.308241171936113e-005 
-2.527092791307285e-005 
-1.404570075994008e-005 
1.058394477706968e-005 
4.426246642755514e-006 
8.891764389198073e-006 
-6.212562979451277e-006 
5.224531504977716e-005 
2.549284515129318e-005 
6.894208840388835e-006 
-3.132239197691229e-006 
-0.0001971302897923036 
2.021891070711523e-005 
0.000105243007642376 
-2.019392248745353e-005 
0.0002920999985577765 
0.0001228464573820293 
6.200273691093042e-005 
0.0001782206252478167 
-0.0001153786664896663 
-5.530398237449705e-005 
1.84416065152155e-005 
-2.021486889672197e-005 
-1.089508224877085e-005 
-1.515239214089496e-005 
-1.74443990387678e-005 
-8.195070977404069e-006 
5.053164206204349e-006 
1.151610095380769e-005 
-1.169880170740034e-005 
-9.641547526699697e-006 
2.678245576207816e-006 
3.601608084387306e-005 
2.26354490603518e-006 
1.383492580983124e-005 
-6.300526974566672e-006 
-0.0002045060475696279 
-2.47660293282566e-005 
-2.320785680254931e-005 
-8.461939701485878e-005 
0.0002640716820514695 
0.000122992563365844 
5.899240745375299e-005 
0.0001450586633513232 
-7.151846943437122e-005 
9.153963183703754e-005 
-8.558697365159846e-005 
-1.813871652147928e-005 
-2.459223148134128e-005 
-2.159009488306941e-005 
7.09274912119879e-006 
2.323085142654411e-006 
-1.628729426601442e-005 
1.580577263860854e-005 
7.479861704483659e-006 
6.974444238603373e-006 
7.323623885155705e-007 
1.671337754815983e-005 
-3.910861198540229e-005 
4.057240277651828e-005 
2.217793250953898e-006 
-0.0002288664211439439 
-9.045926684269892e-005 
-1.443191212874529e-006 
-0.0001114444556432457 
0.0002259972819552379 
0.0001023569365452656 
7.016282438080795e-005 
0.0001791761856914951 
-4.945919683131366e-005 
-2.231620065833409e-005 
-7.427563955136897e-005 
3.958925970785824e-005 
-3.148624915502233e-005 
-1.382714259387105e-006 
1.217729197701123e-005 
2.066755166078047e-005 
-1.988873849322366e-005 
-1.926640893076193e-005 
2.477998449792562e-005 
2.54305521140817e-005 
4.051969538422625e-005 
-6.752718167090877e-006 
-1.886646086852506e-005 
2.765035261546742e-005 
9.234362439096369e-006 
-0.0003216407168180398 
-4.899247696899702e-005 
0.0001684664805302258 
-2.094468876802396e-006 
0.0002061962343618329 
0.0001295361997736668 
0.0001566026746444686 
0.0001914679319074161 
-0.0001769567402139951 
-7.154250182049391e-005 
-0.000184024173401176 
9.631142595889718e-005 
-2.968982829234314e-005 
1.680713116356833e-005 
1.952328236697897e-005 
3.805473723485822e-005 
-3.417077592305768e-006 
-7.972416381882282e-006 
4.736674066684893e-005 
2.384009972428673e-005 
3.738483447168521e-005 
-4.863335665363925e-005 
4.334841646899827e-006 
1.517658838419589e-005 
1.490024325331336e-005 
-0.0002959943374908573 
2.541859054007967e-005 
7.029227155151496e-005 
4.188134853432028e-005 
0.0002215949857700158 
2.32427583814868e-005 
0.0001370976623528491 
0.0002821675226113428 
0.0001399381265353859 
-7.526561000245011e-006 
-2.667212526215074e-005 
6.081176832136763e-005 
-1.788014989442168e-005 
2.339028446084514e-005 
-4.995759574806477e-006 
3.119567575917389e-005 
8.93715282753454e-006 
3.381247489359053e-006 
4.901459768804199e-005 
8.846812903336582e-006 
3.379963941463858e-005 
-3.608927038342877e-005 
6.943147517584374e-006 
-3.409130519167437e-006 
1.398818689042348e-005 
-0.0003193904115719961 
1.330711452960929e-006 
3.854084686325114e-005 
2.899152361829771e-005 
0.0002491874421825516 
0.0001226875159192629 
0.0002623582821590326 
0.0002127628107745903 
2.070745088365026e-005 
-0.0001590220258792629 
-8.771465910935648e-005 
4.713269799744859e-005 
-1.889909575649867e-006 
7.655871623303475e-006 
-2.916029651175097e-005 
4.92822310789548e-006 
1.135748720539722e-005 
8.574782678144287e-006 
3.367729272164975e-005 
-2.681615572170947e-006 
2.760966141623677e-005 
-3.264553869015059e-005 
1.315767678317296e-005 
-1.120365262468165e-005 
2.167213204888933e-022 
-1.585539798141643e-020 
1.058791184067875e-022 
1.234484346174139e-020 
2.21287357470186e-020 
3.705769144237564e-021 
4.235164736271502e-021 
-3.672681919735443e-022 
-6.564505341220828e-021 
4.658681209898652e-021 
-4.129285617864714e-021 
-4.07634605866132e-021 
1.985233470127266e-021 
-2.746239633676052e-022 
-3.308722450212111e-022 
-2.911675756186657e-021 
6.28657265540301e-023 
6.551270451419979e-022 
1.416133208690783e-021 
-1.330106424985269e-021 
-2.435219723356114e-021 
-8.470329472543003e-022 
-8.437242248040882e-023 
-2.435219723356114e-021 
0 
3.639594695233322e-023 
-8.060047888716702e-021 
-4.235164736271502e-022 
1.083916795174174e-021 
1.524659305057741e-020 
1.694065894508601e-021 
-1.799945012915388e-021 
-1.032321404466179e-020 
4.658681209898652e-021 
1.453190900133159e-020 
-5.055727903924105e-021 
-2.117582368135751e-021 
4.658681209898652e-021 
-2.514629062161204e-022 
3.970466940254533e-022 
3.308722450212111e-022 
-8.602678370551488e-022 
-5.823351512373315e-022 
2.117582368135751e-022 
-4.235164736271502e-022 
1.058791184067875e-022 
-8.735027268559972e-022 
7.17992771696028e-022 
2.845501307182415e-022 
9.529120656610879e-022 
5.558653716356346e-022 
1.058791184067875e-022 
-2.117582368135751e-021 
-5.346895479542771e-021 
-5.082197683525802e-021 
5.399835038746165e-021 
-1.270549420881451e-021 
-3.22931311140702e-021 
3.176373552203626e-021 
5.26748614073768e-021 
-1.270549420881451e-021 
-9.820288232229545e-021 
-8.205631676526035e-021 
-2.140743425287236e-021 
-1.158052857574239e-022 
-3.970466940254533e-022 
6.088049308390284e-022 
3.838118042246048e-022 
-2.646977960169689e-022 
6.220398206398768e-022 
-4.135903062765138e-024 
1.297019200483147e-021 
-3.441071348220595e-022 
9.26442286059391e-022 
-3.57342024622908e-022 
4.590852399669304e-023 
-2.08449514363363e-021 
-1.747005453711994e-021 
2.80579663777987e-021 
-7.30565917006834e-021 
5.505714157152952e-021 
-2.858736196983264e-021 
-1.023056981605585e-020 
6.352747104407253e-022 
-6.988021814847978e-021 
2.38228016415272e-021 
7.623296525288703e-021 
6.356055826857465e-021 
-4.135903062765138e-022 
-3.507245797224837e-022 
3.044024654195142e-022 
-9.380228146351334e-022 
-5.823351512373315e-022 
-2.646977960169689e-023 
5.426304818347862e-022 
-1.323488980084844e-022 
7.543887186483612e-022 
-2.38228016415272e-022 
-2.911675756186657e-022 
-1.879354351720479e-021 
-1.869428184369843e-022 
2.50801161726078e-021 
-4.023406499457927e-021 
5.18807680193259e-021 
-3.361662009415505e-021 
-4.632211430296955e-022 
3.494010907423989e-021 
4.552802091491864e-021 
-5.217028123371946e-021 
-4.896909226313924e-022 
-4.764560328305439e-021 
1.376428539288238e-021 
-1.671566581847158e-020 
2.713152409173931e-022 
-3.970466940254533e-022 
1.244079641279754e-021 
-1.58735959548926e-021 
7.411538288475128e-022 
5.293955920339377e-022 
3.176373552203626e-022 
-2.458380780507598e-021 
2.117582368135751e-021 
-5.029258124322408e-022 
-4.632211430296955e-023 
6.749793798432706e-022 
3.87120526674817e-022 
1.297019200483147e-021 
4.976318565119015e-021 
3.044024654195142e-021 
4.129285617864714e-021 
8.735027268559972e-022 
7.993873439712459e-021 
-1.402898318889935e-021 
2.964615315390051e-021 
1.36054667152722e-020 
5.293955920339377e-023 
1.005851624864482e-021 
-2.858736196983264e-021 
8.999725064576941e-022 
-6.617444900424221e-023 
5.293955920339377e-023 
2.117582368135751e-022 
-6.352747104407253e-022 
2.289635935546781e-021 
-1.588186776101813e-022 
-7.411538288475128e-022 
-1.588186776101813e-022 
1.654361225106055e-022 
-3.970466940254533e-022 
7.014491594449675e-022 
6.253485430900889e-022 
2.329340604949326e-021 
-2.117582368135751e-022 
2.673447739771385e-021 
8.470329472543003e-022 
-4.367513634279986e-022 
-3.232621833857232e-021 
0 
3.811648262644352e-021 
-1.058791184067875e-021 
7.146840492458159e-022 
-2.713152409173931e-021 
4.341043854678289e-021 
-1.370017889540952e-023 
-6.088049308390284e-022 
1.852884572118782e-022 
9.793818452627848e-022 
0 
-1.058791184067875e-022 
2.646977960169689e-022 
-4.764560328305439e-022 
-1.429368098491632e-021 
2.117582368135751e-022 
-1.627891445504359e-021 
1.124965633072118e-022 
1.600594485290109e-022 
2.38228016415272e-022 
8.470329472543003e-022 
1.95876369052557e-021 
4.499862532288471e-021 
-1.641126335305207e-021 
1.058791184067875e-022 
-2.488159282559507e-021 
-6.352747104407253e-022 
-1.111730743271269e-021 
3.675990642185655e-021 
-6.104592920641344e-022 
-1.323488980084844e-021 
2.916638839861976e-021 
-9.26442286059391e-023 
3.57342024622908e-022 
5.360130369343619e-022 
3.176373552203626e-022 
2.646977960169689e-022 
-7.279189390466644e-023 
-5.293955920339377e-023 
1.058791184067875e-021 
3.705769144237564e-022 
7.411538288475128e-022 
-1.058791184067875e-022 
-4.963083675318166e-022 
9.731779906686371e-022 
1.111730743271269e-021 
-4.281486850574471e-021 
1.376428539288238e-021 
4.235164736271502e-022 
-5.505714157152952e-021 
-1.058791184067875e-021 
-4.235164736271502e-022 
-1.376428539288238e-021 
5.293955920339377e-022 
1.482307657695026e-021 
9.363684534100273e-022 
-1.029012682015966e-021 
3.705769144237564e-022 
-3.507245797224837e-022 
-1.257314531080602e-022 
3.28390703183552e-022 
2.646977960169689e-023 
1.799945012915388e-021 
-2.911675756186657e-022 
5.889525961377557e-022 
1.244079641279754e-021 
-4.499862532288471e-022 
9.26442286059391e-023 
8.602678370551488e-023 
-3.176373552203626e-022 
1.058791184067875e-021 
2.488159282559507e-021 
-3.070494433796839e-021 
-5.293955920339377e-021 
4.235164736271502e-022 
8.139457227521792e-022 
2.117582368135751e-021 
-2.964615315390051e-021 
3.282252670610414e-021 
9.529120656610879e-022 
2.117582368135751e-022 
5.955700410381799e-023 
7.940933880509066e-023 
-9.26442286059391e-023 
1.985233470127266e-023 
-3.441071348220595e-022 
-2.729696021424991e-022 
-8.735027268559972e-022 
1.323488980084844e-022 
-2.38228016415272e-022 
-3.265295468053077e-022 
1.012469069764906e-021 
-4.33856231284063e-022 
9.512577044359818e-023 
-2.646977960169689e-022 
4.976318565119015e-021 
-4.499862532288471e-022 
-1.747005453711994e-021 
-1.058791184067875e-022 
-4.023406499457927e-021 
-2.541098841762901e-021 
-2.117582368135751e-022 
3.176373552203626e-022 
-1.376428539288238e-021 
0 
6.617444900424221e-022 
-5.293955920339377e-023 
4.764560328305439e-022 
-2.646977960169689e-023 
2.646977960169689e-023 
2.117582368135751e-022 
-5.293955920339377e-022 
7.940933880509066e-023 
-4.235164736271502e-022 
6.617444900424221e-024 
-5.293955920339377e-023 
-5.293955920339377e-022 
6.220398206398768e-022 
0 
5.161607022330893e-022 
-3.441071348220595e-021 
-1.164670302474663e-021 
2.170521927339145e-021 
-3.070494433796839e-021 
0 
-7.940933880509066e-022 
-1.297019200483147e-021 
7.411538288475128e-022 
-1.336723869885693e-021 
5.293955920339377e-022 
-3.176373552203626e-022 
-1.852884572118782e-022 
-2.646977960169689e-022 
2.117582368135751e-022 
4.235164736271502e-022 
1.588186776101813e-022 
7.411538288475128e-022 
-4.235164736271502e-022 
6.352747104407253e-022 
1.588186776101813e-022 
-2.646977960169689e-022 
-6.88214269644119e-022 
-6.617444900424221e-023 
6.617444900424221e-023 
2.911675756186657e-022 
-6.193928426797071e-021 
4.764560328305439e-022 
2.117582368135751e-022 
1.005851624864482e-021 
8.470329472543003e-022 
7.411538288475128e-022 
1.164670302474663e-021 
-4.976318565119015e-021 
6.88214269644119e-022 
2.488159282559507e-021 
-6.352747104407253e-022 
-2.316105715148478e-022 
-1.588186776101813e-022 
-2.911675756186657e-022 
5.293955920339377e-023 
-1.852884572118782e-022 
6.352747104407253e-022 
3.176373552203626e-022 
1.148126690223602e-021 
-3.970466940254533e-023 
1.164670302474663e-021 
5.293955920339377e-022 
5.293955920339377e-023 
-9.26442286059391e-023 
-1.482307657695026e-021 
-1.588186776101813e-021 
0 
9.793818452627848e-022 
-2.196991706940842e-021 
-4.446922973085077e-021 
-4.499862532288471e-021 
1.905824131322176e-021 
-2.699917519373082e-021 
8.470329472543003e-022 
-2.541098841762901e-021 
8.470329472543003e-022 
5.558653716356346e-022 
-4.764560328305439e-022 
-2.646977960169689e-022 
5.029258124322408e-022 
-1.058791184067875e-021 
3.705769144237564e-022 
-1.005851624864482e-021 
1.158052857574239e-022 
8.470329472543003e-022 
3.044024654195142e-022 
2.38228016415272e-022 
2.911675756186657e-022 
-2.646977960169689e-023 
-6.88214269644119e-022 
1.058791184067875e-021 
1.799945012915388e-021 
8.999725064576941e-022 
-1.905824131322176e-021 
-4.235164736271502e-022 
1.905824131322176e-021 
-9.727644003623606e-022 
-1.839649682317934e-021 
-9.529120656610879e-022 
-2.064642808932357e-021 
-5.955700410381799e-022 
2.117582368135751e-022 
-7.940933880509066e-023 
1.19114008207636e-022 
2.117582368135751e-022 
1.270549420881451e-021 
1.455837878093329e-022 
-3.970466940254533e-022 
-3.441071348220595e-022 
-1.058791184067875e-022 
1.323488980084844e-023 
6.223500133695842e-022 
7.610061635487855e-023 
-9.926167350636332e-023 
1.270549420881451e-021 
-2.541098841762901e-021 
1.694065894508601e-021 
2.117582368135751e-022 
-2.541098841762901e-021 
-4.446922973085077e-021 
1.389663429089087e-022 
-1.058791184067875e-021 
2.514629062161204e-021 
-1.455837878093329e-021 
-1.482307657695026e-021 
1.323488980084844e-022 
-2.249931266144235e-022 
-3.441071348220595e-022 
-6.617444900424221e-023 
2.249931266144235e-022 
-1.217609861678057e-021 
-1.588186776101813e-022 
-1.852884572118782e-022 
-2.117582368135751e-022 
1.588186776101813e-022 
3.441071348220595e-022 
5.293955920339377e-023 
-2.646977960169689e-022 
2.646977960169689e-022 
-1.270549420881451e-021 
-3.388131789017201e-021 
7.411538288475128e-022 
-6.352747104407253e-022 
-4.658681209898652e-021 
-2.752857078576476e-021 
2.117582368135751e-022 
-2.117582368135751e-022 
-5.823351512373315e-021 
-1.270549420881451e-021 
-2.117582368135751e-022 
-4.235164736271502e-022 
1.974893712470354e-022 
-9.26442286059391e-023 
-1.985233470127266e-023 
5.293955920339377e-023 
1.058791184067875e-022 
2.117582368135751e-022 
-1.244079641279754e-021 
-6.617444900424221e-023 
-3.705769144237564e-022 
2.646977960169689e-022 
1.852884572118782e-022 
6.88214269644119e-022 
-2.646977960169689e-023 
7.411538288475128e-022 
-4.235164736271502e-022 
2.541098841762901e-021 
2.752857078576476e-021 
0 
9.529120656610879e-022 
-1.058791184067875e-021 
-8.205631676526035e-022 
6.352747104407253e-022 
1.588186776101813e-022 
1.852884572118782e-021 
-1.270549420881451e-021 
-3.705769144237564e-022 
-1.323488980084844e-023 
-1.588186776101813e-022 
-3.441071348220595e-022 
-2.646977960169689e-023 
-4.499862532288471e-022 
-3.209460776705747e-022 
7.940933880509066e-022 
-2.878588531684536e-022 
5.293955920339377e-023 
1.50546871484651e-022 
-1.058791184067875e-022 
-1.19114008207636e-022 
4.235164736271502e-022 
1.270549420881451e-021 
0 
-4.235164736271502e-022 
1.482307657695026e-021 
8.470329472543003e-022 
4.235164736271502e-022 
2.646977960169689e-023 
-2.329340604949326e-021 
6.352747104407253e-022 
5.293955920339377e-023 
6.352747104407253e-022 
4.665298654799076e-022 
-1.720535674110298e-022 
9.26442286059391e-023 
-4.764560328305439e-022 
-1.058791184067875e-022 
-1.588186776101813e-022 
-4.566036981292713e-022 
-5.293955920339377e-023 
-2.117582368135751e-022 
8.867376166568457e-022 
2.38228016415272e-022 
-1.985233470127266e-023 
5.169878828456423e-024 
-6.352747104407253e-022 
-1.058791184067875e-021 
2.117582368135751e-022 
2.435219723356114e-021 
-8.470329472543003e-022 
1.482307657695026e-021 
1.257314531080602e-022 
-4.235164736271502e-022 
-3.970466940254533e-022 
0 
2.117582368135751e-022 
-4.235164736271502e-022 
-6.617444900424221e-024 
1.389663429089087e-022 
1.720535674110298e-022 
7.940933880509066e-023 
5.029258124322408e-022 
1.720535674110298e-022 
-5.293955920339377e-022 
4.367513634279986e-022 
5.293955920339377e-023 
-8.999725064576941e-022 
-7.940933880509066e-023 
-2.38228016415272e-022 
6.28657265540301e-023 
-7.411538288475128e-022 
8.470329472543003e-022 
8.470329472543003e-022 
-1.588186776101813e-021 
2.117582368135751e-022 
4.235164736271502e-022 
-4.235164736271502e-022 
-7.411538288475128e-022 
-1.588186776101813e-022 
1.588186776101813e-022 
1.204374971877208e-021 
7.411538288475128e-022 
0 
-2.514629062161204e-022 
3.308722450212111e-024 
2.779326858178173e-022 
2.646977960169689e-022 
-2.117582368135751e-022 
1.364848010712496e-022 
-2.646977960169689e-023 
2.514629062161204e-022 
-6.815968247436948e-022 
-3.705769144237564e-022 
4.764560328305439e-022 
-3.970466940254533e-023 
3.176373552203626e-022 
0 
1.058791184067875e-021 
4.235164736271502e-022 
5.293955920339377e-022 
4.235164736271502e-022 
1.694065894508601e-021 
-1.852884572118782e-022 
-4.499862532288471e-022 
2.646977960169689e-023 
7.940933880509066e-023 
-4.698385879301197e-022 
-1.323488980084844e-023 
-2.646977960169689e-022 
-1.323488980084844e-022 
-2.514629062161204e-022 
7.940933880509066e-023 
1.588186776101813e-022 
-5.293955920339377e-023 
-2.911675756186657e-022 
2.911675756186657e-022 
1.058791184067875e-022 
-5.161607022330893e-022 
1.852884572118782e-022 
-4.963083675318166e-023 
-1.429368098491632e-021 
1.270549420881451e-021 
-1.058791184067875e-022 
-4.235164736271502e-022 
9.529120656610879e-022 
3.176373552203626e-022 
-1.508777437296723e-021 
1.482307657695026e-021 
-8.470329472543003e-022 
-3.632977250332898e-021 
8.999725064576941e-022 
1.005851624864482e-021 
7.940933880509066e-023 
1.323488980084844e-022 
-6.352747104407253e-022 
2.911675756186657e-022 
-4.235164736271502e-022 
0 
3.507245797224837e-022 
5.823351512373315e-022 
-2.646977960169689e-023 
-6.617444900424221e-023 
3.176373552203626e-022 
1.985233470127266e-023 
6.617444900424221e-023 
1.058791184067875e-022 
4.235164736271502e-022 
2.117582368135751e-022 
8.470329472543003e-022 
1.058791184067875e-022 
-1.455837878093329e-022 
-2.117582368135751e-022 
2.646977960169689e-023 
-7.940933880509066e-022 
-8.999725064576941e-022 
3.176373552203626e-022 
-6.352747104407253e-022 
-9.26442286059391e-023 
-3.970466940254533e-022 
3.176373552203626e-022 
-5.293955920339377e-023 
5.293955920339377e-023 
-5.293955920339377e-023 
-7.676236084492097e-022 
2.117582368135751e-022 
3.970466940254533e-023 
-2.646977960169689e-023 
2.911675756186657e-022 
2.911675756186657e-022 
-1.166324663699769e-022 
-3.044024654195142e-022 
0 
4.632211430296955e-022 
-7.411538288475128e-022 
1.323488980084844e-023 
-6.352747104407253e-022 
-5.293955920339377e-022 
-7.146840492458159e-022 
4.764560328305439e-022 
1.058791184067875e-021 
-1.058791184067875e-021 
-7.411538288475128e-022 
-4.764560328305439e-022 
-2.38228016415272e-022 
-4.301339185275744e-023 
-7.940933880509066e-023 
-5.293955920339377e-023 
-1.058791184067875e-022 
0 
3.705769144237564e-022 
-3.970466940254533e-022 
-2.779326858178173e-022 
-4.77283213443097e-022 
2.845501307182415e-022 
5.955700410381799e-023 
8.337980574534519e-022 
-5.293955920339377e-022 
-8.470329472543003e-022 
-2.117582368135751e-022 
-7.742410533496339e-022 
2.911675756186657e-022 
8.470329472543003e-022 
4.235164736271502e-022 
-9.529120656610879e-022 
-3.176373552203626e-022 
1.694065894508601e-021 
-2.646977960169689e-022 
2.117582368135751e-022 
1.985233470127266e-023 
-2.38228016415272e-022 
3.970466940254533e-022 
-7.940933880509066e-023 
-4.235164736271502e-022 
1.588186776101813e-022 
9.926167350636332e-024 
0 
2.117582368135751e-022 
9.793818452627848e-022 
3.441071348220595e-022 
3.308722450212111e-023 
0 
1.058791184067875e-021 
7.411538288475128e-022 
3.176373552203626e-022 
2.9778502051909e-022 
-3.811648262644352e-021 
-4.235164736271502e-022 
-2.38228016415272e-022 
-5.823351512373315e-022 
-1.058791184067875e-022 
-4.301339185275744e-023 
-9.26442286059391e-023 
-2.117582368135751e-022 
-6.617444900424221e-024 
-3.176373552203626e-022 
-2.646977960169689e-022 
-1.985233470127266e-023 
-5.293955920339377e-022 
1.270549420881451e-021 
-1.323488980084844e-023 
-2.117582368135751e-022 
2.117582368135751e-022 
-3.159829939952566e-022 
2.117582368135751e-022 
2.316105715148478e-022 
-5.293955920339377e-022 
0 
-1.482307657695026e-021 
-8.999725064576941e-022 
5.293955920339377e-023 
6.352747104407253e-022 
-7.940933880509066e-022 
-6.88214269644119e-022 
2.117582368135751e-022 
0 
7.940933880509066e-022 
-5.293955920339377e-023 
2.646977960169689e-023 
-2.38228016415272e-022 
-1.19114008207636e-022 
7.279189390466644e-023 
7.940933880509066e-023 
1.058791184067875e-022 
-7.676236084492097e-022 
-1.058791184067875e-022 
-3.176373552203626e-022 
3.176373552203626e-022 
1.852884572118782e-022 
0 
6.617444900424221e-023 
-5.293955920339377e-022 
1.058791184067875e-022 
8.470329472543003e-022 
1.058791184067875e-022 
-1.852884572118782e-022 
-4.235164736271502e-022 
-1.058791184067875e-022 
-1.058791184067875e-022 
-4.235164736271502e-022 
9.529120656610879e-022 
-1.588186776101813e-022 
-1.000888541189164e-022 
-7.940933880509066e-023 
7.940933880509066e-023 
-1.058791184067875e-022 
1.720535674110298e-022 
0 
0 
1.323488980084844e-022 
-3.441071348220595e-022 
-2.646977960169689e-023 
2.646977960169689e-022 
3.639594695233322e-022 
1.323488980084844e-022 
-6.617444900424221e-023 
-2.117582368135751e-022 
-1.270549420881451e-021 
-7.411538288475128e-022 
-5.293955920339377e-022 
-1.058791184067875e-022 
5.293955920339377e-022 
2.117582368135751e-022 
-1.270549420881451e-021 
-2.329340604949326e-021 
-1.694065894508601e-021 
6.352747104407253e-022 
1.058791184067875e-022 
-1.058791184067875e-022 
1.654361225106055e-022 
-7.411538288475128e-022 
-7.610061635487855e-023 
3.176373552203626e-022 
-7.940933880509066e-023 
3.044024654195142e-022 
2.117582368135751e-022 
3.441071348220595e-022 
3.176373552203626e-022 
-1.058791184067875e-022 
-1.588186776101813e-022 
-1.613002194478404e-023 
-5.029258124322408e-022 
3.176373552203626e-021 
1.482307657695026e-021 
-5.293955920339377e-022 
-5.823351512373315e-022 
-3.176373552203626e-022 
-4.764560328305439e-022 
5.293955920339377e-022 
-3.176373552203626e-022 
-1.270549420881451e-021 
-1.588186776101813e-022 
7.411538288475128e-022 
-3.176373552203626e-022 
-1.753622898612419e-022 
-2.646977960169689e-023 
1.985233470127266e-023 
-2.646977960169689e-022 
-5.029258124322408e-022 
1.720535674110298e-022 
4.764560328305439e-022 
-7.940933880509066e-023 
-1.058791184067875e-022 
3.970466940254533e-022 
1.852884572118782e-022 
1.985233470127266e-023 
6.88214269644119e-022 
-7.411538288475128e-022 
-4.499862532288471e-022 
5.029258124322408e-022 
4.235164736271502e-022 
-4.235164736271502e-022 
1.905824131322176e-021 
0 
4.235164736271502e-022 
-1.905824131322176e-021 
-8.122913615270732e-022 
4.235164736271502e-022 
9.26442286059391e-023 
1.389663429089087e-022 
1.323488980084844e-023 
-3.176373552203626e-022 
-1.323488980084844e-023 
2.746239633676052e-022 
9.26442286059391e-023 
-3.176373552203626e-022 
7.940933880509066e-023 
4.714929491552258e-023 
-1.588186776101813e-022 
3.970466940254533e-023 
1.681761582896874e-022 
-1.77843831698901e-023 
-3.226004388956808e-023 
-1.212646778002739e-021 
-2.505840268152828e-022 
1.837374935633413e-022 
-7.394994676224067e-022 
6.427193359537025e-022 
7.407402385412363e-022 
-6.88214269644119e-022 
4.235164736271502e-022 
4.069728613760896e-022 
3.002665623567491e-022 
-9.305781891221561e-024 
-2.295426199834652e-023 
-3.233759207199493e-023 
-1.652551767516096e-022 
-4.756288522179909e-023 
2.601483026479272e-022 
-1.819797347616661e-023 
-1.828069153742191e-022 
2.729696021424991e-023 
-2.357464745776129e-023 
-2.460862322345257e-023 
-1.158052857574239e-023 
-4.001486213225271e-023 
2.9778502051909e-023 
1.007092395783311e-022 
-1.48892510259545e-022 
3.652002404421617e-022 
-1.33589668927314e-022 
5.198830149895779e-022 
-1.025703959565754e-022 
1.484789199532685e-022 
-5.575197328607407e-022 
8.925278809447169e-022 
1.50546871484651e-022 
-5.848166930749906e-022 
-1.280578985808656e-022 
-4.280659669961918e-023 
9.574615590301295e-023 
-5.831623318498845e-023 
3.556876633978019e-023 
1.122897681540735e-022 
2.605618929542037e-023 
-2.295426199834652e-023 
-1.158052857574239e-023 
8.602678370551488e-023 
-8.271806125530277e-023 
-2.223047896236262e-023 
4.01505714514997e-023 
-1.311081270896549e-022 
3.482430378848247e-022 
-5.955700410381799e-023 
7.531867218207451e-022 
-1.985233470127266e-023 
-7.771361854935695e-022 
-1.852884572118782e-022 
-1.751554947081036e-022 
-9.516712947422583e-022 
-9.061763610518418e-022 
4.19380570564385e-022 
-1.922160948420098e-022 
-6.3589509590014e-024 
1.054138293122265e-022 
2.192028623265523e-023 
-2.409163534060693e-023 
5.552449861762198e-023 
-2.915811659249423e-023 
1.602662436821491e-024 
-2.362634624604585e-022 
1.952146245625145e-022 
2.295426199834652e-022 
5.624828165360588e-023 
-6.57608586979657e-023 
-8.074704495195376e-024 
1.439294265842268e-022 
-1.178732372888064e-022 
-7.295733002717704e-022 
4.135903062765138e-022 
-1.499264860252363e-022 
-2.050787533672094e-021 
-3.474158572722716e-023 
-3.267363419584459e-022 
-1.530284133223101e-022 
-7.481848640542135e-022 
5.230883398632209e-022 
-2.415367388654841e-022 
6.848796977997646e-023 
1.185970203247903e-022 
1.652293273574673e-022 
3.805030817743927e-023 
-8.271806125530277e-025 
2.626298444855863e-023 
1.840476862930487e-022 
1.28006199792581e-022 
1.348304398461435e-022 
-1.985233470127266e-022 
1.080504675147392e-022 
-1.106354069289675e-023 
1.766806089624983e-023 
8.023651941764368e-023 
-5.914341379754148e-023 
2.365736551901659e-022 
-1.041213596051124e-022 
-6.179039175771117e-022 
-2.257789481963489e-021 
6.638124415738047e-023 
-2.299975693203693e-021 
4.599124205794834e-022 
-2.547716286663325e-022 
-8.933550615572699e-023 
2.117582368135751e-022 
-1.096014311632762e-023 
6.356689137013951e-023 
4.735609006866083e-023 
-8.251126610216451e-023 
2.803366794730495e-023 
1.153916954511474e-022 
-2.667657475483514e-023 
-2.446386661625579e-022 
-3.991146455568359e-023 
-6.203854594147708e-024 
-3.74299227180245e-023 
-8.685396431806791e-024 
5.588639013561393e-023 
2.345057036587834e-022 
-1.276753275475598e-021 
-2.158941398763402e-022 
1.979029615533119e-022 
3.970466940254533e-022 
-5.128519797828772e-022 
-8.35452418678558e-023 
-9.512577044359818e-022 
-1.911821190763185e-022 
3.629254937576409e-022 
-1.869428184369843e-022 
-3.606507470731201e-022 
5.614488407703675e-023 
4.332358458246482e-023 
2.895132143935597e-023 
-1.5008158239009e-022 
2.882724434747301e-022 
-1.124965633072118e-022 
-3.184645358329157e-023 
1.923194924185789e-023 
-4.549493369041652e-023 
1.654361225106055e-023 
2.290256321006195e-023 
-1.261450434143367e-023 
4.006656092053728e-023 
-3.498973991099307e-022 
2.059679725257039e-022 
1.273858143331663e-022 
4.675638412455989e-022 
-2.034864306880448e-022 
1.90416977009707e-021 
-1.534420036285866e-022 
-2.262338975332531e-022 
-1.542691842411397e-022 
-2.477405934596318e-022 
-3.308722450212111e-022 
-3.639594695233322e-022 
8.907701221430417e-023 
1.804287711131292e-022 
5.066481251887295e-024 
-1.00605842001762e-022 
1.508699889114296e-022 
4.456435550129437e-023 
-2.336785230462303e-023 
-2.21374211434504e-022 
4.828666825778299e-023 
-1.844612765993252e-022 
1.166324663699769e-022 
-5.872982349126497e-023 
-4.200526548120844e-025 
1.724671577173063e-021 
6.01256907749482e-022 
-6.435465165662555e-022 
-7.593518023236794e-022 
-6.385834328909374e-022 
5.608284553109528e-022 
-2.32644547280539e-022 
2.291290296771887e-022 
-1.327624883147609e-022 
3.005767550864564e-021 
4.196907632940924e-022 
2.036932258411831e-023 
2.331615351633847e-023 
-3.288042934898285e-023 
4.384057246531047e-023 
-3.556876633978019e-023 
1.27179019180028e-023 
2.323860533391162e-022 
-2.618026638730333e-022 
5.66618719598824e-023 
-5.790264287871194e-023 
-4.081780893779735e-023 
-1.230431161172629e-023 
4.259980154648093e-023 
-7.57387248368866e-024 
-4.756288522179909e-023 
-5.401489399971271e-022 
5.848166930749906e-022 
-6.464674981043334e-022 
-9.595295105615121e-023 
-8.35452418678558e-023 
-9.107258544208835e-022 
-4.981178251217764e-023 
6.452008777913616e-022 
5.695138517427596e-022 
-4.690114073175667e-022 
-6.071505696139223e-022 
7.940933880509066e-023 
-5.314635435653203e-023 
1.620757012721089e-022 
3.608575422262583e-023 
-4.393750769334403e-023 
-3.650968428655926e-022 
-1.19114008207636e-022 
2.009014912738166e-022 
1.865292281307077e-022 
-3.970466940254533e-023 
-1.226295258109864e-022 
5.624828165360588e-023 
-3.329401965525936e-023 
-7.312276614968765e-022 
1.652293273574673e-022 
-1.670904837357116e-022 
1.364848010712496e-023 
1.103458937145739e-021 
-8.437242248040882e-023 
1.869428184369843e-022 
1.240770918829542e-024 
-5.955700410381799e-023 
-8.428970441915352e-022 
4.417144471033168e-022 
4.135903062765138e-024 
2.171349107951698e-023 
-1.149781051448709e-022 
-8.323504913814841e-024 
1.946459378913843e-022 
-1.016915165557378e-022 
-1.227329233875555e-022 
5.37667398159468e-024 
-1.50546871484651e-022 
-4.963083675318166e-023 
9.905487835322506e-023 
-3.556876633978019e-023 
-2.150669592637872e-023 
2.367804503433042e-023 
7.225422650650697e-022 
-1.453769926561946e-022 
-7.763090048810165e-022 
-2.072087434445334e-022 
9.702828585247015e-022 
2.233387653893175e-023 
1.542691842411397e-022 
3.498973991099307e-022 
-1.273858143331663e-022 
-3.507245797224837e-022 
-3.381100753810501e-023 
-2.051407919131509e-022 
-1.468245587281624e-023 
6.193514836490795e-023 
5.113010161343402e-023 
-1.114625875415205e-022 
2.841893499164041e-024 
4.611531914983129e-023 
-1.20768369432742e-022 
-5.293955920339377e-023 
7.845291122182622e-023 
-2.353328842713364e-022 
-2.010048888503857e-022 
-1.985233470127266e-023 
5.154369191971054e-023 
-7.02689930363797e-022 
-2.098970804353308e-022 
2.067951531382569e-023 
-5.955700410381799e-022 
-1.654361225106055e-022 
-3.788487205492867e-022 
-9.512577044359818e-024 
-2.258203072269766e-022 
3.077111878697263e-022 
4.334426409777865e-022 
-5.955700410381799e-023 
-2.026592500754918e-023 
7.408436361178054e-022 
2.946830932220161e-023 
-6.617444900424221e-024 
1.240770918829542e-023 
7.625571271973224e-024 
1.699856158796472e-022 
-4.963083675318166e-024 
-2.460862322345257e-023 
2.502221352972909e-023 
1.19941188820189e-022 
-2.078291289039482e-023 
-8.768114493062093e-023 
-2.415625882596264e-023 
1.04638347487958e-022 
1.516325460386269e-022 
2.051407919131509e-022 
-1.087742505507231e-021 
5.293955920339377e-022 
6.617444900424221e-023 
2.39055197027825e-022 
4.301339185275744e-023 
-6.675347543302933e-022 
-2.365736551901659e-022 
3.110199103199384e-022 
2.034864306880448e-022 
-1.83530698410203e-022 
1.72260362564168e-022 
-1.025703959565754e-022 
1.437226314310886e-023 
2.603550978010655e-022 
-6.927637630131607e-023 
-2.440182807031432e-022 
-2.709016506111166e-023 
3.391440511467414e-023 
-1.306945367833784e-022 
-2.715220360705313e-022 
3.060568266446202e-023 
1.214921524687259e-023 
2.005912985441092e-022 
-7.144772540926777e-023 
-1.141509245323178e-022 
-3.813302623869458e-022 
-3.391440511467414e-022 
1.439294265842268e-022 
-9.926167350636332e-024 
2.886860337810067e-022 
-7.376383112441624e-022 
-1.340032592335905e-022 
-7.444625512977249e-023 
4.450231695535289e-022 
2.065883579851187e-022 
1.141509245323178e-022 
7.833658894818595e-023 
-2.045721052420207e-022 
2.226149823533336e-022 
7.403266482349598e-023 
3.805030817743927e-023 
-5.893661864440322e-023 
1.565439309256605e-022 
-2.417435340186223e-022 
6.672374862976571e-023 
-3.101927297073854e-023 
1.24981820677934e-023 
-3.718176853425859e-022 
-1.768098559332097e-022 
-1.670904837357116e-022 
-5.96397221650733e-022 
-5.790264287871194e-023 
3.738856368739685e-022 
7.146840492458159e-022 
1.79498192924007e-022 
6.277654614423923e-022 
-4.466775307786349e-022 
4.036641389258775e-022 
2.795870470429234e-022 
2.085270625457898e-022 
-6.038418471637102e-023 
8.416562732727057e-023 
4.508134338414001e-023 
-3.875341169810935e-022 
3.174305600672244e-022 
-2.402959679466545e-022 
-1.695720255733707e-023 
-4.011825970882184e-023 
1.364848010712496e-023 
1.240770918829542e-023 
4.549493369041652e-024 
-5.919511258582604e-024 
2.944762980688779e-022 
1.621274000603934e-022 
-1.48892510259545e-022 
1.592322679164578e-022 
-2.944762980688779e-022 
8.532368018484481e-022 
1.530284133223101e-022 
-2.593211220353742e-022 
-2.558056044320238e-022 
2.316105715148478e-023 
2.200300429391054e-022 
-2.10103875588469e-022 
-4.554663247870109e-023 
-1.147713099917326e-023 
6.245213624775359e-023 
-9.615974620928947e-023 
2.079066770863751e-022 
-3.556876633978019e-023 
-2.220979944704879e-022 
1.195275985139125e-022 
6.369290716658313e-023 
-5.997059441009451e-024 
1.412410895934295e-022 
5.790264287871194e-024 
1.357093192469811e-024 
1.147713099917326e-023 
1.213370561038723e-022 
-4.706657685426728e-022 
1.590254727633196e-022 
-8.189088064274974e-022 
5.227781471335135e-022 
2.564259898914386e-022 
-5.39321759384574e-022 
-9.098986738083304e-023 
1.894243602746433e-022 
5.062345348824529e-022 
-2.007980936972475e-022 
-3.763671787116276e-023 
-4.135903062765138e-024 
-2.9778502051909e-023 
5.981549804524081e-023 
-1.040179620285432e-022 
-8.085690487705846e-023 
-1.05465528100511e-023 
-3.929107909626882e-024 
-4.011825970882184e-023 
6.772541265277914e-023 
-5.500751073477634e-023 
7.361907451721946e-023 
-2.946830932220161e-024 
3.771426605358961e-022 
5.054073542698999e-022 
-5.877635240072107e-022 
-1.211561103448763e-022 
-3.639594695233322e-022 
-1.040593210591709e-021 
-1.146472328998496e-021 
-8.718483656308912e-022 
-4.156582578078964e-022 
-1.761894704737949e-022 
-9.975798187389514e-022 
-1.364848010712496e-022 
-1.178732372888064e-023 
5.966040168038712e-023 
2.042877619064556e-022 
2.564259898914386e-023 
-6.570915990968114e-023 
-1.531318108988793e-022 
1.033975765691285e-024 
-1.406207041340147e-023 
-4.384057246531047e-023 
1.010194323080385e-022 
-1.422750653591208e-022 
5.293955920339377e-023 
1.062410099247795e-023 
-1.753622898612419e-022 
5.2319173743979e-023 
4.872093807937333e-022 
6.86559908419013e-023 
1.604730388352874e-022 
-9.371956340225804e-022 
2.589075317290977e-022 
1.348304398461435e-022 
7.217150844525167e-023 
1.149781051448709e-021 
-3.891884782061995e-022 
-9.781410743439552e-023 
-6.526972020926234e-024 
1.672455801005653e-023 
-1.055172268887956e-022 
-6.700162961679524e-023 
-2.047272016068744e-023 
-1.189589118427823e-022 
-5.273276405025551e-024 
7.031035206700735e-023 
3.308722450212111e-024 
-2.750375536738817e-023 
-4.549493369041652e-023 
-9.522916802016731e-023 
-1.519944375566188e-023 
5.190558343770249e-023 
7.610061635487855e-023 
5.6827308082393e-022 
5.790264287871194e-023 
-9.578751493364061e-022 
-9.450538498418341e-022 
2.150669592637872e-022 
1.377255719900791e-022 
3.747128174865215e-022 
4.353554961443154e-022 
7.527343574232552e-023 
-1.017432153440224e-022 
1.005541432134774e-022 
-5.066481251887295e-023 
1.351406325758509e-022 
2.789666615835086e-022 
4.911384887033602e-025 
2.005912985441092e-023 
9.55393607498747e-023 
2.912709731952349e-022 
-7.683473914851936e-022 
-3.660274210547148e-023 
1.296605610176871e-022 
5.955700410381799e-023 
-3.567216391634932e-024 
-1.056723232536493e-022 
2.419503291717606e-023 
1.057757208302184e-022 
-4.202077511769381e-022 
9.595295105615121e-023 
1.138200522872966e-021 
-1.042247571816815e-022 
-1.753622898612419e-022 
-3.209460776705747e-022 
-3.192917164454687e-022 
-1.654361225106055e-022 
1.592322679164578e-022 
-7.274019511638187e-023 
2.129990077324046e-023 
1.091797629213302e-022 
7.873725455739132e-023 
-2.68833699079734e-023 
1.654361225106055e-024 
3.288042934898285e-023 
1.090844432804305e-022 
-2.649045911701071e-022 
9.285102375907736e-023 
6.203854594147708e-024 
9.926167350636332e-024 
-2.016252743098005e-024 
2.68833699079734e-023 
1.852884572118782e-022 
3.209460776705747e-022 
-6.361018910532783e-022 
-4.226892930145971e-022 
2.938223083970781e-021 
1.861156378244312e-022 
-1.555099551599692e-022 
-5.277412308088317e-022 
6.340339395218957e-022 
-2.646977960169689e-022 
1.315217173959314e-022 
-1.395867283683234e-023 
-6.017738956323276e-023 
-2.646977960169689e-023 
-2.016252743098005e-023 
-2.481541837659083e-023 
5.66618719598824e-023 
-5.128519797828772e-023 
-2.642842057106923e-022 
-2.729696021424991e-023 
-1.066029014427714e-022 
6.72084247699335e-024 
1.33589668927314e-022 
2.981727614312242e-023 
-2.709016506111166e-023 
-3.060568266446202e-023 
-8.486873084794064e-022 
-1.591495498552025e-021 
1.938704560671159e-025 
3.192917164454687e-022 
-1.015364201908842e-022 
-1.65022532204329e-022 
-7.936797977446301e-022 
6.311388073779601e-022 
-5.293955920339377e-023 
3.718176853425859e-022 
3.979514228204332e-023 
-1.013296250377459e-023 
-2.54358038360056e-023 
-6.741521992307176e-023 
-6.369290716658313e-023 
-3.143286327701505e-023 
7.031035206700735e-023 
-5.37667398159468e-023 
-1.356576204586965e-022 
-1.071198893256171e-022 
0 
-1.240770918829542e-023 
-3.626669998162181e-023 
8.013312184107456e-023 
-5.433542648707701e-022 
4.963083675318166e-023 
2.0762233375081e-022 
-2.138261883449577e-022 
-1.268481469350068e-021 
1.381391622963556e-022 
-3.912564297375821e-022 
-3.077111878697263e-022 
-3.697497338112034e-022 
-1.584050873039048e-022 
5.897797767503087e-022 
-2.119650319667133e-023 
1.19941188820189e-023 
2.129990077324046e-022 
5.355994466280854e-023 
1.588186776101813e-022 
9.11966625339713e-023 
-2.307833909022947e-022 
-5.790264287871194e-024 
1.053621305239419e-022 
-2.946830932220161e-023 
-1.513740520972041e-022 
5.273276405025551e-023 
1.165807675816923e-023 
-2.646977960169689e-023 
-1.861156378244312e-022 
-3.697497338112034e-022 
-8.989385306920028e-022 
-2.580803511165446e-022 
1.252351447405284e-021 
4.135903062765138e-023 
-2.895132143935597e-024 
1.737079286361358e-023 
4.234970865815435e-022 
2.481541837659083e-023 
1.058791184067875e-022 
-3.443139299751978e-023 
3.329401965525936e-023 
-1.590254727633196e-022 
1.600594485290109e-022 
2.450522564688345e-023 
2.243727411550088e-023 
2.584939414228212e-023 
-4.135903062765138e-025 
-1.292469707114106e-026 
5.128519797828772e-023 
-5.459392042849983e-023 
3.991146455568359e-023 
1.70606001339062e-024 
-1.613002194478404e-022 
-1.530284133223101e-023 
-6.086498344741747e-022 
-3.66234216207853e-022 
5.211237859084074e-023 
1.108422020821057e-022 
2.067951531382569e-022 
2.895132143935597e-024 
-1.587152800336122e-022 
4.524677950665061e-022 
0 
1.588186776101813e-022 
2.729696021424991e-023 
6.462348535570529e-024 
-7.320548421094295e-023 
-7.858215819253763e-023 
5.2319173743979e-023 
4.652890945610781e-025 
1.062927087130641e-022 
-8.002972426450543e-023 
-2.647139518883078e-023 
2.481541837659083e-023 
-8.106370003019671e-023 
-3.908428394313056e-023 
3.334571844354393e-024 
1.058791184067875e-022 
2.657317717826601e-023 
-1.596458582227343e-022 
2.09276694975916e-022 
5.715818032741421e-022 
-4.17726209339279e-022 
-1.096014311632762e-022 
4.218621124020441e-022 
6.28657265540301e-023 
4.152446675016199e-022 
-5.178150634581953e-022 
1.091878408569997e-022 
-6.514047323855093e-024 
2.667657475483514e-023 
2.584939414228212e-025 
7.951273638165979e-023 
3.846389848371579e-023 
5.293955920339377e-023 
9.429858983104516e-023 
-2.729696021424991e-023 
1.654361225106055e-024 
-1.459973781156094e-022 
6.57608586979657e-023 
-3.970466940254533e-023 
-3.971759409961647e-023 
-2.812414082680294e-022 
5.30429567799629e-023 
4.235164736271502e-022 
4.77283213443097e-022 
-1.373119816838026e-022 
7.46116912522831e-022 
-3.166033794546713e-022 
-3.217732582831278e-022 
2.134125980386811e-022 
8.271806125530277e-025 
-2.332649327399538e-022 
8.476533327137151e-022 
2.61595868719895e-023 
5.306880617410518e-023 
-3.101927297073854e-025 
5.295248390046491e-023 
-1.584050873039048e-022 
-5.278446283854008e-023 
2.642842057106923e-022 
-7.672100181429332e-023 
-1.257314531080602e-022 
3.689225531986503e-022 
-2.481541837659083e-023 
-6.658803931051873e-023 
-2.652147838998145e-023 
2.791734567366468e-023 
2.123786222729899e-022 
3.110199103199384e-022 
-9.562207881113e-022 
2.779326858178173e-022 
1.185349817788489e-021 
1.712263867984767e-022 
-1.637817612854995e-022 
-5.624828165360588e-023 
-3.407984123718474e-022 
-1.240770918829542e-022 
-2.622162541793098e-022 
1.406207041340147e-023 
-2.011082864269549e-023 
-2.481541837659083e-023 
-7.796177273312286e-023 
-5.335314950967029e-023 
7.940933880509066e-023 
-1.083606602444466e-022 
1.853143066060205e-022 
1.319353077022079e-022 
3.054364411852055e-022 
4.963083675318166e-023 
9.305781891221561e-025 
-1.757758801675184e-024 
-9.760731228125727e-023 
5.128519797828772e-023 
-6.617444900424221e-024 
-2.116289898428637e-022 
9.843449289381029e-023 
2.051407919131509e-022 
1.85908842671293e-022 
8.271806125530277e-025 
1.48892510259545e-022 
1.108422020821057e-022 
-2.125854174261281e-022 
-1.857020475181547e-022 
-3.867069363685404e-023 
-4.704589733895345e-024 
-7.610061635487855e-023 
1.646606406863371e-023 
5.169878828456423e-023 
-4.963083675318166e-024 
7.84787606159685e-023 
3.680953725860973e-023 
-4.135903062765138e-025 
6.307252170716836e-023 
2.895132143935597e-023 
-8.002972426450543e-023 
-9.615974620928947e-024 
-2.500153401441526e-022 
1.326590907381918e-022 
-1.323488980084844e-023 
-3.877409121342317e-026 
-3.507245797224837e-022 
-1.555099551599692e-022 
2.39882377640378e-022 
1.604730388352874e-022 
-7.874759431504824e-022 
-2.837229501056885e-022 
1.050519377942345e-022 
5.269140501962786e-022 
1.323488980084844e-023 
-6.72084247699335e-024 
-1.813593493022513e-022 
2.051407919131509e-022 
3.205324873642982e-024 
-1.242838870360924e-022 
-2.657317717826601e-023 
-1.069130941724788e-022 
-4.17726209339279e-023 
-1.439294265842268e-022 
1.069130941724788e-022 
5.459392042849983e-023 
-1.395867283683234e-024 
-2.818100949391596e-022 
-2.113446465072986e-022 
-3.308722450212111e-024 
-1.654361225106055e-024 
1.19114008207636e-022 
3.507245797224837e-022 
7.837536303939937e-023 
8.459989714886091e-022 
5.790264287871194e-022 
-2.109310562010221e-022 
2.531172674412265e-022 
5.310499532590438e-022 
1.726739528704445e-023 
-5.717885984272804e-023 
-5.335314950967029e-023 
1.670904837357116e-022 
2.677997233140427e-023 
-1.311081270896549e-022 
2.220979944704879e-022 
-1.327624883147609e-022 
-3.846389848371579e-023 
-2.983020084019356e-023 
2.39882377640378e-022 
-5.252596889711726e-023 
-1.499264860252363e-024 
4.830702465567004e-022 
-1.49719690872098e-022 
-5.15953907079951e-023 
-8.404155023538761e-022 
4.549493369041652e-022 
4.135903062765138e-025 
1.04638347487958e-022 
4.235164736271502e-022 
-3.805030817743927e-022 
-1.057964003455322e-021 
7.130296880207099e-022 
1.025703959565754e-022 
3.299675162262312e-023 
-2.657317717826601e-023 
5.335314950967029e-023 
-2.067951531382569e-024 
1.318319101256388e-023 
-1.865292281307077e-022 
1.286265852519958e-022 
1.240770918829542e-024 
7.403266482349598e-023 
7.940933880509066e-023 
-1.133237439197648e-022 
-7.940933880509066e-023 
-1.130910993724843e-026 
2.08087622845371e-023 
5.292921944573686e-022 
-7.610061635487855e-023 
4.797647552807561e-022 
-4.235164736271502e-022 
1.56957521231937e-022 
-1.687448449608177e-022 
2.667657475483514e-023 
-4.202077511769381e-022 
-1.063754267743194e-021 
-9.595295105615121e-023 
1.05827419618503e-022 
-2.067951531382569e-025 
-2.646977960169689e-023 
-1.060859135599258e-022 
1.59335665493027e-022 
3.176373552203626e-022 
-6.203854594147708e-025 
-3.970466940254533e-023 
-7.899574849881414e-023 
4.342698215903395e-023 
5.355994466280854e-023 
-3.970466940254533e-023 
-7.858215819253763e-023 
9.04728794979874e-026 
3.691293483517886e-022 
3.217732582831278e-022 
-1.058791184067875e-022 
-7.411538288475128e-022 
8.933550615572699e-022 
2.117582368135751e-022 
4.235164736271502e-022 
1.042247571816815e-022 
-2.117582368135751e-022 
-3.060568266446202e-022 
-8.238718901028156e-022 
-2.39882377640378e-022 
2.336785230462303e-023 
2.646977960169689e-023 
-5.283616162682464e-023 
-4.226892930145971e-022 
-2.564259898914386e-023 
3.30045064408658e-022 
-8.375203702099405e-023 
-5.273276405025551e-023 
-3.101927297073854e-025 
1.03811166875405e-022 
-3.127776691216136e-024 
1.389663429089087e-022 
-1.323165862658066e-023 
1.064995038662023e-022 
-2.485677740721848e-022 
2.09276694975916e-022 
1.589841137326919e-021 
2.448454613156962e-022 
-3.188781261391922e-022 
-1.062927087130641e-022 
-7.932662074383535e-022 
9.479489819857697e-022 
3.308722450212111e-022 
-1.158052857574239e-023 
-4.23413076050581e-022 
0 
-5.314635435653203e-023 
7.956443516994435e-023 
1.580948945741974e-022 
7.943518819923294e-023 
7.031035206700735e-024 
2.584939414228212e-026 
-2.584939414228212e-025 
1.060859135599258e-022 
-2.646977960169689e-023 
-7.816856788626112e-023 
7.92025436519524e-023 
1.324522955850536e-022 
3.441588336103441e-022 
3.706803120003255e-022 
8.441378151103647e-022 
1.385527526026321e-021 
5.194694246833014e-022 
4.102815838263017e-022 
8.337980574534519e-022 
2.878588531684536e-022 
-1.040593210591709e-021 
-1.985233470127266e-023 
-9.330597309598152e-022 
-5.281548211151082e-022 
1.591288703398887e-022 
2.32644547280539e-025 
-1.349338374227126e-023 
1.591288703398887e-022 
-7.899574849881414e-023 
2.481541837659083e-024 
-5.37667398159468e-023 
1.327624883147609e-022 
-5.292663450632263e-023 
0 
5.242257132054813e-023 
2.646977960169689e-023 
-6.617444900424221e-024 
9.529637644493725e-022 
6.215745315453157e-022 
-8.470329472543003e-022 
-1.910787214997494e-021 
4.896909226313924e-022 
5.279480259619699e-022 
1.563371357725222e-022 
-6.327931686030662e-022 
-3.29217883796105e-022 
4.963083675318166e-023 
2.249931266144235e-022 
-3.709905047300329e-022 
-5.381843860423136e-023 
4.03250548619601e-023 
-1.048451426410963e-022 
5.190558343770249e-023 
-2.150669592637872e-023 
1.77843831698901e-023 
-5.278446283854008e-023 
-2.419503291717606e-023 
-3.101927297073854e-025 
5.583469134732937e-023 
1.083606602444466e-022 
-2.584939414228212e-023 
1.576813042679209e-024 
-2.117582368135751e-022 
-1.461524744804631e-022 
3.668546016672678e-022 
6.394106135034904e-022 
-3.176373552203626e-022 
-7.436353706851719e-022 
-6.617444900424221e-023 
-4.255844251585327e-022 
6.518183226917858e-022 
-3.135014521575975e-022 
1.158052857574239e-023 
-3.703701192706181e-022 
1.328658858913301e-022 
2.171349107951698e-024 
2.709016506111166e-023 
-1.286265852519958e-022 
2.895132143935597e-023 
2.83309359799412e-023 
9.843449289381029e-023 
2.10103875588469e-022 
3.949787424940707e-023 
7.858215819253763e-024 
-5.08716076720112e-023 
4.652890945610781e-025 
1.525114254394645e-024 
7.961613395822891e-023 
1.34416849539867e-023 
-1.215955500452951e-022 
-2.117194627223617e-022 
-1.042247571816815e-022 
-1.033975765691285e-022 
1.071198893256171e-022 
1.062927087130641e-022 
1.283784310682299e-021 
2.564259898914386e-023 
-4.235164736271502e-022 
2.10103875588469e-022 
6.373426619721078e-022 
2.68833699079734e-023 
-5.211237859084074e-023 
1.546827745474162e-022 
-1.067062990193406e-022 
-5.355994466280854e-023 
2.440182807031432e-023 
-5.914341379754148e-023 
1.054138293122265e-022 
-3.970466940254533e-023 
3.978221758497218e-023 
-2.067951531382569e-025 
1.32219651037773e-023 
4.241368590865649e-022 
0 
2.316105715148478e-023 
-2.167213204888933e-022 
5.045801736573469e-023 
5.292663450632263e-023 
3.259091613458929e-022 
-3.308722450212111e-024 
6.617444900424221e-024 
3.143286327701505e-023 
-2.580803511165446e-022 
1.602662436821491e-024 
-1.04638347487958e-022 
-7.796177273312286e-023 
-2.657317717826601e-023 
1.075334796318936e-022 
-5.335314950967029e-023 
-5.211237859084074e-023 
2.68833699079734e-023 
8.271806125530277e-025 
2.10103875588469e-022 
-3.965297061426076e-023 
5.37667398159468e-023 
2.618543626613178e-023 
1.338998616570214e-023 
-6.617444900424221e-024 
-1.058791184067875e-022 
-4.466775307786349e-023 
2.134125980386811e-022 
2.115514416604368e-022 
-2.638706154044158e-022 
-2.043136113005978e-022 
-1.067062990193406e-022 
2.316105715148478e-023 
-2.895132143935597e-023 
1.588186776101813e-022 
5.169878828456423e-026 
-1.058791184067875e-022 
8.033991699421281e-023 
-6.72084247699335e-024 
1.333828737741757e-023 
5.242257132054813e-023 
-4.508134338414001e-023 
-3.96012718259762e-023 
-5.283616162682464e-023 
-5.319805314481659e-023 
9.305781891221561e-025 
3.763671787116276e-023 
-1.319353077022079e-022 
-3.957542243183392e-023 
2.117582368135751e-022 
1.124965633072118e-022 
-3.805030817743927e-023 
-7.77549775799846e-023 
2.150669592637872e-022 
8.271806125530277e-024 
4.135903062765138e-025 
8.271806125530277e-024 
-7.146840492458159e-022 
2.150669592637872e-022 
1.067062990193406e-022 
3.308722450212111e-024 
2.644910008638306e-022 
-4.63544260456474e-023 
-6.203854594147708e-024 
1.987818409541495e-023 
-1.251110676486454e-023 
-1.033975765691285e-025 
2.651113863232454e-022 
-5.293955920339377e-023 
3.975636819082989e-023 
-2.440182807031432e-023 
-2.564259898914386e-023 
1.058839651681892e-022 
1.989110879248609e-023 
6.327931686030662e-022 
-2.123786222729899e-022 
-2.332649327399538e-022 
1.116693826946587e-022 
-5.624828165360588e-023 
-2.547716286663325e-022 
-1.513740520972041e-022 
1.321421028553462e-022 
-1.819797347616661e-023 
1.591030209457464e-022 
1.03811166875405e-022 
