solver_type L2R_L2LOSS_SVC_DUAL
nr_class 2
label 2 1
nr_feature 6433
bias -1
w
-0.0005426371273804066 
-0.002153603465432902 
0.01475038213679056 
0.01100366347747284 
-0.003483116178784388 
-0.0004466350035028966 
-0.0003483116178784284 
-0.005928372054248906 
-0.0278331319949738 
-0.008571791512855198 
-0.01095601750067815 
0.001605286591363026 
-5.061006164946081e-005 
-0.0114886787850317 
-0.01113994471769121 
-0.004101261173754379 
-0.007315916969098592 
0.004173443474121271 
-0.002974645235286677 
0.003969576822253295 
0.0006981763540745668 
0.0007002384138512335 
0.001271103341891702 
0.0009826074990609162 
0.000963608587144876 
0.002982383136327235 
0.0009792747540827119 
0.002535236795052734 
-0.0006062608714779122 
-0.0002999358642939583 
-0.0006585991809323415 
-0.001306167777583169 
0.001512352266563038 
-0.0009085476851337114 
-0.008528522828006202 
-0.01214589153173414 
0.004477821921829861 
0.001396485675655345 
-0.003101324470606596 
-0.006537763941139712 
0.002241146223196242 
-0.01252384297591285 
0.006204141785313901 
-0.004303675022108076 
-0.001654097375964692 
0.009477985207118367 
0.002248414224700814 
0.002769169242010073 
-0.001015266064998349 
2.843619165300553e-005 
0.003339292924459559 
0.001291139825473211 
0.002852277328650857 
0.001624395750773995 
-0.001188459006227365 
0.0002161713426559072 
-0.0001401261019246338 
-0.0009488816642259449 
-0.001254391298060954 
-0.005092239364547905 
-0.004005567099884338 
0.005082029362222755 
0.004043977273040273 
-0.0007704289039427736 
-0.008544608324366767 
0.005403794856233518 
-0.007743270978233918 
0.001658403938831397 
-0.005603128693164423 
0.0002505904734043136 
0.003870104209951217 
0.002889887099263919 
0.003878667974244515 
-0.002813134283708489 
-0.001757458492067862 
0.004002155186938535 
0.0007149380387826918 
0.002014462257108639 
0.004349768212605499 
-0.002080499934567222 
0.001996764864618269 
0.001401396298506797 
-0.001595019488892069 
-0.0009361797008349855 
0.0009305341545953433 
-0.0005853881769061663 
-0.0052094368240925 
-0.00195570010813775 
-0.0001512964754025115 
-0.005981868132569237 
0.005407653238589009 
0.001019706216129668 
-0.0005113303951616808 
-0.0005795834211783423 
0.005128466929359253 
-0.005632113427680069 
0.002500320093921045 
0.002691081506434671 
-0.001542693913116972 
-0.001568071866771299 
0.003612524837983724 
0.002501683191163121 
-0.0001265072751285728 
0.002781497272435825 
-0.002038517081429667 
0.0005255629848876039 
0.0003593744316104762 
-0.001933112652810238 
-0.000665350132321555 
0.001148124647277309 
0.002657062058134955 
-0.007616744993384521 
-0.007161819399408569 
0.007047127060414043 
-0.007843145985499102 
0.004387791877115407 
0.007661169766129666 
-0.002871318472079938 
0.005147085213030822 
0.007585314314197687 
0.000278164228170643 
0.000990282642122593 
0.0004757353327431974 
-0.000718972081398169 
-0.001059436743990121 
0.001173874512407266 
0.004046476682072248 
-0.002639665700597163 
-0.0006798826385984139 
6.284184327216669e-005 
0.0003264899502017276 
-0.0005174834769569203 
0.001532845740781333 
-1.75794449314065e-005 
0.0008528816826748424 
-0.002021761096040681 
0.003113778227335014 
-0.0008410002856977981 
0.01105250555931634 
0.005620018581442825 
0.002116608332852066 
-0.006318592547980668 
-0.0017235773580912 
-0.007051020757754515 
-0.003524544008901939 
0.001608359389394969 
-0.0002460838066847724 
-0.0004387816396245476 
0.001340484602683971 
-0.0003825689848945612 
-0.0009044660343745267 
0.00162480252608365 
-0.003175165314087395 
-0.002363593044883096 
0.001430972762888716 
-0.0003189958265245297 
-0.0009496856105148458 
0.0027367474545205 
0.0003378195532820451 
-0.0001020043197140107 
-0.0009086904575278005 
-0.002674367086904972 
-0.001810572636147442 
-0.0005029434329437866 
0.005886838219891144 
-0.006148991380925371 
-0.007473497328851299 
0.002578798659549146 
-0.0007349936857938683 
0.001989683140087686 
0.007914080264900392 
-7.696147457231199e-005 
8.457578345877149e-005 
0.001667446133782494 
0.0001668898217379876 
-0.003031358384264668 
-8.446345123955688e-005 
-0.00240840150328268 
-0.0004905486676594241 
0.001543423858352496 
-0.0009648800317727393 
0.0004069346684660829 
-0.001297113406290712 
0.0007253195071164167 
0.0003251855808041899 
-0.0009964026191448339 
-0.0009781726636488705 
-0.006544113560949416 
-0.0008986175299279848 
-0.004722931132817221 
-0.005199786066095195 
-0.003230919833204239 
0.00391852774808316 
0.00076640485058308 
0.003177806812233044 
0.004233671030818655 
0.0003352937904091899 
0.000267336707039223 
-0.0008321954154817918 
0.0005630613974344746 
-0.001129320523504411 
-0.001846971634487951 
-0.001571633107264691 
0.002052386565239837 
-0.0005753771647123503 
0.0004481439208058254 
0.001322060938962003 
-0.002160181987650868 
0.001387513702858085 
0.001027174970145139 
0.002567228377933727 
0.00276648557981224 
-0.003475801424978861 
-0.002134144306004834 
-0.003094042889386721 
-0.003996057311040043 
0.003664569090088032 
0.002024792866411859 
-0.003586052716472063 
0.0062688149306593 
-0.007520044652793862 
0.0007756149722822961 
-0.0004595992668820387 
0.000230660091796122 
0.001157680712688366 
0.002836010991086028 
-0.0001386744204568956 
0.0005908292391735264 
0.001343039539045522 
-0.0008125277391659048 
0.0004379397339337123 
-0.001716135020268919 
-0.00157586575437312 
0.0008635628117033366 
0.001964767516219756 
-0.002423063533984305 
-0.003767694332238266 
0.002806937190905096 
0.006221510956867111 
0.0008755980555264392 
-0.006818047991315131 
-0.001625736246618149 
-0.004323477927407381 
-0.003384725058159126 
0.0009462250907617182 
-0.001475423152375128 
0.000579342707672243 
-0.0002379509945428802 
0.0006565554609141528 
0.001519743748098168 
0.002994369929716677 
0.001359903991368003 
0.003050202858930632 
0.0001140014238986816 
-0.0004306054051543867 
0.001526821653386848 
-0.001041858488357987 
0.001680985336261842 
0.0005757076235565218 
0.002956299690036577 
-0.002493373472681921 
-0.0001263100728159314 
-0.0006977010972700471 
0.01011711277342415 
0.002394220165583138 
-0.002385701421058886 
-0.001560927215810072 
0.002637126298314836 
0.003530306412917423 
-0.005475207236964381 
0.002889282047996749 
0.001052677242360738 
0.0004518250748218193 
0.0006208046221268439 
-0.0004926153799942016 
-9.927765720078699e-005 
0.0001112648394737625 
0.00321365174129594 
-0.0003412924379689049 
0.001065135193542263 
0.001399606495869504 
0.0001345506082392001 
0.002025700078181621 
0.0004866095325028218 
0.002257352484806371 
0.000344147535064571 
0.003751021109443872 
-0.0003344190148510015 
0.00794766324464991 
-0.0006675034650829596 
0.009246116887392937 
-4.82187482195456e-005 
0.001459331417571517 
0.004842395173637853 
0.003840570864354184 
0.007433933872788946 
0.00093709429121535 
0.00087417298533311 
0.0009052267011674189 
-0.0004767008651096899 
-0.004807817655960609 
-0.0006948247598224926 
0.002759665946163102 
-0.0006050136703491978 
0.001666882877206271 
0.00163733426809664 
0.002598583178165929 
-0.0007932044714196167 
0.0006035660902762561 
0.006144263896964175 
0.00344272897593645 
0.002111237953302136 
-0.004368200396983208 
-0.003493629308805974 
-0.001766161502827401 
0.004040114179852862 
0.001169382521854918 
0.004459025701396483 
-0.0007015824719123158 
0.005494392243199701 
-0.001846284926770833 
0.0002923236227945358 
0.0002709886766040227 
-0.0003703735177937425 
0.0008222165095085659 
-0.004000140645499446 
-0.0006751969568801973 
0.0005091364109338846 
-0.0002001525232409698 
-0.0003002836626490852 
-9.2291291591229e-005 
0.001877701993647736 
-0.001797694790111839 
0.0007216766860484887 
0.005056251027140982 
-0.001020243870565876 
-0.0003602706990813736 
0.002258625415977238 
-0.01101222034422489 
-0.0005183406275370906 
0.003767361972904762 
-0.006015913925641548 
0.003099993884709868 
0.0069178711947141 
0.008454313574633171 
-0.00307368285844667 
-0.0004421504444650704 
-0.001095439787442551 
-0.0006152600406673779 
0.003215834222401197 
-0.0009886975422949498 
-0.0005589985411335504 
-0.00197946354903342 
0.0007955812213292472 
-0.0006837238593821116 
-0.0007704503888147541 
-0.001596195082039663 
0.0003809275699073572 
4.358083912527353e-005 
0.003018481334592346 
-0.0004562063576188136 
7.746394740835416e-005 
0.002116828148324569 
-0.000403674294932154 
-0.001056313994898186 
0.002899374640525413 
0.0004221494926144606 
0.0003154053052378396 
0.002031102715513093 
0.001606441565510101 
-0.0008453623823030424 
-0.001461401386516057 
-0.001511049060358671 
-0.0004399601323924349 
0.00107945224167642 
0.002192994777334801 
-0.0003812171112949933 
-0.002186032328470169 
0.0006823986694354539 
-0.001392095600839024 
0.0003496707971691504 
-0.00207823640881826 
0.00109233476827978 
-0.0002410329149067222 
0.001609488660608157 
-0.003183563410292003 
0.001691575424767794 
0.01250224593283189 
0.001459253245076917 
-0.003817405828662707 
-8.079866481275634e-005 
0.004303274817948368 
0.0001125954125879698 
-0.0003761952806876179 
-0.002196414440279254 
0.008838143711970333 
-0.001476811338187738 
3.152167505623858e-005 
0.0007029978012162947 
-0.001496351474855028 
0.001577119174453193 
0.0003546952689185143 
-1.668159557370466e-005 
0.001046132517203779 
0.0004724563265999767 
0.0002842280099716618 
-0.001470747259469115 
0.0004243893184358714 
-0.000188195081453349 
0.0005606291286253393 
-0.003030878968303054 
-0.001114467756072659 
-0.004092757857703619 
0.001235604931595425 
-0.002022684951940087 
-0.004965952245701459 
-0.0005782527647397457 
-0.001007769924815904 
0.004693818790876743 
0.0004285591033808069 
-0.002340480427813349 
-0.001589946313171989 
0.000972446964816975 
0.001248546202391283 
-0.00225088877328974 
-0.001524717752151333 
-8.978236167480835e-005 
0.0003186579242490513 
-0.0006793412937817188 
0.0028592003256102 
0.0007042858708922322 
0.0001751944969196614 
-0.001366135349384396 
0.0001347362297456321 
-0.001098895030920006 
0.0004246631159844586 
0.003750646714272041 
-0.002118311220235078 
-0.003946249743834088 
0.001738313621332631 
0.0076165860265597 
-0.0002850931771052919 
0.006123822121923457 
0.00700767388127921 
0.001689544692977537 
-0.0002041983498727512 
-0.0008848976869773376 
0.001946391769115828 
-0.0004788654245196921 
-0.002643787154730093 
-0.001617175111093641 
-1.783995259287759e-005 
0.001121816108468235 
0.001762750652686412 
0.00227711174664412 
-0.0004641442843702331 
0.001992301113698428 
-0.001000808614037692 
0.0002426511259714811 
-0.003577094964853328 
0.002601933236485817 
0.005290690133206973 
-0.001827374811316362 
-0.005324518039275082 
-0.004283105621319744 
0.0006439622877709271 
-0.0006803785732888161 
0.01160570331923394 
0.001860632037659488 
0.0005394343573807158 
-0.003154883972866428 
-0.0007646297317110052 
0.001281939912739773 
-0.001388628334579824 
6.102374036344995e-005 
-0.0006014582787563675 
0.002310388844829405 
0.0005610362702060646 
0.002788569491518156 
0.001438276275155092 
-0.0008764296412571362 
0.002154278547116691 
0.001658585274243414 
-3.081191630024909e-005 
-0.0007461006750176214 
0.003732056832305336 
-0.003905320087355717 
-0.001849356135631765 
-0.003346558622087762 
-0.002776406398487303 
0.002723366320946099 
0.01316809429478167 
0.005191378718450142 
-0.001280273040012396 
0.007709592057389132 
0.004241279913962128 
-9.124396938715072e-005 
-0.0004496129680713446 
-0.002166927434723725 
-0.0004891260603392887 
0.0004378900853974814 
0.001590551523774858 
-0.00138338539031657 
0.0007374918013001697 
0.0001169102518730039 
-0.0004225651500045971 
0.001137507519510712 
0.001053479141491273 
0.0002197073177297096 
-0.003438883765426565 
0.001725136839778038 
-0.004229643029010156 
-0.00392211898437476 
-0.002071513089883248 
0.01178666718308328 
0.000285876899191087 
0.006637977969071977 
0.006649845045306684 
0.004455649879637377 
0.008189931157905348 
0.003729686905257311 
0.0005626745046835161 
-0.0006483515605949555 
-0.0007336068101699761 
-0.0003369005024523354 
0.001218902381620767 
0.0007000634421853598 
-0.0003436519920700672 
-0.001800721894961253 
-0.002155975671193588 
0.0004033630465996986 
-0.0005949983386966893 
-0.0005336118019744028 
0.0004022436357690287 
-0.001624204252652839 
-0.001385004759200788 
-0.00232383331036692 
-0.003516563064360352 
-0.003383322327378942 
0.001656191447774181 
0.0008786789009080419 
-0.0002567979638396793 
0.009186309453702394 
0.003597347179442378 
0.003551827021747946 
0.001620880855573749 
0.000396256429573216 
0.0009220664957159965 
0.002210075539437681 
-0.0001217192006900537 
0.002279854417215692 
-0.0003689170115902525 
-0.0009920265937151272 
-0.003741753175089189 
-0.0003006342332038954 
0.0004324788779082656 
-0.001792714846626582 
-0.002742516711089436 
0.0002767333818417107 
-0.0003246986030661231 
0.001918699663440877 
0.0008318999295669919 
-0.002678316462549359 
0.0007883615288780635 
-0.002999120953983351 
-0.0001519329422955217 
-0.002971554544139254 
-0.001171616447385239 
0.001438575417843979 
-0.0003566585775389244 
-0.004512770553736795 
0.0004292428897659388 
0.002217005993275051 
0.001357438236273614 
0.0006811060019851512 
0.001699005024871587 
-0.001336593487868391 
-0.0007382496719444876 
-0.001680579776392857 
-0.001275702139968824 
-0.003294441115677658 
-0.001830884677395287 
-0.001887895618123572 
-0.0005710466901323926 
-0.0003219263053160992 
0.008245628831485176 
0.004614280747994328 
-0.00307993142571752 
0.00662272885442261 
0.002771849506534575 
-0.00201790070312423 
-0.0007358674708470948 
0.007598900209812502 
0.002390669645097688 
0.003019352252719837 
-0.005350111919809633 
-0.0008554433116843223 
0.00302531471996151 
-0.0006218782156470639 
-0.0005907434106650836 
0.001274271385395755 
0.0003592878115248752 
-0.001086437656114565 
-0.00077617601843614 
-0.002422243844883654 
-0.001153204824623948 
-0.001894327209903625 
0.001026092182235874 
-0.001390970390148444 
-0.001943810300811819 
0.00799486248798577 
-0.0009114688321361913 
-0.0007348914233426894 
0.001420458653452995 
0.0045458464261846 
-0.00195711209433363 
-0.001525370374633205 
0.001065068050853608 
-0.01141319344822137 
-0.0006982200700543901 
-0.00222426390260435 
-0.0006913034671604255 
7.577966105662485e-005 
-0.001691577857819845 
-0.0001531897748765434 
-0.0002613839777451559 
-0.0003771256980830614 
-0.001518880328065437 
0.00158142942378293 
-0.0002812208195692208 
0.0001326926368452278 
-0.001009435660217595 
0.001498736792181834 
-0.00134583773290862 
-0.005091858625530406 
0.0107035130542181 
-0.004561553756484734 
-0.007441963415719967 
0.002672024467083784 
-0.0003198090862508068 
-0.003650942631097493 
-0.004860765317596989 
-0.004043268334066123 
0.004257218364232452 
-0.005749002445714148 
0.005607132457595641 
0.000554516429344614 
-0.002367359244332268 
-0.001673788664937906 
0.0007432948968192234 
-0.001863666517863078 
-0.00205922787403685 
-0.0005624185925193988 
0.001956200563613986 
7.728771223754666e-005 
0.001216591538814224 
-0.001846228911290208 
0.0002872727042468174 
-0.0006512527783104784 
-0.001396246571173172 
0.001068678985225837 
-0.003038138369055866 
-0.001263227504998349 
0.00145682868989357 
-0.003338941635478951 
-0.006929821545355283 
0.006998038790049302 
0.003243354073751929 
0.001168729042077755 
-0.001019688127379443 
-0.002497672092673841 
0.00153216815096083 
-0.002920986972709645 
0.0007970153368880049 
0.000977923183758319 
-0.0005062468165191611 
-0.0005159591269636517 
-0.001574820555874504 
0.002153107279909022 
0.0009891748304793244 
0.002184698804249912 
9.99211813934282e-005 
-0.0006229200911668439 
0.0002620021212444123 
0.002176871185489237 
-0.0001280926000325911 
-0.002691319523416721 
0.0009007455547146926 
-0.002713773496305226 
-0.003581907705485091 
-0.002343572069020715 
0.004783448067772633 
0.006896200383015381 
0.002182673956561743 
-0.006051079146428919 
-0.003777037024799591 
0.002408640685392533 
-0.002320553852443608 
0.001020385103624565 
0.002009054995787833 
-5.016402992596319e-005 
0.00339702844940553 
0.001393324146255691 
-0.0001112057160395205 
-0.0004957964346792212 
-0.0005861956215189934 
0.001000358810263014 
-0.0002647651879520675 
0.0001326921078402203 
0.002082633830097895 
-0.00119428149633067 
0.002138467526541823 
-1.670711332220191e-005 
0.001582092140147212 
0.003597079369698941 
-0.01048487561356654 
0.004418035064153894 
0.0005411971887445095 
0.0005475519714728405 
-4.759015163555979e-005 
-0.0006467826498315382 
0.0009453343996316586 
0.0001534261958277318 
0.0004505603317933267 
-0.0001135736741220823 
-0.0007954684906571134 
0.002426228178862735 
0.002699342589222665 
-0.001291993994381682 
-0.002114451856982123 
-9.282540321882722e-005 
-0.0002933098118464216 
0.001937129173603403 
0.0001108446376581232 
0.005211897111291027 
0.0002322171186293407 
-0.002047885952147028 
0.001980023911875494 
0.002358500915521685 
0.01319732507415603 
0.005093217958423815 
-0.00412678161597647 
-0.005171119281786033 
0.001636824841650807 
-0.001233283556300409 
0.003357834936272017 
-0.001573361603186182 
0.001007956342007841 
-0.001086292838276386 
-0.001928451188960868 
-0.001303028432016648 
0.001084105677937322 
0.002832504306804473 
-0.001258588453605607 
-0.002160361865107661 
-0.00114054454174568 
0.0006617603120726754 
0.001940786530340112 
0.0003336811337772192 
0.001812887280168652 
0.001655609349137101 
-0.00110702655685817 
-0.002370698001231432 
-0.005056684886154443 
0.0004026073915951864 
0.002848451462218897 
0.004993191968823622 
-0.001295177720460683 
0.0009775173466074001 
-0.004895079929951847 
0.003620540580998265 
-0.002412921093781399 
0.0009640776810902933 
-0.00250197492721162 
8.733565164133119e-005 
-0.0006617594983536201 
-0.001184366884222611 
0.00295108091077691 
-0.0002860050256791554 
0.0001656846892141058 
0.000837855271400147 
0.0007540785189167909 
0.0006846013213170032 
0.0006991810415650795 
-0.005555058952006284 
0.003486737947852292 
-0.006500021076759318 
-0.007564510984793039 
-0.005909592840333154 
0.003435844023370465 
0.005152308712400227 
-0.001797063619752335 
-0.002987410317623125 
-0.003735033552075896 
-0.0003186111877782811 
0.003793215672791758 
-0.001996419652002967 
0.0007604191924854624 
-0.001885251326552261 
0.0009110219938562943 
7.991806747576108e-005 
-0.001341576649036108 
-0.001107332078997727 
-0.0006625060725611636 
0.00126934396220485 
0.0003930615336795723 
0.0008780798112792709 
-0.001220210380173119 
0.0005461401301129985 
-0.004899516940933588 
0.001580051325752742 
-0.005336043703181388 
0.006339205233309267 
0.001280212508043856 
0.004332433718275885 
0.006183310113933051 
0.004417406109200354 
0.001350593110476845 
0.005128887000373275 
0.000509679940351259 
0.002167264597244267 
-0.0003895660461998278 
0.0002182176141493245 
-0.002239466982230853 
0.001284771589534486 
0.001001952168836043 
2.450057099798373e-005 
-0.00188327126336662 
-0.001855537788995825 
-0.0001214468739275473 
-0.0002066077634574861 
-0.0008270065472011641 
-0.002951429677604913 
-7.273083793640467e-006 
-0.001228209823107377 
0.00432609895580957 
-0.003676283493156131 
0.006827731646630709 
-0.00454478605918178 
0.005665067717065484 
0.002449848540217197 
-0.003410765925353187 
0.003365850764754595 
-0.0007125010153076048 
-0.003503343063530741 
-0.002207528071274495 
0.0008276886740045058 
-0.0006357302867796376 
-0.001338185218961713 
0.0002432513578402383 
7.508590432370626e-005 
-0.001283218785036722 
-0.003480516908232865 
-0.000484877931834008 
-0.0008405997437193478 
-0.0008021972234479493 
-0.0003839454936518757 
-0.001340804348821439 
-0.0005616295421741683 
-0.002735359571488843 
0.003090777413241333 
-0.006647974830058606 
0.003521294538659785 
-0.004091331462184001 
0.002151367325920793 
9.898007093013804e-005 
-0.0005660923671076944 
-0.000661532259552337 
-0.004148220868703667 
-0.0128340383585239 
-0.007188977768229114 
0.0009179971985646928 
0.0001333269165906991 
-0.001027023814876676 
-0.001423284003090636 
-7.467092904464749e-005 
-0.003200067613108881 
-0.003641657849362326 
-0.0001833814998494325 
-0.001209478670569617 
-0.002573184268729213 
0.00137692784058934 
0.0004750298325621704 
-0.0007173129320891511 
-0.002702113265765423 
0.0004988292458330682 
-0.005605366371130447 
0.002498285372938522 
-0.004001050150879254 
0.002632171532338681 
-0.005563765221303473 
0.0009800357835777756 
0.0002025711740021944 
-0.004505092486912644 
-0.0007902407389772242 
-0.0002772285733513762 
0.0005455859182141485 
0.0005205390741166629 
-0.001135100909946959 
-0.0002390912155234048 
0.0008939938312192725 
-0.002498592391407456 
-0.00072154390963321 
-0.0006202376306360535 
-0.001008636147769326 
-0.0006061101680533352 
0.003907898326054272 
0.0007374483999803824 
-0.0006082943436918751 
0.0005267194166591918 
0.003195709922719236 
-0.003423439828618326 
0.002796562497461651 
-0.00165590491190619 
-0.004606343276613797 
-0.00574497475766471 
0.001737066853909448 
0.001259968988862242 
-0.006295286771859656 
0.004494379345415889 
0.003491146945146169 
0.0007664380528148681 
0.001566747635008543 
0.001039919921034967 
0.001238223700881001 
0.0009163818538841436 
-0.0005424721633580707 
0.003045665675185526 
-0.0001003572811496239 
-5.311029052197364e-005 
0.001260188502436644 
0.002680191034469939 
0.0001416424719845186 
-0.000750954931956675 
0.001255197639613273 
0.002102655216213077 
-0.005570335536877301 
0.001513451981609847 
-0.005556522699144184 
0.002533435611427341 
0.000839558074806169 
-0.006063404491007826 
0.0007016438665411188 
-0.003203740740634157 
0.007573532701532451 
-0.004067315306341766 
0.001535077505749523 
0.002178637473281174 
0.002578040132921183 
0.001817872468687349 
0.001281063885441616 
0.001049377547316881 
0.00259556235705989 
-0.0004170264667669684 
-0.0003578199559194219 
0.0009708346843234211 
-0.001808287668102499 
-0.002345037150496497 
-0.0008565699147435286 
0.0009021617735405668 
0.003344306543155281 
0.002843981601249194 
0.00476325756727088 
-0.005894289159943206 
0.004820731013881789 
0.01320860455941336 
0.004324779081237361 
0.0004888364829290826 
-0.0008921960059474529 
-0.002931691881220637 
-0.002500752444713583 
0.001543442108074239 
0.001161003095398038 
0.003061245075178359 
-0.0002863418151035501 
-0.0001055094018894335 
0.00348026664122457 
0.0009259393210329719 
0.001046208745770372 
0.0005148788329415473 
0.001619883505117501 
-0.002368536920722608 
-0.0001312059493349669 
-0.0004730580673321948 
0.004916797036569326 
0.00494662179436427 
0.005878659229914628 
0.005318475595905953 
0.0002126278872988235 
0.008250825999212699 
0.001162492413039849 
0.003423906238352892 
0.002256670799826101 
-0.004339345871184158 
-0.006891076513207809 
-0.009859452623788305 
0.001157878063852447 
0.0009730429192672037 
0.003699100076200273 
-0.0008327641694183414 
0.0008249440857121398 
0.001584598866591725 
-0.001715752974124429 
0.002720406020146353 
0.0009038455048950056 
0.001215112119052215 
-0.002207718546487613 
0.0007805551243279089 
0.0003822523677389315 
0.00503898259848371 
0.003210312657137575 
0.00359618080747775 
-0.004057295774235233 
-0.001704488056677748 
0.008200573815790929 
0.00267419412656869 
0.003190207138425581 
0.002792916220978479 
0.005735183207296377 
0.002965973637799586 
0.002397933088317606 
0.0001371306758646616 
-0.0006034261697360618 
0.00202426882933849 
-0.001446206339612551 
0.000743113057929826 
0.000223435419134647 
-0.001206315903734632 
0.000508282188426763 
0.000157322734826549 
0.001403347304820936 
0.00116570495404095 
-0.0002793782712739579 
0.0004403620390633592 
0.004595776276450186 
0.006306213411431233 
0.00665573317284323 
-0.001974566494961157 
0.001964437168613988 
0.003787008186984579 
0.002324924430002867 
0.009362410513824407 
0.007912443289185547 
0.006438746283979242 
-0.000141563103344021 
-0.005093641488803822 
-0.0002780466056236532 
-0.0002094334633324903 
0.001446169547795215 
0.0009877600648679366 
0.0005993224280509303 
-0.00140779702214464 
0.0003107608007746549 
0.0001638634123781894 
-0.00145220095597673 
0.0007583936939929684 
0.0007564094523153846 
0.001308932956148678 
0.0002862701922380753 
0.00366206200735834 
0.002925144539936222 
0.006721192961830237 
-0.0002431504383803869 
0.005174272399436707 
0.004451133284736743 
0.007404474936877157 
0.007754254067765985 
0.003500734100872175 
0.008457243244116643 
0.008796414463611341 
-0.007582019097652075 
-0.0005753014828202922 
-0.0004176194180320444 
-0.0005974586080911708 
0.001899775807695479 
-0.0006875509543020228 
-0.003454754214028242 
0.0005910347058195165 
-0.001661791529253934 
-0.003624765049689008 
-0.002738490204929394 
-0.002028006185975994 
0.0009662214192554846 
0.0001379575429560267 
0.005936235216448232 
0.004739990304182255 
0.003555298133858354 
0.005635146268355364 
0.004081789641871774 
-0.002300680075631742 
0.0004942649489413182 
0.001714009229419725 
-0.002573067929393965 
0.004110970297921231 
0.0006666753740481676 
0.002851931909603281 
-0.0007069792410943469 
-0.0002008118835805743 
-0.001764311302009989 
0.001420503154557344 
-0.002100211678862016 
-0.002762486059722519 
0.0008163661145597351 
-0.002737812913707352 
-0.00226950519858644 
-0.003578493456280788 
-0.00320318109658209 
0.002324951377882373 
0.0001868587520220366 
0.002346572363414167 
0.005203202272837509 
-0.003431721106036149 
0.00285495317185574 
-0.001897694600038285 
0.0007717146002152438 
0.002191317482313517 
0.004072202692429978 
-0.006907607468791108 
-0.006293112202215062 
-0.003942889576985521 
0.005104458783336231 
-0.001350688219810561 
4.907485636723347e-005 
-0.001283333371410036 
0.0005882873033252276 
-0.0003878076830306552 
-0.002604634135047841 
-0.0001622114161530116 
-0.00161840219787029 
0.001598202570392804 
-0.001418216251408285 
-0.002765620795857259 
0.001849439518675825 
0.0003171869269188499 
0.001821895843581945 
0.007141795777522916 
0.0007599131478304877 
0.004861442919936228 
-0.006059965633892549 
0.00263233033100614 
0.005115965978624013 
-0.0009764533628689007 
-0.001790363301924036 
-0.005611105854140136 
-0.005733221012418211 
0.00574510010741059 
-0.001039029089922788 
-0.001603261042299286 
-0.001013742492255193 
-0.0007029499992098727 
0.000136884161349093 
-0.002204729990540128 
-0.001175707048592205 
-0.00165690399145422 
0.001424822382752966 
0.0004286115632304107 
0.0008545550995068999 
0.0001745473994901335 
0.0005023808170343255 
0.0005631641321719077 
0.003685916197563083 
-0.002165220894154268 
0.002185407263741594 
0.00369365123403811 
-0.001242619908028744 
0.001206940985992143 
-0.002629627528996642 
0.002804979042553714 
-0.002100020252335897 
-0.0001959422074395506 
0.004796614265062601 
-0.00047260862221175 
-0.002399131898377103 
5.528764104343455e-006 
-0.0004463795071118953 
0.0007345476974535678 
-0.001988095065877027 
-0.001218202021683215 
-0.0004975765549602314 
-0.0008612965262319985 
0.001118903977213373 
0.00117914897509729 
-0.000416644399710531 
0.0003457934090735482 
-0.0009322319985242769 
-0.002164044631413677 
-0.00385665606118838 
0.0007335375887853546 
-0.001470141503417906 
-0.007074104050333306 
-0.003405076808515783 
-0.003032839187111103 
-0.008014269964649299 
0.0001898159365891664 
0.005188294097813345 
0.002908483918811375 
0.0005624897635203884 
-0.002741012258247142 
-0.001286832795162076 
0.0002260871463029434 
0.0004962117129334708 
-0.001521699985029487 
-0.0009350349871613103 
0.0007073280879422254 
-0.0008525323418405444 
-0.0002427076289387243 
0.000105226422341989 
7.547163012549174e-005 
-0.0001349680914815644 
-0.00258066973743339 
-0.002920400027946822 
-0.00140012881514782 
0.0002145192966977215 
-0.001308745650962647 
-0.002514259979314498 
0.002191747278123994 
0.00805472513224161 
-0.01511795868476224 
-0.0048998091609604 
-0.0009496491514695751 
-0.004092557355903885 
0.001031150467759695 
-0.0006317284394046722 
-0.00109893642979076 
-0.0001958830388216658 
0.0007037340743951981 
0.0003023818029287356 
-0.0004442600769791446 
-0.0002558547813152425 
0.0006154444688537544 
-0.0005949115437237422 
-0.0008254873963487199 
-0.000199150129265525 
-0.0006178271248626692 
0.002367822526650552 
-0.003890019212149608 
-0.005386250646425055 
0.00525831123717524 
0.002488876119546033 
-0.0009747302772544269 
0.0007145911916576047 
0.00343930534335415 
-0.001931172007406628 
-0.004860558899954202 
-0.004367415965387314 
-0.0001486385854435812 
0.0007399850251966448 
0.0003486449662921028 
-0.0003327603472456793 
-7.111986577159674e-005 
0.001580684929748556 
0.001487010353092352 
-9.184970606410899e-005 
-0.0008991008455166202 
0.003544656530543904 
0.0001084530448295129 
-0.001578840112887984 
-0.001128967412166003 
-0.001146107030851766 
0.00321117635924094 
0.001293202044735626 
-0.0006209634675909295 
-9.699786581434564e-005 
0.00679568456772698 
0.003675728858245151 
-0.002502457603934532 
-0.0001173112787170442 
-0.001064649750197648 
-0.003175317472813276 
-0.001713857699200375 
-0.003032219441207648 
-0.0009360282125353357 
6.443506807218072e-005 
-0.0005124098385443519 
-0.0002922533963969446 
0.001236841870001442 
0.001571039949910275 
0.0006064509168137355 
-0.00135786198047709 
0.002349472233381141 
0.001046112307704692 
-0.0006833359823434107 
-0.001188470897550945 
-0.0009637534773681433 
0.0006892719981508353 
0.0009498184423279329 
0.004170097640011339 
0.003255338869341031 
0.0008521669576526662 
0.002241479614484533 
0.0005084576782114275 
0.0008100942710255315 
0.00200546972747131 
-0.001533593458576397 
-0.003221506864392038 
-0.005476589136566369 
-0.001665339588847726 
0.0001279917815332634 
-3.336484091267743e-005 
-0.0004377135562634046 
-0.001106955362544458 
0.001639499270873408 
0.001153382325842801 
9.12070215955064e-005 
-0.001020698671208194 
0.0001994426135250502 
-0.0005630086865177172 
-0.001314244420584987 
-0.0004639115264555028 
-0.005244367080791608 
-0.0007822465120280343 
0.001532740472518887 
0.001898582181677699 
0.0008289353896134494 
0.006323011807402345 
0.007912904668862016 
0.001132593391207367 
-0.00609277844181849 
-0.004900440744161374 
-0.003051303230274149 
-0.004344880016868525 
-0.001332126463726889 
-0.0005271484673191422 
-0.0007976028377515821 
0.001935306692483143 
0.0001494336370334035 
0.0008485667515332951 
-0.001194940390870392 
0.0001539960639016215 
-0.00279929969901753 
-8.814639145762245e-005 
-0.0009704528510264749 
-0.0002808858668282144 
-0.0001285808837575242 
-0.002438603751250007 
-0.002600467526567698 
-0.002830992338152979 
0.002101911199218783 
-0.002750357190768622 
0.005377729304028417 
0.003920509313240882 
-0.003640392512039444 
-0.004393956456512273 
-0.001818956966491603 
-0.005903609588704238 
-0.00360775631246119 
0.0001813173287079637 
0.0006027680978878074 
-0.0008261377405414072 
0.001524125973891118 
0.0008653395948701222 
0.0007811648235606571 
-0.002162835463525213 
0.0002409829003175179 
-0.002752525718117561 
-0.0002546857014578988 
0.0004373574703446698 
0.001544116234865324 
-0.000309525939197511 
-0.002251057341516834 
-0.002203298214182145 
-0.002972665218290346 
0.006483846679920906 
0.004506638867983144 
0.006662240472580108 
-0.005254286121218419 
-0.004165268217173091 
-0.007589700702656961 
0.001457469616295899 
-0.0008550362674029594 
-0.004965916019108924 
0.001796698493459744 
0.001579762450216125 
0.0006272779665180503 
0.002087205594911374 
0.001125091094407984 
-0.0003381156463800969 
-0.003297173431223409 
0.0005356271373460803 
-0.00153172144235951 
0.0007345683491645936 
0.000262549408283076 
0.001628560480615008 
-0.0006185892956263918 
-9.102109198890209e-005 
-0.0006950192238791795 
-0.001068878260397853 
0.004935060160068077 
-0.001811486132622135 
0.002145724012210531 
-0.0002486325384444912 
-0.0001200607344000756 
-0.006004398438980101 
-0.001611891375593379 
0.0002355230429090042 
-0.001258004610078115 
0.001217702720439898 
0.0004371318009586158 
0.0007051031491684784 
0.0004832268515753474 
0.002555327497448787 
0.0003562651782940519 
-0.001890292290632099 
0.0003368360877516439 
0.0004574314243156979 
0.002049890243899857 
0.0006682702597038313 
0.001469461949305447 
-0.0004190967977091338 
0.0001880788543557607 
0.002062776663925634 
0.00409693379409586 
0.009918111806003599 
0.0005984635396342173 
0.001585932900795188 
-0.006167769687830903 
-0.001810767728009375 
-0.008845927668563998 
0.002245766694599628 
0.001691715438027076 
-0.001608166371301236 
0.0009411811555867357 
-0.0006343797817506052 
0.0002283413896029664 
-0.001186353237450918 
0.002325646871396168 
-0.0003429613892628799 
-0.0007757470045627661 
-0.0008771190874108884 
0.001654407820790623 
0.000976257994402117 
0.0005021515242923063 
0.001623060192467761 
0.0001099180530073097 
0.001539775146668896 
-0.003209294071817789 
0.000216842239731374 
0.0003228853781281392 
0.002879608167193183 
0.0038425571676227 
-0.005468922425743902 
-0.005055498034032354 
-0.0007789566527278928 
0.005954345489005937 
0.000498323190920109 
-0.000482282016075318 
0.0005614866066652309 
-0.001539612526182079 
-0.0003765495184890577 
-0.001804630784109315 
0.002789859936011311 
0.0009709853040083481 
-0.000135794721375466 
-0.001696816174382131 
5.774286133879632e-005 
0.001168459731719133 
-0.0001078557365046359 
0.0008795240399054859 
0.0003840524239647123 
-0.0004727532983765565 
-0.005337522943737118 
0.000307737658985188 
-0.001441004572538527 
0.004929017610467483 
0.00114306561080265 
-0.002895262812940746 
-0.00547380855489325 
-0.001903456668147918 
1.921084835409386e-006 
-0.001353591473659472 
0.001729069593155492 
0.0005273374380770533 
-0.001755353064697241 
-0.0004770257991367569 
-0.001482273907790002 
0.0005528695030896642 
0.0006867638480680167 
-0.000451567916816976 
-0.001631903832670913 
-0.0008343776149950352 
-0.0005755734967990898 
-0.001885670133876208 
-0.0007472403835498549 
0.0003072283883582109 
0.001283895574641656 
-0.006006937769903075 
-0.002543355151118308 
-0.006108028361803792 
-0.001023886603629122 
-0.0005130910274338422 
-0.0001773333535857515 
-0.002542103878925725 
-0.002473787504656017 
-0.004474121012690439 
0.002432693758773236 
0.004155876421290911 
-4.737793466322811e-005 
-0.0007277299368175549 
-0.0005411962995612891 
0.001008339853542285 
-0.0003460971960669243 
0.001021253458559258 
-0.0002892283423372975 
0.0005901632806115319 
-0.001939244382166906 
-0.002113461174761416 
-0.001553054890545019 
-0.001086360255454631 
-8.125836973517221e-005 
0.0002579150389490289 
-0.005302985333632035 
-0.0002941491660949192 
-0.002041318818616592 
-0.00181570149447193 
0.0007618677171201588 
-0.005593385969245468 
-0.0004511012238858672 
-0.0008647526022560129 
-0.004351722285808601 
-0.004550473683609913 
-0.002212733084277653 
-0.0005879669590716058 
2.205211043398369e-005 
0.000479109046188877 
0.001355109812915545 
-0.0008984903898148612 
-0.0003757324638657799 
0.0005633612548704974 
0.0006399910334348252 
-0.001138808449200527 
-0.001120527060885243 
-0.002528880812405415 
-0.001642699153900149 
-0.0002363413788668236 
-0.003392529492593451 
-0.003773902082756222 
-0.001583645683660206 
0.002278101732779647 
0.002082251759951682 
0.0009940032002305516 
-0.005097465503018014 
0.001056414373850062 
-0.004028649400460238 
-0.007928812684887914 
-0.001087821943270362 
-0.001724368404697512 
-0.0001745204736469271 
0.0001353834048803009 
0.0005763078536346723 
0.001115193388725328 
-0.0001081914203594009 
-0.00140922064100719 
0.0005316769625488859 
0.0001392064681926918 
0.0007371345547541963 
0.0001219343653708824 
-0.0006673691566911441 
-0.0008601029541977759 
-0.0002454772554758624 
-0.002917712085893 
-0.001608896956394387 
0.00415778388027748 
5.703821412851084e-005 
-0.002634000999017567 
-0.003042513692319263 
-0.0006758880351354231 
0.001968089147592065 
-0.002609936226635137 
-0.005027872098700245 
-0.003014601662542812 
0.0009223768207841735 
-4.507685810441283e-005 
-6.88677975441981e-005 
0.0002334885567202117 
-0.0001328195155142049 
-0.0002059218348496589 
-0.001887980907795728 
0.0009922298866460752 
-0.0005603597058615799 
0.0003276731293109191 
0.001374624741116869 
0.0006592754726028495 
0.0007511736444294964 
-0.0001725984792949931 
0.0006198980992798322 
-0.001891629602220841 
0.003568984650830188 
0.002007609843056036 
0.001771286185333203 
-0.0007357054849251683 
-0.002746979504049385 
-0.00265473682285498 
-0.0006459808243334417 
-0.0003939408655445421 
0.002239767994539846 
0.0003974238516599312 
9.711686975298578e-005 
-0.0003062263068952873 
0.0002132869347662116 
-0.0001449164965406826 
-0.0008900957591032395 
-0.001655305635713249 
0.001285445970367675 
-0.001203890918760554 
0.0002576721398033521 
0.002511058506882423 
0.0003733202914703955 
0.0008696299623792283 
3.928955401023781e-005 
-0.0007192468470846707 
-0.003230547359999222 
0.001886212864446502 
0.0002979968532724215 
0.001142886245773022 
-0.002326478437070823 
-0.0008981657103913785 
7.081593783862859e-005 
-0.001415672797643929 
-0.0001808911576074007 
0.0006944391069890805 
0.001394237556519626 
-0.0004180649701577389 
-0.0004316537125964789 
-0.0002695880382886233 
-0.0007085093346853599 
-0.0001254569213212456 
-0.001054165376650165 
0.001048246231750925 
-0.0007038467201825624 
-0.0001168359429396179 
0.002557062926462623 
0.0004352603584158996 
0.0007219225815847541 
9.078224750121867e-005 
-0.001317853239163552 
-0.002295635769351629 
0.002293327756276949 
0.001858662787806255 
-0.0003166649110781255 
-0.002245119828744344 
0.00307035390574372 
-0.002231460718704866 
-0.002250082382537579 
0.003133681745807613 
0.002438913835102034 
0.003624977310149929 
-0.0003848776154591685 
-0.0001214437575204922 
0.0003162439737843685 
-0.001059664009207107 
-0.001181595097931185 
-0.001577613483960806 
0.001376165980946476 
-0.000128428174691914 
0.0001632067935822219 
0.0023299433010403 
-0.0003396078311326712 
0.001078414206261939 
0.0001706705815791202 
6.356588930844739e-005 
-0.003336715163861197 
0.003552118459799723 
-0.001235716639810332 
0.002448176182860648 
-0.001248173462429923 
-0.001199474773236251 
-0.002345138596813873 
-0.002575027563149458 
0.003421437440094929 
-0.001197441655796264 
0.001076636808809046 
2.354301755454329e-005 
-0.0002623553936490827 
-0.0003690123051939932 
-0.001238207645795014 
-0.0007741839216261109 
-0.001025928989166883 
0.0013795233939216 
6.643711457716292e-005 
0.001036566649754711 
0.002329466421865178 
0.000208939466345036 
0.000837461318641858 
0.0001192835994957119 
0.0006353435779414883 
-0.00311458800188873 
0.003559824647279818 
0.0001670525051768626 
-3.968492741492283e-005 
-0.00395320409127971 
-0.00132180608133643 
-0.004340494096260294 
0.0003457016875544411 
0.006520287149524712 
0.0008952582015460995 
0.001470720623188349 
0.0005780300769535322 
7.044227973422263e-005 
-0.0008230735669064074 
-0.001247387940485167 
-0.0008223142324652922 
-0.0008180553107292569 
0.0009511773979821257 
0.001683401920263393 
0.001447490027287535 
0.0002252679313626533 
-0.001226746373322439 
8.16678592888602e-005 
-5.565555836559649e-005 
-1.643819804421038e-005 
-0.003531829488735983 
-0.0001401479128840509 
-0.001525163512622268 
-0.001336746705142658 
-0.004133089457167961 
0.003081026076119041 
0.001295176219370481 
0.0009660427655881494 
0.00432474687089587 
0.001805109522423544 
3.508883913331184e-005 
0.0001213181569449988 
0.0003439654408369888 
-0.0009018708842368331 
-0.001151332413118411 
-0.001149648524277417 
-0.0005580318136166692 
0.001196223267091859 
0.002086920675056787 
0.001389527433594933 
-2.105449727882051e-005 
-0.0008989546935478949 
0.0005785950166097561 
-7.348859345379622e-005 
0.002646088069950069 
-0.00225253063816274 
0.0002657119029268865 
-0.003266120986001339 
6.032457785400292e-005 
-0.002680357333702236 
0.002157455091878852 
0.003995796857878656 
0.0002731884375458228 
-0.001113445650863223 
-0.003466289812429304 
0.0001228832275376613 
-0.000134330399139506 
0.0004906621667018741 
-0.0001399498431961458 
-0.0007805761228191499 
-0.0005171034770138113 
-0.0001207874569977736 
0.0002936081194463402 
0.00106675242102205 
0.0007367094205976821 
-0.0003487696653027323 
-0.001177171519773551 
2.319394394768051e-006 
6.167194316508398e-005 
0.0003279782367884161 
-0.0002282097867702762 
0.003179927267634229 
-0.003323917264827031 
0.000843068066415354 
-0.002640591442134573 
0.003664607610924873 
0.00463410203051632 
0.002271676509527736 
0.00280000055671497 
-0.000931803583706158 
0.003032778390843973 
-0.0003951441337426408 
2.232926017778677e-005 
0.0004449941965628356 
-0.0004075963268514077 
-7.899486982882097e-005 
0.0001043435569108901 
-0.001164355378261195 
-0.0003924351131307672 
0.0007100870456234576 
0.0006645722674864113 
-0.0007885776382951915 
-0.0005575605579242176 
0.0002016900753267501 
0.001802617587834249 
-0.001799595410431874 
0.00157777612833411 
-0.002076637336617855 
0.001069886570847688 
-0.001716483781753971 
0.000268462599675945 
0.001557476791580508 
0.004916190686678119 
0.002663609060423325 
-0.003232184552873193 
-0.0009031315485425137 
-0.0008024174594068683 
-0.0007178668549677461 
0.0001412038368176872 
0.0001495702160707821 
-6.600775167535817e-005 
2.352560949625189e-005 
-0.001138164643413108 
-0.0008421160394104525 
0.0004387381453924487 
0.001155990360904425 
0.0007859822209996896 
-0.0006008599239126017 
0.0002861941218189313 
-0.0001267904915697541 
-0.001150385032815577 
9.500151747600049e-005 
-0.002601648343259741 
0.002255887899617141 
0.0008986584014070315 
-0.0009220437918402894 
0.0006940537910189923 
0.001310264312015497 
0.001167631789871998 
-0.001285441836484513 
-0.003515442291737107 
-0.0008051463817409193 
-0.0004127785874289116 
-0.0001108027221231832 
1.921082064908618e-005 
-0.0001996271575819009 
-0.0003011942679966796 
-0.001072542871861878 
-0.001129092164506969 
-0.0009654066958897293 
0.0004467380967948498 
0.0007843272495744666 
0.0002796765043983069 
0.0002114306703769791 
9.311054518731541e-005 
-0.000542056885265164 
0.0003416069948158468 
-0.001087824892741205 
0.00308008820397878 
0.001437751944784884 
-0.001547616989209582 
0.0005186907889400577 
0.0009224332199619505 
0.00416295491892165 
-0.0002909122277072751 
-0.00108382160008552 
-0.0002897048411397304 
-3.720839818882582e-006 
-0.0004226262221298061 
-0.0004451471786138803 
-0.0004749908195157225 
-0.0002540087603892167 
-0.0004085730022906681 
-0.0007485440730839432 
-0.0008367529748192981 
3.364659340822702e-005 
0.0007223587293201606 
0.0007909647438496002 
0.0002593833904337813 
-0.001229042571206272 
0.000332155590394248 
0.0003794275074546374 
-0.0005909389348126152 
0.001792235072483881 
0.0001528708086622255 
-0.003034067278607629 
-0.0006998239029352108 
0.0002795353742776457 
0.0032513196901932 
0.0004729989222981641 
0.0009542710608137914 
0.0003657601434071728 
0.0001371829557972258 
-0.0005646589574426383 
-0.0005526850766443953 
-0.001228260150576509 
-0.0009076160842585258 
-0.0001045106713867365 
-0.0007146432636314328 
-0.000517919073539387 
-0.0006949747358166512 
0.0006717795573641642 
0.0008506342147072106 
0.0002352524702852213 
0.001023665004354105 
-0.0001633380970708318 
-0.001363773658154723 
-0.002667363448030997 
-9.478134858353789e-005 
0.0001277963267537979 
-0.001983754699870664 
-0.000766801993450883 
0.0007955045770382484 
0.000983723776604054 
0.0009607993942301528 
0.000259321462428337 
0.0006186177409688141 
8.485816843811801e-005 
-0.0002308839714485134 
-0.0006499525893556964 
-0.001032131402148315 
-0.000741598637016253 
0.0001664932692790837 
-0.0003667144098412626 
-0.0003867652992214968 
-0.0006691620203796144 
0.0007965631108564415 
0.0005070208226839145 
0.0001744153077630445 
0.0009775375087880741 
-0.001232101448086563 
-0.001796149657602104 
-0.002526478174071917 
-0.001025830116504178 
-0.003254392248366104 
-0.00199104134041362 
-0.001621394805647363 
-0.001278816263225915 
-0.0006440481309149503 
0.0007193867968659999 
0.0003869464858522265 
0.0004196243363490777 
-0.0002284403163361196 
0.0002548115399720051 
-0.0002468696769294347 
-0.000542121128155679 
-0.0005490405225087372 
0.0001755842036443723 
-0.0006022264251327145 
-0.0008801251379687317 
-0.0002646310154630468 
0.0001492349358076758 
2.665963370139161e-005 
0.0001302457067985444 
-3.529909993204046e-006 
-0.001564172608860162 
-0.0003432446380469237 
-0.002307988817723591 
-0.001422467474738369 
-0.003157064769214932 
-0.002494868441843911 
-0.001359104086266757 
-0.00126488910199367 
0.001157516002278486 
0.002181326549804462 
0.001473740318549422 
-3.484156245105824e-005 
-0.0001776574790411757 
0.0003242098517752791 
7.123957708762369e-005 
-0.0001722817669648172 
-0.0002198765821579327 
4.887596621718362e-005 
-0.0003836860978760847 
-0.0006649404298173358 
0.0002272334969430924 
2.081584317019222e-005 
1.603370588717027e-005 
9.324292279589009e-005 
3.204155261225834e-005 
-0.002105232050811889 
-0.000766535500535313 
-0.002111985062664822 
-0.001100331190404198 
-0.002951891621809442 
-0.002752882424503097 
-0.003919760981547311 
-0.0024442091482896 
0.001635518947153459 
0.0009079020570081897 
0.0003472601131369785 
-0.0001984869112592722 
-0.0001691810328748384 
0.0002589486427175657 
2.405863132193086e-005 
-0.0002060846612885347 
8.951294875677005e-005 
-6.96586368054964e-005 
-0.0004192896684165664 
-0.0004545785482491749 
0.0001223961946330132 
-0.0005418015949022929 
-0.000538553595203307 
5.032563572848579e-005 
-0.0003486418062440881 
-0.0001760052566998389 
0.0006215465183140715 
-0.0001838518509754547 
0.0006267903588581434 
-0.001314051286554143 
-0.0009710930710437758 
-0.0006732873326916111 
-0.0001952338705696067 
0.002050337315552031 
0.001602010156168609 
0.0007201985019850667 
4.262408313387744e-005 
0.0001103384157143148 
3.223588884880082e-005 
-5.662085096007577e-005 
-0.0004502872879794111 
-9.863564460073358e-005 
-3.618810129452861e-005 
-4.388061920162011e-005 
-0.0002666799333374215 
-0.0006414655936429209 
-0.001143175242947307 
-0.0006817448540736576 
0.0002114963523797622 
-0.0008876311512205793 
-0.0008374801027505299 
5.148167010189017e-005 
-0.002199117462208284 
-8.486512407787696e-005 
-0.001152520214568612 
-0.001777434567382905 
-0.0005776982100630152 
-0.0001672401882641537 
0.001268863703961168 
0.0006728322319621246 
-0.0008134731818592962 
0.0001020288501834988 
0.0001102179073383003 
-8.160268766733309e-005 
-0.0003908071670375279 
-0.0006928190045202424 
-0.0003939361798018887 
-0.0001599544583694423 
9.077257840067712e-005 
-9.702822368476841e-005 
-0.0009749980361555517 
-0.0009432704687014728 
-0.0002897934027549148 
0.0001976131182926255 
0.0008702977765056111 
-0.0002965814784889705 
0.0001310774785337419 
-0.001317509584136537 
-0.001015128316571466 
-0.001170536039827555 
-0.001880905032828121 
0.0006448014136926832 
-0.0004032457241150716 
-0.001509379392892278 
-0.001362560022900602 
-0.0007711207657920371 
0.0001921150663146419 
0.0002749473677143338 
0.0001052374482582856 
-4.741772598921063e-005 
-0.0004880855576258576 
-0.0002771919399756683 
-0.0002926028578645522 
-0.0001793669310850845 
-0.0004325015084856608 
-0.0009774247635244192 
-0.0008277215465792198 
-0.0001741074986347305 
4.275429190508994e-005 
0.0002616732363011066 
0.001073025317381193 
0.0009488943472237134 
-0.0004852944115945935 
0.0003499512697164404 
-0.0002891680396995487 
-0.0008915175975107723 
0.0007652714589921073 
0.0008924568144991906 
-0.0008402865816936481 
-0.001012362020024214 
0.0003845404561117986 
4.541678054531593e-006 
8.394938775492571e-005 
9.687107707765997e-005 
9.197415074812169e-005 
6.512827848998264e-005 
-0.0001110706824352655 
-0.0001567049347153493 
-0.0005482003810288377 
-0.0002800589324645741 
-0.0005854393851553015 
-0.0005485266296094083 
-0.0001253267491156652 
0.0001093575600218003 
0.0002833076533985151 
0.00139047265287115 
0.00136864698956253 
-0.0001407390294881002 
0.0006764586662294561 
-0.0005298380462349627 
-0.001672376761204822 
0.0003476253672324249 
-0.0002162415603487418 
-0.0004725298562376495 
-0.0004624190647854683 
0.0001273619070246116 
-0.0001294648226496939 
-0.0002652694819773665 
-0.000208961513174392 
-5.264344255116317e-005 
-5.483012490869708e-005 
-0.0002740564190570775 
-3.07654401276255e-005 
-0.0004504913947314354 
-0.0003572865088674562 
-0.0001657701344450082 
-0.0001715731331762922 
-0.0003405268006915228 
0.0001301929184055727 
7.194659251756872e-005 
-0.0002766535817185768 
0.0003641874651951815 
-0.0003112596565517524 
0.0002721867092938637 
-0.00058337239374072 
-0.001211655276654517 
-0.0002772514279449467 
5.142472014876326e-005 
-0.001173536264822992 
-0.001624090705283674 
-0.0006110435463281506 
-0.0002871778255808527 
-0.000270268124677278 
-0.0003041009865747244 
4.149163917787294e-005 
-0.0001222404663133767 
-0.0001981432167886876 
0.0002041483881689331 
-0.0002775636967717779 
-0.0002784703462031076 
-7.072319337820415e-005 
-0.0001470144367533114 
-0.000227204001742655 
-2.424845679172399e-005 
-0.0004006871542366601 
0.0006097189922602348 
0.0003936437988990514 
0.0001575033010711364 
0.0004529215749096213 
-0.0008176715478870197 
8.060383395135963e-005 
0.000950889304671081 
0.0006472806827943315 
4.558738123671141e-005 
-0.0003701231413296184 
-0.0001220886102598458 
-0.000344498273487835 
0.0001863257496534819 
-0.0002936433115501356 
6.025857284283994e-005 
-7.042922178828614e-005 
-3.35924647592627e-005 
0.0002115268059704258 
-0.0001572492184454966 
-6.028340775950756e-005 
7.271838541239134e-005 
4.619523371731789e-005 
7.464203088894275e-005 
1.942049697449351e-005 
-0.00106687383983306 
0.001073930223737236 
0.0005113281003386664 
0.0005120521050655047 
0.000403379417208639 
-0.0004874330537579685 
0.0001483152060964157 
0.0003261384881954018 
0.0003219809042822558 
-0.0004484644230099611 
-0.000902313563793068 
0.000276009831736291 
-0.0003431942810594319 
0.0002838206595085577 
-0.0003325507694634114 
-6.537248248820331e-007 
-4.070219559205071e-005 
-9.973229359105345e-006 
-3.623156862393808e-005 
-0.0002055920365747529 
-0.0002592393546600547 
0.0002928787329723908 
0.0001599108630038452 
0.0001168378964762299 
4.126811118335843e-005 
-0.001202724005593712 
0.001130054617062152 
-4.100697624807765e-005 
0.000520646372393955 
0.0008998362811719361 
0.0002540976146287402 
-0.0002200624782539255 
-0.0001012760981111453 
-0.000239549653908228 
0.0002572479236280354 
0.0001512077719459223 
0.0003320337910987065 
-0.0001847411152388196 
0.0001020111347991208 
-0.00026110406364842 
-6.448796718424007e-005 
-6.459531326086541e-005 
4.270161543377205e-006 
-5.200931782678347e-005 
-6.715029047201381e-005 
-0.000244100270913938 
1.886387736952467e-005 
-2.714306418562994e-005 
9.442462121300572e-005 
5.017353792078521e-005 
-0.0007259221456729201 
0.0001861826911857472 
0.0001298616012769367 
6.891262495478795e-005 
0.0008909857169160796 
0.0005955378114664403 
0.0001264468872176293 
0.0008190921763170547 
-0.0002503355379790659 
0.0008754562562308062 
2.592703214913662e-005 
0.0001069476544668017 
-1.196045938647357e-005 
-0.00018592260933131 
-0.0001012897261082482 
-0.0002260674066005686 
-9.387252615036794e-005 
-0.0001161858347077602 
-1.966623789470809e-005 
0.0001230845569750667 
-0.0001649499383053485 
-0.000122081036434566 
-0.0002012395321898634 
-3.717038321721016e-005 
0.0001472571478439825 
-0.0007512477661284656 
-8.836862507492486e-005 
0.0002499638735306144 
-4.944759560512453e-005 
0.000759371766540026 
0.0005278615614262286 
0.0006647363075299569 
0.001182900623197678 
-0.000522565607079374 
-0.0003675847969211044 
-0.0004307990160759163 
0.0002937055940359853 
1.606237337456584e-006 
-0.0002727584698549806 
-6.303216077197146e-005 
-0.0001892360310397554 
-0.0001549201911731296 
-0.0003808694691004523 
-4.431406725007886e-006 
0.0001338916954295695 
3.6804076904779e-005 
-0.0003659149309104234 
-0.0002138746219198525 
-0.0001021671549973938 
0.0001982366083539839 
-0.0007450888586657736 
-0.0005087297094565029 
0.0004218045936849847 
-0.0003793631335070954 
0.0007280616402145047 
0.0002667002830277628 
0.0004060565676567945 
0.0006653467412092557 
-0.0007457225966621614 
-0.0007611480878511421 
-0.0009498383916768693 
1.292377878730772e-007 
-2.721800782152887e-005 
-0.0001978991930699373 
4.149330287742922e-005 
-0.0001720622064574652 
-0.000156778227487608 
-0.0003575077021697677 
4.264096416341557e-005 
-2.679280379423154e-006 
6.204263312088614e-005 
-0.0003345321303553104 
-4.057816136726535e-005 
-0.0002148132926174046 
0.000190192497376565 
-0.0006301372728558935 
-0.0007306466962539379 
0.0001152415037107649 
-0.0002824162558586842 
0.0004557722582886719 
-0.0006827604326049772 
-3.232817791678843e-005 
0.001091964115230559 
0.0001321056219596245 
-0.0006971602153390433 
-0.000208451015947887 
-0.0002308079569585917 
-1.772136874599354e-005 
-6.579044633170019e-005 
5.213162381453139e-005 
-0.0001214075309077455 
-9.789857958375851e-005 
-0.0002651278288207502 
0.0001764474696563351 
-6.896987255683802e-005 
5.329997075981885e-005 
2.196639179435077e-005 
0.0001770241663577739 
-0.0001079772700244305 
0.0001135231969896799 
-0.0008129796768356576 
-0.0004679819977456027 
0.0004401870083910101 
-0.0006502556338662215 
0.0002062881663489527 
-0.000529995801430499 
0.0006703246588839608 
0.000702705213414218 
-0.0002269826396113121 
-0.0006492855199380285 
-0.0002909414650674774 
-0.0006804808608901459 
-3.825553728560479e-005 
1.757810920380823e-005 
5.2906722571324e-005 
-0.0001129407132241578 
-0.000123178399472515 
-8.230269134180029e-005 
0.0003727737771629693 
6.930232749867248e-005 
-1.299802252578133e-005 
0.0001049542078372791 
0.0001425523800115006 
4.541095551182965e-005 
1.793024747352211e-005 
0.0004307506344270832 
-0.0004536858581981954 
0.0003666215188317068 
-0.0006394050062964953 
-0.0004233865727069982 
-0.0008018786748337371 
0.0004426856892363383 
-4.950356077209649e-005 
-0.0005804674217640853 
0.0002714890933220065 
0.0004611338797420371 
-6.158605042857577e-005 
-5.329844462690779e-005 
4.409921959273996e-005 
0.0001504087560575317 
-5.591330316047455e-005 
-9.182060440405236e-005 
-5.302467849257744e-005 
0.0003304717100512939 
0.0001555496890419647 
-1.975855958496551e-005 
0.0001853431143890936 
-3.10477837929882e-005 
0.0001194455883126518 
4.773227133841983e-006 
0.0002918845775655838 
-0.000566648949777785 
0.0003484265692061252 
-0.0009252106336135493 
-0.0008203741026783792 
-0.0007608201657741735 
0.000587769912735685 
0.0004110396436867274 
-0.0005684485836999542 
0.000154932503799875 
-8.887818827177199e-005 
-0.0001169599795619182 
-3.193674051735964e-005 
3.265797033735593e-005 
5.751277334745624e-005 
1.290749108121993e-005 
-0.0001307020754023534 
-8.22210408002191e-005 
6.594091804474397e-005 
4.564924969081763e-005 
-4.853605277740132e-005 
-3.400719695652262e-005 
-0.0001340334247216954 
0.0001394791904626947 
-1.311077291845247e-005 
0.0002237414444545447 
-0.0005565705678542547 
0.000584384791570733 
-0.0006314631592209451 
-0.000760833086224986 
-0.001142981733175008 
0.0006764845730986398 
0.0005892101097654593 
-0.0003476619096536711 
0.0001469538255816291 
-0.0002058127110290282 
-0.0002250862768219832 
-2.687178420958462e-005 
9.693341672979942e-005 
2.233410273620819e-005 
0.0001197598286086326 
-8.419323027980774e-005 
-0.0001662426456319946 
-0.0003064495754613966 
-0.0001692336309908385 
2.26223653359427e-005 
-0.0001322823624120979 
-0.0002062220388732471 
-1.103578508548202e-006 
-3.559968743818032e-005 
0.0003032997595928351 
-0.0002581343467208068 
0.0004773871840196811 
-0.0006961150160508766 
-0.001193249743521784 
-0.001220923778940199 
-7.996822523456481e-005 
-0.0001694402590721442 
-0.000662080981679202 
-0.0001732962490615394 
-0.0003056401912380509 
-7.435146872687469e-005 
1.276392402306295e-005 
0.0002001485857146032 
-5.729347604344918e-005 
0.0001092726003327001 
-1.149690491104987e-005 
-8.674980150002968e-005 
-0.0003345058101396328 
-0.0002901883412049047 
-5.437166590865396e-005 
-0.0001943252166121881 
-8.710127280911005e-005 
-8.501736561882154e-006 
-6.1955917798318e-005 
0.0002906839172429446 
-0.0001232745783830838 
0.0004138120124176117 
-0.0001551528909946581 
-0.0006579149421009091 
-0.001403040003236051 
-0.0007556927381634724 
-0.0006054295806696399 
-0.0004205383507415457 
-0.0002258090663699441 
-0.0004615948512774299 
-8.840130415345303e-005 
-1.055671403728256e-005 
0.0001662320712351242 
-0.0001859165904239678 
-5.658913541041498e-005 
-9.949013038886515e-005 
-4.632145613743034e-005 
-0.000339403885889216 
-0.0003632405397262613 
-0.0001300745999788292 
-0.0001386637975724707 
-4.670560506366641e-005 
-2.470066778250354e-005 
-5.849744895971395e-005 
0.000322232593069282 
0.0002174488913179332 
0.0001472460509383582 
-0.0006170013029830803 
-0.0009293177120419489 
-0.001064540500627152 
-0.0003686693605377439 
-0.000442579851003519 
-0.0008038670664597174 
-0.0006303085211962775 
-0.0003964930924216827 
-0.0002278082401079603 
-3.243502378174864e-005 
9.85433477668568e-005 
-0.000182371733807515 
-6.945754894828038e-005 
-8.372193459262243e-005 
-2.863125000774247e-006 
-0.0001595469368530604 
-0.0003234481579128426 
-5.403778619910807e-005 
-5.296394666813853e-005 
-7.230445419242007e-005 
-9.916291407342224e-005 
-3.393451391541265e-005 
0.0001614913334055242 
3.679677704649653e-005 
-0.0001801272958716404 
-0.0009539629383421533 
-0.001390248741903566 
-0.001452782860376889 
-0.0008761818743877541 
-0.001090425765063647 
-0.0009271438431008864 
-0.0003178568787401471 
-0.0003939153859143937 
-0.0002718629553288737 
-7.169879617790611e-005 
0.0001453395140869027 
-0.0002299795025146914 
-2.591568011061734e-005 
-0.0001041781057774361 
9.408752600420205e-005 
5.406790222286407e-005 
-0.0002133235094685035 
2.95502169054691e-005 
2.209377252808891e-005 
-0.0001186159206163815 
-5.351180947126094e-005 
2.096015172478435e-005 
0.0001211321818122904 
0.0003767047379296925 
-9.011964798562514e-006 
-0.0002359044817307913 
-0.000901493179095603 
-0.0009655171368294136 
-0.0007772775697830674 
-0.001028454181598809 
-0.0004007028572372282 
-0.000156985774605978 
-0.0005465753562078251 
-0.0002897827344368044 
-9.056465432102366e-005 
0.0001824143295598381 
-0.0001194875133362086 
0.0002172920936909269 
6.992996270359761e-005 
9.422836078158456e-005 
0.0001034947309266607 
-0.0001097865136383606 
6.855484307563927e-005 
4.712086612720567e-005 
-0.0002124919006326022 
-1.209055403180568e-006 
3.385101068450838e-005 
-9.414260605290217e-005 
0.0008570324008395355 
-0.0004652249723988044 
0.0001368576674604159 
-0.000676425128049249 
-0.00061483596301821 
-0.0002207795485578778 
-0.0006055164609031322 
-5.697135764714432e-005 
6.549118009689361e-007 
-0.0007479868591059569 
-4.199214503547703e-005 
-8.129983718588574e-005 
0.0001716694962870308 
-0.0001019204115303529 
0.0002499467116442332 
0.0001916229154053429 
0.0002115425953420332 
0.0002144501333245308 
-3.249630546131803e-005 
4.549104056420625e-005 
1.245852517922095e-005 
-0.0001683114610837237 
4.065725057413892e-005 
-2.118435125122324e-006 
8.004146868271131e-005 
0.0002661439614970412 
0.0002260892737449308 
0.0002219919293012216 
8.51162731236479e-005 
-0.0001562574157491157 
0.0001383185272064927 
-6.754082047687501e-005 
-0.0002806977024367141 
0.0002618412432586502 
-0.0005076378586379536 
4.255047998499923e-005 
-4.129662032372304e-005 
2.095354039196143e-005 
1.435003279388504e-005 
6.823360827822179e-005 
5.332968004151228e-005 
9.87030179063287e-005 
6.503306521841422e-005 
-1.088977348566786e-005 
-0.0001523593605089582 
-0.0001167846049231767 
6.308823111420273e-006 
5.958672782658502e-005 
-3.064825250113163e-006 
6.997549787459452e-005 
9.892018712487826e-005 
4.39627734413181e-005 
0.0001890139209708548 
9.255917320187321e-005 
3.901922249404172e-005 
0.0001285434594078776 
-0.0002529290658069373 
-0.0004114082746317581 
-1.903640568314047e-005 
-0.0004973634086687609 
-9.413680180154285e-005 
-2.369154748155764e-005 
-2.151838784629429e-005 
-1.781780841327866e-005 
6.089110014684857e-005 
1.724370780096604e-005 
3.326993561580061e-005 
2.241500173240547e-005 
-0.0001550425136524455 
-0.000120870809809988 
-8.954566934359498e-005 
0.0001264244962951016 
5.530353058263236e-005 
3.985993284937318e-006 
1.199837517074137e-005 
0.0001529506479147463 
9.105428804245806e-006 
0.0001596362246206957 
-0.0001379362720236892 
-5.54034882794745e-005 
0.000170993608884721 
-0.000285906383346411 
-0.0006565471875184613 
-0.0003161586948330847 
-0.0001945495036673522 
0.0002725544052272248 
-4.449249593869787e-007 
-3.263804085819523e-005 
-3.88781447527519e-005 
1.221463825673795e-006 
-5.024205190983007e-005 
2.472658569837641e-005 
2.794692636969091e-006 
-9.099312814533969e-005 
-2.96746283024701e-005 
-1.757064690371006e-005 
0.000141982351006912 
2.53578325792988e-005 
1.154094258383848e-005 
7.410545373580713e-005 
9.02615634045754e-005 
3.601378601123803e-005 
0.0002818930550666124 
-2.947674893394423e-005 
-0.0001030043659142296 
0.0001083521537639234 
-0.0006284117357478089 
-0.000426723084035329 
-1.751621373869282e-005 
0.000129690028104925 
8.749120305548502e-005 
9.095869980932792e-006 
-1.093319736459505e-005 
-1.20541558002193e-005 
1.286960398039013e-005 
7.714141456005989e-006 
2.790918869044055e-005 
1.616089103553564e-005 
1.740650764274548e-005 
2.721801604676268e-005 
7.965496970205279e-005 
8.487264401156639e-005 
3.397573300666145e-005 
1.548095842553317e-005 
7.575155184423379e-005 
0.0001072835284695814 
3.567226506936359e-005 
0.0001816592798374262 
-0.0001050757830729247 
3.838639707353246e-005 
0.0001623867654444968 
-0.0003347655829360353 
-0.0004214128051196114 
0.0001732275873023029 
-0.0001112517653057225 
7.852747229555461e-005 
2.098189214930421e-006 
-3.127930210902813e-005 
7.996654408147477e-007 
1.496212335531475e-005 
2.874353065410258e-005 
4.30667378284756e-005 
1.747901738514117e-005 
9.59734447999443e-005 
4.319985413584363e-005 
6.645222576329992e-005 
-5.03512910183362e-005 
-2.888189615111124e-005 
1.121279292241332e-005 
8.357787893867057e-005 
6.708789977937494e-005 
-2.959201313086817e-005 
0.0002423502838539276 
0.0001146996891716899 
0.0001316692858829834 
0.0002136498936867461 
-0.0001414675799807948 
-0.0003928867650008001 
0.0001345458742186034 
-0.0001146488916729937 
0.0001727561795537656 
-3.835069794571814e-005 
-1.69054222002793e-005 
1.022656192691301e-005 
2.367644905019455e-005 
2.376798479697423e-005 
1.472002865164965e-005 
-7.713572915405123e-006 
0.0001090286666808685 
-4.5338354180712e-005 
-5.98879134023462e-005 
-7.345754900851577e-005 
2.117431132451789e-005 
1.455910821829572e-007 
4.850550716616063e-005 
-8.507060263269087e-005 
5.244733360546507e-005 
5.958817066637449e-006 
-0.0001552669067421359 
-7.668414570712238e-005 
-2.681802253333689e-005 
2.237226966860393e-005 
-0.0003307208199329634 
-2.405011364388091e-005 
-0.000337822918977515 
-2.67514759471067e-005 
-2.949615577467789e-005 
5.812208286903963e-006 
4.799192636003577e-005 
2.357275486233666e-005 
3.880846443786541e-005 
-3.725577502016728e-005 
-4.600593290710283e-005 
3.395021339694959e-005 
-2.537064607591957e-005 
-6.248280528579633e-005 
-3.586125078559616e-005 
-2.964836071459998e-005 
-9.518325263212384e-008 
-5.789674726369288e-005 
-3.79056091252003e-005 
8.857117400586336e-005 
0.0001157365629815027 
-1.898044487199006e-005 
-0.0001507839830674066 
-0.0001844490440876743 
-0.0001540118051177815 
-0.0005086430317958334 
-0.0001644987677942714 
-0.0001448396014788209 
7.760709878932322e-005 
-7.903176249549693e-005 
2.466324560718081e-005 
4.962702286237803e-005 
-5.126662448940275e-005 
9.139169786403626e-005 
-3.382053181612376e-005 
-3.115746777089e-005 
7.608644593546757e-005 
-4.116291378165256e-005 
-5.166203764837704e-005 
-2.482450534787794e-005 
-2.927045838134863e-005 
2.123718626093557e-005 
2.088857825383234e-005 
2.148372886053159e-005 
0.000178785873689244 
2.697395726523083e-005 
4.622274814967154e-005 
-0.0001737507836004589 
-0.0002114683848707992 
-6.500615936437784e-005 
-0.0002937014991532562 
-8.825835828718952e-005 
-0.0002071289311919717 
2.374153463870331e-005 
-0.0001109268874792218 
1.022686472645775e-005 
2.284739724253912e-005 
-9.474577010084173e-005 
0.0001926403560548295 
-5.948822854282696e-005 
3.562759597567407e-005 
0.0001109524553127318 
1.634840901115106e-005 
-2.760310089160583e-006 
-4.656694924715159e-006 
8.280857738851718e-006 
4.49340075199847e-005 
-0.0002670192795218104 
4.391568771893795e-005 
0.0001619154496379242 
-0.0002727518013149888 
0.0003819549159358259 
-0.0001081769601926422 
-8.236759028161653e-005 
0.0003545351351869776 
-0.0004904651722653834 
-5.578205243590825e-005 
-0.000317803492653011 
-0.0001111064161003155 
-0.0001199064465639835 
-2.801722510413509e-005 
4.861582743825218e-006 
-8.207477537761743e-005 
0.0001516740873855399 
-7.032562471355547e-005 
8.260858758245882e-005 
0.0001196467459468011 
6.95697584641504e-005 
4.861334970431914e-005 
-3.169122709081157e-005 
-2.795296164714245e-006 
4.700931509555139e-005 
-0.0004335350601419185 
1.178850112526247e-006 
0.0001977905335820859 
-0.0001607403653334472 
0.0007188289485517619 
-0.0002467041356930684 
0.0002619330981249107 
0.0004444597748970986 
-0.0001267440567074826 
4.304640948128075e-005 
-0.0001905921985437825 
0.0001580892711023839 
-9.064562883306472e-005 
-3.829771846590502e-005 
1.828840045824033e-005 
2.05849630003521e-005 
6.803034975758074e-005 
-6.04200459148053e-005 
6.625271698111375e-005 
2.805691566283718e-005 
4.27410067139339e-005 
4.13889118514626e-006 
-3.055059196026502e-005 
-5.782731352540023e-005 
2.471079975962945e-005 
-0.0004781677876974352 
-5.380042963209341e-005 
0.0002050439983985694 
-3.160359080623749e-005 
0.0005701335703137093 
-0.0002428492026338219 
0.0002343738344837204 
0.0003718904933783607 
-4.728836428342411e-005 
0.0002158001531037071 
-0.0001855160699566258 
7.007647747958259e-005 
1.280986848191447e-006 
2.573124270005688e-006 
4.151808797481158e-005 
0.0001292645726246642 
-4.683810370888566e-005 
-5.898857029362761e-005 
3.864436510055362e-006 
-9.097155289748273e-005 
5.494036432908393e-005 
-5.6390893805943e-005 
-9.28737291665417e-005 
-0.0001218300674252406 
-7.298079604517291e-006 
-0.0003828334713562384 
-3.919737358263538e-006 
0.0003722248882394449 
0.000159091668847544 
0.0004535004834013423 
-0.0001959151412538001 
0.0002243674713690968 
0.0003110695829072778 
-0.0001123128170203799 
-2.465254085945188e-005 
-0.0002512829283162856 
-0.0002852471799435599 
6.369912580196479e-005 
5.012515224586911e-005 
2.686164083991707e-005 
0.0001142856367583385 
-9.375372949419676e-005 
1.396519965184094e-005 
-4.516089021164808e-005 
-0.000131319169360038 
-3.963990157659354e-005 
-0.0001193694784438337 
-0.000121793378098228 
-0.0001281857390402902 
-2.203267058241091e-005 
-0.0003179329323992124 
0.0001353563093289107 
0.0003500667844711753 
0.0003264412079124386 
0.000391793576484533 
-0.0002797904465358383 
0.0001173908822807183 
8.797458953017916e-005 
-9.165511586903496e-005 
-0.0001686298253655376 
-0.0006677930053133537 
-0.0004495097017188892 
7.606698468529271e-005 
5.74859785734433e-005 
-4.551522480243708e-007 
5.83035535106514e-005 
-5.900421418051644e-005 
2.244713432082278e-005 
-4.181440081366563e-005 
-0.000125176091148428 
-7.01919164095963e-005 
-0.000147553752993011 
-0.0001043027083156532 
-5.19062190688565e-005 
-1.721402149457231e-005 
-0.0001951568801513628 
0.0001572269838032224 
0.0002595873233752113 
0.0002316661648058162 
0.0003392299422328137 
-0.0001584079994663528 
9.462027275926947e-005 
-7.017735114142731e-005 
-0.0003027601739683918 
-0.0003615860324785218 
-0.0005584197992156085 
-0.0002230463344998302 
4.984175030136271e-005 
3.440355385874556e-005 
-2.973800522694875e-005 
6.647480199400616e-006 
-2.807696223494636e-005 
2.330097930156872e-005 
-3.146260992693577e-005 
-9.166850322045651e-005 
-5.90050624633926e-005 
-8.517953033554106e-005 
-5.133985218635307e-005 
3.759940546149262e-005 
8.432108278912867e-009 
1.818318264016911e-005 
-3.35361871844013e-005 
-3.044918254313745e-005 
-5.190255480930568e-005 
-4.918811748300564e-005 
-4.051683440834434e-005 
-3.378049081779983e-005 
-4.064355943861469e-005 
-6.693603276793845e-005 
-5.682495674396103e-005 
-3.489609848731777e-005 
-2.756318559744256e-005 
-2.112935794762493e-007 
1.755323315579913e-006 
1.374293418493387e-006 
-8.494295435420003e-007 
-1.065896410594624e-006 
5.610563726353859e-006 
-3.183832822065919e-006 
-2.572488196271582e-006 
3.642910806092383e-007 
-1.799119315080077e-008 
-1.126750069312712e-006 
8.6144811976867e-007 
-1.320962054995406e-008 
1.310106015302746e-005 
-2.734401326852959e-005 
-2.051133301079132e-005 
-3.179298074776987e-005 
-3.854663416538306e-005 
-3.577103545010604e-005 
-4.32942282167989e-005 
-4.887953241772633e-005 
-6.556449609968217e-005 
-6.143663659765012e-005 
-4.658138574735694e-005 
-1.873598585821914e-005 
1.222608044992538e-007 
1.223185039228178e-006 
-6.795367963834085e-008 
-3.663203907061166e-006 
3.826014584231305e-006 
3.177400404846466e-006 
-2.122167702532601e-006 
-1.469800923600463e-006 
-5.232611131857382e-006 
2.017287246620035e-006 
2.401851767653727e-007 
8.8380985192298e-007 
1.067105961473645e-009 
1.56953544573746e-005 
-2.310118232250837e-005 
-2.989501163504742e-005 
-4.984717312103967e-005 
-3.737345529324346e-005 
-4.209258429570117e-005 
-4.29689744291569e-005 
-5.657236148969533e-005 
-6.430451165031459e-005 
-5.092978526834218e-005 
-4.067728154616388e-005 
-3.120769489126926e-005 
-1.323936780832437e-007 
1.773154574476644e-007 
-7.164687014952882e-007 
-1.318722462554874e-006 
6.723222314222994e-006 
2.258684538683368e-006 
-2.787531810876307e-006 
-4.186063261297667e-006 
-1.914599368802862e-006 
1.991160092824305e-006 
-2.70925292624212e-006 
-3.26502659609792e-006 
-7.459125036379637e-010 
1.655456298470284e-005 
-2.846688679138498e-005 
-3.056577811904908e-005 
-6.320694039319965e-005 
-2.898135194800093e-005 
-3.288238860495886e-005 
-3.535218037535052e-005 
-4.683910983927319e-005 
-9.415050014548996e-005 
-5.777037248412403e-005 
-3.576188902296355e-005 
-2.381340691084821e-005 
6.004031054741814e-007 
-1.905991469613498e-006 
-1.469206833239326e-006 
7.89063124400667e-007 
1.936820057921802e-006 
1.705261586083846e-006 
-6.063867493992607e-008 
-5.740109617331894e-007 
2.446720549029098e-006 
-2.623609885548686e-007 
-4.881926857533787e-006 
-4.842819470451998e-006 
-3.083683718885562e-008 
1.579451198527595e-005 
-3.208814535453138e-005 
-2.900430349648497e-005 
-4.278903770826699e-005 
-2.035473250120904e-005 
-3.06677565076581e-005 
-5.168885324055269e-005 
-6.259404429401597e-005 
-6.221621992046078e-005 
-4.870216011566122e-005 
-5.385194051947011e-005 
-4.13495866814608e-005 
-8.987860578611894e-006 
-5.21709639796593e-006 
2.888736599806332e-006 
1.29277054404551e-005 
4.800378338897657e-006 
7.914266637510766e-006 
6.23572629558376e-006 
8.509297285546482e-006 
1.162087760721703e-005 
6.370101842015638e-006 
2.249097886309113e-006 
4.85918901061847e-006 
-7.768052024169961e-007 
1.605351828660456e-005 
-3.238044636027178e-005 
-2.830272124626902e-005 
-3.137677557246665e-005 
-3.737187390163441e-005 
-3.295714141370835e-005 
-3.923714667433775e-005 
-4.873891678548662e-005 
-5.437508195977728e-005 
-6.386214940299629e-005 
-6.44036691782162e-005 
-3.787903046459907e-005 
-1.131263446444772e-005 
-1.993130421288197e-007 
4.551245050045467e-006 
2.583429716591732e-005 
5.287275993144392e-006 
1.328715147909755e-005 
1.347755957685645e-005 
2.050073341298112e-005 
2.397748697533675e-005 
2.161826439661784e-005 
1.833273099798234e-005 
1.758704074397578e-005 
-7.26427194599173e-006 
-2.899331923585109e-005 
-4.722975630695341e-005 
-1.658285707240571e-005 
-1.123741151224672e-006 
-9.17625988162447e-006 
-2.483849059584239e-006 
-9.847795691273751e-006 
-1.307609980979715e-005 
-2.608766174583088e-005 
-1.603330211820054e-005 
-1.511083792652157e-005 
1.211367342476113e-007 
-8.734624219639575e-006 
4.432170535936302e-006 
7.875629393880213e-006 
2.278716923738278e-005 
5.810118251255369e-006 
1.278901312233446e-005 
1.628140963952279e-005 
2.287205150049139e-005 
2.043722130674778e-005 
2.588797899998817e-005 
2.889433266920468e-005 
2.740897854543055e-005 
-1.149445175914276e-005 
-1.761482194791374e-005 
-2.189257173026915e-005 
-1.402023334054769e-005 
4.51320617080745e-005 
-8.134251032385041e-006 
1.946150268413548e-005 
1.111491777303749e-005 
3.090534991179755e-005 
7.672698384192405e-006 
3.398671283164657e-005 
3.653104370921922e-005 
4.338654729450018e-005 
-1.655187034493644e-006 
5.397802444503444e-006 
1.162998129404591e-005 
1.352730930206216e-005 
4.915862666651764e-006 
8.253923910886669e-006 
1.244841556205599e-005 
1.028113973239099e-005 
1.764217574871408e-005 
2.486640002072158e-005 
2.929668998285285e-005 
2.749027062218418e-005 
-1.175935622376888e-005 
-1.104448173597658e-005 
-1.517122998985117e-005 
3.232569601835723e-006 
3.289234709806251e-005 
-5.922909939243175e-006 
7.068093905876541e-006 
4.54188492133407e-006 
1.194403711948529e-005 
8.946103292077481e-006 
3.181319691617372e-005 
4.015217405142411e-005 
5.506234620488665e-005 
1.041419032909658e-005 
7.816177617453136e-006 
1.031973423570774e-005 
2.250247600749006e-006 
1.367655847767921e-006 
1.79820039833451e-006 
5.352412231300297e-006 
1.668637411230965e-006 
1.171653042939086e-005 
1.533402784492718e-005 
2.134959878438168e-005 
2.441651547818282e-005 
-8.391675942104838e-006 
-1.196822813706805e-006 
-2.142071866646263e-005 
1.993942487249461e-005 
1.92518187048751e-005 
-1.441921416940944e-005 
3.536466054696565e-006 
1.581019768042249e-005 
-9.843265218016181e-006 
1.631910659625076e-005 
3.654647296248316e-005 
5.444816789629074e-005 
7.210162708783516e-005 
7.365352788011861e-006 
4.175493581707145e-006 
8.175110772330653e-006 
-7.651242746689591e-006 
2.360748407919787e-006 
2.623054261469913e-007 
-2.980829153844726e-007 
-4.592788635011028e-006 
5.660869075638323e-006 
5.468238481564391e-006 
1.031315222739019e-005 
1.517623060655996e-005 
-1.85316444181777e-006 
1.4868628568497e-005 
-8.384965712845997e-006 
1.803589951898462e-005 
2.306758843590042e-005 
8.044923776646318e-007 
1.44696477396352e-005 
1.456658277122155e-005 
1.564137344110769e-005 
2.817189314587846e-005 
5.935689293054637e-005 
8.267857253169389e-005 
0.000107846206283729 
4.169061164487671e-006 
5.654116106065724e-006 
1.393928318630408e-006 
-5.068274625486373e-006 
2.816065244336218e-006 
3.036972829987521e-006 
-1.911992209664073e-006 
1.271759405805718e-006 
4.067817909275256e-006 
4.928727501090695e-006 
7.53866476027055e-006 
1.102281239690498e-005 
-6.812378608706755e-007 
6.255301359281538e-006 
-4.408235960235969e-006 
1.945372394703292e-005 
1.178807771460936e-005 
3.057855747286061e-007 
1.707223366484996e-005 
4.612149997140054e-006 
6.092717205774302e-006 
2.636423431611104e-005 
4.755586490087051e-005 
6.683345601493723e-005 
9.28755565863101e-005 
2.081743913787306e-006 
5.634028158602943e-006 
-3.318875117392305e-006 
-4.393618772933294e-006 
2.213542219299998e-006 
1.185406875904024e-006 
-4.528079799992631e-006 
3.201809398029419e-006 
1.484341178338408e-006 
2.315007724143895e-006 
3.591806212940817e-006 
5.189828077793053e-006 
-4.964971287151189e-007 
6.074766273999046e-006 
4.59308781720729e-006 
1.044509157593826e-005 
1.128280172544988e-005 
7.949142733531248e-007 
1.548507211372175e-005 
5.809648107804148e-007 
1.033482156646173e-005 
2.426265034868071e-005 
5.09520102314924e-005 
7.165285379345382e-005 
9.978922973860558e-005 
-2.772269244835977e-006 
4.006306049725426e-006 
-4.317370053202247e-006 
-5.394340479089634e-006 
-8.274011858349475e-007 
-2.340203139099878e-006 
-3.021355519343058e-006 
-9.777145952644012e-007 
-1.377092909044052e-006 
-2.406976331272421e-006 
-5.47614543960827e-007 
-1.825579843323131e-006 
2.842363359386939e-007 
1.360885782069828e-005 
2.604492143208046e-007 
7.140453257056311e-006 
3.176049810931936e-006 
-3.346733253894916e-006 
8.955805343298906e-006 
1.6260124963275e-007 
8.819036339297002e-006 
2.569543388654177e-005 
5.232397430288647e-005 
7.792029340184049e-005 
0.0001020788283462252 
-4.491323130167131e-006 
1.135187007247082e-006 
-1.1494750941339e-006 
-4.080708387902438e-006 
-6.643169706568191e-008 
-3.195026510237196e-006 
-1.875987769360579e-006 
-1.520674719057789e-006 
-3.169856739469483e-006 
-4.927744473874433e-006 
-2.818574100753367e-006 
-4.755671970714548e-006 
7.781087819863947e-007 
-2.669478790265805e-006 
9.312216819665049e-006 
2.605663227804791e-006 
4.020008594313856e-007 
-1.506245589135587e-006 
6.826867575068193e-006 
1.68457954825992e-006 
9.389662268181114e-006 
2.162082881544293e-005 
4.493802068364673e-005 
7.439720933937922e-005 
9.411673529762713e-005 
-8.722827893044417e-006 
-2.261176298975044e-006 
4.618945707026392e-006 
-4.539405983136532e-006 
3.348066751683947e-007 
-2.485229571718384e-007 
-1.954215365618279e-006 
-3.311228875262307e-006 
-4.506966084999853e-006 
-9.438557187111828e-006 
-9.661661624889942e-006 
-1.197198928467811e-005 
1.300938218003249e-006 
-1.182919389643742e-005 
-1.091873973292234e-006 
1.762606265043011e-005 
-3.175075331778429e-006 
1.124207020644548e-006 
5.426182012833836e-006 
-5.31958767033986e-006 
-1.038038274091993e-006 
1.183581864506873e-005 
2.59242655263624e-005 
5.136872829056079e-005 
7.193365765479556e-005 
-1.147509039701374e-005 
-8.218278489218723e-006 
2.436296186505327e-006 
-3.825151229893534e-007 
2.975755878602555e-006 
-3.005242421059069e-006 
2.071909367593293e-007 
-6.091734178558044e-006 
-7.483059612081041e-006 
-9.909640925270896e-006 
-1.626491187841498e-005 
-1.47645559045143e-005 
1.979662948425384e-006 
-2.482028322218462e-005 
-6.036599173819771e-006 
2.8297079524854e-005 
-8.238622878563985e-006 
2.334758023128053e-007 
1.600727326712648e-005 
-6.44900046119923e-006 
-1.292761995982761e-006 
8.657606174260998e-006 
1.695918553497961e-005 
3.66202854843305e-005 
5.500208236249841e-005 
-7.699026417462763e-006 
-1.015578239216051e-005 
-1.079564762932065e-006 
5.38378362159325e-006 
4.889021749616393e-006 
-5.177347906177862e-006 
1.946060513754677e-006 
-2.784116859807642e-006 
-6.027410006363382e-006 
-2.717544547109721e-006 
-5.316681329004803e-006 
-7.308636391664897e-006 
1.907807932947896e-006 
-3.269116844123841e-005 
-3.315643949672743e-005 
6.476268781372082e-006 
5.583808289946013e-006 
1.066216962947749e-005 
-1.066058823786874e-005 
5.265350212190349e-006 
-1.629846302470922e-005 
-5.238338333899969e-006 
1.676505902992439e-005 
1.548396086556418e-005 
4.781358899278626e-005 
-6.593548202303704e-006 
-1.086398939100783e-005 
-9.427017302399168e-006 
1.109393227898601e-005 
5.431738253621389e-006 
-3.784351326387233e-006 
1.139995292544017e-005 
-1.537326345295017e-006 
-1.295168275646917e-006 
-1.208781553494226e-006 
2.572501018365713e-006 
-3.911969629215118e-006 
2.502406903814749e-006 
-3.073366207146146e-005 
-2.543450427109439e-005 
2.782732073642125e-006 
2.294150451033615e-005 
1.816997588322015e-005 
-1.101648683046996e-005 
6.122421723830929e-006 
3.09927538534174e-006 
2.075414073320897e-008 
3.592998667694447e-005 
6.575597270528475e-005 
6.963337396873825e-005 
3.530140488261453e-006 
-6.556449609968211e-006 
-9.846898144684979e-006 
3.010708907187781e-006 
6.538242236310448e-006 
2.323889161341258e-006 
9.075264520231798e-006 
-1.534291783018727e-006 
-1.221415590238895e-006 
-7.17096984107421e-006 
-3.969741711311802e-006 
-3.482241418641183e-006 
2.714069759601791e-006 
-4.184028822363142e-005 
-4.571290257194505e-005 
-1.675176679234789e-005 
3.670444116210523e-005 
1.931460422577472e-005 
1.629495831898161e-008 
4.539448723450308e-005 
-1.092070578735486e-005 
9.678415827880126e-006 
1.039495718790885e-005 
4.966296236877431e-005 
4.505812096528593e-005 
1.384662218609287e-005 
2.940554956197539e-006 
-1.886382213664722e-006 
-1.404579204817061e-005 
9.433727531658061e-007 
4.846409656807046e-006 
9.255073020180553e-006 
7.84408704233224e-006 
4.348784183808923e-007 
-4.766399789465947e-006 
-5.793022125755132e-006 
-2.086889847562867e-006 
-6.206021777527104e-007 
-2.595033711775021e-006 
-3.254063705620881e-005 
-9.323543002808965e-006 
-8.745437519018495e-006 
2.859856969805062e-005 
2.228826155497207e-005 
1.886292459005853e-005 
-1.165310380378496e-005 
-4.907870227980403e-006 
-1.57105700090699e-005 
-3.180033208173493e-007 
3.896852380241535e-005 
1.707253284704611e-005 
5.187990244301786e-006 
2.047872215139951e-006 
-2.289927708035048e-005 
-2.516028241807051e-006 
1.277405401252173e-006 
7.787242425043971e-006 
9.561649290713535e-006 
-1.151881373798061e-006 
-2.599517170687454e-006 
-1.225074161095949e-005 
-2.619058042134231e-006 
-2.623131194034657e-006 
2.247260052817837e-005 
-1.490059832318241e-005 
3.097471744101483e-006 
-4.880174504670011e-005 
1.016475785804812e-005 
-3.080879954303517e-006 
4.517052799044975e-005 
3.029809553402912e-005 
-5.99633779826674e-007 
1.875325294497438e-005 
1.955600151783803e-005 
5.271162894860421e-005 
1.536933134408517e-005 
7.926447626929667e-006 
5.211924820002109e-006 
-2.110687654259197e-005 
-3.673350457545561e-006 
-3.15634652629292e-006 
2.585994135416782e-006 
1.243888447208959e-005 
-1.62478584932285e-006 
5.118024350692092e-006 
-4.034023143192691e-006 
2.904986467094325e-006 
-3.308722450212111e-024 
5.293955920339377e-023 
0 
0 
3.176373552203626e-022 
-1.588186776101813e-022 
4.235164736271502e-022 
2.117582368135751e-022 
5.293955920339377e-022 
-2.117582368135751e-022 
0 
-2.117582368135751e-022 
0 
-1.058791184067875e-022 
-5.293955920339377e-023 
0 
-7.940933880509066e-023 
0 
0 
5.293955920339377e-023 
6.617444900424221e-024 
2.646977960169689e-023 
-1.588186776101813e-022 
-5.293955920339377e-023 
3.308722450212111e-023 
-1.323488980084844e-023 
5.293955920339377e-023 
0 
6.352747104407253e-022 
2.117582368135751e-022 
0 
0 
-2.646977960169689e-022 
-1.058791184067875e-022 
0 
-4.235164736271502e-022 
4.235164736271502e-022 
-4.235164736271502e-022 
5.293955920339377e-023 
2.316105715148478e-023 
-2.9778502051909e-023 
9.595295105615121e-023 
1.058791184067875e-022 
1.588186776101813e-022 
-5.293955920339377e-023 
-1.058791184067875e-022 
0 
0 
-5.293955920339377e-023 
2.646977960169689e-023 
3.308722450212111e-024 
1.058791184067875e-022 
-2.117582368135751e-022 
2.117582368135751e-022 
1.058791184067875e-022 
4.235164736271502e-022 
6.352747104407253e-022 
5.293955920339377e-023 
3.970466940254533e-023 
-2.117582368135751e-022 
0 
4.235164736271502e-022 
2.117582368135751e-022 
1.323488980084844e-023 
1.985233470127266e-023 
-5.293955920339377e-023 
-2.646977960169689e-023 
0 
-1.058791184067875e-022 
2.646977960169689e-023 
7.940933880509066e-023 
5.293955920339377e-023 
5.293955920339377e-023 
-5.293955920339377e-023 
-1.323488980084844e-023 
-1.323488980084844e-023 
0 
-4.235164736271502e-022 
3.176373552203626e-022 
-7.940933880509066e-023 
0 
8.470329472543003e-022 
-2.117582368135751e-022 
-1.058791184067875e-022 
2.117582368135751e-022 
-2.117582368135751e-022 
4.235164736271502e-022 
0 
-1.985233470127266e-023 
0 
1.058791184067875e-022 
-2.646977960169689e-023 
-1.058791184067875e-022 
-1.058791184067875e-022 
-2.646977960169689e-023 
0 
1.588186776101813e-022 
-5.293955920339377e-023 
-3.176373552203626e-022 
-5.293955920339377e-023 
6.617444900424221e-024 
2.117582368135751e-022 
0 
-4.235164736271502e-022 
0 
0 
-4.235164736271502e-022 
2.646977960169689e-023 
5.293955920339377e-023 
2.117582368135751e-022 
0 
2.117582368135751e-022 
0 
2.646977960169689e-023 
0 
4.235164736271502e-022 
0 
1.323488980084844e-023 
0 
-5.293955920339377e-023 
0 
0 
6.617444900424221e-024 
2.117582368135751e-022 
-5.293955920339377e-023 
-6.617444900424221e-024 
2.646977960169689e-023 
-8.602678370551488e-023 
1.058791184067875e-022 
2.630434347918628e-022 
-8.470329472543003e-022 
-8.470329472543003e-022 
-1.19114008207636e-022 
0 
2.117582368135751e-022 
0 
1.058791184067875e-022 
1.058791184067875e-022 
-7.940933880509066e-023 
-5.293955920339377e-023 
1.058791184067875e-022 
5.293955920339377e-023 
-1.323488980084844e-023 
-5.293955920339377e-023 
1.588186776101813e-022 
2.646977960169689e-022 
1.058791184067875e-022 
5.293955920339377e-023 
0 
-5.293955920339377e-023 
6.617444900424221e-024 
0 
1.819797347616661e-023 
-2.117582368135751e-022 
3.970466940254533e-023 
0 
0 
-2.646977960169689e-022 
7.940933880509066e-023 
0 
0 
1.158052857574239e-022 
5.293955920339377e-023 
5.293955920339377e-023 
1.588186776101813e-022 
0 
0 
1.058791184067875e-022 
-2.646977960169689e-023 
-2.646977960169689e-023 
0 
2.117582368135751e-022 
0 
-2.646977960169689e-023 
0 
0 
-1.323488980084844e-023 
0 
4.235164736271502e-022 
-4.235164736271502e-022 
-4.235164736271502e-022 
1.694065894508601e-021 
1.588186776101813e-022 
0 
-2.117582368135751e-022 
0 
1.058791184067875e-022 
0 
-2.646977960169689e-023 
0 
0 
-1.058791184067875e-022 
0 
0 
2.646977960169689e-023 
2.117582368135751e-022 
0 
2.646977960169689e-023 
3.308722450212111e-024 
0 
1.323488980084844e-023 
-5.293955920339377e-023 
1.058791184067875e-022 
-4.235164736271502e-022 
5.293955920339377e-023 
0 
0 
5.293955920339377e-023 
0 
0 
-6.352747104407253e-022 
0 
-1.058791184067875e-022 
0 
0 
-3.308722450212111e-024 
0 
0 
0 
5.293955920339377e-023 
5.293955920339377e-023 
0 
-1.058791184067875e-022 
5.293955920339377e-023 
0 
-1.323488980084844e-023 
-1.323488980084844e-023 
-2.117582368135751e-022 
-4.235164736271502e-022 
-2.117582368135751e-022 
0 
1.694065894508601e-021 
1.588186776101813e-022 
0 
-4.235164736271502e-022 
0 
0 
-1.058791184067875e-022 
1.323488980084844e-023 
-1.323488980084844e-023 
0 
-5.293955920339377e-023 
-4.632211430296955e-023 
0 
-1.058791184067875e-022 
5.293955920339377e-023 
-5.293955920339377e-023 
0 
-5.293955920339377e-023 
0 
1.323488980084844e-023 
0 
1.058791184067875e-022 
-2.117582368135751e-022 
-2.117582368135751e-022 
0 
4.235164736271502e-022 
5.293955920339377e-022 
0 
0 
4.235164736271502e-022 
-1.058791184067875e-022 
-2.117582368135751e-022 
-2.646977960169689e-023 
-1.323488980084844e-023 
-5.293955920339377e-023 
0 
2.646977960169689e-023 
-5.293955920339377e-023 
-2.469909610295056e-023 
-5.293955920339377e-023 
0 
-1.985233470127266e-023 
2.646977960169689e-023 
-5.293955920339377e-023 
1.323488980084844e-023 
-9.926167350636332e-024 
4.235164736271502e-022 
-2.117582368135751e-022 
0 
-4.235164736271502e-022 
4.235164736271502e-022 
0 
0 
-1.058791184067875e-022 
2.117582368135751e-022 
0 
1.985233470127266e-023 
-1.985233470127266e-023 
-1.323488980084844e-023 
0 
2.646977960169689e-023 
0 
-2.646977960169689e-023 
0 
-5.293955920339377e-023 
-1.323488980084844e-023 
5.293955920339377e-023 
-7.610061635487855e-023 
1.985233470127266e-023 
-6.617444900424221e-024 
3.308722450212111e-024 
2.117582368135751e-022 
2.117582368135751e-022 
2.117582368135751e-022 
-1.058791184067875e-022 
-4.235164736271502e-022 
-2.646977960169689e-023 
-2.117582368135751e-022 
-2.117582368135751e-022 
0 
-2.646977960169689e-023 
-2.646977960169689e-023 
1.654361225106055e-024 
0 
0 
-5.293955920339377e-023 
-5.293955920339377e-023 
0 
-5.293955920339377e-023 
1.058791184067875e-022 
1.985233470127266e-023 
5.293955920339377e-023 
-3.308722450212111e-023 
-2.646977960169689e-023 
6.617444900424221e-024 
1.058791184067875e-022 
-2.117582368135751e-022 
2.117582368135751e-022 
-2.117582368135751e-022 
0 
-1.270549420881451e-021 
0 
5.293955920339377e-023 
-2.117582368135751e-022 
0 
-7.940933880509066e-023 
2.117582368135751e-022 
2.646977960169689e-023 
2.646977960169689e-023 
-2.646977960169689e-023 
0 
0 
-5.293955920339377e-023 
1.058791184067875e-022 
-5.293955920339377e-023 
-6.617444900424221e-023 
2.117582368135751e-022 
-1.323488980084844e-023 
-2.646977960169689e-023 
0 
0 
-2.117582368135751e-022 
0 
-1.058791184067875e-022 
0 
0 
1.058791184067875e-022 
0 
1.058791184067875e-022 
9.26442286059391e-023 
-2.117582368135751e-022 
5.293955920339377e-023 
0 
1.323488980084844e-023 
5.293955920339377e-023 
-1.058791184067875e-022 
-1.323488980084844e-023 
0 
0 
0 
-1.058791184067875e-022 
0 
-3.308722450212111e-023 
-2.646977960169689e-023 
3.308722450212111e-024 
5.293955920339377e-023 
1.058791184067875e-022 
-1.058791184067875e-022 
1.985233470127266e-023 
1.455837878093329e-022 
0 
-1.058791184067875e-022 
-2.117582368135751e-022 
0 
7.940933880509066e-023 
-5.293955920339377e-023 
-2.117582368135751e-022 
0 
3.308722450212111e-024 
-5.293955920339377e-023 
-5.293955920339377e-023 
-1.323488980084844e-023 
1.058791184067875e-022 
2.646977960169689e-023 
-1.058791184067875e-022 
0 
-5.293955920339377e-023 
0 
-5.293955920339377e-023 
-3.308722450212111e-024 
2.117582368135751e-022 
1.058791184067875e-022 
-5.293955920339377e-023 
-1.058791184067875e-022 
-2.646977960169689e-022 
4.235164736271502e-022 
0 
2.117582368135751e-022 
1.058791184067875e-022 
2.117582368135751e-022 
5.293955920339377e-023 
1.058791184067875e-022 
2.646977960169689e-023 
0 
0 
-5.293955920339377e-023 
2.646977960169689e-023 
-5.293955920339377e-023 
-2.646977960169689e-023 
-1.058791184067875e-022 
-5.293955920339377e-023 
0 
1.588186776101813e-022 
-2.646977960169689e-023 
-3.308722450212111e-024 
0 
0 
2.117582368135751e-022 
1.058791184067875e-022 
-1.058791184067875e-022 
-2.117582368135751e-022 
-1.058791184067875e-022 
0 
1.058791184067875e-022 
0 
2.117582368135751e-022 
-1.058791184067875e-022 
0 
1.323488980084844e-023 
-5.293955920339377e-023 
0 
0 
-1.058791184067875e-022 
5.293955920339377e-023 
0 
-1.323488980084844e-023 
5.293955920339377e-023 
-2.646977960169689e-023 
0 
-1.240770918829542e-024 
-6.352747104407253e-022 
0 
0 
-6.352747104407253e-022 
-3.176373552203626e-022 
0 
3.308722450212111e-023 
4.235164736271502e-022 
-5.293955920339377e-023 
-2.117582368135751e-022 
3.176373552203626e-022 
0 
-3.308722450212111e-024 
0 
-2.646977960169689e-023 
5.293955920339377e-023 
0 
0 
0 
-3.970466940254533e-023 
0 
5.293955920339377e-023 
-1.48892510259545e-023 
-2.646977960169689e-023 
1.654361225106055e-024 
2.117582368135751e-022 
2.117582368135751e-022 
1.058791184067875e-022 
2.117582368135751e-022 
1.058791184067875e-022 
5.293955920339377e-023 
-7.940933880509066e-023 
6.352747104407253e-022 
-2.38228016415272e-022 
0 
-1.058791184067875e-022 
-2.117582368135751e-022 
0 
-6.617444900424221e-024 
-2.646977960169689e-023 
-5.293955920339377e-023 
5.293955920339377e-023 
-5.293955920339377e-023 
5.293955920339377e-023 
-3.308722450212111e-024 
1.323488980084844e-023 
0 
0 
0 
-8.271806125530277e-025 
0 
0 
0 
6.352747104407253e-022 
0 
-1.985233470127266e-023 
-3.176373552203626e-022 
4.235164736271502e-022 
2.646977960169689e-023 
0 
0 
7.940933880509066e-023 
6.617444900424221e-024 
0 
-2.646977960169689e-023 
0 
0 
0 
0 
1.323488980084844e-023 
-2.646977960169689e-023 
-1.058791184067875e-022 
3.308722450212111e-024 
-1.058791184067875e-022 
6.617444900424221e-024 
0 
2.117582368135751e-022 
0 
-4.235164736271502e-022 
-5.293955920339377e-022 
-1.058791184067875e-022 
-1.058791184067875e-022 
0 
-5.293955920339377e-023 
1.48892510259545e-022 
2.117582368135751e-022 
-2.117582368135751e-022 
-2.646977960169689e-023 
0 
2.646977960169689e-023 
0 
0 
0 
2.646977960169689e-023 
0 
1.323488980084844e-023 
1.058791184067875e-022 
-2.646977960169689e-023 
1.058791184067875e-022 
0 
-2.117582368135751e-022 
0 
-2.117582368135751e-022 
4.235164736271502e-022 
-2.117582368135751e-022 
-3.176373552203626e-022 
-2.117582368135751e-022 
-4.235164736271502e-022 
-2.117582368135751e-022 
-1.058791184067875e-022 
-4.235164736271502e-022 
-1.058791184067875e-022 
0 
5.293955920339377e-023 
0 
-2.646977960169689e-023 
0 
0 
5.293955920339377e-023 
0 
-1.323488980084844e-023 
-5.293955920339377e-023 
5.293955920339377e-023 
0 
0 
2.117582368135751e-022 
2.117582368135751e-022 
4.235164736271502e-022 
8.470329472543003e-022 
0 
-1.058791184067875e-022 
-1.058791184067875e-022 
4.235164736271502e-022 
1.323488980084844e-022 
2.117582368135751e-022 
-2.117582368135751e-022 
2.117582368135751e-022 
3.308722450212111e-024 
-5.293955920339377e-023 
-6.617444900424221e-024 
0 
-1.058791184067875e-022 
-3.308722450212111e-024 
-1.588186776101813e-022 
0 
0 
5.293955920339377e-023 
-5.293955920339377e-023 
3.308722450212111e-024 
0 
0 
-4.235164736271502e-022 
0 
4.235164736271502e-022 
4.235164736271502e-022 
2.117582368135751e-022 
-4.235164736271502e-022 
0 
3.970466940254533e-023 
2.117582368135751e-022 
5.293955920339377e-023 
-2.117582368135751e-022 
2.646977960169689e-023 
-1.323488980084844e-023 
2.646977960169689e-023 
-2.646977960169689e-023 
-2.646977960169689e-023 
1.323488980084844e-023 
0 
-1.058791184067875e-022 
-2.646977960169689e-023 
-1.323488980084844e-023 
-2.646977960169689e-023 
-2.646977960169689e-023 
4.135903062765138e-025 
-3.308722450212111e-024 
3.308722450212111e-024 
3.970466940254533e-023 
4.471945186614806e-023 
0 
-3.970466940254533e-023 
-1.323488980084844e-023 
-1.323488980084844e-023 
1.058791184067875e-022 
1.985233470127266e-023 
-3.970466940254533e-023 
-2.646977960169689e-023 
1.654361225106055e-023 
-3.308722450212111e-024 
6.617444900424221e-024 
-6.617444900424221e-023 
-1.323488980084844e-023 
-3.308722450212111e-024 
3.308722450212111e-024 
2.646977960169689e-023 
5.790264287871194e-024 
1.654361225106055e-024 
-2.067951531382569e-025 
8.271806125530277e-024 
-4.135903062765138e-025 
3.970466940254533e-023 
-6.617444900424221e-024 
-1.323488980084844e-023 
-5.293955920339377e-023 
-1.323488980084844e-023 
-6.824240053562478e-024 
-2.646977960169689e-023 
-1.852884572118782e-022 
-1.588186776101813e-022 
5.293955920339377e-023 
7.940933880509066e-023 
-6.203854594147708e-025 
6.617444900424221e-024 
-2.316105715148478e-023 
0 
1.323488980084844e-023 
1.323488980084844e-023 
-1.985233470127266e-023 
2.646977960169689e-023 
6.617444900424221e-024 
-1.48892510259545e-023 
-1.654361225106055e-024 
-1.323488980084844e-023 
5.790264287871194e-024 
8.271806125530277e-025 
-1.323488980084844e-023 
0 
0 
-2.646977960169689e-023 
-1.158052857574239e-023 
2.646977960169689e-023 
-2.646977960169689e-023 
1.323488980084844e-023 
1.058791184067875e-022 
0 
2.117582368135751e-022 
-1.902515408871964e-023 
-5.790264287871194e-024 
1.158052857574239e-023 
3.308722450212111e-024 
-8.271806125530277e-024 
-1.323488980084844e-023 
0 
9.926167350636332e-024 
4.549493369041652e-024 
-7.858215819253763e-024 
6.617444900424221e-024 
-6.617444900424221e-024 
0 
8.271806125530277e-025 
2.646977960169689e-023 
-1.323488980084844e-023 
7.940933880509066e-023 
-1.323488980084844e-023 
1.058791184067875e-022 
0 
9.926167350636332e-024 
-7.940933880509066e-023 
-5.293955920339377e-023 
4.632211430296955e-023 
0 
1.323488980084844e-023 
4.963083675318166e-024 
1.861156378244312e-024 
1.654361225106055e-024 
8.271806125530277e-025 
3.308722450212111e-024 
-8.271806125530277e-024 
1.323488980084844e-023 
9.926167350636332e-024 
0 
-6.617444900424221e-024 
-5.293955920339377e-023 
-3.412120026781239e-024 
2.274746684520826e-024 
7.940933880509066e-023 
-3.970466940254533e-023 
-7.940933880509066e-023 
-3.970466940254533e-023 
7.940933880509066e-023 
-1.323488980084844e-023 
-3.970466940254533e-023 
6.617444900424221e-024 
-2.117582368135751e-022 
6.203854594147708e-024 
-9.926167350636332e-024 
-3.970466940254533e-023 
6.617444900424221e-024 
9.926167350636332e-024 
3.308722450212111e-024 
3.308722450212111e-024 
-9.926167350636332e-024 
-1.985233470127266e-023 
1.323488980084844e-023 
4.963083675318166e-024 
0 
-6.617444900424221e-024 
-9.926167350636332e-024 
-2.274746684520826e-024 
8.271806125530277e-025 
-7.940933880509066e-023 
1.654361225106055e-023 
7.940933880509066e-023 
-5.293955920339377e-023 
0 
6.617444900424221e-023 
6.617444900424221e-023 
0 
5.293955920339377e-023 
-3.577556149291845e-023 
7.940933880509066e-023 
-4.301339185275744e-023 
-1.654361225106055e-024 
-1.654361225106055e-024 
-3.308722450212111e-024 
1.240770918829542e-024 
1.323488980084844e-023 
-6.617444900424221e-024 
-1.654361225106055e-023 
-9.926167350636332e-024 
1.985233470127266e-023 
-1.240770918829542e-024 
-9.926167350636332e-024 
-5.790264287871194e-024 
-3.308722450212111e-024 
8.271806125530277e-023 
-5.624828165360588e-023 
5.293955920339377e-023 
-2.646977960169689e-023 
-2.646977960169689e-023 
0 
-3.970466940254533e-023 
-1.323488980084844e-022 
-1.323488980084844e-023 
-1.323488980084844e-023 
0 
1.48892510259545e-023 
-6.203854594147708e-025 
9.822769774067204e-025 
9.926167350636332e-024 
1.654361225106055e-023 
-3.308722450212111e-024 
-6.617444900424221e-024 
-2.646977960169689e-023 
-1.158052857574239e-023 
3.308722450212111e-024 
4.963083675318166e-024 
6.617444900424221e-024 
-9.926167350636332e-024 
-1.861156378244312e-024 
-5.955700410381799e-023 
1.075334796318936e-023 
-1.323488980084844e-023 
-9.926167350636332e-024 
2.605618929542037e-023 
-5.293955920339377e-023 
-5.790264287871194e-024 
9.926167350636332e-024 
2.646977960169689e-023 
-2.646977960169689e-023 
-1.985233470127266e-023 
-9.926167350636332e-024 
5.169878828456423e-026 
-1.240770918829542e-024 
-6.617444900424221e-024 
-6.617444900424221e-024 
-9.926167350636332e-024 
-1.323488980084844e-023 
-6.617444900424221e-024 
-6.617444900424221e-024 
4.963083675318166e-024 
1.323488980084844e-023 
1.323488980084844e-023 
3.308722450212111e-024 
-6.203854594147708e-025 
5.293955920339377e-023 
9.926167350636332e-024 
1.323488980084844e-023 
-6.617444900424221e-024 
0 
-2.646977960169689e-023 
-3.308722450212111e-024 
0 
-2.646977960169689e-023 
-6.617444900424221e-024 
0 
0 
-2.067951531382569e-024 
-3.308722450212111e-024 
1.654361225106055e-024 
-6.617444900424221e-024 
6.617444900424221e-024 
1.323488980084844e-023 
-1.158052857574239e-023 
3.308722450212111e-024 
-1.240770918829542e-024 
2.481541837659083e-024 
3.308722450212111e-024 
3.308722450212111e-024 
5.169878828456423e-025 
-7.940933880509066e-023 
1.323488980084844e-023 
1.985233470127266e-023 
-1.323488980084844e-023 
1.323488980084844e-022 
-8.271806125530277e-024 
1.323488980084844e-023 
1.323488980084844e-023 
3.970466940254533e-023 
-1.323488980084844e-023 
1.058791184067875e-022 
3.308722450212111e-024 
-2.481541837659083e-024 
-1.654361225106055e-024 
-4.963083675318166e-024 
2.067951531382569e-025 
0 
3.308722450212111e-023 
3.101927297073854e-024 
-6.617444900424221e-024 
-4.963083675318166e-024 
3.308722450212111e-024 
6.617444900424221e-024 
-6.617444900424221e-024 
-6.203854594147708e-025 
-9.760731228125727e-023 
-9.926167350636332e-024 
-2.646977960169689e-023 
0 
-7.940933880509066e-023 
-2.646977960169689e-023 
-6.617444900424221e-024 
-1.323488980084844e-023 
5.293955920339377e-023 
2.646977960169689e-023 
-1.323488980084844e-023 
2.646977960169689e-023 
-4.963083675318166e-024 
-4.135903062765138e-025 
8.271806125530277e-025 
1.861156378244312e-024 
0 
-1.985233470127266e-023 
-3.722312756488625e-024 
-8.271806125530277e-025 
-1.654361225106055e-024 
-3.308722450212111e-024 
6.617444900424221e-024 
0 
4.135903062765138e-025 
-1.058791184067875e-022 
4.632211430296955e-023 
-2.646977960169689e-023 
-2.646977960169689e-023 
-7.940933880509066e-023 
-1.323488980084844e-023 
0 
0 
-7.940933880509066e-023 
9.26442286059391e-023 
0 
0 
2.067951531382569e-024 
-3.205324873642982e-024 
1.654361225106055e-023 
3.308722450212111e-024 
1.240770918829542e-024 
4.963083675318166e-024 
1.323488980084844e-023 
-1.323488980084844e-023 
-1.323488980084844e-023 
1.323488980084844e-023 
6.617444900424221e-024 
0 
-1.861156378244312e-024 
-3.970466940254533e-023 
-1.323488980084844e-023 
1.323488980084844e-023 
0 
-2.646977960169689e-023 
-6.617444900424221e-023 
-3.970466940254533e-023 
-3.970466940254533e-023 
-5.293955920339377e-023 
