solver_type L2R_L2LOSS_SVC_DUAL
nr_class 2
label 2 1
nr_feature 5008
bias -1
w
-0.04786063094762221 
-0.0188407609935301 
0.009767510208255179 
0.4360330815298725 
0.009837541976775418 
-0.02437826354804958 
0.0009837541976776159 
-0.02641585935329618 
0.001769916368030036 
-0.0205394677173698 
-0.0003225273291535134 
0.03337214208430048 
-0.00740437744767489 
-0.000935023878135948 
-0.03022467933847448 
-0.007593095061777201 
-0.01724755919800956 
0.002025484709705048 
-0.03097531501772931 
0.001458291725676414 
0.003158968474573355 
0.006166835543302995 
-0.006213948360368185 
-0.01212975685681317 
0.004657828841108148 
0.001965818625105303 
0.005838641402205097 
0.002177334914535537 
-0.001547412596065213 
0.003680184236054768 
0.007198221509057686 
-0.003023612917295002 
0.003375434628124937 
0.01777368684610911 
-0.02048962490561318 
0.004751175831357294 
-0.02258275325631389 
0.003237447901470533 
0.02919954360981787 
-0.02298273871635604 
0.02738432116734207 
-0.01596610871985049 
-0.0009643070103097535 
0.03046934075020453 
-0.0157200068049176 
-0.01362393147444963 
0.01161285401382663 
0.001168762156280974 
-0.007977224644375839 
0.002246369183783242 
0.003798274154333333 
0.01202326198138948 
0.003136743340237132 
0.005952515553770433 
-0.003742695209949904 
0.01081778836068143 
0.003495235604034783 
-0.006645811875122436 
0.01329480827412005 
0.010269874475382 
-0.03392843118874638 
0.0006997883753065585 
0.01056325082000701 
-0.006175387138117752 
-0.004653342497815122 
-0.01419370342220534 
-0.02562472752155104 
0.02192243449561335 
-0.02570711558888389 
-0.005071347302731746 
0.02842967605167697 
0.01153977704682212 
-0.002150243736119965 
0.0007654057213787052 
-0.006483457570582473 
-0.0001311457541173735 
0.005645975666270223 
-0.003443011025520652 
0.007005779655994482 
0.0001347536088742658 
0.00439523913890929 
0.003905499612722129 
-0.00342611556506635 
0.01666723806493495 
0.022121175203835 
0.02232528363434606 
0.009820374111842271 
-0.005157340844398524 
0.02067814279487143 
0.01710532011520138 
0.01139088634874167 
0.01670591560693388 
-0.02663500612006664 
0.02047737345118266 
0.02219881434145272 
-0.04270385309822698 
0.002842383122159918 
-0.002675395216233533 
0.00561372930220248 
0.003180635540870078 
0.002084290603123482 
0.004484805732604284 
-0.003091986995956178 
-0.002970497424542879 
-0.000526299086987488 
-0.005853704775707186 
0.003876947647362553 
0.001838056287280116 
0.007735477905934146 
0.01585367973708436 
-0.01986060474734562 
0.02099865490668807 
-0.03562272829647229 
0.002671052158668372 
-0.02203792665884465 
-0.01681116978957726 
0.001445609142546957 
0.01553542908639703 
-0.004005911609556093 
0.002026364697537974 
0.0005690540686067555 
-0.006740180415869716 
0.002521022711887661 
-0.001969656645237185 
-0.007029379916296766 
0.006926949182569972 
0.002915385428521384 
0.002702363329812416 
0.005101608190834029 
0.00499430612017611 
0.002128700350064522 
0.001484915688451653 
-0.001816448352101856 
0.009566364263965042 
-0.009068769543531901 
-0.0156589906892714 
-0.004662984702536679 
0.04223369146855081 
0.03519905629662837 
0.008133754692659102 
0.01323286477463893 
-0.04435342793536112 
-0.0004029615155935141 
-0.00965000090552634 
0.0001161961871129627 
0.009496335757887695 
-0.0006578564680769785 
-0.006757276493018848 
0.003126902257207622 
0.001926922925275095 
-0.002065098042104011 
-0.005243860496287478 
0.002178532813090442 
-0.006066020621711744 
0.008220964543238068 
-3.210772596939211e-005 
-0.003273440538256999 
0.01230365547079848 
0.01803593037979168 
-0.007836727365398585 
-0.002332377293528927 
-0.001905140658987717 
-0.04827865422453409 
0.02119813167852137 
0.01440916893786698 
-0.001603109312124574 
0.03041351235535999 
0.03377810672331245 
-4.758914590440639e-007 
0.01339409765197842 
-0.006752256083779469 
0.005139800977052747 
0.004487290767583098 
-0.002553748021296515 
0.001487600394623848 
-3.672391175747179e-005 
0.002160142961420147 
0.001613977318532536 
0.000257808912580065 
-0.004964740948106669 
0.001481370326750374 
0.007921721178829467 
-0.0009279078464455744 
0.02544843607810799 
0.03067615448772354 
-0.02022548274090107 
0.03690597410918389 
0.01080404849133726 
0.001087429652213285 
-0.02734079387206286 
0.01468054524646581 
-0.02810863618074024 
0.00534758455350103 
0.0183143214371432 
0.0001457898062789396 
0.02247626854306513 
0.001806983078663431 
0.008557540633234682 
-0.001095761320234385 
-0.002177099737583305 
-0.001801729589505516 
-0.0004484790398459718 
-0.003119831833017732 
0.005916157275865691 
-0.002962390017243963 
0.001683007147865565 
-0.002124313750142544 
0.003322198252115869 
0.03780008212131807 
0.02167861271940239 
0.004859671307896251 
-0.01255573336375929 
-0.0124725019570757 
0.01954154426969946 
0.006499491385563501 
-0.009464435694197651 
-0.005388792130547843 
-0.01216142527074195 
-0.01058234647930831 
0.04161951896581605 
-0.01055924339699051 
-0.002269634128601805 
0.01056324814001361 
-0.0003453224281004467 
0.009694843635023065 
-0.007863877674572873 
-0.006379918849446226 
2.790761516436605e-005 
-0.0050659282061114 
-0.002376144521289881 
0.006515945266967852 
-0.002807722902296333 
-0.001379244063391791 
0.03258096893567742 
-0.01479211729798734 
0.02353221190647992 
-0.004815841916697937 
0.01344449097610708 
0.02701908245827564 
0.009847806244670616 
0.0015651854726428 
0.00312619435234452 
0.007755686577331455 
0.004056471696212603 
-0.02461782713824517 
0.0280099497350621 
-0.008271093686793676 
0.002117580928608118 
-0.0112088132241736 
-0.0048887786235759 
0.0003407164902413857 
0.003981139852347397 
0.00489512981585703 
0.002892454244182123 
0.0007008475827688354 
0.001149792908305469 
-0.002332113774058734 
-0.01077388052551639 
0.02049931530643076 
0.003550001322300348 
0.0286053160865012 
0.01722935458253764 
-0.001126038679666123 
-0.03108566123337003 
-0.0360844858308174 
0.005093371120501179 
-0.01053250440533385 
0.02069228724382573 
0.03970992972099466 
0.01173881204747298 
-0.01641678006205764 
-0.003851373999887855 
-0.006732251192527395 
0.01050131021483802 
-0.004298630830549845 
-0.0001462415838564127 
-0.006837578906455919 
-0.006679779576590666 
0.003064035601190099 
0.001799689688627978 
-0.0003262251394642419 
-0.009110909402992411 
-0.00479824078988204 
0.008895109526422444 
-0.001613922945719917 
-0.02150901564693792 
-0.03403006923115588 
-0.01931297811067798 
0.02810664880796218 
0.01385998642223619 
0.0318792419058989 
-0.01107426691041702 
-0.007575026912078524 
-0.001081637595287283 
0.00342566089358074 
-0.02846500762689813 
0.01120953047433569 
-0.009104004119728993 
0.009879246897863271 
-0.009705552189454826 
-0.008903860431081392 
0.004019709305251321 
-0.006745033463158099 
-0.004790104133956792 
0.0009189133504197808 
-0.007324617520356232 
0.01159859365006643 
0.00186524049495848 
0.009195441072609835 
-0.004167987675657225 
-0.006281776701260462 
0.05455892166218236 
-0.01758656385439991 
0.01826681951524006 
-0.02969370149091379 
-0.05801865197767055 
0.01703246076750673 
0.004501125440142501 
-0.009644321176627738 
-0.01795737376747668 
-0.006314396646267172 
-0.002792935908731869 
-0.0005435825691958931 
-0.007086601737453817 
0.001793818166296875 
0.005529002066484041 
0.00494318565863862 
-0.002013950373983057 
0.002291505695118728 
-0.00244039133454025 
-0.003009589652508888 
-0.006236036754170684 
0.009813755555155668 
0.02260469054532299 
0.0451149607539823 
-0.004543829601894403 
0.02591582658170693 
-0.02685333704377397 
-0.04217565647380242 
0.02675088803358041 
-0.0006050486170913351 
-0.03460625579626885 
0.02044665770347407 
-0.007891000031201988 
0.04822358258321205 
0.0322845487969482 
-0.004098731443458507 
0.00539751407959186 
-0.007537557836093481 
0.014627713278855 
-0.004722058294164538 
-0.004088742289239452 
0.006002174022640138 
0.001950650744282273 
0.00201138495624573 
-0.0006396651223361054 
0.004936117393786114 
0.007379266387925272 
0.04043607652187621 
-0.0337791999712133 
0.01740575980244265 
-0.04817542728683009 
0.01161415034334758 
0.03170088746646321 
-0.01781260471859889 
0.0112673173190919 
0.01269118669766691 
-0.005518590970554087 
0.02806537405854019 
-0.04184083360040545 
0.002278814892562549 
0.005220725140000044 
-0.003952870016394184 
-0.001818775135761697 
-0.0001833945936625043 
0.001483378593911407 
4.917061327934607e-005 
0.004712199710892194 
0.0002640148156666379 
0.0006336846494277298 
0.001208013706677235 
0.003271050245528925 
-0.008133030348487398 
0.04546956643929047 
-0.007301878726513286 
-0.006364359464054612 
-0.02035124606001864 
0.03922584989387779 
-0.002220839595501351 
-0.01252458593097874 
0.02724546684056612 
0.0008468069082557071 
0.007493501572088638 
-0.02313710578963276 
0.04004740485466059 
0.004135086317447529 
-0.01000096367227834 
-0.004316743071889217 
1.876391163207637e-005 
-0.005738432814258264 
0.007912271576939486 
-0.00860872036715505 
0.002289931950846064 
0.00350043926431572 
0.0005016289967080466 
0.002782015488488374 
-0.002797327027653931 
-0.01157196825247735 
0.04186118011612963 
0.04814411467208053 
-0.02513616278237457 
0.06859746736035531 
-0.05154191915993287 
0.005703968879671438 
-0.009809833985307647 
-0.04838210501509289 
0.0006262487243954434 
0.01414512059612588 
0.004017246216806297 
0.002485747056141967 
-0.03290384453074689 
0.00346790377051306 
-0.005375352539420428 
0.009343225016319665 
-0.006327472454050675 
-0.001414396129471966 
0.006438094038969577 
-0.006484485526093584 
-0.006474920760390864 
0.003355658538393052 
0.0002064492057894205 
-0.0008714140545509993 
0.000139165702379462 
0.02323902003644764 
-0.04585141280580332 
-0.004856798572667287 
-0.03237745268112966 
-0.02396671296954097 
0.01038501393407938 
-0.02029610255871996 
0.04067040426654853 
-0.01107217887076005 
0.01312045101433573 
0.01804262004986687 
0.01207357650844792 
-0.007983907943907987 
0.00251633320318842 
-0.004249314953457669 
-0.01071847669398094 
-0.00170775076639322 
-0.004364209317370096 
0.001673391872448537 
-0.005691944213651713 
0.002928058521829856 
0.0007465815325091354 
0.001517916160011561 
-0.00594083442921286 
0.004091657041258555 
0.002039559339788479 
0.002834681712051183 
-0.01022354990538996 
0.004555696902748147 
0.01157294842000716 
0.01832507872881779 
0.01826345868799848 
-0.02786748513537888 
-0.01372439405788175 
0.008445229011408402 
0.008510304037095734 
-0.03221131800234718 
0.00903318884989586 
-0.008299091859777607 
0.01273624965902825 
-0.005722312805280461 
0.0108165654870946 
-0.003921851007187648 
0.002225641251464337 
0.00515627560671944 
-0.004844317454972398 
-0.001257873964818546 
-0.0017871715293762 
-0.001737176240717465 
0.00360895331679486 
0.0002841665839370602 
0.02793432812644465 
-0.03506526649116286 
-0.04192181601849863 
-0.0008711194086035342 
-0.0303489728723701 
-0.01819483228860991 
-0.01147060805565339 
0.02266177651495795 
0.0140752034569746 
-0.01779299237626048 
0.02768988757851703 
0.003626138047257004 
0.00841628371021433 
0.005432567071598494 
0.01286676458114611 
-0.002092508749173046 
0.002095329023275715 
0.008753032340940371 
-0.002402039498693974 
0.00447547169775581 
0.00123114520143216 
-0.002565221730818791 
-0.005889213939743682 
0.0008120562451690579 
0.009569803974258693 
-0.03230112384017934 
0.04911101610328508 
0.03655560643786202 
-0.01073752373600192 
0.001915528739523577 
-0.009363439506812277 
0.005430730958647038 
-0.03524356288202504 
0.0002858219486493579 
0.0203911527719251 
-0.005637306192107777 
-0.01760488241928357 
-0.002326651937840094 
0.00299963541306443 
0.00487105494570658 
-0.002012773560827413 
-0.003135491565133934 
0.002162007624353893 
0.0001305153275904834 
-0.006208935492805963 
-9.900312290946747e-007 
-0.001426477269286147 
0.0005457830038195249 
-0.00219686626437251 
0.02420680565381897 
0.01071382277674151 
-0.01416865733626336 
0.00365281359847416 
-0.02586854432457455 
0.02224479553211434 
0.02283301921168451 
0.01495370437625451 
0.02989775474243145 
0.01271877601087555 
0.01036917475547851 
-0.0181021754407521 
0.01398390878967756 
0.005714036196399958 
0.01114531942227258 
0.01051404270671733 
0.006090177898970757 
0.002451081354186332 
0.009693746184487768 
-0.005238936922753516 
-0.008146970514096689 
-0.002441192777247375 
-0.006395584380631895 
-0.01285255411902183 
-0.008209137240331454 
0.03818354378292105 
-0.007928545847342079 
-0.02225585082352574 
-0.004803375442851369 
0.005216013024156366 
-0.009732050088278833 
-0.002429393582240888 
-0.0149369965002273 
-0.01855198752094881 
0.003777669183413446 
0.003234156257558774 
0.02043461514036758 
-0.002354380568319364 
0.008885538524499496 
-0.005292438772382857 
-0.004968173535320335 
0.004260890577895752 
0.0004929116973787414 
-0.002919303340650325 
-0.005156331334586752 
-0.006358289044842447 
0.00281922296939883 
-0.009897774722530355 
-0.003995652935965138 
0.006703808590545207 
0.02156432898339619 
0.03549901139516954 
0.0321141215494475 
0.02361959406536463 
-0.008902121815977548 
0.007059847718071998 
0.01221174106995279 
-0.001313418432275354 
0.006238101920131894 
-0.004129165945154559 
-0.01686161630687454 
-0.009632739653648905 
-0.02881856907417834 
-0.01543281639213785 
0.008747475335485913 
-0.007481130668019271 
0.009210617902072005 
-0.007559055956735039 
-0.002450969345941114 
-0.01356699878277145 
-0.0134004742552216 
0.001845636415249686 
-0.008588176439481983 
0.002319482861059971 
0.000660193742994215 
0.00521721801488884 
-0.02037020867708889 
-0.0108799143421368 
-0.02905823984088601 
-0.01146611306442143 
0.02814239617686276 
-0.02123239231901826 
0.0115194792481191 
-0.02492054482356218 
0.01672390562533664 
-0.00179849365419391 
-0.01343618607959734 
0.04489360833257689 
0.002018011236015872 
0.002638946504574893 
-0.002197791871764914 
-0.004141944907984184 
-0.004425644191405227 
0.004526205061778801 
0.001585355750225562 
0.005638974590861756 
0.005554193065391544 
0.007116493075259712 
-0.007492755411192221 
-0.0112095638068955 
-0.001292813021393369 
-0.06348387453694109 
0.005552821207458395 
-0.02371600416631807 
-0.002400645762502631 
-0.01276022178889207 
0.0258195432583609 
-0.04628751266182558 
-0.002250277700298544 
0.01587913392002874 
-0.01998484148682595 
0.02511546776743841 
0.0002388163501165573 
-0.002421276770090527 
-0.006068044638990638 
-0.005973658803698804 
-0.003717301204536915 
0.004350453371492241 
0.0009564220647503994 
-0.008929398914556266 
0.0009589959175156034 
0.005533930477000859 
0.008378102676947307 
-0.004074248145587984 
0.002625056222031219 
0.02235584450227498 
0.04570956259926312 
-0.002759807926001797 
0.02200049543500946 
-0.02380297971747072 
-0.02980528253749665 
0.01036032384704333 
0.0307157268896591 
0.009496735146302303 
0.002327707904154523 
0.0368136224230801 
-0.01374411148453956 
-0.05600991788424054 
0.01187974229495958 
0.0008030462333862001 
0.001666069665811438 
-0.003043455935609313 
-0.002044778377732067 
-2.460819980273754e-005 
-0.005671104020277754 
-0.001320327081384279 
0.001232436772835459 
0.002538062615756367 
-0.0005185795748491388 
-0.008218897031277615 
0.02504439093820051 
0.006777554985948152 
-0.001441355277329405 
-0.01378626518699288 
0.001381761176084698 
0.0381073290780248 
-0.009173901995104424 
-0.03178276522693312 
0.008974436001228877 
0.01018231914630304 
-0.006592845424983239 
-0.001591908883248275 
0.04215868844607878 
-0.00180081397046609 
-6.315531680683177e-005 
0.00272142701532639 
-0.00266910291103433 
-0.003585849979970586 
-0.008409874115732529 
0.009794897430884922 
-0.008782133297843596 
-0.004392986574015406 
-0.001469224155500173 
-0.004730397623206025 
0.01062089402088432 
0.005986249859623626 
0.03448258564343277 
0.007993953163460988 
-0.01476334054086002 
-0.005055408883781732 
-0.01882915916882952 
0.00225326339700658 
0.000472028477811416 
0.002063155248889015 
0.008609855204615373 
-0.01214915730726081 
0.02785977799936214 
-0.02695234307779092 
-0.0135454171100009 
0.0005397800548362283 
0.009648737124250925 
-0.01835084454195218 
-0.0009708271297195449 
0.001356970130039188 
0.006378243789620827 
-0.01415954937195163 
0.008015834947320333 
0.01219139749309302 
0.01802221206242546 
0.02484931952216006 
-0.006558298026890947 
-0.03352257663288689 
0.01469864230322026 
0.0004935306627593903 
-0.0005408253250995329 
-0.02280420945504508 
0.00981611469179528 
0.01965353490399497 
-0.007621060771862758 
-0.02433873047572608 
-0.01761151060793249 
-0.007610132863878487 
0.02464315471394323 
-0.01025767286446042 
-0.0008625337252201468 
0.01107147828310433 
-0.01220107102212047 
-0.011835426449168 
-0.01187452494354261 
0.01234388257348527 
-0.0189873111689505 
-0.003922379451934956 
0.03299607683751747 
0.01657400513368239 
0.007551001825564202 
-0.03390259856919309 
0.04514062490600757 
0.01149459131334566 
0.02082484046156579 
-0.02777953466813406 
0.01083614066449469 
0.01998672021401886 
0.01091628065399949 
0.009410246254939724 
0.03016933769801369 
0.005396222180634713 
-0.009775705110717081 
-0.004118561368700286 
-0.008434962363960054 
-0.01419696636341653 
0.01137161209966324 
-0.005782545237060337 
-0.007321959613766473 
-0.02318311940607316 
-0.003292532064345558 
-0.01376286606171342 
0.005112697012414668 
0.02669049937143633 
0.02095198144165742 
0.01575295646889043 
-0.01676748442663421 
-0.02079138180779252 
-0.01073311007329605 
-0.03126422668747937 
0.0354398740218291 
0.01868875799701459 
-0.009584629695868022 
-0.01797097131185037 
-0.008778301321982018 
-0.03077774773195568 
0.01962427619940664 
-0.02233078083113092 
0.009727026745878786 
-0.003608151110030127 
-0.0190103112526362 
0.009393519198237084 
-0.0002710082381785741 
-0.006924406884450821 
-0.01753986423729098 
-0.002902295579990066 
-0.004138265069569839 
0.0135877012689356 
0.02915809928793992 
0.01754116219058515 
0.0001377924539731665 
-0.01315384958269661 
0.004615665724228264 
-0.03404376942899277 
-7.579075177871139e-005 
0.02358449942966007 
0.01326313481552563 
0.005983128052247601 
0.01503325923383977 
0.009769654227067765 
-0.001656128793499521 
-0.01380282401464709 
-0.01792796104807441 
0.01379985166621615 
-0.01292420434019027 
0.004945914464152035 
0.0192828265680708 
0.003371008982262968 
-0.02161698823023495 
-0.02895121307189686 
-0.0137350173707071 
-0.01844498034053685 
-0.004310728471653527 
0.0002995827453726863 
-0.01124178378366802 
0.0017284870377559 
-0.02242927116839092 
0.006336431031510677 
-0.009872652144353891 
0.02110434321826828 
0.01419144882877688 
-0.02488617608909933 
0.01862860964866824 
0.03611549133246792 
0.008332191582575504 
-0.01507676122985139 
0.03726018214593051 
-0.01094839240524049 
-0.01354693456989334 
-0.00402274220208155 
0.009490475167092236 
0.02561144388891325 
-0.004584952500567174 
-0.00679593913250953 
-0.0218445537271219 
-0.01505715005558512 
-0.008789542419540343 
-0.001107688031833929 
0.006062867717298567 
-0.01126381397623437 
0.01422717286782693 
-0.02801509942442825 
-0.005543200851038141 
0.02511644999696399 
0.0004935639471991132 
-0.007908841991648234 
-0.01293555908139062 
0.0153045365149526 
-0.00328568998270445 
-0.03692674419501339 
0.007776872324097093 
-0.03474561384336841 
-0.00445998694151474 
-0.02020002423210981 
-0.01170232238789087 
0.02268541176554297 
0.01906580882366717 
0.006291724542547483 
-0.003758418288326952 
-0.02162281250085126 
0.003178547077135564 
-0.003212189983535716 
-0.02778078363282154 
0.004970289999105278 
-0.02655889760480928 
0.01685364291517405 
-0.03639818780256392 
-0.02055923555996588 
-0.01406472721475937 
0.001384365508772474 
0.008358327478091232 
0.03308614422844907 
-0.0264030768056368 
-0.000835648025105206 
0.01037112726948493 
0.01125988741932181 
0.03049622033415402 
0.01206066490858703 
0.01722985187552602 
-0.00749667736462967 
0.03082648746854463 
0.02091064667272445 
0.01423483705374793 
-0.001060927631810411 
-0.03385934686596896 
0.0287428539623514 
-0.01271011870818109 
-0.03123676861959427 
0.001893082331255548 
-0.01108161336713867 
0.02126876173519572 
-0.03906995233407182 
-0.01003199636725417 
0.0124807008181014 
-0.009254442477828331 
-0.02151532110253112 
-0.003715559632021703 
0.04364742718910909 
-0.02917829643106597 
0.02320950901132507 
-0.01854860343422035 
0.01427131923696603 
0.0257567181287373 
0.02377410093125967 
-0.003102648519013881 
0.01751457582090846 
0.02665624789873471 
0.01488947506259576 
-0.002330514830508333 
-0.006715333548418572 
0.03221766830497216 
-0.007921088503033809 
-0.01810065479267677 
0.03025677551372095 
0.01340579856007457 
0.01924911795713232 
-0.02253784464824668 
0.02428679805981508 
0.007816735798825835 
-0.02287110763005355 
0.02066569100014784 
0.02287874757030652 
-1.457828591717694e-005 
0.005976860846217152 
-0.04316859011993642 
-0.009352135687966494 
-0.03243759003247181 
0.0302601878322295 
-0.05015280682869026 
0.00585567160195094 
0.01223042052965504 
0.01283005222518114 
0.008592575854796832 
0.01916736493111043 
0.01540624973493576 
0.0279216686615302 
-0.02233061766485655 
-0.01096570395687506 
0.02460896991595356 
0.002087128283441845 
0.01043804431475565 
-0.007863833879698119 
-0.0195652474556901 
-0.02247470556307712 
-0.01184822511235274 
0.009343559263604504 
-0.04326897904149486 
0.007382667901331845 
-0.006377885695082772 
0.03662085254533146 
0.05257643502295672 
0.009125853070007331 
-0.04911791488547876 
0.01513774546266416 
0.01366761076677539 
0.002523862945555887 
-0.004012693397940284 
-0.00711613125533617 
0.01510024570056084 
0.03308787970370868 
-0.006277574578653122 
-0.02267897118286579 
0.01729792095641485 
0.01138145342808194 
-0.01470520722414736 
0.009874926633446815 
0.004437727142397945 
-0.004364216439464735 
0.003454354981538486 
-0.0474521816898841 
0.049527542635552 
0.01429834811986331 
0.04108080376521506 
0.04393127428786649 
0.01983299969361324 
-0.03930005848164305 
-0.03166783261243581 
-0.07877096799792049 
-0.02293154194571321 
0.007253872264812057 
-0.01616878717036675 
-0.01362592300761887 
0.009415074608144586 
0.02172709047400085 
0.04276015173432686 
-0.0174969460779501 
0.01123607743812256 
0.02444344624291029 
-0.009901388136184051 
-0.05148237067769145 
0.01171702265843472 
0.03742918639274444 
0.01079055525462188 
-0.003382630824343385 
0.06635487210994176 
-0.02305696076789096 
-0.04487159609966693 
-0.01051553516650593 
-0.01588607704186873 
-0.03292502715795343 
-0.001229518836540885 
0.008694044765791982 
0.02810950566453271 
-0.001087324942099523 
0.0004201775686330141 
-0.01182001329395624 
-0.001556769070001917 
0.0142972587346172 
-0.001369393103240335 
-0.01587743822887034 
0.00812500963389701 
0.002573068134110563 
0.001431964289207312 
-0.03244741748577096 
-0.0823465304070779 
-0.03460772410362298 
0.04011300117954602 
0.0219845564016754 
0.01288084810281269 
-0.01369782499191002 
0.01757078998682371 
0.04372084415195383 
-0.04206128710970068 
0.009816648803015438 
0.02599764415431596 
-0.01513946957347583 
-0.01531440805072814 
0.02072077583087861 
0.007079146043967444 
-0.006419938944152004 
0.01213509330952225 
0.0169769556542369 
0.02505365370815868 
0.0156806458097722 
-0.01750293210835232 
0.01508820973070728 
-0.007571795011917981 
-0.03250646290121523 
-0.04962134924783178 
-0.07427239686123437 
-0.01901789790194479 
0.007121524427739988 
0.01293142463919131 
0.03811326080146082 
0.03085748140725133 
-0.01653301454153252 
-0.01193363649497838 
0.01019895250694258 
-0.03414480125812879 
-0.01812863819508468 
0.01125741050949834 
-0.004108542298116301 
0.01111264628756595 
-0.04990226202956064 
0.001339913591466536 
0.02869021467082075 
0.0322320178104176 
0.01485616519104895 
-0.01999848114588764 
-0.03923813684652897 
0.01599389466198351 
-0.01577269159988659 
-0.02033498449718364 
-0.03558443227974534 
-0.07641878671147669 
-0.03406808893388524 
-0.007755906164735546 
-0.04031939949268604 
0.0202720762096548 
-0.04039397870178783 
-0.009778613195016038 
-0.009712412218721312 
0.01844444764035374 
-0.01833880933905138 
3.145086859692405e-005 
0.01892480051498796 
0.02608775215578521 
0.04339880454775159 
0.06049634812915954 
0.01329708601689497 
0.03094731518161104 
0.01844320581067873 
-0.01608520753748395 
-0.03301853567399757 
-0.03725021985577936 
-0.02830682484601015 
-0.03009010651890897 
-0.004942277117337876 
-0.01456147451219991 
-0.03187641974212218 
-0.03200706114142557 
-0.01778172502180688 
0.02924097495028743 
0.007283819342489457 
0.003461967402401858 
0.01411452902412051 
-0.02504679784020688 
0.03894634443571064 
0.02738580751352941 
-0.0002390477519985639 
-0.01986865399666118 
0.04212880897722854 
-0.05786679607543026 
-0.01461951105586828 
0.01022879163449744 
0.0253655149375972 
0.01434061393592719 
0.0192825214429756 
-0.01188693126782653 
-0.02969462442303009 
-0.05358479366488274 
-0.03120622528068925 
0.04363078368825733 
0.007526538725893338 
-0.001400433714345176 
-0.0155038275291401 
-0.01284481601592086 
-0.005292008256615858 
0.04767656061223818 
-0.02907159322719383 
0.01360092510520045 
0.01930059605284852 
-0.02436400622940706 
-0.01098658116596182 
0.03341291734753472 
-0.02113375712444958 
-0.03194334093793462 
-0.002424913515621769 
0.05869480862168209 
0.02368776082065848 
-0.002248242013130583 
-0.0005131786263384807 
-0.003456158138935799 
-0.005840343429581105 
-0.0303735959311043 
-0.03502002722768526 
-0.03758349131152806 
0.03702181915046184 
0.008570015827557101 
-0.04717732456971976 
-0.01501967230716897 
-0.02863867555017962 
-0.007812074260778924 
-0.04554138286319995 
-0.0471788960294592 
0.04036320743736297 
-0.03655594098964719 
0.02893775425523621 
0.01961674725072271 
-0.02089212566452933 
-0.006259194131686371 
0.02080761025752852 
0.02952778039089694 
-0.01421982682570518 
0.01365228790269238 
-0.01620866331583926 
-0.0282493457577954 
0.02182983623285514 
0.03024594529781263 
0.01310814412200961 
-0.005118724326523293 
-0.0456994117861254 
0.03653528658130414 
-0.007179929478184547 
-0.03246617069378601 
0.0485957500595809 
-0.03988696891457753 
0.01647130876704846 
0.01151000877922219 
0.03282008437822416 
-0.0233880283812701 
0.05568131139720486 
-0.02020175393506605 
-0.0159898373784854 
0.02442811258461974 
-0.04725536181425961 
0.01387007371973905 
0.01897006517968665 
-0.009162048242581542 
0.004309538158510913 
-0.01822669338293104 
-0.01835179411464894 
-0.00513603964557544 
0.004323348407287128 
-0.001335816208323563 
0.01580478327560964 
-0.01497230208895938 
0.04363088890572457 
0.008546200598938129 
-0.04607963537603547 
-0.01683156627805451 
-0.03251508302450264 
0.008731846424230232 
-0.04952499279916811 
0.009869098768586316 
0.05013888066622448 
0.02476773278142686 
-0.01520574281918498 
0.01310116945164519 
0.01567813686568642 
-0.02990696488407814 
-0.03250458172314888 
0.02900226173380655 
-0.005316044421698608 
-0.01246182327613262 
0.01309141638790664 
-0.02583636340360006 
0.01325626709672478 
-0.001792753934199257 
-0.03173603765190682 
-0.009310353618329281 
0.005899594029393914 
0.001294836019540584 
-0.02572913720711737 
-0.006902353303929154 
0.005059628644237696 
-0.01914166534109546 
0.004838084860181771 
-0.006965429759949301 
-0.001196741787549321 
0.01784414980510754 
-0.006637223120784367 
0.009506307338458956 
0.001531067311480208 
0.0006930463558515088 
-0.01029712094144854 
0.00314854782442035 
-0.05678600628557495 
0.02764624556661843 
-0.03733470148304366 
0.01811119603734413 
0.002039563326907797 
0.04828138261381604 
0.01719176882544451 
-0.01737949526066544 
-0.02564719001745933 
-0.008221466160608679 
-0.02108266321600819 
-0.02706205525802942 
-0.007750995397541936 
0.008696890162265932 
7.57046412492699e-005 
-0.007954029836343562 
0.06022836953878261 
-0.04794694881523699 
-0.04159337345234931 
-0.0243787971294789 
0.02874559656226285 
-0.03087320829759296 
0.01949681216471631 
-0.02150721796707973 
-0.02018192862467381 
-0.0004098351655687364 
0.02404132100416585 
-0.04049602987095057 
0.0132837331803395 
-0.01281792192896879 
0.0260179312956539 
-0.007604846201398684 
0.001889633186684571 
-0.01196735531294624 
-0.006412919375488354 
0.004742885658245427 
-0.01142305105964072 
-0.02701122936729502 
0.01295713395553468 
-0.003888443659733009 
-0.000120664484250779 
0.004937248882271484 
0.0222107821873672 
0.01381092142454578 
0.02542400429825729 
-0.01294854307114248 
0.02571125857915172 
-0.0252854901402228 
0.003668915687300335 
0.04746732122603415 
-0.03252003769450344 
-0.03578402973451133 
-0.02858339755697033 
0.03324022677344343 
-0.01203913607604129 
0.05241265351541001 
-0.008911844266942769 
-0.005464526058981919 
-0.02259093566127941 
0.01158518114022007 
0.03267793962727875 
-0.04207069428994771 
-0.03714491373841771 
-0.007198264518012825 
-0.01118364323849441 
-0.04614680065627868 
-0.0008218762969332001 
0.01151165067669789 
0.0003174943762265043 
-0.0193341093470579 
0.04733234165122852 
-0.00490101059762096 
0.0340594788584866 
-0.02544500635080615 
0.02207199879196621 
0.02439429023141796 
0.0313711633633083 
-0.01468713104241634 
0.02937933805072758 
-0.02662702074925362 
0.02990140454266787 
-0.003006252469001852 
0.008697590463864474 
-0.0114469157182622 
0.02202630530083251 
0.01626468111557266 
0.01042905517702045 
-0.04911224958103564 
-0.01792676505109363 
-0.008712725353299786 
0.003682363488024022 
-0.0251055815508486 
0.01613184537309216 
0.03626299181422957 
-0.03830107889006646 
-0.05291579881132478 
0.01834646252763853 
-0.0190821601385273 
0.02045614745683027 
-0.04584443840469037 
0.00848845483361314 
-0.02743482164114367 
-0.002657911111322812 
0.02144545706849757 
-0.02251386599425419 
0.0136763321649143 
-0.008796037226284954 
-0.00439990262811009 
0.009318205261782743 
0.04230965991335085 
-0.04123956184756102 
0.02203653433307696 
-0.002482260155683656 
0.007586077658453504 
0.003895812383393155 
0.0005526600930173425 
-0.005265978441017641 
0.005031449830792807 
-0.03768542404705676 
0.01056554907875363 
0.004045940680211045 
0.008128634910884449 
-0.03085552118075956 
-0.05124673935345254 
0.03557728268140811 
0.05725179434164261 
0.01348735067957718 
0.01933987695540181 
0.03038442812615188 
-0.0006614168043101626 
0.02923588265093822 
0.0001261568473702556 
-0.008100978285680528 
-0.0007855330564394773 
0.001748690797122838 
-0.02710114980879457 
0.0599700826992596 
0.001490861048449824 
0.007279324750390049 
0.004476794968981484 
0.001784473046882403 
0.005035308703235306 
-0.02984667792832472 
-0.003506643978598582 
0.005472497757966823 
0.006374595916581479 
0.03229044238839161 
-0.03091956613191394 
0.0344111218140141 
-0.04443291600401753 
-0.01425591760476534 
0.01402332831388851 
-0.006396064112544267 
-0.0165343898107047 
0.005691403831605935 
0.007882356935594607 
0.01052636042958459 
0.003382174938451746 
-0.001683539389467341 
-0.003225660045523382 
-0.04193755292431315 
0.01880239543718391 
0.007271997386575443 
0.0282652456836428 
0.007082602184402905 
-0.005921580530978949 
0.03686511391761418 
0.009936511715465925 
0.04212703882912312 
0.0008612291386352521 
0.006542817617881486 
-0.02932868664809516 
0.04120955208913297 
-0.001787154124926108 
-0.01990008201440032 
-0.008509701318617514 
-0.01745559964203454 
-0.02325706840261314 
-0.0220995539653577 
-0.0005466233027098235 
0.000604411973802646 
-0.007838455386366508 
-0.01083628850185546 
-0.04625056904009562 
-0.02312411268998347 
-0.009531403108960506 
-0.03338211606385796 
-0.00709987971227604 
0.01578516716134016 
0.0004241557529614714 
-0.01284363562211559 
-0.02784935710920545 
0.02618142550650082 
-0.008557588760754896 
0.01939170956823006 
0.01619060710189528 
-0.02693217659497807 
-0.001405542074371273 
-0.03928564855670311 
0.02933001114220261 
-0.001015358753576664 
0.005276526156583681 
-0.04066115173364043 
0.0006298938516182128 
0.01752766107649425 
0.002047646999813628 
-0.01788421123179463 
-0.0120941395074498 
-0.0290252480154071 
-0.04029734560382575 
0.0009371839134047345 
-0.05316198513293474 
-0.01016882776425716 
-0.01153137655419379 
0.0002573754614175692 
-0.02412647480067625 
-0.04133584404213946 
-0.02301870593571805 
-0.009148670542449878 
0.01377744980562378 
0.03173202657420371 
0.03616793955502339 
-0.01647365901489222 
0.02142770680240498 
0.01415540655113848 
-0.02087014876339113 
0.01994684501262575 
-0.02948100691783862 
-0.008774056273773962 
0.007873481894014709 
0.02661798034355339 
0.002822677737335535 
-0.009514769104895111 
-0.02249635566382776 
-0.03933469028819323 
0.00386384667549257 
-0.01996853559859822 
0.02306285999395851 
-0.00618852913780428 
-0.005585380109956285 
0.02527704251611248 
0.00105551001761374 
0.00522117189196003 
-0.02607297607741272 
-0.05030901971997252 
-0.04462440357632638 
3.243382071351905e-006 
0.01522718027908077 
-0.02402501695739293 
-0.03235454426126894 
-0.01139385526466952 
-0.02129155460383492 
-0.004696250552410962 
-0.01635512588049534 
0.002836635816817705 
0.02147314507406405 
-0.002564629843562443 
0.001552880689506102 
-0.02289539220702111 
-0.0205657329457958 
0.02452478880435756 
-0.0176103142426727 
0.004226439682732834 
-0.0251758255080356 
-0.007641133827326409 
0.02433583173657138 
0.01148682867775447 
-0.06058268227721118 
0.03960141236623715 
0.004925288185664529 
0.01010356768009709 
0.02815968305127235 
-0.01467929438686092 
0.05322769025868012 
0.03070175528609057 
-0.0009127826608841675 
0.01130321029427654 
0.00664066268465842 
-0.02222208146325496 
0.006492416417145268 
0.007899154607332074 
-0.01324826817197771 
0.01075818011885021 
-0.002260043875946511 
-0.00134507020318908 
0.02260303467346167 
0.004354490793581895 
-0.00823622944574662 
-0.0006063035251548742 
-0.0008751001644252553 
0.008863911294926315 
-0.01557544036980759 
0.001937478605489292 
-0.05404367510729655 
0.03131952329951177 
0.03281879777451723 
-0.03858923371805567 
0.03758121682564241 
-0.0485993355238586 
-0.01996733203975642 
-0.0196715970275666 
-0.01392066582071759 
-0.00807846637180225 
-0.01488167977276355 
-0.01374725506877027 
-0.0129648789967312 
0.007567333219882661 
0.01385690655395831 
0.001308891576549221 
-0.02876709896330048 
0.03250735220888706 
0.001503540134238397 
0.01583511836428529 
0.01060637285543838 
0.004520620211506778 
-0.01825094551618885 
0.06574492765848623 
0.06246828046967328 
0.05818548507136397 
-0.0345852563860188 
-0.02249604131404201 
0.04480100255849633 
0.001071219557353271 
-0.0235974753342387 
0.02775080507016899 
-0.02329005407164511 
0.02240240876884816 
-0.01921198115937304 
0.001332563999283838 
-0.01238223918802582 
-0.01808541323166346 
0.01161781450229352 
0.0007266455005247961 
0.003097441196520491 
-0.01962719738701165 
0.005915190392149326 
-0.0110592262358723 
-0.005352140810211362 
0.01357610564736441 
-0.0003240925872125786 
0.003035127121970991 
-0.04378495493648558 
-0.00718324861812612 
0.003175133919343939 
-0.005019698158350805 
-0.01400559319586857 
0.02238953728279104 
-0.04691289689101673 
0.04147149490197036 
-0.006839811300109726 
0.04424399524271327 
-0.02714387722257556 
-0.02218264798212645 
-0.006379152911853567 
-0.02517516245321884 
-0.006475639224005944 
0.02468424695230753 
-0.0066676974590875 
0.01284566627874117 
-0.004190637952840983 
0.01577293604982363 
-0.01011778229137341 
-0.007049523108368192 
0.02707797329723477 
-0.007177469762696888 
0.002391503373664511 
0.02960824265862196 
-0.004153866662734345 
-0.02773584212076545 
0.01056210920711068 
0.01965521215567974 
-0.007728154330372231 
-0.01112055496446031 
-0.05791134674670483 
-0.0004836025414129092 
0.01011025454558133 
-0.009101332939208546 
-0.008206424847273195 
-0.02103198530961494 
-0.02512556625396966 
-0.03420146321481965 
0.002892256300535977 
-0.01691863516224309 
-0.009141309429227251 
-0.001742686361545301 
-0.008917502459645701 
0.00813232130683474 
-0.02500651213060516 
0.01932812813089258 
0.002577304483164847 
0.0002177120365869001 
-0.006035265562026985 
0.002340713765959226 
0.01686614909576389 
-0.00381725960636932 
0.002023330448050992 
0.01902427150704358 
0.02680929851603811 
-0.002519843071084691 
-0.01166495587144321 
0.01398210645625824 
0.01350652835917171 
-0.006679727318571044 
-0.01393806747429041 
-0.01277834037161505 
-0.009492820564233085 
0.003503735698564077 
0.008959415924694085 
0.005916500498199664 
0.001052282761054734 
0.01464847941520677 
0.02164858604730955 
-0.02163669611562108 
0.01023377344107279 
0.006475431748314668 
-0.04048860359069283 
-0.02287048880493539 
-0.0387361560594393 
-0.04192699613225413 
-0.05100281880149905 
-0.02155358835366813 
-0.02598919465025661 
6.534237699822459e-005 
-0.001113212288631393 
0.03795690610616224 
-0.03467290484188135 
0.01149817663626764 
0.00529706888348315 
-0.01493202006632744 
-0.008404559504837855 
0.001930043953628247 
-0.0128855657031029 
-0.01400597586055068 
0.01388109220632306 
-0.0006803678183352608 
0.05045588322701858 
0.01710269297681723 
-0.01600117783007665 
0.02454977551002173 
0.008867325421804141 
0.008214611999972404 
0.03628591436555084 
-0.02776289190947164 
0.03229730654324549 
0.004835478926891067 
0.04082305816072541 
0.01301931218387632 
-0.05554206944420601 
0.01465507923321201 
-0.02356219949920995 
0.04227389699283438 
-0.04576749369693379 
0.01316928076403839 
-0.009292298112219401 
-0.01201204982570199 
-0.007018962299621826 
-0.01341538222907089 
-0.01034049375094792 
0.009461120926748067 
0.001402008992153957 
0.04475478546905058 
0.03684678351856074 
-0.01329396987393519 
0.02388662912627552 
0.01061948482532271 
0.003929052645079947 
-0.01448651151250702 
0.03648808491449078 
0.004252163416165107 
-0.0423379779907779 
-0.05999715718741363 
0.002124790486131649 
0.00270027432012525 
0.01421762429440224 
-0.02791139569808678 
-0.02437790066943833 
0.04004076808760954 
0.008033063760130563 
-0.007613729751348757 
0.00421503150706344 
-0.004209362666925168 
-0.008573034715351428 
0.0006413308553810234 
0.002312551742469617 
0.003912430562612357 
0.03700773615076897 
0.02075799136514885 
-0.008329915546116165 
0.02579455085814421 
0.009134499957173178 
-0.002502011430575936 
-0.02077223529401881 
0.01564321386881096 
0.0101419579110342 
0.01007082228334726 
-0.02401977529854472 
-0.009068148853670516 
0.008729658994482322 
0.01432873311684766 
0.0004173709607192 
-0.01071071489499167 
0.008745314701210162 
0.0005187317723158939 
-0.002956109967600788 
-0.01687342899268319 
-0.006574727030437013 
-0.01954314932205606 
-0.0002997733712541569 
0.02371417547220105 
0.01069720882828118 
0.02005587385715974 
0.008061993069993096 
-0.01440404910879278 
0.02256741082929921 
0.003072985833080297 
-0.01918639135451123 
0.0005844591496484728 
0.04289814152256746 
0.0375155349854677 
0.04778609385888043 
-0.009937677541407541 
0.04842659322579184 
0.002833335238220086 
0.009782623951517881 
0.01373091241582969 
0.02859866060773522 
-0.026268668531032 
0.006752879039602167 
0.005204872795986282 
-0.01969768518285269 
0.0157806788989666 
0.01562841458466773 
0.01368596781264891 
0.02474510919358258 
-0.003363495981860108 
0.03028893639128232 
0.007931196671385296 
-0.01351413450837415 
-0.01908325463457724 
0.0009700829536420832 
-0.003028212975953638 
-0.004310715454757048 
-0.0429509689858531 
-0.05550356401290634 
-0.05439112194319708 
0.006466807407929365 
-0.002032445435529725 
0.01892348297266945 
-0.02585738061932537 
-0.001808503102682304 
-0.02384687171371483 
-0.01464481748387134 
0.002852594523100636 
0.005951814052484421 
-0.01719363264066294 
0.01488615702275777 
0.009276826554105357 
0.01358669677457696 
0.01524226556415715 
-0.008883516389349243 
0.01339015640482692 
-0.01149088686431839 
-0.02224980969087048 
-0.007142044566024059 
-0.00181620052737905 
0.01576141903271583 
-0.008729595468169713 
-0.01728000206442929 
0.02036428528900152 
-0.009300243763598025 
0.005410144590978353 
-0.005180353760616528 
-0.04980760594639808 
-0.05745871899766782 
0.04245695494247227 
-0.01113086748420858 
-0.04595932903975532 
0.01668472069078933 
0.00128183320796713 
-0.0264445916705578 
0.004311682873245728 
0.003260146290014069 
0.01879344372208909 
0.01352068655577783 
-0.04020055075540652 
-0.004984402217373494 
-0.00489054083189034 
-0.0150061157325443 
-0.00815780662025797 
-0.0008221139891649175 
0.004675251380447727 
0.01572963435796067 
0.01461713097966371 
0.0180759978246545 
0.02742154885143232 
0.02955597365633546 
0.006762334184923848 
0.02519930199125282 
-0.004441675004772511 
-0.0007437330652218025 
-0.03351716479619002 
0.01971565326142231 
0.009148123240827208 
0.001270420159863147 
-0.02081309022815742 
8.639425052237894e-005 
0.01453934933492899 
0.0256634672149205 
0.01543277031720675 
-0.02814391854578773 
-0.002652072087290978 
-0.006296172861258076 
-0.01070391521024264 
-0.01799146017279364 
0.004642156111322611 
0.005440481662650632 
-0.004325405454116522 
-0.01523266044027601 
-0.01084488700253635 
-0.02123477516220505 
0.00179010621607903 
0.009451961273040373 
-0.01562532855558678 
-0.01547924848738069 
-0.009241622130678672 
-0.02509256439563252 
0.03522003055384952 
0.004648895617815272 
0.004390714582366482 
-0.01084373545350067 
-0.006620384539854008 
0.01223162267230875 
0.003312988880787337 
0.01134139008577064 
-0.02189393366648906 
-0.002302680733993648 
-0.01550336167984885 
0.01173314794047514 
-0.007742186339800303 
0.004850690152551221 
-0.02088047858111127 
0.02531963636520904 
0.02783960640869084 
0.03068418975055735 
-0.02720581945133705 
-0.02509307296829236 
-0.02527396148352564 
-0.03721588818777878 
-0.001693607629394334 
-0.04602580079064492 
0.03157731283949036 
-0.008256309723808161 
0.004817381881047769 
-0.004422968143683159 
-0.007394906112700232 
-0.007797459786377271 
0.004538259980078752 
-0.005051799277685048 
0.009593248275917267 
-0.02493671131304808 
-0.001186322181937103 
-0.01754001951917842 
-0.004074964290698285 
0.002018578584696767 
-0.002139365983802634 
0.01498175558012764 
0.005638133711038443 
-0.0249307553784141 
-0.0326989254811802 
-0.02281822732620959 
0.005866597482820386 
0.007179135386477182 
0.009549642561225832 
0.01306214027426516 
0.0009773451669678297 
0.06111355573372253 
-0.007919287063872807 
-0.002986534177893662 
-0.002475443117514708 
-0.001948950135442597 
-0.00663627072964541 
0.0001963674259852952 
-0.011670422236132 
0.0077129670482441 
-0.02008061827573387 
0.001446012664334253 
-0.01857103969070003 
-0.01123099119271078 
-0.01228361979011048 
0.0002423024280539126 
0.002728281387012157 
-0.003874528103258172 
0.02447091371014222 
0.01289835206670454 
-0.003965469985875992 
0.03941084375885905 
-0.01796473147118788 
0.0001283032256199937 
-0.03209735539613449 
0.01696507410651322 
-0.007668642577822 
0.0120268074616424 
-0.004271483484673292 
-0.01194851024583669 
-0.01310398843726459 
-0.01345505080218597 
-0.008850861198199096 
-0.01652547270760727 
0.004420081888653652 
-0.02610081611904775 
-0.009181958322220355 
-0.01810621868867531 
-0.004587231284353169 
-0.001102131473529229 
0.001958845771671658 
-0.03325151460819441 
0.01917317390091356 
0.02350605485967166 
0.01031483912886307 
-0.001454587934506384 
0.0155511036321056 
-0.004299384190751107 
-0.008387585295945113 
0.0207561109012905 
-0.006881972812505982 
0.02682628755721289 
-0.04126722694068005 
-0.00269606738658455 
-0.0006379149925562262 
-0.009841382806236578 
-0.007316035427589451 
-0.00556631603876972 
-0.02680468960004324 
0.001705753396151668 
-0.006742224953325741 
-0.006143368026860948 
-0.01455807602728862 
-0.02111033674768377 
-0.002049865201437929 
0.00376939907947539 
-0.01700820935213059 
0.02428634414553239 
-0.007974580304312128 
0.008530859323210264 
-0.007550467775402012 
-0.02865057704073108 
-0.01163978932323554 
-0.01277280361873152 
-0.05036193240030634 
-0.008515108381528689 
0.001074993953818006 
-0.002967309412957312 
-0.000611883224095947 
0.0006280900717528582 
-0.003564908032970712 
-0.01463748971466123 
-0.007373614539242814 
-0.01654799807750967 
0.006392874697173888 
0.001554913566012373 
5.954195577126337e-005 
-0.01605883844061517 
-0.008835502643201635 
0.005534360658128449 
0.00726262339798848 
-0.019770422327323 
0.004839438042563247 
0.02037811263466104 
0.01464649769338153 
-0.01091431917102731 
0.01806789628783068 
-0.03989383426689012 
0.03485876678476568 
0.04453985062863224 
-0.01866556338499395 
0.003107632441292227 
0.002170482595890028 
0.004244558639271901 
-0.0006399787071466617 
0.005795391522362434 
-0.01865091526591869 
-0.01921393234220584 
-0.01726798164369503 
0.002196553339180655 
-0.005480801026092837 
-0.002110199463333508 
-0.0186068912739938 
-0.00555931073510011 
0.008521885160112028 
0.008419358722320851 
-0.004492318904750012 
-0.04810783563283072 
-0.02667508223702313 
-0.0361465973149054 
-0.02346468149196522 
-0.01720600886909261 
0.008140438989310566 
-0.03885930516123878 
0.00809356835579539 
-0.05520813104315371 
-0.006697707018622823 
0.002470593842368426 
0.0002431762744186933 
-0.01357314068265897 
0.008151979462078999 
-0.01269282972640415 
-0.01567358512991813 
-0.01376971041175089 
0.001660739324009788 
0.00182353337942566 
-0.007159473155699529 
-0.02430118487311548 
-0.01082025540333331 
-0.006487001297124624 
0.003889404449676853 
0.004879731436291726 
-0.0103383697804067 
-0.008739849726762911 
0.007310976725929406 
-0.001473927570919875 
-0.01961432410264184 
0.03532570681211137 
0.02931312357257698 
0.02815872623043686 
-0.01151023227957346 
0.01450632169120507 
0.03137515293557204 
0.001513639046673612 
-0.003857758035991208 
0.003818539394180033 
-0.007971754168131805 
-0.005123730259646996 
-0.006287158993301284 
0.004064494696245857 
-0.002014977541008622 
-0.006613388737556973 
-0.01495871527096605 
-0.005165023116950033 
-0.0008272192272015228 
0.002060747349237619 
0.004843700954009346 
-0.01268060514458629 
-0.02066321687316289 
0.02541262817456011 
0.01038666617392567 
0.003328499012013794 
0.01241418356331747 
0.02549347352721136 
-0.01966377018992484 
0.0034504512144882 
-0.004454846380767513 
-0.01428720121814792 
0.002267140351049433 
0.004911628937585665 
0.001303407160678237 
-0.00467039414700573 
0.00169560092322111 
-0.001329872273678791 
-0.007358064824027716 
-0.00519954319900914 
-0.008020426581238509 
-0.007803884923355011 
-0.001381534715896658 
0.001081011769603282 
0.0001720742937087548 
0.01286331669283849 
-0.004714593179822239 
-0.01417182336861199 
0.01336107878234191 
0.01458503925972215 
0.008024756014123873 
0.002231658513359099 
0.03302344534982167 
0.01574584179790434 
0.02014203197007412 
0.007096269550131414 
0.003136472920468993 
0.003828684491616686 
0.007566019115481497 
0.001650899841568146 
-0.005390824611649255 
0.001311710851093548 
0.0007975517108604341 
0.002795811871686411 
-0.01015295466483246 
-0.00487592817217542 
-0.008517703876248067 
0.001180065744626688 
0.00483777354485733 
-0.0006675896430364985 
0.02636411205948413 
0.01023771384911775 
0.006223904064969835 
-0.002594722681847143 
0.001036509122241058 
-0.006932088720451985 
-0.01379317702698459 
-0.001099178324361054 
-0.024111715485687 
-0.005371401226697367 
0.008443212853040163 
0.01368216667853391 
0.003860949640157772 
0.006858280624793 
0.001098247632734426 
-0.004149720539920146 
0.0003557691521691546 
7.606114369312568e-007 
0.003533468327053083 
-0.005193453008288254 
-0.002747589836855863 
-0.002342136483744363 
0.002324772869157572 
0.00630476735350519 
-0.0003846334406611985 
0.0154551901804451 
0.01190871507037201 
-0.005249107467980775 
-0.01343194061226167 
-0.006717488131191652 
-0.01178607315045584 
-0.003958726935831406 
-0.007389685143961446 
-0.02003704513513618 
0.005596434468471466 
-0.002138092892704734 
0.01784008524142205 
7.979201503168551e-006 
0.001361834269941559 
0.002582545853372603 
-0.001305891466179767 
-0.001422266734907314 
2.536759291410188e-005 
0.007338739635220223 
0.0004356967668083459 
0.0004968280640964175 
-0.0004553418079267489 
-0.002227315840975381 
-0.001077107877585803 
-0.001088727118134536 
0.0105338158351071 
0.008870968280106665 
-0.006679277373792802 
-0.01439468368538753 
-0.006106551266235012 
-0.004474994161903486 
-0.00177396357238683 
0.0197132136733846 
0.001777781889004207 
-0.00527904590116997 
-0.002170348285020457 
0.0182480305073222 
-0.0009070288210277303 
-0.0009327959243086542 
0.003244694039915657 
-0.0003044468069234036 
-0.002144070994082302 
0.001047323913406395 
0.004284403121657411 
0.005332711568744017 
0.006447214238321615 
0.002706769339127326 
-0.002281665224105305 
-0.003808028211463678 
-0.001162574743962211 
0.01183811141659221 
0.004676049205280339 
-0.0002538389434490981 
-0.0192229904952539 
-0.001781784886385927 
-0.001958384701817284 
-0.01591305901145694 
0.02129297502058332 
0.006730668626134325 
0.01991007640430463 
-0.001150789635319146 
1.20131519080372e-005 
-0.001205775095467867 
-0.001219606458732915 
0.003974883852584044 
0.0004526860922388032 
-0.0005035723754118383 
-6.758055492916377e-005 
-0.001236241868453145 
0.0002141374544488084 
0.008641476803851874 
0.002983836557124178 
-0.001524380927999391 
-0.00512511886605603 
-0.0005995317565065482 
-0.005257298494960057 
0.01437887030217592 
0.008345630662923563 
-0.006397239939779024 
-0.002512757030503749 
-0.003073704710786088 
-0.01768515371412415 
0.02337120467911615 
0.01339813799932985 
-0.002098516241679545 
-0.003848293708108849 
0.002501486906131095 
-0.002725680832434686 
-0.002807200368682716 
0.002301399780101581 
0.0003321485759782344 
-0.001284277674989855 
0.0005823661989232154 
-0.002148613697753925 
-0.004000133841821986 
0.003052643175353519 
0.001188949877984213 
-0.001292146436535835 
-0.00308593404213643 
6.467035707041889e-005 
0.001733369038516056 
0.008109066978700981 
0.008904511134459576 
-0.01149333442096955 
-0.009827525273254275 
0.002131732585287266 
-0.02032540264510872 
0.005441124819885493 
0.01770528970816079 
0.0002324244037335147 
-0.01558476670853267 
-0.01070195522321741 
-0.002742889510430729 
-0.004211633144743357 
0.00102045415184538 
0.001873071137390878 
-0.0005822128892800011 
0.002454433105230555 
0.0001854298540087979 
-0.003314184752581617 
0.001428948824400575 
-0.001838307989337051 
-0.003518242005639679 
-0.00450755282327661 
0.0009165164193767515 
-0.007570352122692938 
0.01062273336083467 
0.01355609018930153 
0.007122550748260178 
0.004645193880352764 
0.01156477082902836 
-0.007517382739281837 
0.01600357839174696 
0.0117692937591597 
0.0007301069556588527 
-0.001345156471297051 
0.005922935929407559 
-0.001705725970954354 
-0.006513671162681432 
0.000510820507289085 
-0.002101079312129199 
0.001077417590580591 
0.002177880771139707 
0.00328087698080885 
-0.001855625687214074 
-0.001078843667040911 
0.0001354023201633193 
-0.00379664369461788 
-0.006460681959466147 
0.001925930065313064 
-0.0164419868086158 
-0.001432641981565333 
0.01175905045201825 
0.0141238514177082 
-0.004349570432862265 
0.004384896312779794 
-0.00548004002323301 
0.02065312526101173 
0.001996219677380964 
-0.01537194672497366 
-0.007982731621659894 
-0.000566593956992569 
-0.001257295547411783 
-0.007135599492890506 
-0.00148005444079328 
-0.002091933510428171 
0.002030939495438634 
-0.004040337509522988 
0.003892118987410468 
-0.0009693833045794047 
-0.001251547010513479 
0.001119172749339885 
-0.004454025035723044 
-0.002357886908856614 
0.002495837354247938 
-0.01400415294525394 
-0.008347351452161676 
0.01220230538109597 
-0.002127959724517602 
0.005231701808446087 
-0.00399594403262962 
0.002901430654220289 
0.01545422858174038 
0.01051196245637113 
-0.007755474854701111 
-0.01075565062962287 
-0.006440203365468119 
6.0501056610235e-005 
-0.007151596268103633 
-0.00214557884393092 
-0.00427082536015313 
0.004078113508207613 
-0.006225955147306383 
0.003398802410523913 
-0.002719567241527421 
0.001024023681872027 
0.003633949090863216 
-0.007603864045801405 
-0.0009047156556163938 
0.003009455173550923 
-0.01138430920281144 
-0.01300483877191255 
0.004747417407837142 
-0.0006568515496319363 
0.006186114022531162 
-0.0167340401806651 
-0.008442611788541889 
0.0189326329011636 
0.01105111585910795 
-0.006294028376130734 
-0.01166790029517594 
0.008865255629864241 
0.002086944165246274 
-0.004850182555346997 
-0.001840018485278956 
-0.003552771746864648 
0.004303547623231158 
-0.006026526865922943 
3.592398543250798e-005 
-0.004076351675489529 
0.002240326564605349 
0.004297638745541838 
-0.007506764170836117 
0.001913588880075257 
0.002519350006346147 
-0.01019519044403515 
-0.01444889745525767 
0.01374328294179535 
-0.01413337380505751 
0.01148374476073745 
-0.0196109826399569 
-0.007765226494927935 
0.007847470360252757 
0.008483711857398591 
-0.005776069918856979 
-0.0196855892520158 
0.008735527727096805 
0.001664884685371548 
-0.001717588055024478 
-0.001064950945349282 
-0.001532927600394169 
0.002020932160087619 
-0.002232939878746619 
-0.001143489436041182 
-0.002877387316584297 
0.001645570369112301 
0.003103467690803079 
-0.006769981852317562 
0.003362261540237812 
0.0003594650424887947 
0.004907193612557398 
-0.002780085892582428 
-0.001140735302392875 
-0.005232329832247646 
0.005050162562403419 
0.003621551068851717 
-0.003400037646277165 
0.001942186476192972 
0.01740071658888818 
0.003391149134761075 
-0.001723707102824624 
-0.008953533881321224 
0.001942209285803413 
0.000425559658100827 
0.001364517356750512 
-0.0006886409656218848 
-0.002073879115124603 
-0.0006707419741844372 
-0.003201036776487511 
0.0009673168864456701 
0.002461456098256342 
0.003360156019556956 
-0.001582833325679296 
0.001117606851816759 
0.0004688850168463973 
0.004833942281314025 
-0.002694368804328593 
0.004626935241165233 
-0.002524652589357348 
0.00305681493192108 
0.0004710471105834785 
-0.006958963888125067 
7.075211398844716e-005 
0.01538687993102556 
0.007554653343655067 
-0.002511908741585915 
-0.003219697121533735 
0.001172761991874121 
5.881228046848784e-005 
0.001082342973481602 
-0.0003348079726527157 
-0.0007658922532633488 
0.0004035778593789521 
-0.001798547813051029 
0.0005771967418947273 
0.0006536553294668117 
0.002812215600602527 
0.0002613210235944388 
0.001132050067657359 
0.0002734728483814658 
0.006139066198923821 
-0.001644351532721172 
0.005960365152737723 
0.002509608490084682 
0.002509888509745388 
0.003931158620331276 
-0.006013383205521927 
-0.004317351734680274 
0.01244914527249163 
0.00979440799896603 
0.0007494254578198368 
0.001344457425530782 
0.001062822293311273 
0.0002305024379562396 
-0.0001630324203481163 
-0.0004982644795783596 
-0.0002681231024784855 
0.0005819670068388406 
0.0001454025269224003 
0.0003771889060367678 
-0.001358493934804945 
0.0006633071041862623 
0.001811730163702369 
-1.795716112604402e-005 
-5.406399557501865e-005 
0.00589668271028706 
-0.0003341124124579502 
0.003983751995646022 
-0.0009889728846154188 
0.003157472318012706 
0.004430156909492986 
-0.004010183150302164 
0.0009159363402220503 
0.007885500844325381 
0.00541953592083033 
0.001240758390295342 
-0.001303512633570038 
0.001254203301831854 
0.0003036624863681118 
-4.984397446771345e-005 
0.0001073993094846994 
-0.0002435641838362393 
0.001066498772324845 
-0.0001726627275737942 
0.001006539171385686 
-0.001867877146083011 
-0.0008825137968180762 
0.001862735292257171 
-0.001217226293296757 
-0.0001747317864663662 
0.008950480198431803 
0.002701783396930542 
0.0002831367370302127 
0.0001836572411054675 
0.005448748745672718 
0.008101168509655832 
-0.0006968024014160468 
0.0003179135503907429 
0.005448501352176619 
0.004066393246717796 
0.002509222085761622 
-0.003803491433574719 
0.0006922675494451291 
0.0001814645613480835 
2.268147159099449e-005 
0.0002053813116356689 
-0.0001763164089164973 
0.001164429611456735 
-0.0006086855741941408 
0.001008407766097637 
-0.001732941845414643 
-0.001566289192268604 
0.001275264753032429 
-0.001087693191870098 
-2.657252616454937e-005 
0.004883898176342124 
0.002724022721205821 
0.0001795349405977372 
0.001360930078823067 
-0.0002939486288354766 
0.002386678101146479 
-0.0003559545578202074 
0.003912764076660345 
-0.0007242235185750385 
-0.0005613277286643804 
0.0001120202861547366 
-0.002368500513916757 
-4.220928226441582e-005 
-0.0002230192249197026 
0.0002413401386311635 
0.000130846028306433 
1.49092759709369e-005 
0.000736487143645462 
-0.0007794452600950288 
0.0004888973311801061 
-0.0002808792797858156 
-0.0007124224683306219 
0.0004825807900905207 
-0.0003186087857996481 
0.0001134633663802704 
0.00128778976166954 
0.0005445540186052357 
-0.0006841303872942148 
-0.0003205915585252638 
0.00197849954368884 
0.00219867144333338 
0.001778642584299149 
1.559320017464266e-005 
0.00146848128021926 
0.001572309516166661 
-0.0007770625326867874 
0.0002352365180025467 
-0.0004405782912081828 
-0.0004137722581953157 
0.0005863398669490606 
0.0001818619853885837 
0.0002367687867158589 
-0.0001901882469853466 
1.044900581931558e-005 
0.0001919875785779185 
0.0002536502240284534 
0.0001322921022330101 
-0.0001791646366079596 
0.0002673413956162337 
0.0002147018540514159 
0.0005960045740406229 
0.000104439095046776 
-0.001041471924688725 
0.001190591018761621 
0.002107881581102937 
0.001976681557820341 
0.002113612477648267 
-0.0008698391883365261 
0.001534324172220744 
-0.0007306526180824626 
-0.001533708860193007 
1.595028178650359e-005 
-0.0002498258437574055 
-0.0001576736466202622 
0.0003500788620414219 
-0.000156693309418218 
-0.0002234470484635766 
-0.0005707027317467274 
-2.321662814245481e-005 
4.723920095974163e-005 
-0.0001422015404527213 
0.0004735638577480389 
-0.0004396879192386815 
0.0007135614992896999 
0.0001512285145362497 
0.0009757884789501245 
6.806147385167544e-005 
0.000949930734943146 
0.0006192803920891577 
0.0008732982199990726 
0.000215548120985224 
0.002622161982168941 
4.683763969106818e-005 
0.002452803157062537 
0.001431889430480118 
-0.00219035311835355 
0.002556327503894249 
7.213559385823124e-005 
-0.0001931435731368838 
0.0002704836591930151 
-0.0001013946677333952 
-0.0004495508400019816 
-0.0006781104131930116 
-0.0002983235919141223 
-1.008374686259476e-005 
-0.0004087397896110437 
0.0008766611488517784 
-0.0005615693489183458 
0.000380361654773862 
0.0001675932721906863 
0.0009468931193738261 
0.0006324827399025244 
0.0009412656553147467 
-0.0004183516057540295 
-0.0007638643678099091 
-0.001393356553898598 
-0.0005407186995641466 
-0.0006159844621278478 
0.0007143916554446817 
0.001339520590286981 
-0.001758548176455543 
0.001351084223834188 
9.340853358226892e-005 
-0.000118618858346563 
0.0001493013622236667 
-0.0006359007926242815 
-0.0003873643230289157 
-0.0003609244473625894 
-0.0004539757661058942 
-0.0004210742247602832 
-0.0002856221057685955 
0.001194822368603821 
-0.0007036093159789352 
9.898316067145288e-005 
-2.805458874746455e-005 
0.001188980568164828 
0.0003338498877550321 
0.001326246492500013 
0.001537463850430472 
0.0004128853975922926 
-0.001564357079761928 
-0.0006231038745875742 
-0.001718667766045751 
-0.002517322647786581 
-0.0007117342399594552 
-0.001423607743253518 
0.001168801406010544 
7.205047171318996e-005 
-0.0001805436416869826 
0.0002085292419881905 
-0.0005331403663417514 
8.172461277296589e-005 
0.0001415063867823878 
5.539674071815154e-005 
-0.001138813797555083 
-3.150685481984237e-005 
0.0007079118602205879 
-0.0009666241026586271 
-0.0001481726994220797 
6.622027449055262e-005 
0.00131466394915505 
0.0006017948560232287 
0.001095415323417757 
0.0001208011027008028 
-0.0002174922166518231 
-0.001349145694169796 
0.0005961442540193587 
-0.003101690020624124 
-0.0006868656118569344 
-0.0006766155640526348 
-0.00307170059106085 
0.0007678780730999817 
-0.0001875113465824011 
-0.0001328806599746619 
0.0002180654439242164 
-0.000487728486284771 
-1.929713803074547e-005 
0.0004380089155879785 
0.000137827526245896 
-0.0006597630584101267 
0.0007956020591337341 
0.0005569783672094706 
-0.0007406035091648629 
-0.0003393489177240447 
5.627949180541484e-005 
0.001195941166713607 
0.0002645560089743227 
0.0009745395336394296 
0.0002337653973996606 
0.0001675461137200531 
-0.001234438765953759 
-0.0003651865639183101 
-0.003349356008194381 
0.0004936582172116954 
0.0008250101789993846 
-0.003626184534879462 
0.0002867011367337821 
-0.0001725428878789232 
-7.037186715358919e-005 
0.0001017633078368984 
-0.0002561018363214131 
-0.0002144269846842504 
0.0003287914698133793 
0.0003963729992672346 
-0.0001322179902757629 
0.0006583600774155319 
0.0001589475659382755 
-0.0003147449422013903 
-0.0004088431870377016 
-4.540976524076975e-005 
0.001345112102182088 
0.0009283660132810878 
0.001645551782624427 
-0.001234885335140138 
-0.00112280104088181 
-1.677794854255864e-005 
-0.0001094158243857576 
-0.00255299503467559 
0.001401679261056295 
0.0003129375190868295 
-0.0028704855221575 
-0.0004951610770758289 
-9.444149408957947e-005 
-0.000225134336410783 
3.151254225667347e-005 
6.104091796585894e-006 
-0.0001228458006267356 
-4.266670274967875e-005 
0.0002652331737308043 
0.0002667018619412098 
3.515329053800076e-005 
-2.809882138958797e-005 
0.0001129541880786241 
-0.000375662396036219 
-2.37793080090902e-005 
-8.124857818388473e-005 
-4.612654127054599e-005 
0.001033535239227133 
-0.001218572425802553 
-0.0004123450760761139 
-0.0002044610694415469 
0.0003289181828537996 
-0.0004617433285077153 
-8.465390326416602e-005 
-0.0008864365160037848 
-0.00160882259371089 
-7.903622605023442e-005 
-2.76995469932614e-005 
-0.0002723091614711306 
-0.0001299446245365077 
0.0003339459095375453 
2.659325724620827e-006 
-0.0002374112950726783 
0.0003456734663225409 
0.0001353123531426235 
-0.0002594405509707036 
-0.0001838721956907219 
-6.909813959809664e-005 
-9.194859888313008e-005 
5.358666506975828e-006 
0.0002592222811089746 
-7.146528929527881e-005 
4.558566066476532e-005 
-0.0007183053588923671 
-0.00054488385263955 
-0.001232980053332928 
0.0003256597931481906 
-0.0003298546622178771 
-0.001040838099884239 
-0.001040781362734993 
-0.001120487475881511 
-0.000140915419440274 
-4.158221414523314e-006 
-4.015419302903746e-005 
-0.0001809255922845986 
0.000373740369123378 
0.0001409374921997892 
-0.0003562086389451579 
4.453241074734795e-005 
7.7464972156684e-005 
-0.0002449259721540138 
-0.0002201459274348289 
-0.0002009825193805971 
-6.609881476971885e-007 
2.970463194025678e-005 
0.000214331291105669 
8.76315446670403e-005 
-0.0001620488482550168 
-0.000456065128219885 
-0.0001221282292957056 
-0.0006473061755590583 
0.0002971601235920418 
-0.0002770693973378347 
-0.0007766261637417476 
-0.0011881650313471 
-0.001763023853019421 
8.814698816968882e-005 
-5.582602838550184e-005 
8.33842425932003e-005 
-9.809969281743978e-005 
0.0003988747658546255 
0.0002249809146684751 
-6.768202652799172e-005 
-0.0001336981779021992 
-3.617791311436722e-005 
-9.887081578709393e-005 
-0.0001450740438150923 
-0.0003055723687159013 
6.199603160263493e-005 
4.455813494047344e-005 
0.000127168526805755 
0.0004799255836604657 
3.149829514251081e-006 
7.742169323380761e-006 
-0.0001158001756894974 
-0.0007211908969721425 
0.0004702657865489377 
-0.0001847627165249166 
-0.001317704288197213 
-0.001879761092646955 
-0.002020361263053193 
0.0004113865687947513 
-0.000117527749504122 
-4.642531871926619e-006 
-0.0001255465064879639 
0.0003600962660673655 
0.0002345058825268799 
6.870862953794679e-005 
-0.0002396985741628852 
-0.0001127323969308932 
-4.432439705955514e-005 
-7.018966145372558e-005 
-0.0003274942278316183 
4.97099574639307e-006 
4.311376295281926e-005 
-6.855147143245204e-005 
0.0001546310968075491 
-2.688423938792051e-005 
0.0005419217598132168 
0.000335695398087828 
-0.0004468177407090901 
0.0001477053160919446 
-0.0007263929778925065 
-0.00108113818980379 
-0.001174445443282226 
-0.002397032680749757 
0.0001368276379220278 
-8.473129971306571e-005 
-7.267318724640691e-005 
-0.0001355530590133123 
0.0002795126132941926 
0.0002233384952939148 
8.361444934558149e-006 
-0.0004021863653097745 
-0.0001459188368608306 
-5.769732031332802e-005 
-8.151371354995842e-006 
-0.0001996692449514988 
-0.0001559779886091785 
3.164493076543198e-005 
-0.0001869761050621115 
-0.0001281785918772359 
-0.0006497284928185135 
0.0005831818752588 
0.0003987320653767607 
-0.0009896727370455139 
-0.0007981069699402368 
-0.0006688562511227294 
-0.001110210004658038 
-0.00139859067700404 
-0.002440951620883167 
-0.0001404000221820404 
-7.205228190325284e-006 
-0.0001141817399801512 
-0.0002584896380748141 
6.604108941302011e-005 
0.0001441967509418314 
8.149999267280083e-005 
-0.000349575994143603 
-0.0001551472194245962 
-8.152022506032187e-006 
5.195089706505423e-005 
4.294769303854956e-005 
-0.0002110301202141023 
6.205916458943726e-005 
-0.0001086053112529277 
-0.000367591051249976 
-0.0005294864728208023 
0.0004234042153081669 
0.0004482676381986872 
-0.0005045355036178577 
-0.0007234310155302285 
-0.0004603703194835065 
-0.0005197093433824015 
-0.0006576530154105953 
-0.001368545900578015 
-3.853035856302575e-005 
4.880128584969582e-005 
-9.676038427085516e-005 
-0.0002368227815155433 
-0.0001359279809194628 
-3.910675947038397e-005 
0.0001459991286943518 
-2.979114173788778e-005 
2.883514530888531e-005 
-0.0001116545684441597 
-0.0001197904122806694 
0.0002817404110708348 
-0.00013730568044906 
6.847270569676127e-005 
2.664053350013837e-005 
-0.0004237360536368198 
-0.001062163165726031 
5.164601606028564e-005 
0.0001153510099227365 
-0.0003347548440705163 
-0.0003078138871942596 
-0.0006371431592067202 
-0.0006654469988003915 
-0.0006606187008950355 
-0.0005460758316096751 
9.889266290295976e-006 
-1.505125188544768e-005 
-5.73409232626989e-005 
-0.0001058868365756481 
-7.247104935503852e-005 
-0.0001357494459762633 
0.0002111065655110301 
0.0002220501403537087 
0.0001858694225075114 
5.473697403316445e-005 
-0.0001443202192971955 
0.000386891741613239 
-0.0001920592832456951 
7.95577299131943e-005 
-5.558796336151188e-005 
-0.0007153709203274534 
-0.001093606930152606 
0.0001362085580648753 
-0.0002467638141646109 
-0.000364863098273095 
9.046045251519212e-005 
-0.0001036021293913416 
-0.0007904643498065824 
-0.0009871870364724436 
-0.0001886562596882158 
-0.0003561909039508497 
-0.0001643247738925335 
-0.0001645047672379642 
-0.0001175636559323089 
-0.0001301621444422096 
-0.0001713677141519186 
6.534557443229757e-005 
0.0002908763850581251 
0.0003143931620061653 
0.0001947287031513168 
-4.081383892987331e-005 
0.0004542906103757905 
-0.0001003722509375023 
8.935001163946359e-005 
-0.0003450962554594522 
-0.0006369015449558669 
-0.0009132121652365538 
0.0001340513119506797 
-0.0002215288825954484 
-3.726395204774798e-005 
0.0002613524054782971 
0.0003863506101314763 
-5.199172712058478e-005 
-0.001143571814109069 
8.60872707222938e-005 
-0.0005645481793115594 
-0.0002381206453772381 
-0.0001565708535276537 
-3.329895695815721e-005 
-0.0001320317123256347 
-1.377391572121805e-005 
1.456719382287996e-005 
0.0001710845518979045 
0.0003154658252973462 
0.0002871302662972437 
8.841796700183332e-005 
0.0003038692547711247 
-7.081934425642629e-005 
7.880363177161802e-005 
-0.0007443665937705809 
-0.001083531778661704 
-0.001191781571506673 
-0.0002686110411747577 
-0.0002401314941953408 
-0.0003265547665597107 
0.000446369269303126 
0.0005998461265366187 
0.000147205671298549 
-0.0006202449873418353 
0.0005868275494225068 
-0.0002531738946839313 
-0.0002035129444119173 
-0.0001529480562387073 
-1.369563656538357e-005 
-0.000174035231938547 
6.380304421933342e-005 
1.74567816844453e-005 
0.0001211155005743206 
1.352128894688288e-005 
0.0002151086723862049 
0.0002377442978594348 
9.402971623783901e-005 
-8.269273521855086e-005 
4.738230280767311e-005 
-0.0008195770382490683 
-0.001022509105744788 
-0.001179574705432338 
-0.0004061042710460765 
4.316611782122145e-005 
-0.0002810697830638697 
0.0003696542099545338 
0.000588461899442058 
0.000301370688304967 
-0.0004019976203695066 
0.0005855274483348674 
-0.0003957168720169064 
-2.268866984337696e-005 
-9.964224709729376e-005 
2.800744357382912e-005 
-0.0001310104657889424 
5.003103529479487e-006 
-5.014229506267667e-005 
0.000120155473806053 
-0.0001853984044927027 
6.697178422253901e-005 
0.0002646404401847834 
-0.0001064787864201474 
-0.0001150769843224232 
-2.404628252256216e-006 
-0.0008359136840121748 
-0.001287307784245103 
-0.001028903927530556 
-0.0004638906811415843 
-6.009715138779311e-005 
-0.0001556747862653745 
0.0006418847854293821 
-0.0001370513894382522 
0.0001083976529153949 
-0.000169249164355598 
3.177365392477709e-005 
-0.0008540690731289226 
0.0001061885841338059 
6.473168118638584e-005 
5.139999655195656e-005 
5.275302832355271e-005 
-7.220186786547607e-005 
-3.665376183408095e-005 
3.517577874484405e-005 
-0.000181927079042861 
-4.744568488782305e-005 
0.0002409054904311252 
-0.000178144934460824 
-4.411606009394162e-005 
-6.435934933774084e-005 
-0.0004127660595555378 
-0.001033221206590947 
-0.0008546133115060033 
-0.0004233621464227979 
-0.0002865309533475867 
-0.0003734161011847459 
0.0007643679893728435 
-0.0001721938639523836 
0.0003022738289539008 
-4.586713267787051e-005 
-0.000168780016622117 
-0.0008394837585967249 
6.311236618749457e-005 
0.0002519132920111342 
5.17915642317994e-005 
0.0002411343190958113 
-0.0001723784925360791 
3.643208639279285e-005 
3.911349473065442e-005 
-0.0001086038375676098 
3.324175518428964e-006 
0.0001928408953468823 
-5.728561615228575e-005 
9.504363311996127e-005 
-9.49862762841266e-005 
-0.0004168283159591033 
-0.000754515658210105 
-0.001097260216170439 
3.78190114730006e-006 
-0.0004362926122473507 
-0.0004636508750449553 
0.0004248906821931665 
7.053957976081132e-005 
-9.047276087398614e-005 
0.0004062139466519837 
7.325830257530292e-005 
-0.0002518688472630055 
-0.0001074682062947406 
0.000292771407319126 
-4.981276841690837e-005 
0.0003201035040663714 
-0.0001968289817398506 
7.969921124185652e-005 
8.844384458202404e-006 
0.0001102868215678505 
0.000179127298660321 
9.805491458259212e-005 
3.047503411151499e-006 
0.0001002741163272817 
-7.153936402964982e-005 
-0.000713557710960034 
-2.934226726861777e-005 
-0.0008864388457645463 
0.000565733610249217 
-0.0006306304276598834 
5.507663719289026e-005 
0.000673719824581628 
-5.835216937281466e-005 
0.0004174259282557397 
0.0002744749769425823 
0.000278357829611352 
-0.0002215975496162436 
-0.0002373249713743696 
0.0001733026188033351 
-9.688421779665788e-005 
0.0002797432681286829 
-0.0001146057445162914 
0.0001120945055196838 
1.704556125227253e-005 
0.00016052691344882 
0.0001778979158935691 
1.204801103417098e-005 
-5.602736836765943e-006 
-1.476984377609651e-006 
-2.831217412545785e-005 
-0.001222862340591249 
-0.000325394023806806 
-0.001262059451278927 
0.0006420801767108895 
-0.0008721946707039328 
2.857323665849947e-005 
0.0007314346493081748 
0.0003574615079926437 
0.0009464575819512392 
0.0001608513285464929 
-0.0001765578122622338 
-0.0006616440628266757 
-0.0002067120026442863 
3.623667445548221e-005 
-8.193231616300902e-005 
0.0001844204396096907 
-3.170414937859864e-005 
7.090492434881521e-005 
1.12190378924444e-005 
9.510227995060487e-005 
0.0001471135357865276 
-9.161630527880369e-005 
-3.511006469688271e-005 
-7.374298917779782e-005 
-1.963744925503407e-005 
-0.0002344262987996961 
-0.0004396241716390119 
-0.0003122470146625544 
9.128666622857118e-005 
6.712024574889078e-005 
-0.0005279764830182781 
0.0004319253522666103 
0.0007591780811693581 
0.0007138358865918206 
0.0003379515060382928 
-0.0002659559056796889 
-0.0005918991157732983 
-2.795551780960943e-007 
-5.40838886576678e-005 
-2.566136275044813e-005 
8.5303257241895e-005 
3.834092463931072e-005 
-2.010433037926147e-005 
-8.818343678170761e-005 
3.744868268664656e-005 
-0.0001099246656723909 
-5.120582534088205e-005 
6.712066899349601e-005 
9.695475798421738e-005 
1.073246740613596e-006 
-0.0002470313696380064 
-0.0004557201639827406 
-0.000377429646607879 
0.0003157298945204701 
0.0001194032286105403 
-0.0005209802496908564 
0.0002052850612280304 
0.0005455834586033202 
0.0005577009516561979 
0.000217740726720631 
-0.0001212401101980182 
-0.0003603055931176094 
4.910441587502315e-005 
-2.089325832374505e-005 
-3.554708699900147e-005 
8.804630552955497e-006 
-5.498116722113623e-005 
8.556990134330327e-006 
-5.937529271449938e-005 
-2.751047610702236e-005 
-0.0001959956886284989 
-4.996995109308583e-005 
0.0001590396626625492 
0.0001239751168381755 
1.108003587609837e-005 
-0.0001223794846757811 
-0.0003296749577795074 
-0.0002281910592728008 
0.0004442206080537606 
4.140369190189715e-005 
-0.0003203906641152408 
0.0001017272641548168 
0.000467240882141992 
0.0002731011211082147 
0.0002212100627511743 
5.220552909885971e-005 
-3.370351814675808e-005 
2.552372360476891e-005 
-1.761984222104622e-005 
-9.185212102139847e-005 
-8.273966466692868e-005 
-0.0001082160272003521 
4.47221412306115e-005 
1.030418618992194e-005 
2.711106017289733e-005 
-0.0001177496119372048 
-4.203597701791857e-005 
0.0001192580557108847 
-4.818724481510041e-005 
2.679595456416978e-005 
-7.14115228031392e-005 
-0.0005431878941367009 
-0.0005374317675031302 
-5.528378711400422e-005 
-0.000425513196494654 
-0.0005013543973380109 
0.0003352575541248602 
0.0006380793346695466 
0.0002273856247887065 
0.0001702704582670949 
0.0002654899133691327 
-0.0002707800476921481 
-7.110424721961297e-007 
2.86962805179986e-006 
-7.662758932020784e-005 
-9.616032785986357e-005 
-6.85423476230672e-006 
8.822957044369716e-005 
6.29161570833566e-005 
0.0001196965371220893 
-3.975633924872168e-005 
-1.474156728195785e-005 
7.530325694988085e-005 
-0.0002273136732057868 
3.843340358559262e-005 
-0.0001946180274378907 
-0.0004839886711780521 
-0.0006915055012104072 
-0.0001369048162888353 
-0.000201501254455668 
-0.0003141782797970377 
0.0004184594019008967 
0.0008484869253568496 
0.000290246336828754 
0.0001515067551754683 
0.0001369695727134628 
-0.0008775976893169265 
-3.983709431943383e-005 
2.139632686173501e-005 
-8.317899256734363e-005 
-4.752909945368843e-005 
9.325813960056952e-005 
6.163076321672737e-005 
3.028717234081243e-005 
0.0001138498361429603 
6.058788850899796e-005 
5.521437499871699e-006 
2.599077402683843e-005 
-0.0002604300241114599 
3.580475831477496e-005 
-0.0002144677761869984 
-0.0003642155267823835 
-0.0005289076211501795 
0.0001254911790147527 
0.0002065844221666378 
-8.29385896314712e-005 
0.0003615004126386812 
0.0009534431226063381 
0.0003503462243077146 
0.000178884332476392 
0.0002128937294994803 
-0.001074927021697072 
-4.340500401857669e-005 
5.915986121034578e-005 
-4.274601216795383e-005 
5.719177379519087e-005 
0.0001517915987949089 
5.345452392942354e-005 
-1.751479290998355e-005 
2.56179378539331e-005 
8.753079360016582e-005 
4.460447923030768e-005 
1.197752606186953e-005 
-5.941211499516989e-005 
1.848025617938354e-005 
-0.0002500368295810204 
-0.0003121788722810826 
-0.0006483472487967843 
0.0001161865696094269 
0.0001916438875956767 
-0.0002214462332409926 
0.0002400419082242708 
0.0008788081688883978 
0.0005145596290267919 
0.0002445101015235812 
0.0002084572795455755 
-0.0009337791782390048 
-3.00424523099646e-005 
-6.153384020208849e-007 
-6.045879890434802e-005 
1.163545977177745e-005 
3.965344848514654e-005 
-3.187319685066406e-005 
8.693952088640885e-007 
-6.346002640130797e-005 
4.38544897895217e-005 
0.0001018686278530237 
7.102933292445434e-005 
0.0001339408343171512 
5.28645209494825e-006 
-0.0002607262953352473 
-0.0003332924294219435 
-0.0007727430707727378 
0.0001041296005351218 
0.0001368705334757969 
-0.000280449493947337 
0.0003368921247909526 
0.0007510052278388969 
0.0005528844280466373 
0.0003467909696222734 
0.0002896334786401209 
-0.0005397511479407751 
1.29903927270754e-005 
-1.113878222732921e-005 
-4.360689169535706e-005 
-9.15837839415689e-006 
-4.083061870617241e-005 
-6.578490901882315e-005 
2.143733926399919e-005 
-0.0001203944674764096 
-2.806793157680741e-005 
0.0001412054047244027 
0.000124476661695586 
0.0002152207283400217 
8.543150035733404e-007 
-0.0003217010294135894 
-0.0005025310173410497 
-0.0008718838871438975 
-6.804672819013248e-005 
3.162314393778801e-005 
-0.0003747890235147279 
0.0004351123841453449 
0.0006324036245110029 
0.0004082507420184155 
0.00057689932695758 
0.0004537478441215325 
-0.0004754814546093181 
4.290938458564196e-005 
-3.03628484762597e-005 
8.474203489512172e-006 
-6.509967600266492e-006 
-3.501883540698968e-005 
-3.748575891408049e-005 
9.969865276108828e-006 
-0.0001464578702775365 
-8.573919918546688e-005 
0.0001453032589939788 
0.0001949769388632779 
0.0001867994298421579 
4.104308749808807e-006 
-0.0001136835010130341 
-0.0003247344235005605 
-0.0006351758766764361 
0.0001718157243214452 
8.244170046472016e-005 
-0.0003351927977002327 
0.0003711525058650485 
0.0004746730574129858 
0.0002631612215501686 
0.0007187158968921944 
0.0007126338719124583 
-0.000227971818567199 
6.119820722999867e-005 
-1.608663863794977e-005 
5.153764911152322e-005 
3.680602807779256e-006 
3.734532635400556e-005 
-2.295213170676031e-005 
-4.530706527528772e-005 
-0.0001539954334552772 
-7.958183666596733e-005 
0.0001297215088458221 
0.0001848931361393928 
0.0001583082959844018 
5.55796350931855e-006 
-0.0001090104573247061 
-0.0004682735989791915 
-0.0006747577121743485 
4.979388133723541e-005 
4.376391544396412e-005 
-0.0003815033759349471 
0.0002727608324454651 
0.0002846849027136711 
0.0002307241782361776 
0.0007850637212362124 
0.0009718415656034944 
-0.0001556714820926997 
6.098997088413705e-005 
-5.751724889675092e-006 
3.295691466281545e-005 
-5.685317811086318e-007 
8.375799118754417e-005 
6.266051734168849e-007 
-0.0001069382517366206 
-0.0001523303891775954 
-6.86532377096843e-006 
8.987133626808158e-005 
0.00010898336966996 
0.000174415715932477 
2.52388799853282e-006 
-6.108054522969491e-005 
-0.000430854543414924 
-0.0006136157964768695 
6.36123944592555e-005 
0.0003175265678704335 
-0.0003918529762710287 
0.0001915317277752436 
0.0001548893260619022 
0.0002437368336294975 
0.0008913150469782538 
0.0009550514521068933 
9.188598058983148e-005 
3.937533445493188e-005 
-2.232221676052915e-005 
-9.277267803816464e-006 
-3.948139955304755e-005 
0.0001173661523247038 
5.441994487436304e-006 
-8.579591396259162e-005 
-0.0001405646123918124 
1.372400260163194e-005 
2.321564379808835e-005 
-3.653362784975085e-006 
0.0001792038821534765 
-6.253735316151497e-007 
-4.305371099608664e-005 
-0.0004782283120984276 
-0.0007178778725734855 
-1.678770100235031e-005 
0.0003328700313057444 
-0.0003433258660377848 
-9.769374306526323e-006 
3.064638003742361e-005 
0.0003836361055016065 
0.0009399543170319309 
0.0008774537861510866 
0.0002366673789853402 
6.441867543256074e-005 
1.595399377861435e-005 
1.68217721930858e-005 
-1.184183384137519e-005 
0.0001231404784763075 
4.984509393449e-005 
-3.969539202554262e-005 
-8.516147029908264e-005 
-6.128370264029139e-005 
-6.650230862499251e-005 
-0.000131618067922663 
0.0001973826612004261 
-2.487789466137428e-006 
5.021458647501274e-005 
-0.0004313666693874702 
-0.0006599991727837132 
7.699581212691379e-006 
0.0005247217320026776 
-0.0003270715802116322 
8.343759502124917e-005 
-0.0001011304892611892 
0.0002553248476810083 
0.0007573496644739877 
0.0007415584082461536 
0.0004718796430172819 
6.375164193443505e-005 
1.751999881863008e-005 
2.427379763607311e-005 
-5.481398560199939e-006 
6.996825869869229e-005 
6.33025794080955e-005 
1.169890413812848e-006 
-3.797651103405292e-005 
-0.0001115575433600615 
-0.0001163986151567372 
-0.0001526063446603223 
0.000150329711927824 
-1.813019056624928e-006 
0.0001574342958742307 
-0.0003882452392545174 
-0.0005674567398108913 
1.854103410472033e-005 
0.0005558683025147755 
-0.0001646692391591033 
0.0001283307270724461 
-1.31133876094074e-005 
-8.148813036873239e-005 
0.0005195327531403561 
0.0004204977479205493 
0.0006412452043180128 
5.081940301614313e-005 
2.230871525761656e-005 
3.933859682318225e-005 
8.149913472847312e-006 
4.77149038354632e-005 
5.197147483206809e-005 
3.210940966494317e-005 
4.975621256735947e-008 
-0.000126706314276884 
-0.0001078655806670731 
-0.0001234976969232734 
9.785245979229146e-005 
-1.402898318889935e-021 
5.293955920339377e-021 
1.622068093991985e-019 
-8.131516293641283e-020 
4.849263623030869e-020 
1.270549420881451e-020 
4.791030107907136e-021 
-2.80579663777987e-021 
-2.879912020664621e-020 
-2.329340604949326e-021 
-3.028142786434124e-020 
-6.776263578034403e-021 
-1.926999955003533e-020 
-1.625244467544189e-020 
-3.560185356428231e-021 
2.758151034496816e-020 
4.195460066868956e-021 
6.405686663610646e-021 
-5.082197683525802e-021 
-9.26442286059391e-023 
-1.376428539288238e-021 
1.058791184067875e-021 
2.858736196983264e-021 
1.091878408569997e-022 
-4.307956630176168e-021 
4.036641389258775e-021 
-1.344664803766202e-020 
-9.846758011831241e-020 
4.616329562535937e-020 
2.075230720773036e-020 
2.55168675360358e-020 
-4.460157862885925e-021 
-2.594038400966295e-021 
-9.740878893424454e-021 
2.302870825347629e-021 
-1.672890070827243e-020 
-3.494010907423989e-021 
-8.999725064576941e-022 
-1.244079641279754e-020 
-1.747005453711994e-021 
-3.864587821847745e-021 
6.326277324805556e-021 
-1.429368098491632e-021 
2.646977960169689e-021 
-9.26442286059391e-022 
6.03510974918689e-021 
-9.740878893424454e-021 
-5.69100261436483e-022 
-1.376428539288238e-021 
7.517417406881916e-021 
-1.098495853470421e-021 
1.079967007749233e-020 
-1.334076891925523e-020 
-2.414043899674756e-020 
7.750351467376848e-020 
-9.529120656610879e-021 
-8.549738811348094e-021 
3.896351557369782e-020 
-8.139457227521792e-022 
1.619950511623849e-020 
4.086933970501999e-020 
-1.852884572118782e-020 
2.170521927339145e-021 
-2.938145535788354e-021 
-4.155755397466411e-021 
-2.340921133525068e-022 
1.389663429089087e-021 
-3.705769144237564e-022 
-1.177905192275511e-021 
5.69100261436483e-022 
-1.376428539288238e-020 
-1.799945012915388e-021 
-1.277166865781875e-021 
-5.624828165360588e-023 
1.037615360386518e-020 
1.257314531080602e-022 
-8.046812998915853e-021 
-3.811648262644352e-020 
8.343274530454858e-020 
3.388131789017201e-021 
-4.192813088908787e-020 
-2.445807635196792e-020 
3.050642099095566e-021 
-4.764560328305439e-022 
-5.849821291975012e-021 
4.044582323139284e-020 
-8.999725064576941e-021 
-1.495542547495874e-021 
2.494776727459932e-021 
8.602678370551488e-022 
-1.356576204586965e-022 
-6.379216884008949e-021 
2.455072058057386e-021 
-1.228363209641246e-022 
7.014491594449675e-022 
-2.792561747979021e-021 
6.088049308390284e-021 
3.136668882801081e-021 
1.090554919589912e-020 
-4.658681209898652e-021 
-5.935020895067974e-023 
2.901087844345979e-020 
8.279747059410786e-020 
2.117582368135751e-020 
6.564505341220828e-021 
6.6280328122649e-020 
6.352747104407253e-022 
-3.811648262644352e-021 
1.831708748437425e-020 
2.752857078576476e-021 
3.599890025830776e-021 
1.503483481376383e-020 
-4.605741650695258e-021 
3.077111878697263e-022 
-3.374896899216353e-022 
-4.036641389258775e-022 
1.045556294267027e-021 
5.558653716356346e-022 
-6.352747104407253e-021 
6.021874859386042e-022 
3.705769144237564e-022 
2.117582368135751e-021 
-6.749793798432706e-021 
8.867376166568457e-022 
-3.719004034038412e-021 
3.656138307484382e-022 
-1.461131834013668e-020 
-2.117582368135751e-020 
1.821120836596746e-020 
-6.352747104407253e-022 
6.88214269644119e-021 
-5.135137242729196e-021 
2.689329607532404e-020 
2.445807635196792e-020 
-2.731681254895119e-020 
3.049318610115481e-020 
-1.672890070827243e-020 
2.117582368135751e-022 
-4.102815838263017e-022 
3.507245797224837e-022 
6.643914680025918e-021 
-8.271806125530277e-022 
3.838118042246048e-022 
-1.323488980084844e-021 
2.898440866385809e-021 
-1.561716996500116e-021 
4.499862532288471e-021 
-4.261634515873199e-021 
-7.782115202898884e-021 
4.235164736271502e-022 
2.316105715148478e-023 
-1.863472483959461e-020 
4.362219678359647e-020 
1.863472483959461e-020 
-3.811648262644352e-021 
-6.352747104407253e-022 
5.61159327555974e-021 
-1.154082390633984e-020 
-4.023406499457927e-021 
7.729175643695491e-021 
-4.023406499457927e-020 
3.917527381051139e-021 
6.829203137237797e-021 
-1.799945012915388e-021 
-6.28657265540301e-023 
-3.65282958503417e-021 
-3.898088636656143e-023 
-7.080666043453917e-022 
1.164670302474663e-020 
-7.173310272059856e-021 
5.849821291975012e-021 
-8.735027268559972e-021 
6.485096002415737e-022 
2.964615315390051e-021 
3.705769144237564e-022 
1.118348188171693e-021 
7.729175643695491e-021 
4.9339669177563e-020 
-3.684593320556207e-020 
3.430483436379916e-020 
3.388131789017201e-021 
8.364450354136216e-021 
-5.452774597949558e-021 
1.196434037996699e-020 
1.185846126156021e-020 
6.352747104407253e-020 
-8.483564362343852e-021 
9.370301979000698e-021 
-5.293955920339377e-022 
1.396280873989511e-021 
-7.093900933254765e-021 
2.646977960169689e-023 
1.217609861678057e-021 
-6.352747104407253e-022 
-4.261634515873199e-021 
-9.132073962585426e-022 
1.172611236355172e-020 
-4.208694956669805e-021 
5.082197683525802e-021 
-3.017554874593445e-021 
3.308722450212111e-022 
-1.185846126156021e-020 
-2.032879073410321e-020 
-2.39710324072967e-019 
4.489274620447792e-020 
5.844527336054672e-020 
-1.651714247145886e-020 
3.864587821847745e-021 
-5.336307567702092e-020 
-9.338538243478661e-020 
-1.524659305057741e-020 
3.705769144237564e-022 
-2.766091968377325e-021 
-2.885205976584961e-021 
-7.610061635487855e-022 
-1.482307657695026e-021 
-1.455837878093329e-021 
7.014491594449675e-022 
6.782881022934827e-022 
-1.855531550078952e-020 
7.990564717262247e-022 
-1.475690212794601e-021 
-2.858736196983264e-021 
-1.588186776101813e-021 
6.749793798432706e-022 
1.720535674110298e-022 
6.860966872759833e-020 
8.067988822597211e-020 
1.982057096575063e-019 
-1.545835128739098e-020 
1.715241718189958e-020 
2.064642808932357e-021 
-2.567568621364598e-021 
4.616329562535937e-020 
5.823351512373315e-020 
-1.567010952420456e-020 
-3.044024654195142e-022 
4.07634605866132e-021 
-2.911675756186657e-022 
1.058791184067875e-021 
-1.280475588232087e-021 
7.643148859989976e-022 
1.124965633072118e-021 
7.411538288475128e-022 
6.551270451419979e-021 
1.138200522872966e-021 
-1.131583077972542e-021 
-1.482307657695026e-020 
-1.919059021123024e-022 
-2.435219723356114e-021 
1.389663429089087e-022 
-1.207021949837378e-020 
-1.249373597200093e-020 
1.334076891925523e-019 
1.778769189234031e-020 
-3.494010907423989e-020 
4.341043854678289e-020 
1.842296660278103e-020 
-2.244637310223896e-020 
-6.564505341220828e-020 
-2.996379050912087e-020 
1.95876369052557e-021 
-4.023406499457927e-021 
-1.508777437296723e-021 
-1.19378706003653e-020 
2.646977960169689e-022 
2.46168950295781e-021 
-4.764560328305439e-022 
2.477571370718829e-020 
-3.348427119614656e-021 
3.308722450212111e-021 
-2.236696376343387e-021 
-4.777795218106288e-021 
-8.999725064576941e-022 
-3.096964213398536e-021 
1.773475233313691e-021 
1.704653806349279e-020 
1.10114283143059e-020 
-8.470329472543003e-021 
1.609362599783171e-020 
-1.545835128739098e-020 
5.558653716356346e-022 
-7.146840492458159e-022 
3.028142786434124e-020 
5.35748339138345e-020 
2.541098841762901e-021 
1.694065894508601e-021 
0 
-1.011145580784821e-020 
1.066732117948385e-020 
1.224227306578481e-022 
6.114519087991981e-021 
-1.932293910923873e-021 
-9.370301979000698e-021 
3.595133737308597e-022 
5.293955920339377e-022 
6.88214269644119e-022 
-9.132073962585426e-022 
-1.19114008207636e-022 
1.556423040579777e-020 
1.455837878093329e-022 
-3.441071348220595e-021 
1.259961509040772e-020 
-4.404571325722362e-020 
2.689329607532404e-020 
-3.769296615281637e-020 
4.192813088908787e-020 
1.032321404466179e-020 
4.192813088908787e-020 
-6.945670167485263e-020 
2.456395547037471e-020 
2.011703249728963e-021 
4.298692207315574e-020 
8.152692117322641e-021 
-1.151435412673815e-021 
4.566036981292713e-022 
-5.293955920339377e-021 
-5.558653716356346e-021 
2.170521927339145e-021 
-2.481541837659083e-023 
-9.185013521788819e-021 
2.699917519373082e-021 
-9.926167350636332e-023 
-3.523789409475898e-022 
7.676236084492097e-021 
-5.889525961377557e-021 
1.762887321473013e-020 
2.996379050912087e-020 
1.376428539288238e-019 
-1.439956010332311e-020 
-1.058791184067875e-020 
-9.846758011831241e-021 
-3.705769144237564e-022 
-2.985791139071409e-020 
-9.846758011831241e-021 
-7.623296525288703e-021 
-1.667596114906904e-020 
2.329340604949326e-020 
8.682087709356579e-021 
-1.408192274810274e-020 
2.435219723356114e-021 
-9.727644003623606e-022 
1.291725244562808e-020 
-4.526332311890167e-021 
-6.88214269644119e-022 
1.349958759686541e-021 
-6.088049308390284e-022 
1.111730743271269e-021 
2.498085449910144e-022 
-1.826414792517085e-021 
1.833032237417509e-021 
-2.149346103657787e-020 
-3.811648262644352e-021 
6.988021814847978e-020 
-7.348010817431055e-020 
1.654361225106055e-021 
-2.752857078576476e-021 
-4.213988912590144e-020 
-3.705769144237564e-020 
-9.634999775017666e-021 
-5.823351512373315e-021 
2.885205976584961e-021 
-5.823351512373315e-020 
-3.189608442004475e-021 
2.38228016415272e-021 
3.533715576826534e-021 
4.896909226313924e-021 
1.651714247145886e-020 
2.80579663777987e-021 
5.505714157152952e-021 
4.129285617864714e-021 
-2.223461486542538e-021 
1.058791184067875e-022 
1.389663429089087e-022 
-1.747005453711994e-021 
5.062345348824529e-022 
-1.799945012915388e-020 
2.964615315390051e-021 
-2.795208725939191e-020 
-9.359714067160019e-020 
-1.085260963669572e-021 
-3.896351557369782e-020 
-6.590975120822525e-021 
-4.526332311890167e-021 
-9.804406364468526e-020 
-1.598774687942492e-020 
-4.691768434400773e-021 
8.597384414631148e-020 
1.654361225106055e-022 
-1.201727993917039e-020 
1.079967007749233e-020 
2.646977960169689e-021 
3.494010907423989e-021 
-5.982170189983496e-021 
2.729696021424991e-023 
-1.747005453711994e-021 
-1.455837878093329e-020 
1.267240698431238e-021 
-6.435465165662555e-022 
-3.308722450212111e-023 
-3.566802801328655e-021 
2.001115337888285e-020 
-1.10643678735093e-020 
1.228197773518736e-020 
-4.658681209898652e-020 
1.694065894508601e-021 
9.063252535621014e-020 
8.470329472543003e-022 
8.999725064576941e-022 
-6.310395457044538e-020 
9.952637130238029e-021 
-4.499862532288471e-020 
1.87406039580014e-020 
4.466775307786349e-023 
-2.324046649028987e-020 
-6.88214269644119e-022 
1.207021949837378e-020 
1.048203272227197e-020 
-5.505714157152952e-021 
4.446922973085077e-021 
-1.27584337680179e-020 
3.060568266446202e-023 
5.386600148945316e-021 
7.358598729271734e-021 
3.805030817743927e-023 
-2.812414082680294e-021 
4.870439446712227e-020 
-1.884648307640818e-020 
9.359714067160019e-020 
-3.811648262644352e-020 
6.098637220230962e-020 
1.567010952420456e-020 
2.80579663777987e-021 
1.069379095908554e-020 
-3.589302113990098e-020 
-3.409307612698559e-020 
-2.223461486542538e-021 
1.83382633080556e-019 
7.940933880509066e-023 
-7.279189390466644e-022 
-1.508777437296723e-020 
-1.621274000603934e-022 
8.152692117322641e-021 
-2.752857078576476e-021 
4.380748524080835e-021 
7.689470974292945e-021 
3.05725954399599e-021 
9.873227791432938e-021 
-8.311510794932822e-021 
-8.192396786725186e-021 
6.187310981896647e-022 
1.387016451128917e-020 
-2.657565872010367e-020 
5.44218668610888e-020 
1.32560656245298e-019 
1.079967007749233e-020 
-7.835054762102278e-020 
4.266928471793538e-020 
-4.764560328305439e-021 
-1.757593365552673e-020 
-2.8904999325053e-020 
-1.905824131322176e-021 
2.392868075993399e-020 
2.067951531382569e-022 
4.648755042548016e-022 
-1.455837878093329e-022 
-3.110199103199384e-022 
-1.10114283143059e-020 
1.389663429089087e-021 
5.770411953169921e-021 
1.011145580784821e-020 
7.676236084492097e-022 
-1.873564087432608e-022 
-3.149903772601929e-021 
2.316105715148478e-023 
-2.812414082680294e-022 
-8.046812998915853e-021 
1.588186776101813e-020 
-4.086933970501999e-020 
-1.143494478793306e-020 
2.011703249728963e-020 
-1.160435137738392e-019 
7.517417406881916e-021 
1.143494478793306e-020 
-1.10114283143059e-020 
-1.037615360386518e-020 
-1.418780186650953e-020 
6.733911930671688e-020 
-1.164670302474663e-021 
3.546950466627383e-021 
-3.077111878697263e-022 
1.283784310682299e-021 
-1.535247216898419e-021 
8.205631676526035e-022 
2.064642808932357e-021 
-3.176373552203626e-022 
7.940933880509066e-022 
-6.88214269644119e-021 
4.963083675318166e-023 
-6.193928426797071e-021 
0 
1.058791184067875e-020 
2.594038400966295e-020 
3.261076846929056e-020 
1.329841727189252e-019 
3.790472438962994e-020 
2.710505431213761e-020 
9.211483301390516e-021 
-8.258571235729428e-021 
-3.176373552203626e-020 
-1.482307657695026e-021 
9.105604182983729e-021 
1.418780186650953e-020 
1.588186776101813e-021 
5.717472393966527e-021 
-1.634508890404783e-021 
-2.660212849970537e-021 
7.808584982500581e-022 
-1.654361225106055e-022 
-4.711620769102046e-021 
-2.938145535788354e-021 
-1.919059021123024e-021 
9.529120656610879e-022 
-2.784620814098512e-020 
7.173310272059856e-021 
-4.499862532288471e-022 
3.970466940254533e-020 
1.265255464961111e-020 
-1.990527426047606e-020 
-5.548065804515667e-020 
-2.223461486542538e-021 
-6.268043809681823e-020 
3.186961464044305e-020 
-3.335192229813808e-021 
8.152692117322641e-020 
-1.469072767894177e-021 
-4.499862532288471e-021 
-3.864587821847745e-020 
9.846758011831241e-021 
-1.117024699191609e-020 
-3.758708703440958e-021 
1.349958759686541e-021 
2.236696376343387e-021 
-1.151435412673815e-020 
6.352747104407253e-022 
8.205631676526035e-022 
-5.717472393966527e-021 
-5.558653716356346e-022 
2.435219723356114e-020 
-1.535247216898419e-021 
-2.091112588534054e-021 
-2.943439491708694e-020 
-9.529120656610879e-022 
-2.583450489125616e-020 
-1.020674701441432e-019 
1.058791184067875e-021 
8.216219588366713e-020 
-1.424074142571292e-020 
-2.646977960169689e-021 
-2.223461486542538e-020 
1.95876369052557e-020 
-1.265255464961111e-020 
-1.842296660278103e-020 
-1.905824131322176e-021 
-8.787966827763366e-021 
1.418780186650953e-020 
8.602678370551488e-021 
-1.61465655570351e-021 
5.770411953169921e-021 
-3.176373552203626e-021 
-2.249931266144235e-022 
-3.599890025830776e-021 
-8.549738811348094e-021 
-3.494010907423989e-021 
3.176373552203626e-022 
1.535247216898419e-021 
-1.397604362969596e-020 
-5.929230630780102e-021 
-1.349958759686541e-020 
4.192813088908787e-020 
1.799945012915388e-021 
-4.595153738854579e-020 
-3.811648262644352e-021 
-1.863472483959461e-020 
-7.146840492458159e-022 
-1.863472483959461e-020 
4.531626267810507e-020 
4.012818587617248e-020 
4.07634605866132e-021 
-1.535247216898419e-021 
1.000557668944142e-020 
-9.529120656610879e-022 
-5.955700410381799e-023 
1.646420291225546e-020 
-2.885205976584961e-021 
7.676236084492097e-021 
-7.252719610864947e-021 
5.61159327555974e-021 
9.317362419797304e-021 
-8.404155023538761e-022 
-5.293955920339377e-023 
-2.117582368135751e-022 
-5.293955920339377e-023 
4.235164736271502e-022 
1.694065894508601e-021 
1.694065894508601e-021 
4.235164736271502e-022 
-5.293955920339377e-022 
0 
1.270549420881451e-021 
-1.694065894508601e-021 
-2.117582368135751e-022 
4.235164736271502e-022 
-2.646977960169689e-023 
8.271806125530277e-025 
2.117582368135751e-022 
2.646977960169689e-022 
2.117582368135751e-022 
1.323488980084844e-023 
-5.293955920339377e-022 
-8.470329472543003e-022 
-2.117582368135751e-022 
3.308722450212111e-024 
1.058791184067875e-022 
1.058791184067875e-021 
-2.646977960169689e-023 
-1.058791184067875e-021 
0 
2.117582368135751e-021 
8.470329472543003e-022 
1.270549420881451e-021 
-2.117582368135751e-022 
1.058791184067875e-022 
-8.470329472543003e-022 
0 
-1.270549420881451e-021 
-2.117582368135751e-022 
4.235164736271502e-022 
0 
-1.323488980084844e-023 
-1.058791184067875e-022 
2.646977960169689e-023 
-1.323488980084844e-022 
-1.985233470127266e-023 
0 
-1.058791184067875e-022 
1.058791184067875e-022 
1.323488980084844e-023 
-7.940933880509066e-023 
3.705769144237564e-022 
6.617444900424221e-023 
-4.235164736271502e-022 
1.323488980084844e-022 
-2.541098841762901e-021 
8.470329472543003e-022 
1.270549420881451e-021 
-6.352747104407253e-022 
-2.117582368135751e-022 
-4.235164736271502e-022 
-1.270549420881451e-021 
8.470329472543003e-022 
-4.235164736271502e-022 
-8.470329472543003e-022 
0 
-1.654361225106055e-024 
6.617444900424221e-024 
-2.646977960169689e-023 
-3.970466940254533e-023 
1.323488980084844e-023 
2.646977960169689e-023 
-1.323488980084844e-023 
-3.176373552203626e-022 
-2.646977960169689e-023 
-7.940933880509066e-023 
-2.646977960169689e-023 
1.654361225106055e-024 
-2.117582368135751e-022 
-3.308722450212111e-023 
-2.117582368135751e-021 
8.470329472543003e-022 
1.270549420881451e-021 
-5.293955920339377e-022 
2.646977960169689e-023 
1.694065894508601e-021 
0 
1.694065894508601e-021 
-1.270549420881451e-021 
1.058791184067875e-022 
-8.271806125530277e-025 
1.654361225106055e-023 
-2.646977960169689e-023 
-3.970466940254533e-023 
-5.293955920339377e-023 
7.940933880509066e-023 
1.058791184067875e-022 
0 
6.617444900424221e-023 
1.323488980084844e-023 
0 
0 
0 
0 
0 
0 
0 
0 
0 
0 
0 
0 
0 
0 
0 
0 
0 
0 
0 
0 
0 
0 
0 
0 
0 
0 
0 
0 
0 
0 
0 
0 
0 
0 
0 
0 
0 
0 
0 
0 
0 
0 
0 
0 
0 
0 
0 
0 
0 
0 
0 
0 
0 
0 
0 
0 
0 
0 
0 
0 
0 
0 
0 
0 
0 
0 
0 
0 
0 
0 
0 
0 
0 
0 
0 
0 
0 
0 
0 
0 
0 
0 
0 
0 
0 
0 
0 
0 
0 
0 
0 
0 
0 
0 
0 
0 
0 
0 
0 
0 
0 
0 
0 
0 
0 
0 
0 
0 
0 
0 
0 
0 
0 
0 
0 
0 
0 
0 
0 
0 
0 
0 
0 
0 
0 
0 
0 
0 
0 
0 
0 
0 
0 
0 
0 
0 
0 
0 
0 
0 
0 
0 
0 
0 
0 
0 
0 
0 
0 
0 
0 
0 
0 
0 
0 
0 
0 
0 
0 
0 
0 
0 
0 
0 
0 
0 
0 
0 
0 
0 
0 
0 
0 
0 
0 
0 
0 
0 
0 
0 
0 
0 
0 
0 
0 
0 
0 
0 
0 
0 
0 
0 
0 
0 
0 
0 
0 
0 
0 
0 
0 
0 
0 
0 
0 
0 
0 
0 
0 
0 
0 
0 
0 
0 
0 
0 
0 
0 
0 
0 
0 
0 
0 
0 
0 
0 
0 
0 
0 
0 
0 
0 
0 
0 
0 
0 
0 
0 
0 
0 
0 
0 
0 
0 
0 
0 
0 
0 
0 
0 
0 
0 
0 
0 
0 
0 
0 
0 
0 
0 
0 
0 
0 
0 
0 
0 
0 
0 
0 
0 
0 
0 
0 
0 
0 
0 
0 
0 
0 
0 
0 
0 
0 
0 
0 
0 
0 
0 
0 
0 
0 
0 
0 
0 
0 
0 
0 
0 
0 
0 
0 
0 
0 
0 
0 
0 
0 
0 
0 
0 
0 
0 
0 
0 
0 
0 
0 
0 
0 
0 
0 
0 
0 
0 
0 
0 
0 
0 
0 
0 
0 
0 
0 
0 
0 
0 
0 
0 
0 
0 
0 
0 
0 
0 
0 
0 
0 
0 
0 
0 
0 
0 
0 
0 
0 
0 
0 
0 
0 
0 
0 
0 
0 
0 
0 
0 
0 
0 
0 
0 
0 
0 
0 
0 
0 
0 
0 
0 
0 
0 
0 
0 
0 
0 
0 
0 
0 
0 
0 
0 
0 
0 
0 
0 
0 
0 
0 
0 
0 
0 
0 
0 
0 
0 
0 
0 
0 
0 
0 
0 
0 
0 
0 
0 
0 
0 
0 
0 
0 
0 
0 
0 
0 
0 
0 
0 
0 
0 
0 
0 
0 
0 
0 
0 
0 
0 
0 
0 
0 
0 
0 
0 
0 
0 
0 
0 
0 
0 
0 
0 
0 
0 
0 
0 
0 
0 
0 
0 
0 
0 
0 
0 
0 
0 
0 
0 
0 
0 
0 
0 
0 
0 
0 
0 
0 
0 
0 
0 
0 
0 
0 
0 
0 
0 
0 
0 
0 
0 
0 
0 
0 
0 
0 
0 
0 
0 
0 
0 
0 
0 
0 
0 
0 
0 
0 
0 
0 
0 
0 
0 
0 
0 
0 
0 
0 
0 
0 
0 
0 
0 
0 
0 
0 
0 
0 
0 
0 
0 
0 
0 
0 
0 
0 
0 
0 
0 
0 
0 
0 
0 
0 
0 
0 
0 
0 
0 
0 
0 
0 
0 
0 
0 
0 
0 
0 
0 
0 
0 
0 
0 
0 
0 
0 
0 
0 
0 
0 
0 
0 
0 
0 
0 
0 
0 
0 
0 
0 
0 
0 
0 
0 
0 
0 
0 
0 
0 
0 
0 
0 
0 
0 
0 
0 
0 
0 
0 
0 
0 
0 
0 
0 
0 
0 
0 
0 
0 
0 
0 
0 
0 
0 
0 
0 
0 
0 
0 
0 
0 
0 
0 
0 
0 
0 
0 
0 
0 
0 
0 
0 
0 
0 
0 
0 
0 
0 
0 
0 
0 
0 
0 
0 
0 
0 
0 
0 
0 
0 
0 
0 
0 
0 
0 
0 
0 
0 
0 
0 
0 
0 
0 
0 
0 
0 
0 
0 
0 
0 
0 
0 
0 
0 
0 
0 
0 
0 
0 
0 
0 
0 
0 
0 
0 
0 
0 
0 
0 
0 
0 
0 
0 
0 
0 
0 
0 
0 
0 
0 
0 
0 
0 
0 
0 
0 
0 
0 
0 
0 
0 
0 
0 
0 
0 
0 
0 
0 
0 
0 
0 
0 
0 
0 
0 
0 
0 
0 
0 
0 
0 
0 
0 
0 
0 
0 
0 
0 
0 
0 
0 
0 
0 
0 
0 
0 
0 
0 
0 
0 
0 
0 
0 
0 
0 
